{"learner":{"attributes":{"scikit_learn":"{\"_estimator_type\": \"classifier\"}"},"feature_names":["returns_1d","returns_3d","returns_5d","returns_7d","returns_10d","returns_14d","ATR","rolling_vol_30","ADX","MACD","MACD_signal","MACD_hist","RSI","volume_change","volume_sma_30","volume_ratio","Support_30","Resistance_30","Dist_to_Support_30","Dist_to_Resistance_30"],"feature_types":["float","float","float","float","float","float","float","float","float","float","float","float","float","float","float","float","float","float","float","float"],"gradient_booster":{"model":{"cats":{"enc":[],"feature_segments":[],"sorted_idx":[]},"gbtree_model_param":{"num_parallel_tree":"1","num_trees":"100"},"iteration_indptr":[0,1,2,3,4,5,6,7,8,9,10,11,12,13,14,15,16,17,18,19,20,21,22,23,24,25,26,27,28,29,30,31,32,33,34,35,36,37,38,39,40,41,42,43,44,45,46,47,48,49,50,51,52,53,54,55,56,57,58,59,60,61,62,63,64,65,66,67,68,69,70,71,72,73,74,75,76,77,78,79,80,81,82,83,84,85,86,87,88,89,90,91,92,93,94,95,96,97,98,99,100],"tree_info":[0,0,0,0,0,0,0,0,0,0,0,0,0,0,0,0,0,0,0,0,0,0,0,0,0,0,0,0,0,0,0,0,0,0,0,0,0,0,0,0,0,0,0,0,0,0,0,0,0,0,0,0,0,0,0,0,0,0,0,0,0,0,0,0,0,0,0,0,0,0,0,0,0,0,0,0,0,0,0,0,0,0,0,0,0,0,0,0,0,0,0,0,0,0,0,0,0,0,0,0],"trees":[{"base_weights":[-6.4295044E-8,3.0095848E-1,-3.101771E-1,4.6960205E-1,4.170019E-2,6.470534E-2,-4.0044424E-1,2.3310025E-1,4.4718564E-1,1.4300257E-1,-6.5401983E-1,1.9998772E-1,-8.7967956E-1,-1.0145742E0,-3.5737738E-1,9.3264544E-1,3.7314412E-1,1.0242824E-1,1.6216153E0,1.6188979E-1,-8.0620944E-1,1.7550162E0,9.569571E-2,-1.12516195E-1,-1.1673156E0,1.0971274E-1,-1.3401153E0,-3.8547516E-1,4.580007E-1,2.4273854E-3,1.4138387E-1,4.7207106E-2,2.5235433E-3,3.246682E-2,-1.6402187E-2,1.9572538E-1,-7.587341E-3,-1.0738601E-1,-1.8894894E-2,8.45333E-3,1.9690208E-1,3.623911E-2,-3.7508965E-2,-1.097041E-1,5.715959E-2,5.5551916E-2,-1.3956845E-1,1.0457951E-1,-1.2669672E-1,8.45333E-3,-1.3883285E-1,-4.3478105E-2,-9.985579E-4,1.1521502E-1,-1.107985E-1],"categories":[],"categories_nodes":[],"categories_segments":[],"categories_sizes":[],"default_left":[0,0,0,0,0,0,0,0,0,0,0,0,0,0,0,0,0,0,0,0,0,0,0,0,0,0,0,0,0,0,0,0,0,0,0,0,0,0,0,0,0,0,0,0,0,0,0,0,0,0,0,0,0,0,0],"id":0,"left_children":[1,3,5,7,9,11,13,-1,15,17,19,21,23,25,27,29,31,33,35,-1,37,39,41,43,45,47,49,51,53,-1,-1,-1,-1,-1,-1,-1,-1,-1,-1,-1,-1,-1,-1,-1,-1,-1,-1,-1,-1,-1,-1,-1,-1,-1,-1],"loss_changes":[1.7326071E2,4.116723E1,3.0955742E1,2.2768509E1,2.6336767E1,2.2946968E1,1.9124237E1,0E0,1.9963951E1,1.9383059E1,1.7738462E1,2.524792E1,4.8375816E0,1.7619274E1,1.5985596E1,3.2361595E1,1.6920906E1,1.8896807E1,5.0684853E0,0E0,7.263439E0,3.334217E0,1.8708775E1,5.5082245E0,7.176979E0,1.6329603E1,2.6652985E0,1.2355461E1,2.6760399E1,0E0,0E0,0E0,0E0,0E0,0E0,0E0,0E0,0E0,0E0,0E0,0E0,0E0,0E0,0E0,0E0,0E0,0E0,0E0,0E0,0E0,0E0,0E0,0E0,0E0,0E0],"parents":[2147483647,0,0,1,1,2,2,3,3,4,4,5,5,6,6,8,8,9,9,10,10,11,11,12,12,13,13,14,14,15,15,16,16,17,17,18,18,20,20,21,21,22,22,23,23,24,24,25,25,26,26,27,27,28,28],"right_children":[2,4,6,8,10,12,14,-1,16,18,20,22,24,26,28,30,32,34,36,-1,38,40,42,44,46,48,50,52,54,-1,-1,-1,-1,-1,-1,-1,-1,-1,-1,-1,-1,-1,-1,-1,-1,-1,-1,-1,-1,-1,-1,-1,-1,-1,-1],"split_conditions":[1.6044773E1,1.5990825E-2,-2.1809003E-1,-8.870033E-1,9.1751144E7,8.4451784E7,2.4912538E-1,2.3310025E-1,2.2452885E-1,1.8449648E1,4.611486E-3,-9.855114E-1,6.242977E-1,1.7401043E1,6.577394E1,2.6176754E7,4.1664433E-2,1.3695302E-2,3.0997526E-2,1.6188979E-1,1.3300355E1,7.356728E-1,9.9403225E-3,9.3622456E7,-1.1970804E-1,-1.9534491E-2,-4.7787182E-2,7.407452E-2,4.11173E1,2.4273854E-3,1.4138387E-1,4.7207106E-2,2.5235433E-3,3.246682E-2,-1.6402187E-2,1.9572538E-1,-7.587341E-3,-1.0738601E-1,-1.8894894E-2,8.45333E-3,1.9690208E-1,3.623911E-2,-3.7508965E-2,-1.097041E-1,5.715959E-2,5.5551916E-2,-1.3956845E-1,1.0457951E-1,-1.2669672E-1,8.45333E-3,-1.3883285E-1,-4.3478105E-2,-9.985579E-4,1.1521502E-1,-1.107985E-1],"split_indices":[16,10,10,10,14,14,6,0,17,17,9,9,6,8,16,14,2,2,0,0,16,6,1,14,2,10,5,5,8,0,0,0,0,0,0,0,0,0,0,0,0,0,0,0,0,0,0,0,0,0,0,0,0,0,0],"split_type":[0,0,0,0,0,0,0,0,0,0,0,0,0,0,0,0,0,0,0,0,0,0,0,0,0,0,0,0,0,0,0,0,0,0,0,0,0,0,0,0,0,0,0,0,0,0,0,0,0,0,0,0,0,0,0],"sum_hessian":[1.8540248E3,9.410107E2,9.130141E2,5.6965045E2,3.7136026E2,1.7723486E2,7.3577924E2,5.5530505E0,5.640974E2,3.2485345E2,4.6506798E1,1.557168E2,2.1518072E1,4.6738174E1,6.89041E2,7.3115166E1,4.9098224E2,3.1721802E2,7.6354446E0,2.313771E0,4.4193027E1,8.79233E0,1.4692447E2,6.247182E0,1.5270889E1,1.0643347E1,3.609483E1,6.665975E2,2.2443579E1,2.568286E1,4.743231E1,3.820036E2,1.0897862E2,1.728387E2,1.4437932E2,6.247182E0,1.3882626E0,3.0310402E1,1.3882627E1,1.1568855E0,7.6354446E0,9.393911E1,5.298536E1,2.313771E0,3.933411E0,1.6196398E0,1.365125E1,6.478559E0,4.164788E0,1.1568855E0,3.4937943E1,5.890861E2,7.751133E1,1.5733644E1,6.709936E0],"tree_param":{"num_deleted":"0","num_feature":"20","num_nodes":"55","size_leaf_vector":"1"}},{"base_weights":[-1.4298795E-4,2.6917037E-1,-2.8231174E-1,7.6622766E-1,1.9451164E-1,5.796121E-2,-3.6525613E-1,3.02916E-1,1.4291912E0,7.206187E-1,1.3832024E-1,1.8008377E-1,-8.201911E-1,-9.471203E-1,-3.2527322E-1,-1.3949594E-1,7.534807E-1,1.9694159E0,6.887036E-1,-3.7616786E-1,1.1048822E0,1.7248102E-1,-9.9017024E-1,1.5415014E0,8.573397E-2,-1.0953703E-1,-1.09483E0,9.510845E-2,-1.2613585E0,-3.5102475E-1,4.0667588E-1,1.4453468E-1,-4.681995E-2,1.06637254E-1,-5.9754163E-2,2.267342E-1,1.3663782E-1,-4.9790487E-2,1.3265741E-1,8.379348E-2,-7.619744E-2,1.2770852E-1,-1.0735604E-3,1.5009344E-2,1.6749488E-1,7.597845E-2,-1.1440716E-1,1.7559358E-1,-2.3071403E-3,3.3316623E-2,-3.2793533E-2,-1.0451213E-1,5.1948417E-2,5.1627576E-2,-1.319478E-1,9.3269855E-2,-1.20307565E-1,-3.6972325E-2,-1.3564686E-1,5.326843E-2,-3.7122708E-2,1.0147828E-1,-1.0425886E-1],"categories":[],"categories_nodes":[],"categories_segments":[],"categories_sizes":[],"default_left":[0,0,0,0,0,0,0,0,0,0,0,0,0,0,0,0,0,0,0,0,0,0,0,0,0,0,0,0,0,0,0,0,0,0,0,0,0,0,0,0,0,0,0,0,0,0,0,0,0,0,0,0,0,0,0,0,0,0,0,0,0,0,0],"id":1,"left_children":[1,3,5,7,9,11,13,15,17,19,21,23,25,27,29,31,33,35,37,39,41,43,45,47,49,51,53,55,57,59,61,-1,-1,-1,-1,-1,-1,-1,-1,-1,-1,-1,-1,-1,-1,-1,-1,-1,-1,-1,-1,-1,-1,-1,-1,-1,-1,-1,-1,-1,-1,-1,-1],"loss_changes":[1.4094212E2,3.506685E1,2.5584343E1,3.7526604E1,2.4330492E1,1.9276867E1,1.6636948E1,1.4858689E1,1.8872696E1,3.392469E1,2.900153E1,2.0087843E1,4.1655874E0,1.5286312E1,1.3017471E1,2.057082E1,1.620414E1,2.0582733E0,1.7969719E1,1.0650556E1,1.1373978E1,2.4194174E1,6.827236E0,3.4436073E0,1.528572E1,4.798715E0,6.372917E0,1.3797994E1,2.5217857E0,1.1987389E1,2.1925398E1,0E0,0E0,0E0,0E0,0E0,0E0,0E0,0E0,0E0,0E0,0E0,0E0,0E0,0E0,0E0,0E0,0E0,0E0,0E0,0E0,0E0,0E0,0E0,0E0,0E0,0E0,0E0,0E0,0E0,0E0,0E0,0E0],"parents":[2147483647,0,0,1,1,2,2,3,3,4,4,5,5,6,6,7,7,8,8,9,9,10,10,11,11,12,12,13,13,14,14,15,15,16,16,17,17,18,18,19,19,20,20,21,21,22,22,23,23,24,24,25,25,26,26,27,27,28,28,29,29,30,30],"right_children":[2,4,6,8,10,12,14,16,18,20,22,24,26,28,30,32,34,36,38,40,42,44,46,48,50,52,54,56,58,60,62,-1,-1,-1,-1,-1,-1,-1,-1,-1,-1,-1,-1,-1,-1,-1,-1,-1,-1,-1,-1,-1,-1,-1,-1,-1,-1,-1,-1,-1,-1,-1,-1],"split_conditions":[1.6044773E1,4.167668E1,-2.1809003E-1,2.3715327E-2,2.299248E-1,8.4451784E7,2.4912538E-1,4.9773183E-2,9.23808E7,2.426942E7,3.2350847E-1,-9.855114E-1,6.242977E-1,1.7401043E1,6.577394E1,5.031928E7,1.553183E1,-7.3962934E-2,3.289109E-2,1.6823303E1,4.6710125E1,2.551314E-1,4.0734573E-3,1.2430974E-1,8.997716E-3,9.3622456E7,-1.1970804E-1,-1.9534491E-2,-8.817914E-2,1.0142992E1,4.11173E1,1.4453468E-1,-4.681995E-2,1.06637254E-1,-5.9754163E-2,2.267342E-1,1.3663782E-1,-4.9790487E-2,1.3265741E-1,8.379348E-2,-7.619744E-2,1.2770852E-1,-1.0735604E-3,1.5009344E-2,1.6749488E-1,7.597845E-2,-1.1440716E-1,1.7559358E-1,-2.3071403E-3,3.3316623E-2,-3.2793533E-2,-1.0451213E-1,5.1948417E-2,5.1627576E-2,-1.319478E-1,9.3269855E-2,-1.20307565E-1,-3.6972325E-2,-1.3564686E-1,5.326843E-2,-3.7122708E-2,1.0147828E-1,-1.0425886E-1],"split_indices":[16,12,10,7,17,14,6,6,14,14,18,9,6,8,16,14,16,5,7,8,8,11,10,11,1,14,2,10,11,8,8,0,0,0,0,0,0,0,0,0,0,0,0,0,0,0,0,0,0,0,0,0,0,0,0,0,0,0,0,0,0,0,0],"split_type":[0,0,0,0,0,0,0,0,0,0,0,0,0,0,0,0,0,0,0,0,0,0,0,0,0,0,0,0,0,0,0,0,0,0,0,0,0,0,0,0,0,0,0,0,0,0,0,0,0,0,0,0,0,0,0,0,0,0,0,0,0,0,0],"sum_hessian":[1.8527012E3,9.4796796E2,9.047332E2,1.2258276E2,8.253852E2,1.7737349E2,7.2735974E2,7.301394E1,4.956883E1,7.850806E1,7.4687714E2,1.5641602E2,2.0957474E1,4.530831E1,6.8205145E2,3.718862E1,3.5825317E1,2.7700346E1,2.186848E1,2.0374651E1,5.8133404E1,7.257548E2,2.112232E1,9.143402E0,1.4727261E2,6.231561E0,1.4725912E1,1.0657637E1,3.4650673E1,6.5937366E2,2.2677761E1,5.80461E0,3.1384012E1,2.9259594E1,6.565723E0,1.6693287E1,1.1007059E1,7.722327E0,1.41461525E1,4.630603E0,1.5744049E1,5.023463E1,7.8987756E0,7.161832E2,9.571617E0,1.3892171E0,1.9733103E1,7.933726E0,1.2096763E0,9.227426E1,5.4998344E1,2.2393403E0,3.992221E0,1.643204E0,1.3082708E1,6.6491394E0,4.008497E0,3.8109736E0,3.08397E1,1.4169983E1,6.452037E2,1.618597E1,6.49179E0],"tree_param":{"num_deleted":"0","num_feature":"20","num_nodes":"63","size_leaf_vector":"1"}},{"base_weights":[-1.5340866E-4,2.4141833E-1,-2.570828E-1,3.799908E-1,2.5107065E-2,7.239416E-2,-3.289593E-1,1.9035436E-1,3.6098477E-1,1.13273084E-1,-5.981264E-1,1.978347E-1,-7.9213965E-1,-9.002399E-1,-2.90994E-1,8.37754E-1,3.1259546E-1,2.720569E-1,-1.8850599E-1,1.4621787E-1,-7.437184E-1,1.1070081E-2,8.183344E-1,-2.0644689E-2,-1.0895934E0,8.220027E-2,-1.2021731E0,-6.810298E-2,-3.6691672E-1,-4.8856833E-4,1.1344615E-1,6.6643334E-3,4.307759E-2,1.0314043E-1,1.5404837E-2,-4.9728498E-2,4.134811E-2,-1.1896036E-1,-3.7460897E-2,5.1543828E-2,-3.4842066E-2,2.0016436E-1,3.3123408E-2,8.2477555E-2,-5.828776E-2,4.8290603E-2,-1.2611416E-1,1.7240219E-1,-5.373186E-2,-3.4389332E-2,-1.2951775E-1,-5.1626783E-2,8.2797585E-3,9.563146E-2,-3.8559396E-2],"categories":[],"categories_nodes":[],"categories_segments":[],"categories_sizes":[],"default_left":[0,0,0,0,0,0,0,0,0,0,0,0,0,0,0,0,0,0,0,0,0,0,0,0,0,0,0,0,0,0,0,0,0,0,0,0,0,0,0,0,0,0,0,0,0,0,0,0,0,0,0,0,0,0,0],"id":2,"left_children":[1,3,5,7,9,11,13,-1,15,17,19,21,23,25,27,29,31,33,35,-1,37,39,41,43,45,47,49,51,53,-1,-1,-1,-1,-1,-1,-1,-1,-1,-1,-1,-1,-1,-1,-1,-1,-1,-1,-1,-1,-1,-1,-1,-1,-1,-1],"loss_changes":[1.14907715E2,2.8592247E1,2.1270012E1,1.6152222E1,2.0599514E1,1.7669641E1,1.5715569E1,0E0,1.3017654E1,1.5777376E1,1.5026125E1,1.6426723E1,4.719122E0,1.3574242E1,1.1689487E1,1.3117065E1,1.5207008E1,1.9147694E1,2.1347277E1,0E0,6.8063984E0,2.0129236E1,1.8241615E1,3.6981544E0,4.626587E0,1.2740786E1,2.3334923E0,1.202062E1,1.3124535E1,0E0,0E0,0E0,0E0,0E0,0E0,0E0,0E0,0E0,0E0,0E0,0E0,0E0,0E0,0E0,0E0,0E0,0E0,0E0,0E0,0E0,0E0,0E0,0E0,0E0,0E0],"parents":[2147483647,0,0,1,1,2,2,3,3,4,4,5,5,6,6,8,8,9,9,10,10,11,11,12,12,13,13,14,14,15,15,16,16,17,17,18,18,20,20,21,21,22,22,23,23,24,24,25,25,26,26,27,27,28,28],"right_children":[2,4,6,8,10,12,14,-1,16,18,20,22,24,26,28,30,32,34,36,-1,38,40,42,44,46,48,50,52,54,-1,-1,-1,-1,-1,-1,-1,-1,-1,-1,-1,-1,-1,-1,-1,-1,-1,-1,-1,-1,-1,-1,-1,-1,-1,-1],"split_conditions":[1.6044773E1,1.5990825E-2,-2.3981607E-1,-8.870033E-1,9.1751144E7,8.4451784E7,2.4912538E-1,1.9035436E-1,-4.8885033E-2,6.411847E1,4.611486E-3,6.849433E7,6.242977E-1,1.7401043E1,-1.1782674E-2,1.023724E-1,-2.3676598E-2,1.6103204E0,7.729708E-2,1.4621787E-1,1.7153399E-1,5.2699148E7,2.096477E1,-6.002189E-3,-1.4480434E-1,-6.6435464E-2,-8.817914E-2,-5.0277334E-2,1.89742E7,-4.8856833E-4,1.1344615E-1,6.6643334E-3,4.307759E-2,1.0314043E-1,1.5404837E-2,-4.9728498E-2,4.134811E-2,-1.1896036E-1,-3.7460897E-2,5.1543828E-2,-3.4842066E-2,2.0016436E-1,3.3123408E-2,8.2477555E-2,-5.828776E-2,4.8290603E-2,-1.2611416E-1,1.7240219E-1,-5.373186E-2,-3.4389332E-2,-1.2951775E-1,-5.1626783E-2,8.2797585E-3,9.563146E-2,-3.8559396E-2],"split_indices":[16,10,10,10,14,14,6,0,1,12,9,14,6,8,1,19,5,17,3,0,18,14,17,0,2,9,11,5,14,0,0,0,0,0,0,0,0,0,0,0,0,0,0,0,0,0,0,0,0,0,0,0,0,0,0],"split_type":[0,0,0,0,0,0,0,0,0,0,0,0,0,0,0,0,0,0,0,0,0,0,0,0,0,0,0,0,0,0,0,0,0,0,0,0,0,0,0,0,0,0,0,0,0,0,0,0,0,0,0,0,0,0,0],"sum_hessian":[1.8493534E3,9.531949E2,8.961585E2,5.805369E2,3.7265796E2,1.6048752E2,7.3567096E2,5.931154E0,5.746058E2,3.271901E2,4.5467854E1,1.4082545E2,1.9662066E1,4.4428192E1,6.912428E2,5.1442398E1,5.231634E2,2.1445247E2,1.1273763E2,2.4040868E0,4.3063766E1,1.0902714E2,3.1798311E1,5.768894E0,1.389317E1,1.06153555E1,3.3812836E1,1.761133E2,5.151295E2,1.3652701E1,3.7789696E1,1.7030199E2,3.5286142E2,2.7803797E1,1.8664867E2,7.463091E1,3.810672E1,1.8496744E1,2.4567022E1,4.5190594E1,6.3836548E1,8.365867E0,2.3432444E1,2.1176522E0,3.6512423E0,1.1880357E0,1.2705134E1,2.4197636E0,8.195592E0,3.7650585E0,3.004778E1,4.375186E1,1.3236143E2,6.471049E0,5.0865845E2],"tree_param":{"num_deleted":"0","num_feature":"20","num_nodes":"55","size_leaf_vector":"1"}},{"base_weights":[-1.400405E-4,2.1649018E-1,-2.3372944E-1,6.40329E-1,1.5289031E-1,4.9521312E-2,-3.0415916E-1,7.305826E-1,-5.890474E-1,3.6968938E-1,-1.7479714E-2,2.5402766E-1,-3.431114E-1,-8.3473057E-1,-2.6960647E-1,5.8492327E-1,1.5833942E0,7.000544E-2,-1.0992776E0,8.119086E-1,2.717412E-1,-9.0272695E-1,1.7264167E-2,8.739628E-1,2.6583202E-2,-7.667148E-1,2.3601358E-1,8.3925605E-2,-1.1353431E0,-2.9244187E-1,3.6528867E-1,1.0884215E-1,3.45901E-2,1.7046262E-1,1.9902652E-2,-8.977739E-3,-1.3393104E-1,2.2022295E-1,6.183357E-2,7.1799345E-2,1.1312145E-2,-1.1379563E-1,1.02282844E-1,4.554303E-3,-1.1005574E-1,1.15942895E-1,-7.626536E-2,5.825593E-2,-4.053193E-2,1.5560714E-2,-1.0688784E-1,1.0786016E-1,-6.2251337E-2,8.112378E-2,-1.12388246E-1,1.4005451E-2,-1.18536785E-1,-3.478555E-2,1.6124891E-3,8.899593E-2,-9.6574664E-2],"categories":[],"categories_nodes":[],"categories_segments":[],"categories_sizes":[],"default_left":[0,0,0,0,0,0,0,0,0,0,0,0,0,0,0,0,0,0,0,0,0,0,0,0,0,0,0,0,0,0,0,0,0,0,0,0,0,0,0,0,0,0,0,0,0,0,0,0,0,0,0,0,0,0,0,0,0,0,0,0,0],"id":3,"left_children":[1,3,5,7,9,11,13,15,17,19,21,23,25,27,29,31,33,-1,35,37,39,41,43,45,47,49,51,53,55,57,59,-1,-1,-1,-1,-1,-1,-1,-1,-1,-1,-1,-1,-1,-1,-1,-1,-1,-1,-1,-1,-1,-1,-1,-1,-1,-1,-1,-1,-1,-1],"loss_changes":[9.349005E1,2.5741295E1,1.7749382E1,1.4272926E1,3.0840992E1,1.4370526E1,1.2829422E1,1.3566776E1,6.7458997E0,1.5692909E1,1.4422553E1,1.6549658E1,1.523047E1,1.1987043E1,9.820927E0,1.1807129E1,2.4189339E0,0E0,1.5514116E0,1.6432056E1,2.1315367E1,9.185003E0,1.4328848E1,1.5608839E1,2.1132195E1,1.0106174E1,1.9971748E1,1.105609E1,2.2404099E0,1.1073986E1,1.7415323E1,0E0,0E0,0E0,0E0,0E0,0E0,0E0,0E0,0E0,0E0,0E0,0E0,0E0,0E0,0E0,0E0,0E0,0E0,0E0,0E0,0E0,0E0,0E0,0E0,0E0,0E0,0E0,0E0,0E0,0E0],"parents":[2147483647,0,0,1,1,2,2,3,3,4,4,5,5,6,6,7,7,8,8,9,9,10,10,11,11,12,12,13,13,14,14,15,15,16,16,18,18,19,19,20,20,21,21,22,22,23,23,24,24,25,25,26,26,27,27,28,28,29,29,30,30],"right_children":[2,4,6,8,10,12,14,16,18,20,22,24,26,28,30,32,34,-1,36,38,40,42,44,46,48,50,52,54,56,58,60,-1,-1,-1,-1,-1,-1,-1,-1,-1,-1,-1,-1,-1,-1,-1,-1,-1,-1,-1,-1,-1,-1,-1,-1,-1,-1,-1,-1,-1,-1],"split_conditions":[1.6044773E1,-5.8748513E-2,-2.1809003E-1,1.0862658E8,1.5690546E0,1.0164374E-2,2.4912538E-1,1.6741759E-1,-7.4657045E-2,1.7846944E-2,1.4162921E0,5.2172212E7,7.884502E-1,1.7401043E1,6.577394E1,3.5505792E-1,-5.780859E-2,7.000544E-2,1.763834E1,-3.1557775E-3,2.299248E-1,1.5444064E-1,3.2350847E-1,1.4414173E-1,2.1799799E1,2.082877E1,9.5701736E-1,-1.9534491E-2,-4.7787182E-2,6.4209804E-2,4.11173E1,1.0884215E-1,3.45901E-2,1.7046262E-1,1.9902652E-2,-8.977739E-3,-1.3393104E-1,2.2022295E-1,6.183357E-2,7.1799345E-2,1.1312145E-2,-1.1379563E-1,1.02282844E-1,4.554303E-3,-1.1005574E-1,1.15942895E-1,-7.626536E-2,5.825593E-2,-4.053193E-2,1.5560714E-2,-1.0688784E-1,1.0786016E-1,-6.2251337E-2,8.112378E-2,-1.12388246E-1,1.4005451E-2,-1.18536785E-1,-3.478555E-2,1.6124891E-3,8.899593E-2,-9.6574664E-2],"split_indices":[16,9,10,14,17,1,6,19,11,7,16,14,6,8,16,6,10,0,17,11,17,19,18,11,17,17,6,10,5,5,8,0,0,0,0,0,0,0,0,0,0,0,0,0,0,0,0,0,0,0,0,0,0,0,0,0,0,0,0,0,0],"split_type":[0,0,0,0,0,0,0,0,0,0,0,0,0,0,0,0,0,0,0,0,0,0,0,0,0,0,0,0,0,0,0,0,0,0,0,0,0,0,0,0,0,0,0,0,0,0,0,0,0,0,0,0,0,0,0,0,0,0,0,0,0],"sum_hessian":[1.8455374E3,9.5756616E2,8.8797125E2,1.2375783E2,8.3380835E2,1.7688417E2,7.110871E2,1.1567162E2,8.086202E0,3.6639453E2,4.6741382E2,1.1653754E2,6.0346634E1,4.20612E1,6.690259E2,1.0023711E2,1.5434514E1,2.1874785E0,5.8987226E0,6.511631E1,3.012782E2,1.6708626E1,4.5070517E2,3.0516783E1,8.602075E1,3.466607E1,2.5680565E1,1.0547971E1,3.151323E1,6.46319E2,2.2706919E1,3.1123055E1,6.911405E1,1.3979004E1,1.4555101E0,1.3970797E0,4.501643E0,6.6899037E0,5.842641E1,7.808148E1,2.2319673E2,1.5254172E1,1.4544528E0,4.4052008E2,1.01851015E1,2.6232721E1,4.284062E0,3.745594E1,4.856481E1,8.674156E0,2.5991913E1,1.2831222E1,1.2849343E1,6.788464E0,3.7595067E0,1.121464E0,3.0391766E1,5.4781323E2,9.8505745E1,1.6524593E1,6.1823254E0],"tree_param":{"num_deleted":"0","num_feature":"20","num_nodes":"61","size_leaf_vector":"1"}},{"base_weights":[-2.5865427E-4,1.9447114E-1,-2.1294303E-1,5.912345E-1,1.3403176E-1,1.6655501E-2,-2.8965372E-1,2.0560992E-1,1.1333907E0,1.4804444E-1,-1.2887703E0,3.673693E-1,-1.7665677E-1,-6.885508E-1,-2.4679796E-1,-1.7408699E-1,5.847163E-1,1.590214E0,4.988804E-1,1.863151E-1,1.373856E-1,-1.384876E-1,-3.7220288E-2,1.7880045E0,2.4932909E-1,-6.3671815E-1,1.37987025E-2,-8.388163E-1,4.4275424E-1,-1.957712E-1,-8.3311397E-1,2.1551391E-2,-1.1827769E-1,8.011177E-2,-9.242959E-2,1.6515604E-1,3.6295705E-2,-4.9915567E-2,1.0186773E-1,3.013053E-2,3.5937119E-3,7.869793E-2,2.1861354E-1,1.1117106E-1,3.569869E-3,1.0381102E-1,-7.408838E-2,3.6128428E-2,-5.41596E-2,7.237251E-2,-9.1464266E-2,1.6555315E-1,-4.5145366E-2,-2.256031E-2,9.015826E-2,1.6500546E-2,-9.62417E-2],"categories":[],"categories_nodes":[],"categories_segments":[],"categories_sizes":[],"default_left":[0,0,0,0,0,0,0,0,0,0,0,0,0,0,0,0,0,0,0,0,0,0,0,0,0,0,0,0,0,0,0,0,0,0,0,0,0,0,0,0,0,0,0,0,0,0,0,0,0,0,0,0,0,0,0,0,0],"id":4,"left_children":[1,3,5,7,9,11,13,15,17,19,21,23,25,27,29,31,33,35,37,-1,39,-1,-1,41,43,45,47,49,51,53,55,-1,-1,-1,-1,-1,-1,-1,-1,-1,-1,-1,-1,-1,-1,-1,-1,-1,-1,-1,-1,-1,-1,-1,-1,-1,-1],"loss_changes":[7.631438E1,2.2987679E1,1.5516518E1,2.629078E1,1.6859379E1,1.5082491E1,1.11163025E1,1.0949103E1,1.442701E1,1.4895258E1,2.1185684E-1,1.2807628E1,1.2580061E1,1.116441E1,1.7719246E1,1.5353364E1,1.3128979E1,1.6646194E0,1.2667105E1,0E0,1.370437E1,0E0,0E0,6.31382E-1,1.3617941E1,8.101061E0,1.9966965E1,7.343258E0,9.530312E0,1.8246532E1,6.295212E0,0E0,0E0,0E0,0E0,0E0,0E0,0E0,0E0,0E0,0E0,0E0,0E0,0E0,0E0,0E0,0E0,0E0,0E0,0E0,0E0,0E0,0E0,0E0,0E0,0E0,0E0],"parents":[2147483647,0,0,1,1,2,2,3,3,4,4,5,5,6,6,7,7,8,8,9,9,10,10,11,11,12,12,13,13,14,14,15,15,16,16,17,17,18,18,20,20,23,23,24,24,25,25,26,26,27,27,28,28,29,29,30,30],"right_children":[2,4,6,8,10,12,14,16,18,20,22,24,26,28,30,32,34,36,38,-1,40,-1,-1,42,44,46,48,50,52,54,56,-1,-1,-1,-1,-1,-1,-1,-1,-1,-1,-1,-1,-1,-1,-1,-1,-1,-1,-1,-1,-1,-1,-1,-1,-1,-1],"split_conditions":[1.6044773E1,4.167668E1,-1.3141303E-2,2.3715327E-2,5.2789066E-2,5.428769E7,2.6610655E-1,4.9773183E-2,9.23808E7,9.58927E0,5.907449E-2,1.9796402E1,1.4081263E-2,4.541285E1,3.996231E1,2.6682697E1,1.5714681E1,-1.522325E-4,3.289109E-2,1.863151E-1,1.5690546E0,-1.384876E-1,-3.7220288E-2,3.573555E-2,-2.7715206E-1,-4.2355853E-1,1.1068591E0,-2.4764869E-1,5.19605E7,6.577394E1,-6.318661E-3,2.1551391E-2,-1.1827769E-1,8.011177E-2,-9.242959E-2,1.6515604E-1,3.6295705E-2,-4.9915567E-2,1.0186773E-1,3.013053E-2,3.5937119E-3,7.869793E-2,2.1861354E-1,1.1117106E-1,3.569869E-3,1.0381102E-1,-7.408838E-2,3.6128428E-2,-5.41596E-2,7.237251E-2,-9.1464266E-2,1.6555315E-1,-4.5145366E-2,-2.256031E-2,9.015826E-2,1.6500546E-2,-9.62417E-2],"split_indices":[16,12,1,7,7,14,6,6,14,8,2,16,7,8,8,8,16,9,7,0,17,0,0,18,9,9,15,10,14,16,1,0,0,0,0,0,0,0,0,0,0,0,0,0,0,0,0,0,0,0,0,0,0,0,0,0,0],"split_type":[0,0,0,0,0,0,0,0,0,0,0,0,0,0,0,0,0,0,0,0,0,0,0,0,0,0,0,0,0,0,0,0,0,0,0,0,0,0,0,0,0,0,0,0,0,0,0,0,0,0,0,0,0,0,0,0,0],"sum_hessian":[1.840631E3,9.6091815E2,8.797129E2,1.25866486E2,8.350517E2,2.2050731E2,6.5920557E2,7.435706E1,5.1509422E1,8.27795E2,7.2567115E0,7.803433E1,1.4247298E2,6.2489807E1,5.9671576E2,3.741979E1,3.693728E1,2.9072277E1,2.2437143E1,4.039271E0,8.237557E2,6.1055803E0,1.1511309E0,4.9011145E0,7.313322E1,4.10266E1,1.0144637E2,5.5391037E1,7.098772E0,5.5016876E2,4.6546993E1,2.756089E1,9.858898E0,3.2714878E1,4.2223988E0,2.7358965E1,1.713312E0,7.6974206E0,1.4739723E1,3.1416318E2,5.0959253E2,2.2416334E0,2.659481E0,1.3685165E1,5.9448055E1,1.8772507E0,3.914935E1,6.261837E1,3.8828007E1,2.1681325E0,5.3222904E1,2.6513972E0,4.447375E0,5.363815E2,1.3787276E1,5.306761E0,4.124023E1],"tree_param":{"num_deleted":"0","num_feature":"20","num_nodes":"57","size_leaf_vector":"1"}},{"base_weights":[-1.0177304E-4,1.7460272E-1,-1.9306536E-1,5.4133403E-1,1.19335346E-1,-5.98909E-2,-3.1900823E-1,9.412472E-1,3.2131472E-1,2.992033E-1,-2.3552382E-2,-1.1185993E-1,1.5677074E0,-2.1615548E-1,-6.558652E-1,-9.401153E-3,1.338976E0,9.196311E-1,6.448127E-2,7.014216E-1,2.0852886E-1,-3.1055275E-1,7.456126E-2,-2.3414811E-1,2.3337974E-1,2.0562286E0,3.6301184E-1,-3.4203833E-1,1.3438952E-1,-8.1427336E-1,3.5698522E-2,1.5684667E-1,-6.1259147E-2,6.8612E-2,1.6640516E-1,1.04982115E-1,-5.903771E-2,7.541567E-2,-3.704984E-2,8.21112E-2,-5.106736E-2,-1.06129006E-1,2.497091E-2,-1.4415192E-2,-1.055629E-1,1.0975032E-2,-1.0406109E-1,3.5189148E-2,-3.0774703E-2,1.9296944E-1,1.3386372E-2,5.3378817E-2,2.2757696E-1,1.1821057E-1,-9.037522E-2,-1.0968498E-1,-2.9245535E-2,4.9755603E-2,-3.1682044E-2,-1.008649E-1,-2.0985626E-2,6.47999E-2,-1.1023497E-1],"categories":[],"categories_nodes":[],"categories_segments":[],"categories_sizes":[],"default_left":[0,0,0,0,0,0,0,0,0,0,0,0,0,0,0,0,0,0,0,0,0,0,0,0,0,0,0,0,0,0,0,0,0,0,0,0,0,0,0,0,0,0,0,0,0,0,0,0,0,0,0,0,0,0,0,0,0,0,0,0,0,0,0],"id":5,"left_children":[1,3,5,7,9,11,13,15,17,19,21,23,25,27,29,31,33,35,37,39,41,43,45,47,49,51,53,55,57,59,61,-1,-1,-1,-1,-1,-1,-1,-1,-1,-1,-1,-1,-1,-1,-1,-1,-1,-1,-1,-1,-1,-1,-1,-1,-1,-1,-1,-1,-1,-1,-1,-1],"loss_changes":[6.1956284E1,1.9485195E1,1.4627892E1,1.0787693E1,2.1583261E1,3.6181854E1,1.5400562E1,1.6730103E1,1.2668371E1,1.3411228E1,1.3223278E1,1.7509874E1,7.0444603E0,1.5276861E1,1.147036E1,1.4318624E1,5.4754295E0,5.4952354E0,1.7986795E1,1.0279072E1,1.620197E1,1.4678675E1,1.3854948E1,1.3298195E1,1.808186E1,1.8616562E0,6.2914076E0,9.194355E0,1.5219348E1,9.776508E0,1.4945124E1,0E0,0E0,0E0,0E0,0E0,0E0,0E0,0E0,0E0,0E0,0E0,0E0,0E0,0E0,0E0,0E0,0E0,0E0,0E0,0E0,0E0,0E0,0E0,0E0,0E0,0E0,0E0,0E0,0E0,0E0,0E0,0E0],"parents":[2147483647,0,0,1,1,2,2,3,3,4,4,5,5,6,6,7,7,8,8,9,9,10,10,11,11,12,12,13,13,14,14,15,15,16,16,17,17,18,18,19,19,20,20,21,21,22,22,23,23,24,24,25,25,26,26,27,27,28,28,29,29,30,30],"right_children":[2,4,6,8,10,12,14,16,18,20,22,24,26,28,30,32,34,36,38,40,42,44,46,48,50,52,54,56,58,60,62,-1,-1,-1,-1,-1,-1,-1,-1,-1,-1,-1,-1,-1,-1,-1,-1,-1,-1,-1,-1,-1,-1,-1,-1,-1,-1,-1,-1,-1,-1,-1,-1],"split_conditions":[1.6044773E1,-5.8748513E-2,5.234731E1,1.344026E1,1.5690546E0,5.0684624E1,3.7579548E1,6.235896E7,-6.1226405E-2,1.7076914E1,1.8179195E0,2.5083292E1,3.246932E-2,6.4209804E-2,6.577394E1,1.8188758E-2,-3.5609048E-2,5.688065E-2,2.1783592E-2,4.4066194E-2,1.89742E7,1.6188916E0,3.2350847E-1,5.091877E7,2.8951492E1,1.89742E7,-4.680762E-3,1.6726515E1,6.8242676E1,1.3614652E-2,3.9554226E1,1.5684667E-1,-6.1259147E-2,6.8612E-2,1.6640516E-1,1.04982115E-1,-5.903771E-2,7.541567E-2,-3.704984E-2,8.21112E-2,-5.106736E-2,-1.06129006E-1,2.497091E-2,-1.4415192E-2,-1.055629E-1,1.0975032E-2,-1.0406109E-1,3.5189148E-2,-3.0774703E-2,1.9296944E-1,1.3386372E-2,5.3378817E-2,2.2757696E-1,1.1821057E-1,-9.037522E-2,-1.0968498E-1,-2.9245535E-2,4.9755603E-2,-3.1682044E-2,-1.008649E-1,-2.0985626E-2,6.47999E-2,-1.1023497E-1],"split_indices":[16,9,12,16,17,16,16,14,4,8,16,16,18,5,16,7,3,18,7,6,14,16,18,14,17,14,5,16,12,7,8,0,0,0,0,0,0,0,0,0,0,0,0,0,0,0,0,0,0,0,0,0,0,0,0,0,0,0,0,0,0,0,0],"split_type":[0,0,0,0,0,0,0,0,0,0,0,0,0,0,0,0,0,0,0,0,0,0,0,0,0,0,0,0,0,0,0,0,0,0,0,0,0,0,0,0,0,0,0,0,0,0,0,0,0,0,0,0,0,0,0,0,0,0,0,0,0,0,0],"sum_hessian":[1.8358326E3,9.635517E2,8.7228094E2,1.2504046E2,8.385112E2,4.2468564E2,4.475953E2,4.3214516E1,8.182594E1,3.7073444E2,4.677768E2,4.124475E2,1.2238129E1,3.441557E2,1.0343961E2,1.3034915E1,3.01796E1,2.3800323E1,5.8025623E1,6.696262E1,3.0377182E2,1.1862161E2,3.4915518E2,3.0480392E2,1.0764356E2,8.204317E0,4.033812E0,2.5323994E2,9.091574E1,8.4017334E1,1.9422277E1,3.162345E0,9.87257E0,1.1066057E1,1.9113544E1,2.2191751E1,1.6085722E0,2.2158606E1,3.5867016E1,6.123813E1,5.7244945E0,8.7637615E0,2.9500806E2,9.794144E1,2.0680174E1,3.3934866E2,9.806503E0,3.3586502E1,2.7121744E2,4.9459453E0,1.0269762E2,1.4664406E0,6.7378764E0,2.4903643E0,1.5434475E0,1.4307811E1,2.3893213E2,5.031548E1,4.060026E1,6.3066776E1,2.0950558E1,1.2908021E1,6.5142565E0],"tree_param":{"num_deleted":"0","num_feature":"20","num_nodes":"63","size_leaf_vector":"1"}},{"base_weights":[-1.8815776E-4,1.557127E-1,-1.7664708E-1,4.903441E-1,1.03867985E-1,7.56792E-2,-2.3317192E-1,1.6018793E-1,9.722676E-1,1.1649141E-1,-1.2250134E0,1.8413645E-1,-7.5308573E-1,5.757404E-1,-2.5166404E-1,4.0222022E-1,-3.729023E-1,1.377772E0,4.0715608E-1,3.878166E-1,6.121444E-2,-3.5678476E-2,-1.3167858E-1,-3.0984133E-2,6.9617885E-1,-1.1513077E0,-2.7440348E-1,1.2043977E0,-5.122223E-1,-8.1214285E-1,-2.2512679E-1,6.658446E-3,9.5522486E-2,1.1646111E-1,-7.8097016E-2,1.610624E-1,9.276331E-2,-4.733899E-2,8.604158E-2,9.114544E-2,1.9897645E-2,5.0762564E-2,1.5059396E-3,3.997739E-2,-4.0579494E-2,1.2538092E-1,9.322605E-3,-2.2042768E-2,-1.2335142E-1,1.1562251E-1,-7.406565E-2,-6.506171E-2,2.0177312E-1,1.564765E-1,-1.2257192E-1,6.0835678E-2,-1.0291016E-1,-2.123464E-2,-1.2560235E-1],"categories":[],"categories_nodes":[],"categories_segments":[],"categories_sizes":[],"default_left":[0,0,0,0,0,0,0,0,0,0,0,0,0,0,0,0,0,0,0,0,0,0,0,0,0,0,0,0,0,0,0,0,0,0,0,0,0,0,0,0,0,0,0,0,0,0,0,0,0,0,0,0,0,0,0,0,0,0,0],"id":6,"left_children":[1,3,5,7,9,11,13,15,17,19,21,23,25,27,29,31,33,35,37,39,41,-1,-1,43,45,47,49,51,53,55,57,-1,-1,-1,-1,-1,-1,-1,-1,-1,-1,-1,-1,-1,-1,-1,-1,-1,-1,-1,-1,-1,-1,-1,-1,-1,-1,-1,-1],"loss_changes":[5.042311E1,1.6831858E1,1.2280149E1,2.057225E1,1.4298482E1,1.4350047E1,1.065556E1,1.0279474E1,1.1530796E1,1.2527101E1,1.6981602E-1,1.5510159E1,3.2091942E0,1.1565809E1,1.0044926E1,1.0047373E1,1.6615496E1,1.6820908E0,9.772322E0,1.3805302E1,1.4340808E1,0E0,0E0,1.6302938E1,1.388377E1,4.7664928E-1,7.333866E0,1.707024E1,1.1645456E1,1.0088398E1,8.401875E0,0E0,0E0,0E0,0E0,0E0,0E0,0E0,0E0,0E0,0E0,0E0,0E0,0E0,0E0,0E0,0E0,0E0,0E0,0E0,0E0,0E0,0E0,0E0,0E0,0E0,0E0,0E0,0E0],"parents":[2147483647,0,0,1,1,2,2,3,3,4,4,5,5,6,6,7,7,8,8,9,9,10,10,11,11,12,12,13,13,14,14,15,15,16,16,17,17,18,18,19,19,20,20,23,23,24,24,25,25,26,26,27,27,28,28,29,29,30,30],"right_children":[2,4,6,8,10,12,14,16,18,20,22,24,26,28,30,32,34,36,38,40,42,-1,-1,44,46,48,50,52,54,56,58,-1,-1,-1,-1,-1,-1,-1,-1,-1,-1,-1,-1,-1,-1,-1,-1,-1,-1,-1,-1,-1,-1,-1,-1,-1,-1,-1,-1],"split_conditions":[1.6159897E1,4.167668E1,-2.3981607E-1,2.3715327E-2,1.1778384E8,8.4451784E7,1.0142992E1,2.7592232E1,9.23808E7,1.5837506E1,-3.356663E-2,6.604738E7,1.0101991E8,5.7831562E1,2.4275674E-1,-5.8008786E-3,-3.8134468E-1,-7.3962934E-2,3.289109E-2,1.6156472E-2,1.9405514E-1,-3.5678476E-2,-1.3167858E-1,5.2699148E7,2.1799799E1,1.8100803E1,-4.118816E-2,2.494667E-2,4.785455E-1,1.4693146E1,1.8211344E0,6.658446E-3,9.5522486E-2,1.1646111E-1,-7.8097016E-2,1.610624E-1,9.276331E-2,-4.733899E-2,8.604158E-2,9.114544E-2,1.9897645E-2,5.0762564E-2,1.5059396E-3,3.997739E-2,-4.0579494E-2,1.2538092E-1,9.322605E-3,-2.2042768E-2,-1.2335142E-1,1.1562251E-1,-7.406565E-2,-6.506171E-2,2.0177312E-1,1.564765E-1,-1.2257192E-1,6.0835678E-2,-1.0291016E-1,-2.123464E-2,-1.2560235E-1],"split_indices":[16,12,10,7,14,14,8,8,14,8,0,14,14,12,6,11,10,5,7,19,16,0,0,14,17,8,1,18,6,8,9,0,0,0,0,0,0,0,0,0,0,0,0,0,0,0,0,0,0,0,0,0,0,0,0,0,0,0,0],"split_type":[0,0,0,0,0,0,0,0,0,0,0,0,0,0,0,0,0,0,0,0,0,0,0,0,0,0,0,0,0,0,0,0,0,0,0,0,0,0,0,0,0,0,0,0,0,0,0,0,0,0,0,0,0,0,0,0,0,0,0],"sum_hessian":[1.8308948E3,9.7213464E2,8.587601E2,1.292746E2,8.4286005E2,1.5710522E2,7.0165485E2,7.75079E1,5.1766712E1,8.358326E2,7.027473E0,1.396125E2,1.7492727E1,1.5008186E1,6.8664667E2,5.347486E1,2.403303E1,2.9302332E1,2.246438E1,1.4044534E2,6.9538727E2,1.1390458E0,5.8884273E0,9.8971725E1,4.064077E1,8.78184E0,8.710886E0,9.444089E0,5.564097E0,2.9702961E1,6.569437E2,3.397486E1,1.95E1,4.651856E0,1.9381174E1,1.7613163E1,1.1689167E1,7.618852E0,1.4845528E1,3.6210392E1,1.0423494E2,6.422315E1,6.311641E2,4.601805E1,5.2953674E1,2.0553123E1,2.0087646E1,1.0113245E0,7.770516E0,1.7773936E0,6.9334927E0,2.9396126E0,6.5044765E0,1.1176189E0,4.4464784E0,3.6965322E0,2.600643E1,6.500903E2,6.853419E0],"tree_param":{"num_deleted":"0","num_feature":"20","num_nodes":"59","size_leaf_vector":"1"}},{"base_weights":[-1.310362E-4,1.4034557E-1,-1.605502E-1,4.684782E-1,9.102491E-2,-3.2816157E-2,-2.6595157E-1,1.0583794E0,3.361623E-1,2.4544176E-1,-3.087055E-2,2.212411E-1,-1.9917385E-1,-3.176026E-1,1.5881996E-1,1.4106888E0,2.7986357E-1,2.393594E-1,1.4193455E0,6.345723E-1,1.5854236E-1,-8.112083E-1,-9.839995E-4,1.1855944E0,5.8351114E-2,-5.1272583E-1,8.3648255E-3,2.1585976E-1,-3.5126188E-1,4.3361947E-1,-1.0347375E0,1.6765825E-1,1.0160211E-2,7.1082816E-2,-1.03839576E-1,7.493678E-2,4.2176787E-3,1.6000163E-2,1.6059814E-1,1.8554151E-1,4.6480272E-2,5.6513697E-2,1.049876E-3,-1.0166185E-1,8.3818875E-2,2.184796E-3,-9.853517E-2,-9.190782E-3,1.3776313E-1,8.6938776E-2,-1.0825166E-2,-7.8925766E-2,-1.244419E-2,-5.1921804E-2,2.884216E-2,6.884026E-2,-6.684486E-2,-3.804073E-2,3.3770353E-2,6.31552E-2,-5.9736975E-2,-1.316754E-1,4.6273325E-2],"categories":[],"categories_nodes":[],"categories_segments":[],"categories_sizes":[],"default_left":[0,0,0,0,0,0,0,0,0,0,0,0,0,0,0,0,0,0,0,0,0,0,0,0,0,0,0,0,0,0,0,0,0,0,0,0,0,0,0,0,0,0,0,0,0,0,0,0,0,0,0,0,0,0,0,0,0,0,0,0,0,0,0],"id":7,"left_children":[1,3,5,7,9,11,13,15,17,19,21,23,25,27,29,31,33,35,37,39,41,43,45,47,49,51,53,55,57,59,61,-1,-1,-1,-1,-1,-1,-1,-1,-1,-1,-1,-1,-1,-1,-1,-1,-1,-1,-1,-1,-1,-1,-1,-1,-1,-1,-1,-1,-1,-1,-1,-1],"loss_changes":[4.1178574E1,1.5723652E1,1.1476822E1,9.561317E0,1.5972098E1,1.639317E1,1.0302254E1,5.862072E0,1.0695595E1,1.2555574E1,1.1074096E1,2.404968E1,1.5250363E1,7.562439E0,1.7282791E1,5.2100697E0,5.484571E0,9.804874E0,1.7246628E0,1.322953E1,1.849063E1,6.7864103E0,1.0323225E1,5.5570507E0,1.7984964E1,9.92263E0,2.1124805E1,1.1059697E1,8.0114975E0,9.034685E0,4.7904873E0,0E0,0E0,0E0,0E0,0E0,0E0,0E0,0E0,0E0,0E0,0E0,0E0,0E0,0E0,0E0,0E0,0E0,0E0,0E0,0E0,0E0,0E0,0E0,0E0,0E0,0E0,0E0,0E0,0E0,0E0,0E0,0E0],"parents":[2147483647,0,0,1,1,2,2,3,3,4,4,5,5,6,6,7,7,8,8,9,9,10,10,11,11,12,12,13,13,14,14,15,15,16,16,17,17,18,18,19,19,20,20,21,21,22,22,23,23,24,24,25,25,26,26,27,27,28,28,29,29,30,30],"right_children":[2,4,6,8,10,12,14,16,18,20,22,24,26,28,30,32,34,36,38,40,42,44,46,48,50,52,54,56,58,60,62,-1,-1,-1,-1,-1,-1,-1,-1,-1,-1,-1,-1,-1,-1,-1,-1,-1,-1,-1,-1,-1,-1,-1,-1,-1,-1,-1,-1,-1,-1,-1,-1],"split_conditions":[1.6159897E1,-6.2789954E-2,-1.4653738E-3,1.225596E1,1.5690546E0,5.400096E7,7.246312E-2,-5.780859E-2,1.9659052E1,1.7846944E-2,1.4162921E0,2.189704E1,1.4081263E-2,-1.3141303E-2,1.1154755E0,3.807468E-2,2.7371021E1,2.0357762E-2,-8.66806E-2,-3.1557775E-3,-2.5111854E-2,1.5444064E-1,3.2350847E-1,1.8236195E1,-2.2534679E-1,-3.899476E-2,6.141967E7,5.3201675E-2,6.577394E1,7.452005E1,2.0331757E-1,1.6765825E-1,1.0160211E-2,7.1082816E-2,-1.03839576E-1,7.493678E-2,4.2176787E-3,1.6000163E-2,1.6059814E-1,1.8554151E-1,4.6480272E-2,5.6513697E-2,1.049876E-3,-1.0166185E-1,8.3818875E-2,2.184796E-3,-9.853517E-2,-9.190782E-3,1.3776313E-1,8.6938776E-2,-1.0825166E-2,-7.8925766E-2,-1.244419E-2,-5.1921804E-2,2.884216E-2,6.884026E-2,-6.684486E-2,-3.804073E-2,3.3770353E-2,6.31552E-2,-5.9736975E-2,-1.316754E-1,4.6273325E-2],"split_indices":[16,9,2,16,17,14,4,10,17,7,16,16,7,1,9,1,8,7,1,11,2,19,18,17,10,11,14,19,16,12,3,0,0,0,0,0,0,0,0,0,0,0,0,0,0,0,0,0,0,0,0,0,0,0,0,0,0,0,0,0,0,0,0],"split_type":[0,0,0,0,0,0,0,0,0,0,0,0,0,0,0,0,0,0,0,0,0,0,0,0,0,0,0,0,0,0,0,0,0,0,0,0,0,0,0,0,0,0,0,0,0,0,0,0,0,0,0,0,0,0,0,0,0,0,0,0,0,0,0],"sum_hessian":[1.825305E3,9.732074E2,8.520977E2,1.2605553E2,8.4715186E2,3.8582935E2,4.6626837E2,2.1812119E1,1.0424341E2,3.7327478E2,4.7387708E2,1.5254166E2,2.3328767E2,4.1594315E2,5.0325222E1,1.4457501E1,7.3546166E0,9.681236E1,7.431039E0,6.699092E1,3.0628387E2,1.6515463E1,4.573616E2,2.113546E1,1.314062E2,9.232756E1,1.4096011E2,2.4365412E1,3.9157773E2,4.142452E1,8.9007015E0,1.1783402E1,2.674099E0,5.8898826E0,1.4647341E0,2.6212904E1,7.0599464E1,1.1988661E0,6.2321725E0,6.9662666E0,6.0024654E1,8.1001045E1,2.2528284E2,1.5027617E1,1.4878451E0,4.4794943E2,9.412177E0,2.8300822E0,1.8305378E1,2.1674507E1,1.097317E2,5.332054E1,3.900702E1,4.8583145E1,9.237697E1,1.602419E1,8.341221E0,3.7611475E2,1.5462989E1,3.5077637E1,6.346884E0,7.591657E0,1.309045E0],"tree_param":{"num_deleted":"0","num_feature":"20","num_nodes":"63","size_leaf_vector":"1"}},{"base_weights":[-2.9937206E-5,1.2787445E-1,-1.4507848E-1,5.5227615E-2,3.390429E-1,-2.7452113E-2,-2.5765562E-1,2.8951084E-2,7.1499586E-1,4.6347573E-1,-5.808116E-1,-7.59126E-2,1.4235032E0,-1.618704E-1,-5.7805973E-1,1.3989858E-1,-1.8136364E-1,1.1846303E0,-6.144945E-1,5.5203146E-1,-4.5743847E-1,1.275196E-1,-1.0906303E0,-1.822958E-1,2.1690358E-1,1.8370535E0,3.5450014E-1,-5.125546E-1,-4.667407E-2,-6.6887355E-1,3.9865926E-1,2.004779E-2,-3.0152071E-2,3.606445E-3,-4.1461777E-2,1.8666004E-1,3.4708485E-2,-1.1228656E-1,4.3244794E-2,1.3788626E-1,4.330147E-2,1.1853514E-1,-6.575663E-2,-1.1502321E-1,4.753375E-2,3.1965077E-2,-1.217728E-1,-1.2465764E-2,-9.932108E-2,1.7429173E-1,1.2409567E-2,7.6297775E-2,2.1277216E-1,1.09449245E-1,-8.525197E-2,-2.8606294E-2,-1.1683001E-1,5.6723166E-2,-1.3844773E-2,4.819709E-2,-7.561306E-2,1.5643081E-1,-1.0610952E-1],"categories":[],"categories_nodes":[],"categories_segments":[],"categories_sizes":[],"default_left":[0,0,0,0,0,0,0,0,0,0,0,0,0,0,0,0,0,0,0,0,0,0,0,0,0,0,0,0,0,0,0,0,0,0,0,0,0,0,0,0,0,0,0,0,0,0,0,0,0,0,0,0,0,0,0,0,0,0,0,0,0,0,0],"id":8,"left_children":[1,3,5,7,9,11,13,15,17,19,21,23,25,27,29,31,33,35,37,39,41,43,45,47,49,51,53,55,57,59,61,-1,-1,-1,-1,-1,-1,-1,-1,-1,-1,-1,-1,-1,-1,-1,-1,-1,-1,-1,-1,-1,-1,-1,-1,-1,-1,-1,-1,-1,-1,-1,-1],"loss_changes":[3.380022E1,1.4833519E1,1.1297998E1,1.2488185E1,2.8611832E1,2.9542864E1,1.3290522E1,1.6241127E1,1.7956793E1,1.808564E1,1.0954345E1,1.2687952E1,5.3524017E0,1.359514E1,9.13485E0,1.22412E1,1.220878E1,1.1194073E1,4.6696873E0,1.9078506E1,7.265963E0,6.515206E0,3.5295162E0,1.3822202E1,1.5173172E1,1.3590317E0,5.423341E0,1.203158E1,1.443781E1,9.587776E0,1.7198126E1,0E0,0E0,0E0,0E0,0E0,0E0,0E0,0E0,0E0,0E0,0E0,0E0,0E0,0E0,0E0,0E0,0E0,0E0,0E0,0E0,0E0,0E0,0E0,0E0,0E0,0E0,0E0,0E0,0E0,0E0,0E0,0E0],"parents":[2147483647,0,0,1,1,2,2,3,3,4,4,5,5,6,6,7,7,8,8,9,9,10,10,11,11,12,12,13,13,14,14,15,15,16,16,17,17,18,18,19,19,20,20,21,21,22,22,23,23,24,24,25,25,26,26,27,27,28,28,29,29,30,30],"right_children":[2,4,6,8,10,12,14,16,18,20,22,24,26,28,30,32,34,36,38,40,42,44,46,48,50,52,54,56,58,60,62,-1,-1,-1,-1,-1,-1,-1,-1,-1,-1,-1,-1,-1,-1,-1,-1,-1,-1,-1,-1,-1,-1,-1,-1,-1,-1,-1,-1,-1,-1,-1,-1],"split_conditions":[1.6044773E1,2.7155746E-2,5.234731E1,1.7152713E-1,2.9451716E-1,5.0684624E1,3.7579548E1,2.5378501E-2,4.8287296E1,1.1432832E8,9.6467E-3,2.5083292E1,3.246932E-2,1.0374549E-2,7.838403E1,2.4259495E-2,2.92456E-3,6.262848E7,7.568127E7,1.9135715E-1,-3.954521E-2,1.3364594E1,7.311824E-3,2.3519215E1,2.8951492E1,-9.549045E-3,-4.680762E-3,3.2163672E-2,1.1360703E-2,1.89742E7,1.1462938E0,2.004779E-2,-3.0152071E-2,3.606445E-3,-4.1461777E-2,1.8666004E-1,3.4708485E-2,-1.1228656E-1,4.3244794E-2,1.3788626E-1,4.330147E-2,1.1853514E-1,-6.575663E-2,-1.1502321E-1,4.753375E-2,3.1965077E-2,-1.217728E-1,-1.2465764E-2,-9.932108E-2,1.7429173E-1,1.2409567E-2,7.6297775E-2,2.1277216E-1,1.09449245E-1,-8.525197E-2,-2.8606294E-2,-1.1683001E-1,5.6723166E-2,-1.3844773E-2,4.819709E-2,-7.561306E-2,1.5643081E-1,-1.0610952E-1],"split_indices":[16,7,12,5,18,16,16,3,8,14,10,16,18,7,17,7,19,14,14,16,18,8,6,16,17,0,5,4,7,14,6,0,0,0,0,0,0,0,0,0,0,0,0,0,0,0,0,0,0,0,0,0,0,0,0,0,0,0,0,0,0,0,0],"split_type":[0,0,0,0,0,0,0,0,0,0,0,0,0,0,0,0,0,0,0,0,0,0,0,0,0,0,0,0,0,0,0,0,0,0,0,0,0,0,0,0,0,0,0,0,0,0,0,0,0,0,0,0,0,0,0,0,0,0,0,0,0,0,0],"sum_hessian":[1.8198838E3,9.671582E2,8.527256E2,7.2053796E2,2.4662024E2,4.1761932E2,4.3510623E2,6.939442E2,2.6593773E1,2.1767105E2,2.8949196E1,4.0503912E2,1.258023E1,3.361261E2,9.898014E1,4.5451065E2,2.3943356E2,1.9732386E1,6.8613863E0,1.9894128E2,1.872977E1,1.2429621E1,1.6519575E1,2.9737653E2,1.07662575E2,8.552982E0,4.027248E0,8.2259575E1,2.5386653E2,9.084838E1,8.13176E0,4.0014197E2,5.4368675E1,1.2435826E2,1.150753E2,1.0199117E1,9.53327E0,4.569853E0,2.2915335E0,2.3700964E1,1.7524031E2,1.4993201E0,1.723045E1,2.1659057E0,1.0263715E1,1.2404529E0,1.5279122E1,2.7871945E2,1.8657076E1,5.1530256E0,1.0250955E2,2.5936918E0,5.9592905E0,2.5544243E0,1.4728233E0,6.2209076E1,2.0050503E1,3.2341602E1,2.2152492E2,6.083865E0,8.476452E1,4.4815288E0,3.6502316E0],"tree_param":{"num_deleted":"0","num_feature":"20","num_nodes":"63","size_leaf_vector":"1"}},{"base_weights":[3.9264746E-6,1.1504176E-1,-1.3146134E-1,4.7576836E-1,7.742135E-2,-4.47392E-2,-2.6391202E-1,-1.6226664E-2,7.329173E-1,1.5615466E-1,6.847277E-2,-8.374064E-2,7.5942713E-1,-7.11753E-1,-1.0621094E-1,-5.91456E-1,8.6636657E-1,8.7001634E-1,-1.8750863E-1,5.4913096E-2,8.72094E-1,1.0853372E0,-1.05977595E-1,1.7761192E0,2.1137881E-1,9.018503E-2,-7.643969E-1,-3.0453749E-2,-6.8093836E-1,6.87678E-2,-8.921721E-2,1.2222786E-1,-3.9974835E-2,1.2415286E-1,4.722209E-2,1.117711E-1,-6.187387E-2,3.6664527E-2,1.9618287E-3,1.2942015E-1,-3.7753165E-2,-5.999436E-2,1.9338661E-1,-6.0174293E-3,-5.621604E-2,1.9691865E-1,2.2806523E-2,1.4659539E-1,-3.8360085E-2,8.444562E-2,-9.395268E-2,2.6325366E-2,-8.022992E-2,-4.9545262E-2,7.945982E-3,-2.0736007E-2,-1.1945837E-1],"categories":[],"categories_nodes":[],"categories_segments":[],"categories_sizes":[],"default_left":[0,0,0,0,0,0,0,0,0,0,0,0,0,0,0,0,0,0,0,0,0,0,0,0,0,0,0,0,0,0,0,0,0,0,0,0,0,0,0,0,0,0,0,0,0,0,0,0,0,0,0,0,0,0,0,0,0],"id":9,"left_children":[1,3,5,7,9,11,13,15,17,-1,19,21,23,25,27,29,31,33,35,37,39,41,43,45,47,49,51,53,55,-1,-1,-1,-1,-1,-1,-1,-1,-1,-1,-1,-1,-1,-1,-1,-1,-1,-1,-1,-1,-1,-1,-1,-1,-1,-1,-1,-1],"loss_changes":[2.747372E1,1.3111055E1,9.726157E0,1.1563395E1,1.1560814E1,1.6169956E1,2.3601122E1,1.692072E1,7.7326546E0,0E0,9.479448E0,1.2871178E1,1.2915575E1,3.7474213E0,1.0825581E1,8.368582E0,6.418068E0,7.1556435E0,5.5316725E0,9.464666E0,8.105687E0,1.43849325E1,1.0046494E1,2.007534E0,1.2978618E1,5.656969E0,3.4000816E0,1.1342149E1,6.7981997E0,0E0,0E0,0E0,0E0,0E0,0E0,0E0,0E0,0E0,0E0,0E0,0E0,0E0,0E0,0E0,0E0,0E0,0E0,0E0,0E0,0E0,0E0,0E0,0E0,0E0,0E0,0E0,0E0],"parents":[2147483647,0,0,1,1,2,2,3,3,4,4,5,5,6,6,7,7,8,8,10,10,11,11,12,12,13,13,14,14,15,15,16,16,17,17,18,18,19,19,20,20,21,21,22,22,23,23,24,24,25,25,26,26,27,27,28,28],"right_children":[2,4,6,8,10,12,14,16,18,-1,20,22,24,26,28,30,32,34,36,38,40,42,44,46,48,50,52,54,56,-1,-1,-1,-1,-1,-1,-1,-1,-1,-1,-1,-1,-1,-1,-1,-1,-1,-1,-1,-1,-1,-1,-1,-1,-1,-1,-1,-1],"split_conditions":[1.6044773E1,-6.9199316E-2,5.5856697E1,2.2003427E-2,9.58927E0,5.0684624E1,6.221182E-2,1.485571E0,1.1432832E8,1.5615466E-1,2.551314E-1,1.0142992E1,2.2590663E-2,-5.418862E-2,9.8338777E-1,5.377155E7,-1.3251124E-2,1.1358004E0,-3.954521E-2,2.299248E-1,3.2350847E-1,2.494667E-2,2.6975093E-2,2.162937E-3,1.5933509E1,3.143759E-2,9.58927E0,1.0374549E-2,1.6228777E-1,6.87678E-2,-8.921721E-2,1.2222786E-1,-3.9974835E-2,1.2415286E-1,4.722209E-2,1.117711E-1,-6.187387E-2,3.6664527E-2,1.9618287E-3,1.2942015E-1,-3.7753165E-2,-5.999436E-2,1.9338661E-1,-6.0174293E-3,-5.621604E-2,1.9691865E-1,2.2806523E-2,1.4659539E-1,-3.8360085E-2,8.444562E-2,-9.395268E-2,2.6325366E-2,-8.022992E-2,-4.9545262E-2,7.945982E-3,-2.0736007E-2,-1.1945837E-1],"split_indices":[16,4,12,7,8,16,18,16,14,0,11,8,18,10,10,14,9,15,18,17,18,18,3,4,8,2,8,7,18,0,0,0,0,0,0,0,0,0,0,0,0,0,0,0,0,0,0,0,0,0,0,0,0,0,0,0,0],"split_type":[0,0,0,0,0,0,0,0,0,0,0,0,0,0,0,0,0,0,0,0,0,0,0,0,0,0,0,0,0,0,0,0,0,0,0,0,0,0,0,0,0,0,0,0,0,0,0,0,0,0,0,0,0,0,0,0,0],"sum_hessian":[1.814627E3,9.678452E2,8.4678174E2,9.030464E1,8.775406E2,5.1253625E2,3.3424554E2,3.1319304E1,5.8985336E1,4.2195816E0,8.73321E2,4.8968286E2,2.2853365E1,8.613246E1,2.4811308E2,1.9161003E1,1.21583E1,5.1386063E1,7.599275E0,8.598804E2,1.3440617E1,8.247996E0,4.8143488E2,7.219521E0,1.5633843E1,5.2619967E0,8.087047E1,2.2014752E2,2.7965563E1,3.4022596E0,1.5758743E1,9.517501E0,2.6408002E0,2.5474083E1,2.591198E1,1.4918689E0,6.1074066E0,8.650038E1,7.7338E2,1.0020237E1,3.4203792E0,2.8602185E0,5.387778E0,4.3853537E2,4.2899498E1,6.1770983E0,1.042423E0,4.5583105E0,1.1075533E1,3.1410592E0,2.1209378E0,2.6651177E0,7.820535E1,4.141789E1,1.7872963E2,1.5280617E1,1.2684947E1],"tree_param":{"num_deleted":"0","num_feature":"20","num_nodes":"57","size_leaf_vector":"1"}},{"base_weights":[2.4478917E-4,1.22680224E-1,-1.03025325E-1,8.158325E-1,1.0208675E-1,-1.5318777E-1,1.8401223E-1,1.2825081E0,1.2566344E-1,3.5007304E-1,4.8468024E-2,-6.110206E-1,-1.1961404E-1,1.3214736E0,6.840101E-2,-2.6084596E-2,1.4769872E0,-1.0704696E0,9.668152E-1,5.351959E-1,-1.9182351E-1,-8.449576E-1,6.5507114E-2,-8.5451484E-1,2.3478578E-1,5.6635134E-2,-2.1275908E-1,1.6101482E0,-4.2285755E-2,2.3380415E-1,-5.7313967E-1,1.032827E-2,1.7130123E-1,-1.6547445E-2,-1.3249293E-1,1.350819E-2,1.2658778E-1,3.7505046E-2,1.3269009E-1,-8.794087E-2,8.631126E-2,4.89262E-2,-1.0698122E-1,6.762482E-2,9.014452E-4,-1.0298272E-1,-5.6324094E-3,-6.700675E-2,7.225907E-2,1.0080767E-1,1.8706403E-4,-2.9336268E-2,1.0814707E-2,1.8084966E-1,-6.6261715E-3,4.194663E-3,1.2266903E-1,-9.1083184E-2,1.6041158E-2],"categories":[],"categories_nodes":[],"categories_segments":[],"categories_sizes":[],"default_left":[0,0,0,0,0,0,0,0,0,0,0,0,0,0,0,0,0,0,0,0,0,0,0,0,0,0,0,0,0,0,0,0,0,0,0,0,0,0,0,0,0,0,0,0,0,0,0,0,0,0,0,0,0,0,0,0,0,0,0],"id":10,"left_children":[1,3,5,7,9,11,13,15,17,19,21,23,25,27,29,-1,31,33,35,37,39,41,43,45,47,49,51,53,-1,55,57,-1,-1,-1,-1,-1,-1,-1,-1,-1,-1,-1,-1,-1,-1,-1,-1,-1,-1,-1,-1,-1,-1,-1,-1,-1,-1,-1,-1],"loss_changes":[2.2908533E1,1.1750007E1,1.4179554E1,7.4965506E0,1.0702988E1,1.2795227E1,1.9196228E1,4.6100903E0,1.1800262E1,1.4464691E1,1.0164216E1,1.1930178E1,1.2837121E1,7.467039E0,1.4372838E1,0E0,3.9247684E0,9.0736866E-1,1.5222964E0,1.3065485E1,2.7735723E1,4.2732954E0,2.2508295E1,6.1603546E0,6.4497995E0,1.4113531E1,1.3257563E1,4.0339127E0,0E0,2.0405806E1,7.0311947E0,0E0,0E0,0E0,0E0,0E0,0E0,0E0,0E0,0E0,0E0,0E0,0E0,0E0,0E0,0E0,0E0,0E0,0E0,0E0,0E0,0E0,0E0,0E0,0E0,0E0,0E0,0E0,0E0],"parents":[2147483647,0,0,1,1,2,2,3,3,4,4,5,5,6,6,7,7,8,8,9,9,10,10,11,11,12,12,13,13,14,14,16,16,17,17,18,18,19,19,20,20,21,21,22,22,23,23,24,24,25,25,26,26,27,27,29,29,30,30],"right_children":[2,4,6,8,10,12,14,16,18,20,22,24,26,28,30,-1,32,34,36,38,40,42,44,46,48,50,52,54,-1,56,58,-1,-1,-1,-1,-1,-1,-1,-1,-1,-1,-1,-1,-1,-1,-1,-1,-1,-1,-1,-1,-1,-1,-1,-1,-1,-1,-1,-1],"split_conditions":[1.4670522E1,-3.0423477E-1,9.627352E-2,7.884502E-1,1.6195265E1,2.9933087E-3,4.8865868E7,4.6216878E-1,9.5701736E-1,9.690522E-2,1.89742E7,2.4138594E1,5.1898003E1,8.776643E-3,9.5701736E-1,-2.6084596E-2,-2.520955E-2,-1.6274992E-2,1.8114437E1,6.970604E-2,2.1457978E-2,-4.8885033E-2,2.2114253E-1,-3.899476E-2,-1.2082799E-2,1.9703375E-2,7.407452E-2,4.498037E-1,-4.2285755E-2,2.8126974E-2,2.7320354E1,1.032827E-2,1.7130123E-1,-1.6547445E-2,-1.3249293E-1,1.350819E-2,1.2658778E-1,3.7505046E-2,1.3269009E-1,-8.794087E-2,8.631126E-2,4.89262E-2,-1.0698122E-1,6.762482E-2,9.014452E-4,-1.0298272E-1,-5.6324094E-3,-6.700675E-2,7.225907E-2,1.0080767E-1,1.8706403E-4,-2.9336268E-2,1.0814707E-2,1.8084966E-1,-6.6261715E-3,4.194663E-3,1.2266903E-1,-9.1083184E-2,1.6041158E-2],"split_indices":[16,9,19,6,8,18,14,6,6,6,14,16,12,0,6,0,0,0,17,19,11,1,17,11,0,19,5,13,0,7,16,0,0,0,0,0,0,0,0,0,0,0,0,0,0,0,0,0,0,0,0,0,0,0,0,0,0,0,0],"split_type":[0,0,0,0,0,0,0,0,0,0,0,0,0,0,0,0,0,0,0,0,0,0,0,0,0,0,0,0,0,0,0,0,0,0,0,0,0,0,0,0,0,0,0,0,0,0,0,0,0,0,0,0,0,0,0,0,0,0,0],"sum_hessian":[1.8098223E3,8.279865E2,9.8183575E2,2.2775442E1,8.0521106E2,8.3617316E2,1.456626E2,1.307571E1,9.699732E0,1.4216586E2,6.6304517E2,5.5953667E1,7.802195E2,1.2476826E1,1.3318578E2,1.4250995E0,1.1650611E1,3.8922532E0,5.8074784E0,1.0597502E2,3.6190845E1,1.1499366E1,6.5154584E2,4.34382E1,1.2515463E1,2.6990216E2,5.1031735E2,1.0771194E1,1.7056321E0,1.0639133E2,2.6794441E1,1.9190457E0,9.7315645E0,1.2163949E0,2.6758583E0,1.9198368E0,3.8876417E0,8.937088E1,1.660414E1,2.2010954E1,1.4179892E1,1.4888824E0,1.0010484E1,5.423557E1,5.9731024E2,3.537773E1,8.06047E0,4.2529044E0,8.262559E0,1.3742456E1,2.561597E2,4.0793906E2,1.0237828E2,9.561152E0,1.2100414E0,9.003577E1,1.6355558E1,1.8182436E1,8.612003E0],"tree_param":{"num_deleted":"0","num_feature":"20","num_nodes":"59","size_leaf_vector":"1"}},{"base_weights":[3.4006592E-4,1.1073256E-1,-9.330174E-2,1.3635351E-1,-4.2673114E-1,-1.3895367E-1,1.6692512E-1,4.6860996E-1,9.7254425E-2,-8.8942504E-1,1.6073631E-1,6.814761E-1,-1.5633413E-1,7.228207E-2,1.3301147E0,6.9026805E-2,9.3295705E-1,-1.0873096E0,1.0926908E-1,9.679776E-2,-1.0445726E0,4.9653795E-1,-8.1913877E-1,1.2235662E0,-2.1187475E-1,-1.9872442E-1,1.2821089E-1,-8.364521E-1,2.0817223E-1,1.6799372E0,-3.7521698E-2,-3.3995487E-2,8.1260525E-2,1.15660205E-1,1.562461E-2,-1.4661813E-1,4.440181E-2,5.9607953E-2,7.1462304E-3,-1.2231115E-1,3.0990604E-3,-2.8990937E-2,1.3068207E-1,1.4789297E-2,-1.1471873E-1,-1.9587072E-2,1.9977032E-1,1.0541514E-1,-1.1066432E-1,-6.948886E-3,-3.274142E-2,4.7795214E-2,-4.067796E-2,-1.01784125E-1,5.8310147E-2,3.3207335E-2,-6.9391176E-2,5.132088E-2,1.8304299E-1],"categories":[],"categories_nodes":[],"categories_segments":[],"categories_sizes":[],"default_left":[0,0,0,0,0,0,0,0,0,0,0,0,0,0,0,0,0,0,0,0,0,0,0,0,0,0,0,0,0,0,0,0,0,0,0,0,0,0,0,0,0,0,0,0,0,0,0,0,0,0,0,0,0,0,0,0,0,0,0],"id":11,"left_children":[1,3,5,7,9,11,13,15,17,19,21,23,25,27,29,31,33,35,37,-1,39,41,43,45,47,49,51,53,55,57,-1,-1,-1,-1,-1,-1,-1,-1,-1,-1,-1,-1,-1,-1,-1,-1,-1,-1,-1,-1,-1,-1,-1,-1,-1,-1,-1,-1,-1],"loss_changes":[1.8673166E1,1.1474318E1,1.1633859E1,1.0244194E1,1.0462319E1,1.1970673E1,1.601199E1,1.5360638E1,1.0222769E1,7.1752625E0,6.1892614E0,8.708382E0,9.862869E0,1.7014023E1,7.163988E0,1.4193142E1,6.4845924E0,4.8397207E0,1.2909192E1,0E0,3.9212341E0,9.116104E0,1.7122922E0,1.2484829E1,9.595936E0,1.1789093E1,2.0094246E1,5.2125998E0,1.3579006E1,6.883564E-1,0E0,0E0,0E0,0E0,0E0,0E0,0E0,0E0,0E0,0E0,0E0,0E0,0E0,0E0,0E0,0E0,0E0,0E0,0E0,0E0,0E0,0E0,0E0,0E0,0E0,0E0,0E0,0E0,0E0],"parents":[2147483647,0,0,1,1,2,2,3,3,4,4,5,5,6,6,7,7,8,8,9,9,10,10,11,11,12,12,13,13,14,14,15,15,16,16,17,17,18,18,20,20,21,21,22,22,23,23,24,24,25,25,26,26,27,27,28,28,29,29],"right_children":[2,4,6,8,10,12,14,16,18,20,22,24,26,28,30,32,34,36,38,-1,40,42,44,46,48,50,52,54,56,58,-1,-1,-1,-1,-1,-1,-1,-1,-1,-1,-1,-1,-1,-1,-1,-1,-1,-1,-1,-1,-1,-1,-1,-1,-1,-1,-1,-1,-1],"split_conditions":[1.4670522E1,4.6710125E1,9.627352E-2,4.0553036E1,2.1591006E-2,1.0142992E1,2.9987764E1,2.2640033E-2,5.766635E-2,1.5778178E-2,3.0758277E-2,3.2138827E-1,7.407452E-2,-2.89866E-1,8.776643E-3,4.9773183E-2,3.365933E1,2.4248358E1,2.2114253E-1,9.679776E-2,2.4999985E-1,1.092324E-2,5.524401E1,-4.200664E-3,5.7831562E1,5.5683E7,6.851704E1,1.0101991E8,9.9176856E7,2.2739817E1,-3.7521698E-2,-3.3995487E-2,8.1260525E-2,1.15660205E-1,1.562461E-2,-1.4661813E-1,4.440181E-2,5.9607953E-2,7.1462304E-3,-1.2231115E-1,3.0990604E-3,-2.8990937E-2,1.3068207E-1,1.4789297E-2,-1.1471873E-1,-1.9587072E-2,1.9977032E-1,1.0541514E-1,-1.1066432E-1,-6.948886E-3,-3.274142E-2,4.7795214E-2,-4.067796E-2,-1.01784125E-1,5.8310147E-2,3.3207335E-2,-6.9391176E-2,5.132088E-2,1.8304299E-1],"split_indices":[16,8,19,12,19,8,16,7,16,7,6,9,5,11,0,6,8,8,17,0,5,10,12,9,12,14,12,14,14,8,0,0,0,0,0,0,0,0,0,0,0,0,0,0,0,0,0,0,0,0,0,0,0,0,0,0,0,0,0],"split_type":[0,0,0,0,0,0,0,0,0,0,0,0,0,0,0,0,0,0,0,0,0,0,0,0,0,0,0,0,0,0,0,0,0,0,0,0,0,0,0,0,0,0,0,0,0,0,0,0,0,0,0,0,0,0,0,0,0,0,0],"sum_hessian":[1.8043783E3,8.28038E2,9.763403E2,7.910737E2,3.696427E1,8.310195E2,1.4532079E2,8.213355E1,7.089402E2,2.0390533E1,1.657374E1,1.6446922E1,8.145726E2,1.3536864E2,9.952142E0,4.47627E1,3.7370853E1,6.2197127E0,7.0272046E2,1.1680256E0,1.9222507E1,1.2710974E1,3.8627665E0,1.0005746E1,6.441177E0,7.0921796E2,1.05354614E2,1.693882E1,1.18429825E2,8.2704735E0,1.6816686E0,2.9229021E1,1.5533679E1,2.8636269E1,8.734584E0,5.0201907E0,1.1995224E0,4.9577713E1,6.5314276E2,1.6368261E1,2.8542452E0,6.7762585E0,5.9347153E0,1.11756E0,2.7452064E0,3.7947588E0,6.210987E0,2.5934806E0,3.8476963E0,3.5462695E2,3.54591E2,6.37716E1,4.1583015E1,1.5270551E1,1.6682701E0,1.0468345E2,1.3746376E1,1.4487672E0,6.821706E0],"tree_param":{"num_deleted":"0","num_feature":"20","num_nodes":"59","size_leaf_vector":"1"}},{"base_weights":[3.8461594E-4,8.5764475E-2,-1.00272596E-1,1.7870319E-1,-3.886351E-2,-5.4468507E-1,-7.435478E-2,-7.371232E-2,2.7877775E-1,8.013012E-2,-3.5924986E-1,-7.734458E-1,5.2844685E-1,-2.5728341E-2,-2.992228E-1,3.342518E-1,-3.930441E-1,3.1871742E-1,-3.5689622E-1,-1.1308573E-1,2.5952703E-1,-5.40101E-1,3.5580525E-1,-7.366712E-2,-1.0747703E0,-3.8746682E-1,1.3878708E0,-9.9859774E-2,2.495964E-1,1.1404219E0,-5.173677E-1,4.417805E-2,-1.1641555E-1,3.1319552E-3,-6.588953E-2,2.8155327E-2,1.1792312E-1,3.5564914E-2,-9.12145E-2,-3.691454E-2,4.0333632E-2,6.384813E-2,1.3029206E-3,3.0947505E-2,-6.737162E-2,-5.7345957E-2,7.446381E-2,-6.5221384E-2,1.7273836E-1,-2.227747E-2,-1.23189665E-1,-1.0990846E-1,1.0649587E-1,1.5934035E-1,4.350324E-2,7.993187E-2,-1.3246769E-2,6.128625E-2,-1.1413119E-2,1.9289276E-1,4.1697334E-2,-6.1121017E-2,5.9935786E-2],"categories":[],"categories_nodes":[],"categories_segments":[],"categories_sizes":[],"default_left":[0,0,0,0,0,0,0,0,0,0,0,0,0,0,0,0,0,0,0,0,0,0,0,0,0,0,0,0,0,0,0,0,0,0,0,0,0,0,0,0,0,0,0,0,0,0,0,0,0,0,0,0,0,0,0,0,0,0,0,0,0,0,0],"id":12,"left_children":[1,3,5,7,9,11,13,15,17,19,21,23,25,27,29,31,33,35,37,39,41,43,45,47,49,51,53,55,57,59,61,-1,-1,-1,-1,-1,-1,-1,-1,-1,-1,-1,-1,-1,-1,-1,-1,-1,-1,-1,-1,-1,-1,-1,-1,-1,-1,-1,-1,-1,-1,-1,-1],"loss_changes":[1.547777E1,1.1293584E1,9.479774E0,1.4124931E1,1.5929274E1,1.1551278E1,8.54478E0,2.088609E1,1.027038E1,1.0599233E1,1.4822616E1,7.895443E0,7.2833586E0,1.3172834E1,4.423378E1,1.1871737E1,1.0154337E1,1.1722168E1,9.867621E0,1.965502E1,1.4790606E1,1.0503771E1,8.896823E0,1.4106657E1,3.2547321E0,6.266192E0,2.1538925E-1,1.5007772E1,1.8163631E1,9.805288E0,1.3085598E1,0E0,0E0,0E0,0E0,0E0,0E0,0E0,0E0,0E0,0E0,0E0,0E0,0E0,0E0,0E0,0E0,0E0,0E0,0E0,0E0,0E0,0E0,0E0,0E0,0E0,0E0,0E0,0E0,0E0,0E0,0E0,0E0],"parents":[2147483647,0,0,1,1,2,2,3,3,4,4,5,5,6,6,7,7,8,8,9,9,10,10,11,11,12,12,13,13,14,14,15,15,16,16,17,17,18,18,19,19,20,20,21,21,22,22,23,23,24,24,25,25,26,26,27,27,28,28,29,29,30,30],"right_children":[2,4,6,8,10,12,14,16,18,20,22,24,26,28,30,32,34,36,38,40,42,44,46,48,50,52,54,56,58,60,62,-1,-1,-1,-1,-1,-1,-1,-1,-1,-1,-1,-1,-1,-1,-1,-1,-1,-1,-1,-1,-1,-1,-1,-1,-1,-1,-1,-1,-1,-1,-1,-1],"split_conditions":[1.6159897E1,1.4889501E-2,1.6726515E1,5.895771E7,4.181837E-2,3.2801212E1,4.9390095E-1,5.091877E7,3.9252862E-2,3.2721602E-4,9.333514E-2,1.796118E1,5.953656E7,7.641575E-1,2.4193071E1,6.393164E1,4.0734573E-3,7.133981E-1,-4.411696E-2,2.6654204E-2,5.9653736E7,9.062589E-2,1.9910473E-2,4.181837E-2,-2.832372E-2,3.9939802E-2,1.5910275E-1,1.6915277E1,8.982889E-1,6.017109E7,7.838403E1,4.417805E-2,-1.1641555E-1,3.1319552E-3,-6.588953E-2,2.8155327E-2,1.1792312E-1,3.5564914E-2,-9.12145E-2,-3.691454E-2,4.0333632E-2,6.384813E-2,1.3029206E-3,3.0947505E-2,-6.737162E-2,-5.7345957E-2,7.446381E-2,-6.5221384E-2,1.7273836E-1,-2.227747E-2,-1.23189665E-1,-1.0990846E-1,1.0649587E-1,1.5934035E-1,4.350324E-2,7.993187E-2,-1.3246769E-2,6.128625E-2,-1.1413119E-2,1.9289276E-1,4.1697334E-2,-6.1121017E-2,5.9935786E-2],"split_indices":[16,2,16,14,10,8,10,14,7,10,3,8,14,6,17,12,10,6,4,11,14,18,7,10,2,3,13,16,6,14,17,0,0,0,0,0,0,0,0,0,0,0,0,0,0,0,0,0,0,0,0,0,0,0,0,0,0,0,0,0,0,0,0],"split_type":[0,0,0,0,0,0,0,0,0,0,0,0,0,0,0,0,0,0,0,0,0,0,0,0,0,0,0,0,0,0,0,0,0,0,0,0,0,0,0,0,0,0,0,0,0,0,0,0,0,0,0,0,0,0,0,0,0,0,0,0,0,0,0],"sum_hessian":[1.7989758E3,9.7343384E2,8.25542E2,5.573602E2,4.160736E2,4.4388966E1,7.81153E2,1.5831352E2,3.9904675E2,3.0393866E2,1.1213496E2,3.6819397E1,7.5695677E0,6.4318274E2,1.3797023E2,6.948976E1,8.882375E1,3.7592578E2,2.3120966E1,1.4651126E2,1.5742738E2,8.969424E1,2.244072E1,1.1456942E1,2.5362455E1,3.930196E0,3.6393714E0,5.0724414E2,1.3593863E2,1.7598873E1,1.2037137E2,6.549489E1,3.9948764E0,3.455219E1,5.427157E1,3.6163458E2,1.4291198E1,1.0283601E1,1.2837366E1,9.8136856E1,4.8374413E1,6.1417213E1,9.601017E1,1.2010534E1,7.76837E1,6.4798403E0,1.5960879E1,9.154224E0,2.3027167E0,4.3255515E0,2.1036903E1,2.8010798E0,1.1291163E0,2.440641E0,1.1987306E0,1.69282E1,4.9031595E2,6.766978E1,6.826886E1,7.6235113E0,9.975361E0,1.1145784E2,8.913523E0],"tree_param":{"num_deleted":"0","num_feature":"20","num_nodes":"63","size_leaf_vector":"1"}},{"base_weights":[3.6340198E-4,9.247146E-2,-7.8461915E-2,-6.680145E-2,1.6937181E-1,-5.404345E-2,-5.156089E-1,5.9453867E-2,-2.514863E-1,7.175702E-1,1.4099345E-1,-9.091256E-2,3.239499E-1,1.5546735E-1,-6.085489E-1,-3.231681E-2,5.275283E-1,1.1299015E-1,-4.4447654E-1,1.2981457E0,1.7225273E-1,1.7148659E-1,-6.4260906E-1,-9.997969E-3,-2.755193E-1,-8.046162E-1,4.5528018E-1,-6.8603396E-1,1.1271518E-1,5.1034104E-2,-1.4791829E-2,1.0576115E-1,1.9885623E-3,-3.533545E-2,4.5072217E-2,8.873854E-3,-5.844295E-2,4.4514984E-2,1.4801334E-1,8.791624E-2,-7.427674E-2,1.1155352E-2,4.1722793E-2,-1.1199453E-1,1.3642304E-2,-4.098087E-3,7.2447225E-2,-4.6794455E-2,-2.0665461E-3,-1.03165746E-1,1.1895188E-2,7.092505E-2,-2.1452587E-2,-2.445106E-2,-1.0067319E-1],"categories":[],"categories_nodes":[],"categories_segments":[],"categories_sizes":[],"default_left":[0,0,0,0,0,0,0,0,0,0,0,0,0,0,0,0,0,0,0,0,0,0,0,0,0,0,0,0,0,0,0,0,0,0,0,0,0,0,0,0,0,0,0,0,0,0,0,0,0,0,0,0,0,0,0],"id":13,"left_children":[1,3,5,7,9,11,13,15,17,19,21,23,25,-1,27,29,31,33,35,37,39,41,43,45,47,49,51,53,-1,-1,-1,-1,-1,-1,-1,-1,-1,-1,-1,-1,-1,-1,-1,-1,-1,-1,-1,-1,-1,-1,-1,-1,-1,-1,-1],"loss_changes":[1.30410385E1,1.0156431E1,1.030371E1,6.3204384E0,8.593292E0,1.2820044E1,1.0775868E1,6.9511843E0,7.7871904E0,8.407728E0,1.2836796E1,1.249994E1,1.248791E1,0E0,7.445486E0,8.601219E0,7.1150208E0,6.2822237E0,5.433609E0,1.3671684E0,1.0492206E1,7.515648E0,7.6496964E0,1.3295913E1,1.2497112E1,1.986095E0,1.2722908E1,6.5663586E0,0E0,0E0,0E0,0E0,0E0,0E0,0E0,0E0,0E0,0E0,0E0,0E0,0E0,0E0,0E0,0E0,0E0,0E0,0E0,0E0,0E0,0E0,0E0,0E0,0E0,0E0,0E0],"parents":[2147483647,0,0,1,1,2,2,3,3,4,4,5,5,6,6,7,7,8,8,9,9,10,10,11,11,12,12,14,14,15,15,16,16,17,17,18,18,19,19,20,20,21,21,22,22,23,23,24,24,25,25,26,26,27,27],"right_children":[2,4,6,8,10,12,14,16,18,20,22,24,26,-1,28,30,32,34,36,38,40,42,44,46,48,50,52,54,-1,-1,-1,-1,-1,-1,-1,-1,-1,-1,-1,-1,-1,-1,-1,-1,-1,-1,-1,-1,-1,-1,-1,-1,-1,-1,-1],"split_conditions":[1.4670522E1,-1.904762E-1,7.209044E1,-3.179024E-1,-2.3981607E-1,7.407452E-2,-5.6128556E-1,4.3400593E0,-5.8481633E-3,1.344026E1,5.690864E-1,5.5856697E1,1.7952333E1,1.5546735E-1,1.3274524E-1,1.6380945E1,6.7972094E-1,-2.6551038E-1,-2.9336827E-2,7.671552E7,2.5659086E-2,5.016657E0,1.6129993E1,5.0684624E1,6.2105816E1,1.0969024E0,8.726311E-1,4.9179297E-2,1.1271518E-1,5.1034104E-2,-1.4791829E-2,1.0576115E-1,1.9885623E-3,-3.533545E-2,4.5072217E-2,8.873854E-3,-5.844295E-2,4.4514984E-2,1.4801334E-1,8.791624E-2,-7.427674E-2,1.1155352E-2,4.1722793E-2,-1.1199453E-1,1.3642304E-2,-4.098087E-3,7.2447225E-2,-4.6794455E-2,-2.0665461E-3,-1.03165746E-1,1.1895188E-2,7.092505E-2,-2.1452587E-2,-2.445106E-2,-1.0067319E-1],"split_indices":[16,13,12,13,10,5,13,17,0,16,6,12,17,0,1,8,15,13,4,14,11,16,17,16,12,15,6,4,0,0,0,0,0,0,0,0,0,0,0,0,0,0,0,0,0,0,0,0,0,0,0,0,0,0,0],"split_type":[0,0,0,0,0,0,0,0,0,0,0,0,0,0,0,0,0,0,0,0,0,0,0,0,0,0,0,0,0,0,0,0,0,0,0,0,0,0,0,0,0,0,0,0,0,0,0,0,0,0,0,0,0,0,0],"sum_hessian":[1.7941765E3,8.272982E2,9.6687823E2,2.6941925E2,5.5787897E2,9.1679114E2,5.008713E1,1.6042601E2,1.0899326E2,2.626277E1,5.316162E2,8.3600726E2,8.078386E1,1.4762064E0,4.8610928E1,1.3490707E2,2.5518927E1,3.7876045E1,7.111722E1,1.2051518E1,1.4211252E1,5.124556E2,1.9160559E1,5.8197656E2,2.5403073E2,7.886426E0,7.289743E1,4.7112484E1,1.4984429E0,2.3092293E1,1.1181478E2,1.1953568E1,1.3565358E1,1.5889443E1,2.1986603E1,1.4861487E1,5.6255726E1,2.7250364E0,9.326482E0,8.03946E0,6.1717925E0,4.131482E2,9.930745E1,1.1609476E1,7.5510826E0,5.593261E2,2.2650417E1,1.4426703E2,1.097637E2,6.236315E0,1.6501112E0,5.281332E1,2.0084112E1,2.0563692E1,2.6548792E1],"tree_param":{"num_deleted":"0","num_feature":"20","num_nodes":"55","size_leaf_vector":"1"}},{"base_weights":[3.993435E-4,9.1011894E-1,-7.4553485E-3,1.4014996E0,-1.6196841E-1,1.8910518E-2,-2.7107793E-1,-2.2187358E-2,1.7410766E-1,1.3378848E-1,-8.59839E-1,-1.6239176E-2,2.6536804E-1,2.6536074E-1,-4.959015E-1,-2.3519278E-2,-9.745183E-2,7.84721E-2,-1.380324E-1,5.0174826E-1,-5.2415293E-2,1.025731E0,-3.160299E-1,-5.905908E-1,5.576934E-1,9.13068E-2,6.4128893E-3,-3.7653353E-3,-3.82218E-2,-1.6150916E-2,7.342737E-2,5.347025E-2,-2.1604706E-2,-3.0206103E-2,1.665602E-1,4.381241E-2,-8.253972E-2,-6.481414E-2,1.5273786E-2,1.4542371E-1,-4.501188E-2],"categories":[],"categories_nodes":[],"categories_segments":[],"categories_sizes":[],"default_left":[0,0,0,0,0,0,0,0,0,0,0,0,0,0,0,0,0,0,0,0,0,0,0,0,0,0,0,0,0,0,0,0,0,0,0,0,0,0,0,0,0],"id":14,"left_children":[1,3,5,7,9,11,13,-1,-1,-1,15,17,19,21,23,-1,-1,25,27,29,31,33,35,37,39,-1,-1,-1,-1,-1,-1,-1,-1,-1,-1,-1,-1,-1,-1,-1,-1],"loss_changes":[1.28113165E1,8.3122425E0,1.2360625E1,6.24494E0,7.1375446E0,1.4011542E1,1.9631573E1,0E0,0E0,0E0,9.404421E-2,1.6345148E1,1.5190967E1,2.1721392E1,1.1730791E1,0E0,0E0,9.484829E0,1.5178063E1,1.7987211E1,8.475384E0,1.8522081E1,1.1192013E1,4.6055756E0,9.634344E0,0E0,0E0,0E0,0E0,0E0,0E0,0E0,0E0,0E0,0E0,0E0,0E0,0E0,0E0,0E0,0E0],"parents":[2147483647,0,0,1,1,2,2,3,3,4,4,5,5,6,6,10,10,11,11,12,12,13,13,14,14,17,17,18,18,19,19,20,20,21,21,22,22,23,23,24,24],"right_children":[2,4,6,8,10,12,14,-1,-1,-1,16,18,20,22,24,-1,-1,26,28,30,32,34,36,38,40,-1,-1,-1,-1,-1,-1,-1,-1,-1,-1,-1,-1,-1,-1,-1,-1],"split_conditions":[9.58927E0,3.2138827E-1,4.9390095E-1,-4.200664E-3,-4.165576E-3,7.207201E-1,2.4692856E1,-2.2187358E-2,1.7410766E-1,1.3378848E-1,7.701674E-1,1.4670522E1,8.982889E-1,6.07868E7,7.838403E1,-2.3519278E-2,-9.745183E-2,-2.7715206E-1,1.8861141E-2,3.2252676E7,-6.9819826E-1,1.4954747E1,5.761059E-1,6.998856E7,1.1462938E0,9.13068E-2,6.4128893E-3,-3.7653353E-3,-3.82218E-2,-1.6150916E-2,7.342737E-2,5.347025E-2,-2.1604706E-2,-3.0206103E-2,1.665602E-1,4.381241E-2,-8.253972E-2,-6.481414E-2,1.5273786E-2,1.4542371E-1,-4.501188E-2],"split_indices":[8,9,10,9,3,6,17,0,0,0,15,16,6,14,17,0,0,9,3,14,10,16,10,14,6,0,0,0,0,0,0,0,0,0,0,0,0,0,0,0,0],"split_type":[0,0,0,0,0,0,0,0,0,0,0,0,0,0,0,0,0,0,0,0,0,0,0,0,0,0,0,0,0,0,0,0,0,0,0,0,0,0,0,0,0],"sum_hessian":[1.7909545E3,1.43477545E1,1.7766067E3,9.627722E0,4.720033E0,1.6159208E3,1.6068593E2,1.7254925E0,7.902229E0,1.2075942E0,3.5124393E0,1.415042E3,2.0087874E2,4.7402126E1,1.13283806E2,1.0180573E0,2.494382E0,7.9622296E2,6.1881903E2,1.148613E2,8.601744E1,2.020838E1,2.7193747E1,1.0434547E2,8.93834E0,1.2393904E1,7.8382904E2,4.3936176E2,1.7945729E2,2.9894733E1,8.496657E1,1.825391E1,6.776353E1,6.7433114E0,1.3465068E1,1.1019085E1,1.6174662E1,9.696612E1,7.379343E0,4.4958735E0,4.4424667E0],"tree_param":{"num_deleted":"0","num_feature":"20","num_nodes":"41","size_leaf_vector":"1"}},{"base_weights":[4.7115886E-4,9.931723E-2,-6.4180344E-2,-2.7233453E-2,2.0441355E-1,-5.0572004E-2,-7.745246E-1,2.594344E-1,-3.174968E-1,2.690603E-1,-1.9210152E-1,-1.015147E0,-4.0266763E-2,-2.1758518E-1,-1.1800989E0,3.735582E-1,-2.6950854E-1,2.647001E-1,-3.8650152E-1,3.2252863E-1,-4.5644918E-1,3.7635922E-1,-4.5170173E-1,-1.2924025E0,2.0649863E-2,6.650273E-1,-6.432164E-2,-5.700249E-1,9.785283E-2,-3.5882723E-2,-1.2567736E0,1.6925043E-1,3.019162E-2,-8.752056E-2,1.598028E-2,-9.708873E-2,6.3000426E-2,-2.282734E-2,-6.6249706E-2,2.6819322E-2,1.1432662E-1,-6.1977953E-2,6.293904E-2,8.044402E-2,-4.2383853E-2,-1.0783678E-1,-2.4038777E-2,-1.424957E-1,-5.3332563E-2,9.378859E-2,-5.0996315E-2,-7.1343402E-3,1.3112105E-1,-9.0060584E-2,3.325711E-2,-3.5152674E-2,-1.3322441E-1],"categories":[],"categories_nodes":[],"categories_segments":[],"categories_sizes":[],"default_left":[0,0,0,0,0,0,0,0,0,0,0,0,0,0,0,0,0,0,0,0,0,0,0,0,0,0,0,0,0,0,0,0,0,0,0,0,0,0,0,0,0,0,0,0,0,0,0,0,0,0,0,0,0,0,0,0,0],"id":15,"left_children":[1,3,5,7,9,11,13,15,17,19,21,23,25,27,29,31,33,35,37,39,41,43,45,47,-1,49,51,53,-1,-1,55,-1,-1,-1,-1,-1,-1,-1,-1,-1,-1,-1,-1,-1,-1,-1,-1,-1,-1,-1,-1,-1,-1,-1,-1,-1,-1],"loss_changes":[1.1428532E1,9.41082E0,1.0412276E1,2.6852068E1,9.957613E0,1.0514967E1,4.3181143E0,9.904589E0,6.5424557E0,1.3052828E1,8.25053E0,4.0550556E0,1.7886559E1,4.6723223E0,2.7277565E-1,1.2151587E1,7.7857533E0,8.546784E0,6.1252613E0,1.3537483E1,4.5134006E0,6.408122E0,4.778754E0,1.7108154E-1,0E0,1.1627807E1,9.9258375E0,2.7375364E0,0E0,0E0,2.2254658E-1,0E0,0E0,0E0,0E0,0E0,0E0,0E0,0E0,0E0,0E0,0E0,0E0,0E0,0E0,0E0,0E0,0E0,0E0,0E0,0E0,0E0,0E0,0E0,0E0,0E0,0E0],"parents":[2147483647,0,0,1,1,2,2,3,3,4,4,5,5,6,6,7,7,8,8,9,9,10,10,11,11,12,12,13,13,14,14,15,15,16,16,17,17,18,18,19,19,20,20,21,21,22,22,23,23,25,25,26,26,27,27,30,30],"right_children":[2,4,6,8,10,12,14,16,18,20,22,24,26,28,30,32,34,36,38,40,42,44,46,48,-1,50,52,54,-1,-1,56,-1,-1,-1,-1,-1,-1,-1,-1,-1,-1,-1,-1,-1,-1,-1,-1,-1,-1,-1,-1,-1,-1,-1,-1,-1,-1],"split_conditions":[-5.2787806E-3,6.141967E7,1.1462938E0,5.19605E7,1.3907707E0,2.1440992E-3,5.134688E1,4.793942E-1,6.2692684E-1,9.075867E-1,-6.856598E-2,2.6416032E-2,2.2114253E-1,1.4915119E-1,9.599512E-3,8.422868E-3,1.1360703E-2,7.095225E-3,-1.638425E-3,2.2380686E1,3.2272278E1,-1.0209345E-3,-1.023165E-1,6.359804E1,2.0649863E-2,4.6710125E1,7.519342E1,1.1472782E0,9.785283E-2,-3.5882723E-2,3.2602566E1,1.6925043E-1,3.019162E-2,-8.752056E-2,1.598028E-2,-9.708873E-2,6.3000426E-2,-2.282734E-2,-6.6249706E-2,2.6819322E-2,1.1432662E-1,-6.1977953E-2,6.293904E-2,8.044402E-2,-4.2383853E-2,-1.0783678E-1,-2.4038777E-2,-1.424957E-1,-5.3332563E-2,9.378859E-2,-5.0996315E-2,-7.1343402E-3,1.3112105E-1,-9.0060584E-2,3.325711E-2,-3.5152674E-2,-1.3322441E-1],"split_indices":[2,14,6,14,15,6,12,10,15,6,1,0,17,11,7,7,7,6,0,17,8,9,5,12,0,8,16,15,0,0,17,0,0,0,0,0,0,0,0,0,0,0,0,0,0,0,0,0,0,0,0,0,0,0,0,0,0],"split_type":[0,0,0,0,0,0,0,0,0,0,0,0,0,0,0,0,0,0,0,0,0,0,0,0,0,0,0,0,0,0,0,0,0,0,0,0,0,0,0,0,0,0,0,0,0,0,0,0,0,0,0,0,0,0,0,0,0],"sum_hessian":[1.7863519E3,7.061614E2,1.0801906E3,3.207157E2,3.854457E2,1.060937E3,1.9253588E1,1.6141064E2,1.5930504E2,3.316894E2,5.3756325E1,1.0184195E1,1.0507528E3,8.760311E0,1.0493278E1,1.3300705E2,2.8403595E1,1.658027E1,1.4272476E2,3.0943985E2,2.224953E1,1.6711805E1,3.7044518E1,8.253192E0,1.931002E0,3.377636E1,1.0169764E3,7.1708317E0,1.5894791E0,1.3810073E0,9.11227E0,5.68682E0,1.2732023E2,1.1350721E1,1.7052874E1,3.4051387E0,1.3175133E1,9.187815E1,5.0846615E1,2.9147037E2,1.7969484E1,1.9713476E1,2.5360558E0,1.0883935E1,5.8278694E0,8.306844E0,2.8737675E1,6.279419E0,1.9737734E0,2.7574701E1,6.201658E0,1.01275464E3,4.221738E0,5.250142E0,1.9206893E0,1.1366217E0,7.9756484E0],"tree_param":{"num_deleted":"0","num_feature":"20","num_nodes":"57","size_leaf_vector":"1"}},{"base_weights":[2.345396E-4,8.3803666E-1,-6.9699E-3,1.2817867E0,-1.4904836E-1,1.1602083E-1,-5.164476E-2,-2.074648E-2,1.5916824E-1,1.24601305E-1,-8.2556844E-1,1.6037638E-1,-4.116395E-1,-3.1542143E-1,-2.3604251E-2,-2.2838136E-2,-9.369584E-2,1.0765857E-1,4.8133335E-1,5.449767E-1,-5.5728555E-1,1.0486357E0,-3.8144475E-1,5.220034E-1,-4.615654E-2,3.9531287E-2,3.178247E-3,1.1024382E-1,1.5731119E-2,1.2051302E-1,-7.1745686E-2,-6.4049296E-2,4.562569E-2,1.5169863E-1,1.7587523E-3,-5.9150647E-2,1.4007409E-3,-1.1576166E-1,6.5285E-2,-7.805116E-2,-2.9483626E-3],"categories":[],"categories_nodes":[],"categories_segments":[],"categories_sizes":[],"default_left":[0,0,0,0,0,0,0,0,0,0,0,0,0,0,0,0,0,0,0,0,0,0,0,0,0,0,0,0,0,0,0,0,0,0,0,0,0,0,0,0,0],"id":16,"left_children":[1,3,5,7,9,11,13,-1,-1,-1,15,17,19,21,23,-1,-1,25,27,29,31,33,35,37,39,-1,-1,-1,-1,-1,-1,-1,-1,-1,-1,-1,-1,-1,-1,-1,-1],"loss_changes":[1.077532E1,6.857913E0,9.7315235E0,5.2242203E0,6.3291807E0,1.1111458E1,9.6011505E0,0E0,0E0,0E0,7.761598E-2,7.3263435E0,5.4414425E0,1.16346855E1,1.4486277E1,0E0,0E0,8.190276E0,1.2149359E1,5.346696E0,3.032858E0,2.8832316E0,9.953457E0,1.1026727E1,1.3807669E1,0E0,0E0,0E0,0E0,0E0,0E0,0E0,0E0,0E0,0E0,0E0,0E0,0E0,0E0,0E0,0E0],"parents":[2147483647,0,0,1,1,2,2,3,3,4,4,5,5,6,6,10,10,11,11,12,12,13,13,14,14,17,17,18,18,19,19,20,20,21,21,22,22,23,23,24,24],"right_children":[2,4,6,8,10,12,14,-1,-1,-1,16,18,20,22,24,-1,-1,26,28,30,32,34,36,38,40,-1,-1,-1,-1,-1,-1,-1,-1,-1,-1,-1,-1,-1,-1,-1,-1],"split_conditions":[9.58927E0,3.2138827E-1,-1.5003827E-2,-4.200664E-3,-4.165576E-3,1.2852329E-2,3.2808456E7,-2.074648E-2,1.5916824E-1,1.24601305E-1,7.701674E-1,1.3084106E-1,2.5500193E-1,4.167668E1,2.299248E-1,-2.2838136E-2,-9.369584E-2,5.091877E7,1.5426102E-1,3.8121967E-3,7.654754E-2,7.356728E-1,5.8913704E1,1.42086055E-2,2.0844555E-1,3.9531287E-2,3.178247E-3,1.1024382E-1,1.5731119E-2,1.2051302E-1,-7.1745686E-2,-6.4049296E-2,4.562569E-2,1.5169863E-1,1.7587523E-3,-5.9150647E-2,1.4007409E-3,-1.1576166E-1,6.5285E-2,-7.805116E-2,-2.9483626E-3],"split_indices":[8,9,1,9,3,0,14,0,0,0,15,18,17,12,17,0,0,14,18,9,4,6,17,7,16,0,0,0,0,0,0,0,0,0,0,0,0,0,0,0,0],"split_type":[0,0,0,0,0,0,0,0,0,0,0,0,0,0,0,0,0,0,0,0,0,0,0,0,0,0,0,0,0,0,0,0,0,0,0,0,0,0,0,0,0],"sum_hessian":[1.7832389E3,1.4220487E1,1.7690184E3,9.604271E0,4.6162157E0,4.709333E2,1.2980852E3,1.7112291E0,7.893042E0,1.2326185E0,3.3835974E0,4.35058E2,3.5875267E1,1.237473E2,1.1743379E3,1.0114216E0,2.3721757E0,3.7482733E2,6.0230694E1,4.378051E0,3.1497215E1,5.026006E0,1.1872129E2,4.573458E1,1.1286033E3,7.735529E1,2.9747202E2,1.9825548E1,4.0405144E1,2.904577E0,1.4734741E0,2.9447748E1,2.0494676E0,3.1319995E0,1.8940066E0,7.7211334E1,4.150996E1,2.7382133E0,4.299637E1,2.4038076E1,1.1045652E3],"tree_param":{"num_deleted":"0","num_feature":"20","num_nodes":"41","size_leaf_vector":"1"}},{"base_weights":[3.2431094E-4,2.303205E-2,-2.30525E-1,-8.937196E-3,2.47578E-1,2.4034421E-1,-4.3165737E-1,7.2359435E-2,-1.13065615E-1,1.4336182E-1,7.810302E-1,9.213352E-1,-2.9453084E-1,-5.1393247E-1,4.8804718E-1,9.888387E-2,-3.1451127E-1,1.06516264E-1,-2.3483504E-1,2.2265297E-1,-4.7694048E-1,1.4330864E0,7.6715755E-3,-2.678571E-1,1.4699198E0,3.8783708E-1,-7.740549E-1,6.753441E-2,-5.4082114E-1,1.2529579E-1,-3.821886E-1,6.0824403E-3,4.3938767E-2,1.3026558E-1,-5.2764364E-2,6.0367744E-2,-2.2206109E-3,-1.2453624E-2,-5.6352623E-2,1.1227065E-1,1.4946379E-2,-7.7091157E-3,-9.763924E-2,1.5988903E-1,6.094894E-3,7.223674E-2,-1.1069745E-1,1.4685488E-1,-9.053167E-2,2.6533736E-2,1.8664783E-1,-3.839593E-2,1.2723401E-1,-1.0082898E-1,-7.978438E-3,-4.245843E-2,-9.047624E-2,7.9753175E-2,-8.887256E-2],"categories":[],"categories_nodes":[],"categories_segments":[],"categories_sizes":[],"default_left":[0,0,0,0,0,0,0,0,0,0,0,0,0,0,0,0,0,0,0,0,0,0,0,0,0,0,0,0,0,0,0,0,0,0,0,0,0,0,0,0,0,0,0,0,0,0,0,0,0,0,0,0,0,0,0,0,0,0,0],"id":17,"left_children":[1,3,5,7,9,11,13,15,17,19,21,23,25,27,29,31,33,35,37,39,41,43,45,47,49,51,53,-1,55,-1,57,-1,-1,-1,-1,-1,-1,-1,-1,-1,-1,-1,-1,-1,-1,-1,-1,-1,-1,-1,-1,-1,-1,-1,-1,-1,-1,-1,-1],"loss_changes":[9.344504E0,1.165261E1,1.52231455E1,1.2042792E1,1.1134802E1,1.7909676E1,8.742342E0,8.229606E0,1.6701359E1,8.490318E0,1.6548239E1,1.4448912E1,9.42274E0,3.6747131E0,6.954036E0,9.672777E0,1.843861E1,1.42956E1,1.4486343E1,9.833511E0,3.846611E0,3.9545975E0,1.3567313E1,9.794029E0,6.6211357E0,8.798078E0,2.6365213E0,0E0,3.9206104E0,0E0,3.8859284E0,0E0,0E0,0E0,0E0,0E0,0E0,0E0,0E0,0E0,0E0,0E0,0E0,0E0,0E0,0E0,0E0,0E0,0E0,0E0,0E0,0E0,0E0,0E0,0E0,0E0,0E0,0E0,0E0],"parents":[2147483647,0,0,1,1,2,2,3,3,4,4,5,5,6,6,7,7,8,8,9,9,10,10,11,11,12,12,13,13,14,14,15,15,16,16,17,17,18,18,19,19,20,20,21,21,22,22,23,23,24,24,25,25,26,26,28,28,30,30],"right_children":[2,4,6,8,10,12,14,16,18,20,22,24,26,28,30,32,34,36,38,40,42,44,46,48,50,52,54,-1,56,-1,58,-1,-1,-1,-1,-1,-1,-1,-1,-1,-1,-1,-1,-1,-1,-1,-1,-1,-1,-1,-1,-1,-1,-1,-1,-1,-1,-1,-1],"split_conditions":[4.9390095E-1,7.207201E-1,2.4692856E1,1.4670522E1,7.311293E-2,6.07868E7,7.838403E1,2.6052687E-1,5.5683E7,4.2623024E-2,8.726311E-1,1.4954747E1,5.761059E-1,1.740288E7,1.1462938E0,1.2745227E-1,4.7834422E-3,2.082877E1,7.169254E-2,-8.870033E-1,-6.2522054E-1,9.651509E-2,5.1281106E-1,1.6651493E1,-1.8286236E-2,1.6668167E1,7.4467844E-1,6.753441E-2,7.02655E1,1.2529579E-1,-2.4175521E-2,6.0824403E-3,4.3938767E-2,1.3026558E-1,-5.2764364E-2,6.0367744E-2,-2.2206109E-3,-1.2453624E-2,-5.6352623E-2,1.1227065E-1,1.4946379E-2,-7.7091157E-3,-9.763924E-2,1.5988903E-1,6.094894E-3,7.223674E-2,-1.1069745E-1,1.4685488E-1,-9.053167E-2,2.6533736E-2,1.8664783E-1,-3.839593E-2,1.2723401E-1,-1.0082898E-1,-7.978438E-3,-4.245843E-2,-9.047624E-2,7.9753175E-2,-8.887256E-2],"split_indices":[10,6,17,16,5,14,17,18,14,7,6,16,10,14,6,9,10,17,18,10,9,3,9,17,19,16,10,0,12,0,2,0,0,0,0,0,0,0,0,0,0,0,0,0,0,0,0,0,0,0,0,0,0,0,0,0,0,0,0],"split_type":[0,0,0,0,0,0,0,0,0,0,0,0,0,0,0,0,0,0,0,0,0,0,0,0,0,0,0,0,0,0,0,0,0,0,0,0,0,0,0,0,0,0,0,0,0,0,0,0,0,0,0,0,0,0,0,0,0,0,0],"sum_hessian":[1.7805864E3,1.6219425E3,1.5864388E2,1.4206418E3,2.0130063E2,4.74243E1,1.11219574E2,7.979556E2,6.226862E2,1.6946281E2,3.1837818E1,2.054471E1,2.6879593E1,1.0249203E2,8.727553E0,7.474535E2,5.0502132E1,2.2217404E2,4.005122E2,1.5082448E2,1.8638329E1,1.6810772E1,1.5027047E1,6.6471353E0,1.3897573E1,1.11723795E1,1.5707212E1,1.7328378E0,1.00759186E2,4.4108024E0,4.3167515E0,6.733672E2,7.40863E1,5.2855372E0,4.52166E1,4.493458E1,1.7723946E2,3.009136E2,9.9598595E1,1.0263838E1,1.4056065E2,1.0992414E1,7.645914E0,1.4850981E1,1.959791E0,9.370647E0,5.6563997E0,1.4348712E0,5.212264E0,3.8554358E0,1.0042138E1,6.268521E0,4.903859E0,1.1406542E1,4.300671E0,7.801054E1,2.274865E1,1.124146E0,3.1926053E0],"tree_param":{"num_deleted":"0","num_feature":"20","num_nodes":"59","size_leaf_vector":"1"}},{"base_weights":[4.3379635E-4,7.74882E-1,-6.1367676E-3,1.1719886E0,-1.24626115E-1,7.909062E-2,-6.235574E-2,-2.00355E-2,1.4611512E0,1.18873835E-1,-7.895575E-1,-4.736045E-2,1.8243486E-1,-3.5111386E-1,-3.164279E-2,4.6101727E-2,1.5591915E-1,-9.132328E-2,-2.244124E-2,2.1886231E-1,-2.9205906E-1,2.4081075E-1,-1.7855665E-1,6.4133435E-2,-5.3673804E-1,-4.04272E-1,2.5513214E-3,3.3203155E-2,-3.18746E-2,-1.2087404E-1,-2.4855826E-2,5.4074805E-2,1.1831666E-2,3.4172785E-2,-4.1731883E-2,4.557104E-2,-3.565142E-2,-6.00832E-2,1.1446539E-1,3.397841E-2,-5.3648394E-2,9.654849E-2,-2.5498874E-3],"categories":[],"categories_nodes":[],"categories_segments":[],"categories_sizes":[],"default_left":[0,0,0,0,0,0,0,0,0,0,0,0,0,0,0,0,0,0,0,0,0,0,0,0,0,0,0,0,0,0,0,0,0,0,0,0,0,0,0,0,0,0,0],"id":18,"left_children":[1,3,5,7,9,11,13,-1,15,-1,17,19,21,23,25,-1,-1,-1,-1,27,29,31,33,35,37,39,41,-1,-1,-1,-1,-1,-1,-1,-1,-1,-1,-1,-1,-1,-1,-1,-1],"loss_changes":[9.04708E0,5.4888315E0,8.452322E0,4.4485817E0,5.728421E0,9.171553E0,9.414991E0,0E0,1.4116669E-1,0E0,9.1563225E-2,2.0657822E1,8.178203E0,7.9028273E0,1.2255764E1,0E0,0E0,0E0,0E0,9.352186E0,6.285181E0,1.2160831E1,6.8894334E0,5.503983E0,8.301743E0,8.135292E0,2.3846085E1,0E0,0E0,0E0,0E0,0E0,0E0,0E0,0E0,0E0,0E0,0E0,0E0,0E0,0E0,0E0,0E0],"parents":[2147483647,0,0,1,1,2,2,3,3,4,4,5,5,6,6,8,8,10,10,11,11,12,12,13,13,14,14,19,19,20,20,21,21,22,22,23,23,24,24,25,25,26,26],"right_children":[2,4,6,8,10,12,14,-1,16,-1,18,20,22,24,26,-1,-1,-1,-1,28,30,32,34,36,38,40,42,-1,-1,-1,-1,-1,-1,-1,-1,-1,-1,-1,-1,-1,-1,-1,-1],"split_conditions":[9.58927E0,3.2138827E-1,-5.2787806E-3,-4.200664E-3,-4.165576E-3,6.141967E7,3.374453E7,-2.00355E-2,2.2749136E-1,1.18873835E-1,8.525152E-1,5.091877E7,1.3907707E0,5.9622414E-3,1.0374549E-2,4.6101727E-2,1.5591915E-1,-9.132328E-2,-2.244124E-2,4.9390095E-1,1.1992204E1,1.5808E0,-6.856598E-2,1.0204895E-2,1.1520822E-1,-4.3038847E-3,1.1007273E-2,3.3203155E-2,-3.18746E-2,-1.2087404E-1,-2.4855826E-2,5.4074805E-2,1.1831666E-2,3.4172785E-2,-4.1731883E-2,4.557104E-2,-3.565142E-2,-6.00832E-2,1.1446539E-1,3.397841E-2,-5.3648394E-2,9.654849E-2,-2.5498874E-3],"split_indices":[8,9,2,9,3,14,14,0,16,0,6,14,15,3,7,0,0,0,0,10,8,16,1,7,3,1,7,0,0,0,0,0,0,0,0,0,0,0,0,0,0,0,0],"split_type":[0,0,0,0,0,0,0,0,0,0,0,0,0,0,0,0,0,0,0,0,0,0,0,0,0,0,0,0,0,0,0,0,0,0,0,0,0,0,0,0,0,0,0],"sum_hessian":[1.7759905E3,1.3957343E1,1.7620331E3,9.472562E0,4.4847813E0,7.001723E2,1.0618607E3,1.7020208E0,7.7705407E0,1.2426175E0,3.2421637E0,3.1512726E2,3.8504507E2,1.0108107E2,9.607797E2,1.2027993E0,6.5677414E0,2.1547062E0,1.0874575E0,1.5097635E2,1.6415091E2,3.3173343E2,5.3311646E1,3.1428656E1,6.965241E1,7.984531E1,8.809344E2,1.25037674E2,2.5938665E1,6.223257E0,1.5792766E2,9.5203926E1,2.365295E2,1.663381E1,3.6677834E1,1.6233597E1,1.5195058E1,6.771385E1,1.9385636E0,1.1810234E1,6.803507E1,2.3989239E1,8.569452E2],"tree_param":{"num_deleted":"0","num_feature":"20","num_nodes":"43","size_leaf_vector":"1"}},{"base_weights":[4.1006252E-4,6.00835E-1,-7.012857E-3,8.2117033E-1,-3.749841E-1,1.1721872E-1,-4.024797E-2,-2.444845E-1,1.1398395E0,6.0338367E-2,-8.973749E-2,-3.4865987E-1,1.8690981E-1,-3.344931E-1,-1.2123968E-2,4.7422484E-2,-9.3921095E-2,3.7721103E-1,1.355178E0,3.338718E-1,-7.8865427E-1,8.337859E-1,1.11567296E-1,-5.65849E-1,1.3792065E-1,2.0798758E-1,-5.2774068E-2,-2.3896677E-2,1.1145759E-1,1.4684202E-1,2.8368194E-2,-5.7486087E-2,6.899272E-2,1.8928958E-2,-1.07863925E-1,-1.6630337E-3,1.4684413E-1,6.0887873E-2,2.3374935E-4,-6.7779473E-3,-7.3594E-2,8.859263E-2,-4.3294515E-2,2.7471683E-3,6.405165E-2,1.5223332E-2,-1.1216294E-2],"categories":[],"categories_nodes":[],"categories_segments":[],"categories_sizes":[],"default_left":[0,0,0,0,0,0,0,0,0,0,0,0,0,0,0,0,0,0,0,0,0,0,0,0,0,0,0,0,0,0,0,0,0,0,0,0,0,0,0,0,0,0,0,0,0,0,0],"id":19,"left_children":[1,3,5,7,9,11,13,15,17,-1,-1,19,21,23,25,-1,-1,27,29,31,33,35,37,39,41,43,45,-1,-1,-1,-1,-1,-1,-1,-1,-1,-1,-1,-1,-1,-1,-1,-1,-1,-1,-1,-1],"loss_changes":[7.9088097E0,4.9671187E0,7.242144E0,6.3885145E0,2.932431E0,1.2085415E1,1.1446285E1,2.9244843E0,1.7923222E0,0E0,0E0,1.4835655E1,1.5634429E1,1.3267394E1,1.132062E1,0E0,0E0,2.29921E0,8.6385155E-1,6.7780266E0,8.655626E0,1.811034E1,1.5761994E1,6.829241E0,1.7666725E1,1.5383044E1,1.3017057E1,0E0,0E0,0E0,0E0,0E0,0E0,0E0,0E0,0E0,0E0,0E0,0E0,0E0,0E0,0E0,0E0,0E0,0E0,0E0,0E0],"parents":[2147483647,0,0,1,1,2,2,3,3,4,4,5,5,6,6,7,7,8,8,11,11,12,12,13,13,14,14,17,17,18,18,19,19,20,20,21,21,22,22,23,23,24,24,25,25,26,26],"right_children":[2,4,6,8,10,12,14,16,18,-1,-1,20,22,24,26,-1,-1,28,30,32,34,36,38,40,42,44,46,-1,-1,-1,-1,-1,-1,-1,-1,-1,-1,-1,-1,-1,-1,-1,-1,-1,-1,-1,-1],"split_conditions":[1.0142992E1,5.9386948E1,1.5690546E0,-4.200664E-3,4.6904397E-1,-6.50455E-2,1.8179195E0,-2.3643677E-3,-2.0804505E-1,6.0338367E-2,-8.973749E-2,-4.2397417E-2,3.7655137E-2,2.0430127E-2,9.7981E0,4.7422484E-2,-9.3921095E-2,1.0877207E-2,5.8067924E1,2.1498779E-2,2.4611379E-1,2.1498779E-2,1.7482102E-2,1.5084013E1,-1.3054502E-3,5.016657E0,-2.1809003E-1,-2.3896677E-2,1.1145759E-1,1.4684202E-1,2.8368194E-2,-5.7486087E-2,6.899272E-2,1.8928958E-2,-1.07863925E-1,-1.6630337E-3,1.4684413E-1,6.0887873E-2,2.3374935E-4,-6.7779473E-3,-7.3594E-2,8.859263E-2,-4.3294515E-2,2.7471683E-3,6.405165E-2,1.5223332E-2,-1.1216294E-2],"split_indices":[8,12,17,9,6,5,16,3,13,0,0,1,18,7,16,0,0,11,12,7,17,7,7,8,3,16,10,0,0,0,0,0,0,0,0,0,0,0,0,0,0,0,0,0,0,0,0],"split_type":[0,0,0,0,0,0,0,0,0,0,0,0,0,0,0,0,0,0,0,0,0,0,0,0,0,0,0,0,0,0,0,0,0,0,0,0,0,0,0,0,0,0,0,0,0,0,0],"sum_hessian":[1.7725613E3,2.0669922E1,1.7518914E3,1.6991747E1,3.6781747E0,3.69223E2,1.3826683E3,3.965062E0,1.3026685E1,1.2263476E0,2.451827E0,4.7524323E1,3.2169867E2,1.1967584E2,1.2629924E3,2.1048958E0,1.8601661E0,3.4742448E0,9.55244E0,1.8722557E1,2.8801764E1,3.2509747E1,2.8918893E2,8.0201065E1,3.9474773E1,1.96246E2,1.0667465E3,2.2608702E0,1.2133747E0,8.304348E0,1.2480919E0,5.097661E0,1.3624895E1,6.6666E0,2.2135164E1,1.4309417E1,1.8200329E1,5.1255215E1,2.3793372E2,2.0772474E1,5.9428593E1,1.6847538E1,2.2627234E1,1.3921016E2,5.703584E1,2.392622E2,8.2748425E2],"tree_param":{"num_deleted":"0","num_feature":"20","num_nodes":"47","size_leaf_vector":"1"}},{"base_weights":[4.927312E-4,5.0122436E-2,-8.22295E-2,-8.812629E-2,1.1457939E-1,1.4140012E-2,-2.3094697E-1,-3.462516E-4,-6.0940015E-1,9.328657E-2,8.4750557E-1,2.8963852E-1,-1.0443915E-1,-4.824023E-2,-4.8766133E-1,-4.3265277E-1,9.968756E-2,9.395328E-1,-7.118455E-1,1.2019766E-1,-4.9696267E-1,-2.4209583E-1,1.1502447E0,6.124405E-1,-4.617002E-2,-1.2836152E-1,1.2422922E0,-4.3211502E-1,2.0128758E-1,-2.5096658E-1,-8.5071796E-1,1.080177E-1,-6.0155977E-2,5.55712E-2,-2.4489558E-3,1.3316916E-1,4.7518625E-3,-8.6384736E-2,2.253762E-2,1.6599767E-2,-1.9637693E-2,3.9467074E-2,-8.11638E-2,-9.5025554E-2,1.0136341E-1,1.5415828E-1,3.931884E-2,-6.426022E-2,7.308663E-2,-6.4879276E-2,2.6641497E-2,5.4989015E-3,-3.4786176E-2,1.4464583E-1,3.1297818E-2,-7.0608534E-2,2.196904E-2,-9.082884E-3,5.5369433E-2,-8.6649E-3,-8.844346E-2,-9.4513774E-2,3.2501347E-2],"categories":[],"categories_nodes":[],"categories_segments":[],"categories_sizes":[],"default_left":[0,0,0,0,0,0,0,0,0,0,0,0,0,0,0,0,0,0,0,0,0,0,0,0,0,0,0,0,0,0,0,0,0,0,0,0,0,0,0,0,0,0,0,0,0,0,0,0,0,0,0,0,0,0,0,0,0,0,0,0,0,0,0],"id":20,"left_children":[1,3,5,7,9,11,13,15,17,19,21,23,25,27,29,31,33,35,37,39,41,43,45,47,49,51,53,55,57,59,61,-1,-1,-1,-1,-1,-1,-1,-1,-1,-1,-1,-1,-1,-1,-1,-1,-1,-1,-1,-1,-1,-1,-1,-1,-1,-1,-1,-1,-1,-1,-1,-1],"loss_changes":[7.2693253E0,9.871769E0,9.519052E0,1.6127853E1,1.170672E1,1.3222744E1,1.2224416E1,1.313216E1,8.7296505E0,1.1734791E1,7.270607E0,1.3229068E1,9.278546E0,1.4806175E1,9.107349E0,1.5230932E1,1.3978405E1,1.1898987E0,7.0636024E0,1.0236548E1,9.367355E0,5.796342E0,4.35985E0,9.708759E0,1.1591297E1,1.1248339E1,5.023799E-1,1.1022129E1,9.707581E0,6.905477E0,5.012779E0,0E0,0E0,0E0,0E0,0E0,0E0,0E0,0E0,0E0,0E0,0E0,0E0,0E0,0E0,0E0,0E0,0E0,0E0,0E0,0E0,0E0,0E0,0E0,0E0,0E0,0E0,0E0,0E0,0E0,0E0,0E0,0E0],"parents":[2147483647,0,0,1,1,2,2,3,3,4,4,5,5,6,6,7,7,8,8,9,9,10,10,11,11,12,12,13,13,14,14,15,15,16,16,17,17,18,18,19,19,20,20,21,21,22,22,23,23,24,24,25,25,26,26,27,27,28,28,29,29,30,30],"right_children":[2,4,6,8,10,12,14,16,18,20,22,24,26,28,30,32,34,36,38,40,42,44,46,48,50,52,54,56,58,60,62,-1,-1,-1,-1,-1,-1,-1,-1,-1,-1,-1,-1,-1,-1,-1,-1,-1,-1,-1,-1,-1,-1,-1,-1,-1,-1,-1,-1,-1,-1,-1,-1],"split_conditions":[1.4889501E-2,1.3990466E-2,4.3737978E-2,1.3229313E-2,3.96988E1,2.621259E-4,2.9464058E1,6.4728595E-3,-4.2355853E-1,3.3111103E1,-4.787696E-2,6.4446292E7,3.601059E-1,2.0132166E1,9.358425E-3,-4.2355853E-1,1.719494E1,2.6560183E1,5.043941E-1,1.3907707E0,-9.291429E-2,1.2732335E0,1.722378E-2,1.1988254E-2,-3.0088332E-2,3.583915E-2,5.760027E1,6.393164E1,2.5860291E-2,7.094784E7,1.01840995E-1,1.080177E-1,-6.0155977E-2,5.55712E-2,-2.4489558E-3,1.3316916E-1,4.7518625E-3,-8.6384736E-2,2.253762E-2,1.6599767E-2,-1.9637693E-2,3.9467074E-2,-8.11638E-2,-9.5025554E-2,1.0136341E-1,1.5415828E-1,3.931884E-2,-6.426022E-2,7.308663E-2,-6.4879276E-2,2.6641497E-2,5.4989015E-3,-3.4786176E-2,1.4464583E-1,3.1297818E-2,-7.0608534E-2,2.196904E-2,-9.082884E-3,5.5369433E-2,-8.6649E-3,-8.844346E-2,-9.4513774E-2,3.2501347E-2],"split_indices":[2,7,10,7,16,19,8,18,9,17,3,14,11,8,0,9,16,8,13,15,5,6,7,7,19,3,12,12,1,14,2,0,0,0,0,0,0,0,0,0,0,0,0,0,0,0,0,0,0,0,0,0,0,0,0,0,0,0,0,0,0,0,0],"split_type":[0,0,0,0,0,0,0,0,0,0,0,0,0,0,0,0,0,0,0,0,0,0,0,0,0,0,0,0,0,0,0,0,0,0,0,0,0,0,0,0,0,0,0,0,0,0,0,0,0,0,0,0,0,0,0,0,0,0,0,0,0,0,0],"sum_hessian":[1.7686355E3,1.1056738E3,6.629616E2,3.514687E2,7.5420514E2,4.028307E2,2.6013095E2,3.0166962E2,4.979906E1,7.340082E2,2.0196976E1,1.2077889E2,2.820518E2,1.5266519E2,1.0746577E2,5.60629E1,2.4560672E2,2.5824456E0,4.7216614E1,7.027636E2,3.1244576E1,4.4350195E0,1.5761956E1,6.1162018E1,5.9616875E1,2.7801794E2,4.0338273E0,5.9853912E1,9.281128E1,6.607769E1,4.138808E1,5.0888743E0,5.0974026E1,5.182199E1,1.9378473E2,1.4514407E0,1.1310048E0,4.069487E1,6.521746E0,6.1435785E2,8.840575E1,8.0840845E0,2.316049E1,2.9913397E0,1.4436796E0,9.707606E0,6.054349E0,4.8919816E0,5.627004E1,1.9994513E1,3.962236E1,1.5189127E2,1.2612669E2,2.8509965E0,1.1828307E0,4.2082355E1,1.7771557E1,5.1152386E1,4.1658894E1,5.3370502E1,1.2707186E1,3.8492947E1,2.8951366E0],"tree_param":{"num_deleted":"0","num_feature":"20","num_nodes":"63","size_leaf_vector":"1"}},{"base_weights":[3.9999292E-4,6.838045E-1,-5.2037663E-3,1.0464662E0,-1.3616778E-1,9.40093E-2,-4.1497964E-2,-1.749623E-2,1.3087871E0,1.0453681E-1,-7.5565845E-1,1.3423629E-1,-3.9150515E-1,6.559065E-1,-4.9475525E-2,3.9252352E-2,1.4016531E-1,-8.7530635E-2,-2.3054175E-2,2.3238802E-2,2.7007285E-1,-2.2718832E-2,-7.590903E-1,1.047394E0,-9.546073E-2,-3.939016E-2,-6.7004013E-1,4.709181E-2,-5.115626E-3,2.9815167E-2,-7.409858E-2,-3.431267E-2,8.296352E-2,5.5576377E-3,-1.048766E-1,-6.791121E-2,1.2889926E-1,-4.4777314E-3,1.21695E-1,4.3107525E-2,-8.8212006E-2],"categories":[],"categories_nodes":[],"categories_segments":[],"categories_sizes":[],"default_left":[0,0,0,0,0,0,0,0,0,0,0,0,0,0,0,0,0,0,0,0,0,0,0,0,0,0,0,0,0,0,0,0,0,0,0,0,0,0,0,0,0],"id":21,"left_children":[1,3,5,7,9,11,13,-1,15,-1,17,19,21,23,25,-1,-1,-1,-1,27,29,31,33,35,-1,37,39,-1,-1,-1,-1,-1,-1,-1,-1,-1,-1,-1,-1,-1,-1],"loss_changes":[6.7661185E0,4.4155464E0,6.3143373E0,3.4580545E0,4.6629157E0,9.2259655E0,7.174933E0,0E0,1.6578102E-1,0E0,5.2770615E-2,6.544849E0,4.889164E0,1.01983185E1,7.923318E0,0E0,0E0,0E0,0E0,8.024118E0,5.7651415E0,5.50038E0,4.3286133E0,5.9697485E0,0E0,8.521055E0,5.109275E0,0E0,0E0,0E0,0E0,0E0,0E0,0E0,0E0,0E0,0E0,0E0,0E0,0E0,0E0],"parents":[2147483647,0,0,1,1,2,2,3,3,4,4,5,5,6,6,8,8,10,10,11,11,12,12,13,13,14,14,19,19,20,20,21,21,22,22,23,23,25,25,26,26],"right_children":[2,4,6,8,10,12,14,-1,16,-1,18,20,22,24,26,-1,-1,-1,-1,28,30,32,34,36,-1,38,40,-1,-1,-1,-1,-1,-1,-1,-1,-1,-1,-1,-1,-1,-1],"split_conditions":[9.58927E0,3.2138827E-1,-1.5003827E-2,-4.200664E-3,-4.165576E-3,1.2852329E-2,-8.870033E-1,-1.749623E-2,2.2749136E-1,1.0453681E-1,8.538223E-3,2.3328342E1,1.3922256E-3,1.0693795E8,1.1462938E0,3.9252352E-2,1.4016531E-1,-8.7530635E-2,-2.3054175E-2,6.363926E-1,1.16802424E-1,-6.8469686E-3,9.000876E-1,5.687041E-1,-9.546073E-2,7.519342E1,1.796118E1,4.709181E-2,-5.115626E-3,2.9815167E-2,-7.409858E-2,-3.431267E-2,8.296352E-2,5.5576377E-3,-1.048766E-1,-6.791121E-2,1.2889926E-1,-4.4777314E-3,1.21695E-1,4.3107525E-2,-8.8212006E-2],"split_indices":[8,9,1,9,3,0,10,0,16,0,1,8,10,14,6,0,0,0,0,15,4,10,15,15,0,16,8,0,0,0,0,0,0,0,0,0,0,0,0,0,0],"split_type":[0,0,0,0,0,0,0,0,0,0,0,0,0,0,0,0,0,0,0,0,0,0,0,0,0,0,0,0,0,0,0,0,0,0,0,0,0,0,0,0,0],"sum_hessian":[1.7648502E3,1.3369351E1,1.7514808E3,9.078044E0,4.2913074E0,4.6868982E2,1.282791E3,1.6638381E0,7.414206E0,1.2395973E0,3.0517101E0,4.3349628E2,3.519354E1,1.3589254E1,1.2692018E3,1.1632957E0,6.2509103E0,1.9422816E0,1.1094285E0,2.392041E2,1.9429216E2,1.8098103E1,1.7095436E1,1.121318E1,2.3760746E0,1.2499512E3,1.925063E1,3.3326828E1,2.0587727E2,1.897282E2,4.5639663E0,1.35877695E1,4.5103335E0,4.6962175E0,1.2399219E1,1.1541934E0,1.0058986E1,1.2455745E3,4.376635E0,2.9421937E0,1.6308435E1],"tree_param":{"num_deleted":"0","num_feature":"20","num_nodes":"41","size_leaf_vector":"1"}},{"base_weights":[4.1280693E-4,1.3085819E-2,-2.778354E-1,-2.2590479E-2,2.2376801E-1,8.760185E-1,-4.8229057E-1,-3.069198E-2,7.9962635E-1,3.1294495E-1,-5.3583544E-1,1.4681679E0,-9.581854E-2,8.156675E-1,-5.6824553E-1,-5.8276793E-3,-3.3568397E-1,-2.1878414E-1,1.2480881E0,2.1614459E-1,1.1114283E0,-1.791003E-1,-1.0735605E0,1.6241036E-1,1.478184E-2,1.4122738E-1,-3.3969607E-2,-7.23067E-1,7.092591E-2,5.5806073E-3,-1.45604415E-2,1.0175967E-1,-4.2271134E-2,-8.95731E-2,9.287458E-2,1.503278E-1,-3.4411035E-2,2.7016232E-2,-1.24491766E-1,1.4282766E-1,-7.061388E-2,-7.305653E-2,1.1536715E-1,-2.2319311E-2,-1.1430186E-1,-7.744812E-2,6.5491684E-2,4.617212E-2,-1.0504432E-1],"categories":[],"categories_nodes":[],"categories_segments":[],"categories_sizes":[],"default_left":[0,0,0,0,0,0,0,0,0,0,0,0,0,0,0,0,0,0,0,0,0,0,0,0,0,0,0,0,0,0,0,0,0,0,0,0,0,0,0,0,0,0,0,0,0,0,0,0,0],"id":22,"left_children":[1,3,5,7,9,11,13,15,17,19,21,23,-1,25,27,29,31,33,35,37,39,41,43,-1,-1,-1,-1,45,47,-1,-1,-1,-1,-1,-1,-1,-1,-1,-1,-1,-1,-1,-1,-1,-1,-1,-1,-1,-1],"loss_changes":[6.2218933E0,1.2689366E1,1.8555264E1,9.643869E0,1.6728203E1,1.4358325E1,7.8199396E0,1.084959E1,6.7251406E0,1.671955E1,4.8056235E0,1.6972027E0,0E0,3.5857341E0,6.229397E0,1.1415298E1,1.3131532E1,4.847943E0,4.5630274E0,1.5879291E1,1.453219E1,1.3237065E1,3.468151E-1,0E0,0E0,0E0,0E0,4.0742493E0,6.218913E0,0E0,0E0,0E0,0E0,0E0,0E0,0E0,0E0,0E0,0E0,0E0,0E0,0E0,0E0,0E0,0E0,0E0,0E0,0E0,0E0],"parents":[2147483647,0,0,1,1,2,2,3,3,4,4,5,5,6,6,7,7,8,8,9,9,10,10,11,11,13,13,14,14,15,15,16,16,17,17,18,18,19,19,20,20,21,21,22,22,27,27,28,28],"right_children":[2,4,6,8,10,12,14,16,18,20,22,24,-1,26,28,30,32,34,36,38,40,42,44,-1,-1,-1,-1,46,48,-1,-1,-1,-1,-1,-1,-1,-1,-1,-1,-1,-1,-1,-1,-1,-1,-1,-1,-1,-1],"split_conditions":[2.6052687E-1,2.7155746E-2,5.656832E7,1.7152713E-1,1.9796402E1,4.8287296E1,4.7834422E-3,2.4259495E-2,8.11384E-2,1.3980477E-1,-9.748879E-2,4.385017E-2,-9.581854E-2,1.04247116E-1,4.9177387E1,2.2400144E-2,-1.1715335E-1,4.5694655E-1,6.046925E-1,8.360665E-2,3.4921106E-2,4.3080727E1,-1.2101903E-1,1.6241036E-1,1.478184E-2,1.4122738E-1,-3.3969607E-2,1.3274524E-1,5.1158253E-2,5.5806073E-3,-1.45604415E-2,1.0175967E-1,-4.2271134E-2,-8.95731E-2,9.287458E-2,1.503278E-1,-3.4411035E-2,2.7016232E-2,-1.24491766E-1,1.4282766E-1,-7.061388E-2,-7.305653E-2,1.1536715E-1,-2.2319311E-2,-1.1430186E-1,-7.744812E-2,6.5491684E-2,4.617212E-2,-1.0504432E-1],"split_indices":[18,7,14,5,16,8,10,7,3,10,9,0,0,1,8,3,5,6,6,10,7,12,5,0,0,0,0,1,9,0,0,0,0,0,0,0,0,0,0,0,0,0,0,0,0,0,0,0,0],"split_type":[0,0,0,0,0,0,0,0,0,0,0,0,0,0,0,0,0,0,0,0,0,0,0,0,0,0,0,0,0,0,0,0,0,0,0,0,0,0,0,0,0,0,0,0,0,0,0,0,0],"sum_hessian":[1.7624229E3,1.6865603E3,7.586262E1,1.4430852E3,2.43475E2,1.092457E1,6.493805E1,1.4299583E3,1.3127049E1,2.184206E2,2.505441E1,8.409297E0,2.5152733E0,3.5060256E0,6.1432022E1,1.3231115E3,1.068468E2,4.1698637E0,8.957187E0,1.9593771E2,2.2482883E1,1.5863433E1,9.190978E0,7.3152924E0,1.0940044E0,2.1654618E0,1.3405637E0,4.934767E1,1.2084353E1,9.1864215E2,4.0446927E2,5.809886E0,1.0103691E2,2.760705E0,1.4091586E0,7.768014E0,1.1891725E0,1.897379E2,6.1998086E0,1.9327747E1,3.1551363E0,1.1540239E1,4.323194E0,1.0121905E0,8.178787E0,4.7994884E1,1.352785E0,9.397569E0,2.686785E0],"tree_param":{"num_deleted":"0","num_feature":"20","num_nodes":"49","size_leaf_vector":"1"}},{"base_weights":[3.735014E-4,6.6752946E-3,-5.257778E-1,3.268691E-1,-5.9692645E-3,9.966998E-2,-7.62205E-1,-1.9992958E-1,8.643659E-1,1.6188424E-2,-2.1294717E-1,-1.9338652E-1,-1.3335533E-1,1.0490023E-1,-3.731061E-1,9.888678E-1,-7.130735E-2,9.7477E-1,8.665161E-3,-5.2428395E-1,-8.7891586E-2,1.10394396E-1,-6.103932E-1,-9.456887E-2,3.59889E-2,1.6383179E-2,1.1655436E-1,6.14246E-3,1.3381256E-1,-1.10810906E-4,5.063173E-2,-3.0927503E-2,-9.929724E-2,-3.3507682E-3,-1.012898E-1,-1.3953517E-1,1.10089695E-2],"categories":[],"categories_nodes":[],"categories_segments":[],"categories_sizes":[],"default_left":[0,0,0,0,0,0,0,0,0,0,0,0,0,0,0,0,0,0,0,0,0,0,0,0,0,0,0,0,0,0,0,0,0,0,0,0,0],"id":23,"left_children":[1,3,5,7,9,-1,11,13,15,17,19,21,-1,-1,23,25,-1,27,29,31,33,-1,35,-1,-1,-1,-1,-1,-1,-1,-1,-1,-1,-1,-1,-1,-1],"loss_changes":[5.839753E0,7.048086E0,8.262966E0,1.8898726E1,7.686203E0,0E0,5.7901583E0,7.7908125E0,7.170883E0,1.0911034E1,6.2638326E0,6.351663E0,0E0,0E0,1.3259943E1,4.3179474E0,0E0,3.8278828E0,7.3124366E0,4.3527184E0,5.84295E0,0E0,5.0095196E0,0E0,0E0,0E0,0E0,0E0,0E0,0E0,0E0,0E0,0E0,0E0,0E0,0E0,0E0],"parents":[2147483647,0,0,1,1,2,2,3,3,4,4,6,6,7,7,8,8,9,9,10,10,11,11,14,14,15,15,17,17,18,18,19,19,20,20,22,22],"right_children":[2,4,6,8,10,-1,12,14,16,18,20,22,-1,-1,24,26,-1,28,30,32,34,-1,36,-1,-1,-1,-1,-1,-1,-1,-1,-1,-1,-1,-1,-1,-1],"split_conditions":[3.5667983E-1,2.2452885E-1,4.7834422E-3,8.570602E-2,9.032865E7,9.966998E-2,7.748596E7,-3.5757874E-3,1.9876397E-1,-8.870033E-1,6.630558E-1,4.7777503E-4,-1.3335533E-1,1.0490023E-1,6.347751E-2,2.1561181E-2,-7.130735E-2,8.367177E-1,1.7152713E-1,4.533531E-3,3.9554226E1,1.10394396E-1,1.977226E-3,-9.456887E-2,3.59889E-2,1.6383179E-2,1.1655436E-1,6.14246E-3,1.3381256E-1,-1.10810906E-4,5.063173E-2,-3.0927503E-2,-9.929724E-2,-3.3507682E-3,-1.012898E-1,-1.3953517E-1,1.10089695E-2],"split_indices":[18,17,10,16,14,0,14,19,16,10,15,11,0,0,19,7,0,15,5,11,8,0,11,0,0,0,0,0,0,0,0,0,0,0,0,0,0],"split_type":[0,0,0,0,0,0,0,0,0,0,0,0,0,0,0,0,0,0,0,0,0,0,0,0,0,0,0,0,0,0,0,0,0,0,0,0,0],"sum_hessian":[1.759186E3,1.739341E3,1.9845034E1,6.5133644E1,1.6742074E3,2.2352731E0,1.760976E1,3.321135E1,3.1922293E1,1.5131421E3,1.6106523E2,9.49514E0,8.114621E0,3.4284303E0,2.9782919E1,2.9932907E1,1.9893848E0,1.0781978E1,1.5023601E3,4.524112E1,1.1582411E2,1.9089593E0,7.58618E0,1.6558218E1,1.3224701E1,5.619307E0,2.43136E1,3.4013228E0,7.380655E0,1.4744025E3,2.795766E1,3.2151585E1,1.3089534E1,1.1037128E2,5.452835E0,3.1823525E0,4.4038277E0],"tree_param":{"num_deleted":"0","num_feature":"20","num_nodes":"37","size_leaf_vector":"1"}},{"base_weights":[3.2380613E-4,6.3939476E-1,-4.80045E-3,9.8033184E-1,-1.2968902E-1,-1.5820748E-3,-9.9629745E-2,-1.6792666E-2,1.2342169E0,9.901335E-2,-7.2790366E-1,-1.8830229E-2,2.251667E-1,1.3274328E-1,3.4416117E-2,-8.41921E-2,-2.0328922E-2,9.294574E-3,-1.9775203E-1,-2.72379E-1,4.0462992E-1,1.713031E-2,-3.420505E-3,-1.507017E-2,-1.0213059E-1,-4.435702E-2,1.12186484E-1,9.483388E-2,2.0205174E-2],"categories":[],"categories_nodes":[],"categories_segments":[],"categories_sizes":[],"default_left":[0,0,0,0,0,0,0,0,0,0,0,0,0,0,0,0,0,0,0,0,0,0,0,0,0,0,0,0,0],"id":24,"left_children":[1,3,5,7,9,11,-1,-1,13,-1,15,17,19,-1,-1,-1,-1,21,23,25,27,-1,-1,-1,-1,-1,-1,-1,-1],"loss_changes":[5.7596364E0,3.7955356E0,5.5663114E0,3.0671577E0,4.190925E0,6.8102493E0,0E0,0E0,2.1963024E-1,0E0,6.528425E-2,8.144494E0,1.1101385E1,0E0,0E0,0E0,0E0,9.867027E0,8.364879E0,8.428474E0,9.816692E0,0E0,0E0,0E0,0E0,0E0,0E0,0E0,0E0],"parents":[2147483647,0,0,1,1,2,2,3,3,4,4,5,5,8,8,10,10,11,11,12,12,17,17,18,18,19,19,20,20],"right_children":[2,4,6,8,10,12,-1,-1,14,-1,16,18,20,-1,-1,-1,-1,22,24,26,28,-1,-1,-1,-1,-1,-1,-1,-1],"split_conditions":[9.58927E0,3.2138827E-1,1.8211344E0,-4.200664E-3,-4.165576E-3,1.4915119E-1,-9.9629745E-2,-1.6792666E-2,2.5346458E-2,9.901335E-2,4.990317E-1,3.1386626E-1,8.510867E-2,1.3274328E-1,3.4416117E-2,-8.41921E-2,-2.0328922E-2,5.091877E7,7.616668E1,7.024785E-2,1.1155484E-2,1.713031E-2,-3.420505E-3,-1.507017E-2,-1.0213059E-1,-4.435702E-2,1.12186484E-1,9.483388E-2,2.0205174E-2],"split_indices":[8,9,9,9,3,11,0,0,5,0,9,9,18,0,0,0,0,14,12,4,1,0,0,0,0,0,0,0,0],"split_type":[0,0,0,0,0,0,0,0,0,0,0,0,0,0,0,0,0,0,0,0,0,0,0,0,0,0,0,0,0],"sum_hessian":[1.7568575E3,1.2990344E1,1.7438672E3,8.810118E0,4.180226E0,1.7392233E3,4.6438813E0,1.6565461E0,7.1535716E0,1.2274201E0,2.9528058E0,1.6171296E3,1.2209364E2,6.0305824E0,1.1229892E0,1.9287765E0,1.0240291E0,1.3982812E3,2.1884845E2,3.2227642E1,8.9866005E1,2.9535037E2,1.1029308E3,2.0814021E2,1.0708237E1,2.9310617E1,2.9170265E0,2.3394657E1,6.6471344E1],"tree_param":{"num_deleted":"0","num_feature":"20","num_nodes":"29","size_leaf_vector":"1"}},{"base_weights":[3.115612E-4,-8.572098E-2,3.432523E-2,2.2308687E-2,-1.9624697E-1,2.0851491E-1,-6.2497524E-3,1.9366507E-1,-9.598473E-2,-3.5752454E-1,4.878285E-2,-3.2476646E-1,2.889834E-1,-3.5745904E-1,1.4236195E-2,3.3278236E-1,-4.2820397E-1,3.8501507E-1,-2.6436865E-1,-4.2026594E-1,1.977399E-1,5.6219065E-1,-1.4929976E-1,7.704407E-1,-7.390829E-1,4.7476518E-1,3.2789614E-2,-4.3238065E-1,1.4823344E-1,-6.6618854E-1,2.5803845E-2,-4.473422E-2,4.5140024E-2,-7.148297E-2,2.3814065E-2,-8.70787E-2,5.1491994E-2,2.6702574E-2,-4.4128414E-2,-1.3499873E-2,-5.9807744E-2,-4.4870175E-2,8.4041215E-2,7.8450434E-2,-3.3431213E-2,6.6847387E-3,-5.1445104E-2,1.0453949E-1,-1.8515592E-2,1.0065999E-1,-8.792069E-2,7.640417E-2,1.6766608E-2,-6.8169475E-2,1.7353576E-2,7.494721E-3,-8.392179E-2,-1.984816E-2,-1.2138748E-1,2.3092141E-2,-1.3135098E-3],"categories":[],"categories_nodes":[],"categories_segments":[],"categories_sizes":[],"default_left":[0,0,0,0,0,0,0,0,0,0,0,0,0,0,0,0,0,0,0,0,0,0,0,0,0,0,0,0,0,0,0,0,0,0,0,0,0,0,0,0,0,0,0,0,0,0,0,0,0,0,0,0,0,0,0,0,0,0,0,0,0],"id":25,"left_children":[1,3,5,7,9,11,13,15,17,19,21,23,25,27,29,31,33,35,37,39,41,43,45,47,49,51,53,55,-1,57,59,-1,-1,-1,-1,-1,-1,-1,-1,-1,-1,-1,-1,-1,-1,-1,-1,-1,-1,-1,-1,-1,-1,-1,-1,-1,-1,-1,-1,-1,-1],"loss_changes":[5.1418962E0,5.9489474E0,8.901505E0,5.1403847E0,9.746414E0,1.0304422E1,7.3606086E0,9.098645E0,1.2262868E1,5.2596893E0,1.0111497E1,1.4938749E1,9.849829E0,8.412913E0,7.6279445E0,8.0824795E0,3.8683445E0,6.8662424E0,1.06292715E1,6.7073555E0,6.9267626E0,5.775277E0,5.712432E0,2.605886E0,6.6299324E0,1.0538755E1,8.987787E0,1.1404957E1,0E0,3.909113E0,7.6046824E0,0E0,0E0,0E0,0E0,0E0,0E0,0E0,0E0,0E0,0E0,0E0,0E0,0E0,0E0,0E0,0E0,0E0,0E0,0E0,0E0,0E0,0E0,0E0,0E0,0E0,0E0,0E0,0E0,0E0,0E0],"parents":[2147483647,0,0,1,1,2,2,3,3,4,4,5,5,6,6,7,7,8,8,9,9,10,10,11,11,12,12,13,13,14,14,15,15,16,16,17,17,18,18,19,19,20,20,21,21,22,22,23,23,24,24,25,25,26,26,27,27,29,29,30,30],"right_children":[2,4,6,8,10,12,14,16,18,20,22,24,26,28,30,32,34,36,38,40,42,44,46,48,50,52,54,56,-1,58,60,-1,-1,-1,-1,-1,-1,-1,-1,-1,-1,-1,-1,-1,-1,-1,-1,-1,-1,-1,-1,-1,-1,-1,-1,-1,-1,-1,-1,-1,-1],"split_conditions":[-1.871665E-1,-3.179024E-1,1.5690546E0,-4.484092E-3,2.5034393E1,-6.3521124E-2,4.9051456E-2,1.061346E-2,1.8342752E1,7.915781E-2,2.8061996E1,-5.526287E-2,4.6414774E-2,7.074449E7,5.237972E-1,1.5168533E1,-1.2801627E-2,3.5645178E-1,-8.513014E-3,3.6604546E-2,5.2011773E-2,2.9554635E-1,8.909009E-1,2.8495125E-3,5.972953E-2,9.804339E-2,-1.12246E-4,4.7834422E-3,1.4823344E-1,7.149232E7,9.7981E0,-4.473422E-2,4.5140024E-2,-7.148297E-2,2.3814065E-2,-8.70787E-2,5.1491994E-2,2.6702574E-2,-4.4128414E-2,-1.3499873E-2,-5.9807744E-2,-4.4870175E-2,8.4041215E-2,7.8450434E-2,-3.3431213E-2,6.6847387E-3,-5.1445104E-2,1.0453949E-1,-1.8515592E-2,1.0065999E-1,-8.792069E-2,7.640417E-2,1.6766608E-2,-6.8169475E-2,1.7353576E-2,7.494721E-3,-8.392179E-2,-1.984816E-2,-1.2138748E-1,2.3092141E-2,-1.3135098E-3],"split_indices":[13,13,17,1,8,5,6,0,8,5,8,1,4,14,15,8,1,15,19,18,2,9,15,10,16,18,10,10,0,14,16,0,0,0,0,0,0,0,0,0,0,0,0,0,0,0,0,0,0,0,0,0,0,0,0,0,0,0,0,0,0],"split_type":[0,0,0,0,0,0,0,0,0,0,0,0,0,0,0,0,0,0,0,0,0,0,0,0,0,0,0,0,0,0,0,0,0,0,0,0,0,0,0,0,0,0,0,0,0,0,0,0,0,0,0,0,0,0,0,0,0,0,0,0,0],"sum_hessian":[1.7551373E3,4.968666E2,1.2582708E3,2.5167451E2,2.451921E2,2.3694014E2,1.02133057E3,1.0252403E2,1.4915048E2,1.4758992E2,9.7602165E1,3.0667084E1,2.0627306E2,5.5383953E1,9.659466E2,8.4161316E1,1.836272E1,3.834083E1,1.1080965E2,1.3282469E2,1.4765235E1,2.6661192E1,7.094097E1,8.181226E0,2.2485859E1,1.1907289E2,8.720017E1,5.3951862E1,1.4320891E0,1.5201197E1,9.507454E2,1.0742023E1,7.341929E1,1.2788872E1,5.5738487E0,3.0596495E0,3.528118E1,2.7549852E1,8.3259796E1,5.1677097E1,8.114759E1,7.5114985E0,7.2537365E0,2.1463604E1,5.197589E0,4.5075798E1,2.5865175E1,6.2802386E0,1.9009868E0,1.211329E0,2.127453E1,6.0549488E1,5.8523403E1,1.37181015E1,7.348207E1,2.4373627E1,2.9578238E1,8.93413E0,6.267067E0,1.5090373E2,7.998417E2],"tree_param":{"num_deleted":"0","num_feature":"20","num_nodes":"61","size_leaf_vector":"1"}},{"base_weights":[1.3909039E-4,1.1521566E-2,-2.559605E-1,-1.9771181E-2,1.9688141E-1,7.851507E-1,-4.3620217E-1,6.9001025E-1,-2.718126E-2,2.757257E-1,-4.940729E-1,1.3279594E0,-9.1822945E-2,7.260111E-1,-5.1514536E-1,9.359712E-1,-8.506908E-2,-5.10799E-3,-2.984741E-1,1.8650404E-1,1.0038013E0,-1.5191297E-1,-1.0223382E0,1.4810398E-1,9.082275E-3,1.299266E-1,-3.5248343E-2,-6.629969E-1,8.6925186E-2,-2.7286816E-2,1.1601849E-1,1.5624376E-2,-5.429506E-3,-9.011719E-2,-1.0918998E-2,2.3542449E-2,-1.1727058E-1,1.2830709E-1,-6.522434E-2,-6.735029E-2,1.0282786E-1,-2.2730371E-2,-1.0979246E-1,-7.2015665E-2,5.0315645E-2,4.726034E-2,-8.830079E-2],"categories":[],"categories_nodes":[],"categories_segments":[],"categories_sizes":[],"default_left":[0,0,0,0,0,0,0,0,0,0,0,0,0,0,0,0,0,0,0,0,0,0,0,0,0,0,0,0,0,0,0,0,0,0,0,0,0,0,0,0,0,0,0,0,0,0,0],"id":26,"left_children":[1,3,5,7,9,11,13,15,17,19,21,23,-1,25,27,29,-1,31,33,35,37,39,41,-1,-1,-1,-1,43,45,-1,-1,-1,-1,-1,-1,-1,-1,-1,-1,-1,-1,-1,-1,-1,-1,-1,-1],"loss_changes":[5.1140714E0,9.74687E0,1.4351763E1,7.581963E0,1.3358161E1,1.1736347E1,6.2717295E0,6.4408746E0,8.526464E0,1.4005718E1,4.402573E0,1.5764666E0,0E0,3.2423503E0,5.4678764E0,3.9270716E0,0E0,1.0468443E1,1.212358E1,1.3299669E1,1.1762243E1,1.0836274E1,3.3562374E-1,0E0,0E0,0E0,0E0,3.6226082E0,5.2305355E0,0E0,0E0,0E0,0E0,0E0,0E0,0E0,0E0,0E0,0E0,0E0,0E0,0E0,0E0,0E0,0E0,0E0,0E0],"parents":[2147483647,0,0,1,1,2,2,3,3,4,4,5,5,6,6,7,7,8,8,9,9,10,10,11,11,13,13,14,14,15,15,17,17,18,18,19,19,20,20,21,21,22,22,27,27,28,28],"right_children":[2,4,6,8,10,12,14,16,18,20,22,24,-1,26,28,30,-1,32,34,36,38,40,42,-1,-1,-1,-1,44,46,-1,-1,-1,-1,-1,-1,-1,-1,-1,-1,-1,-1,-1,-1,-1,-1,-1,-1],"split_conditions":[2.6052687E-1,2.7155746E-2,5.656832E7,-4.9195148E-2,1.9796402E1,4.8287296E1,4.7834422E-3,3.601059E-1,2.4259495E-2,1.3980477E-1,-9.748879E-2,4.385017E-2,-9.1822945E-2,1.04247116E-1,4.9177387E1,1.1083118E-1,-8.506908E-2,1.6744158E1,1.6479397E1,8.360665E-2,3.4921106E-2,4.3080727E1,3.0333187E-2,1.4810398E-1,9.082275E-3,1.299266E-1,-3.5248343E-2,1.0469431E0,2.2986976E-2,-2.7286816E-2,1.1601849E-1,1.5624376E-2,-5.429506E-3,-9.011719E-2,-1.0918998E-2,2.3542449E-2,-1.1727058E-1,1.2830709E-1,-6.522434E-2,-6.735029E-2,1.0282786E-1,-2.2730371E-2,-1.0979246E-1,-7.2015665E-2,5.0315645E-2,4.726034E-2,-8.830079E-2],"split_indices":[18,7,14,19,16,8,10,11,7,10,9,0,0,1,8,5,0,8,8,10,7,12,18,0,0,0,0,6,0,0,0,0,0,0,0,0,0,0,0,0,0,0,0,0,0,0,0],"split_type":[0,0,0,0,0,0,0,0,0,0,0,0,0,0,0,0,0,0,0,0,0,0,0,0,0,0,0,0,0,0,0,0,0,0,0,0,0,0,0,0,0,0,0,0,0,0,0],"sum_hessian":[1.7523582E3,1.6787024E3,7.365576E1,1.4369991E3,2.4170317E2,1.0374504E1,6.328126E1,1.3895418E1,1.4231038E3,2.1748686E2,2.4216312E1,8.034563E0,2.3399415E0,3.5036314E0,5.977763E1,1.2320973E1,1.5744448E0,1.3169696E3,1.0613411E2,1.9486357E2,2.2623295E1,1.5478429E1,8.737884E0,6.9744143E0,1.0601486E0,2.1540043E0,1.349627E0,4.7910873E1,1.1866756E1,1.8937718E0,1.0427201E1,3.0716812E2,1.0098015E3,2.4467245E1,8.166687E1,1.888918E2,5.971768E0,1.955143E1,3.0718634E0,1.1032086E1,4.4463425E0,1.1065161E0,7.6313677E0,4.60368E1,1.8740735E0,8.857472E0,3.009284E0],"tree_param":{"num_deleted":"0","num_feature":"20","num_nodes":"47","size_leaf_vector":"1"}},{"base_weights":[-2.1490012E-5,4.152528E-2,-6.993927E-2,-8.2907505E-2,9.953306E-2,-3.197587E-1,-1.5363677E-2,-3.6575757E-3,-5.6368804E-1,8.006071E-2,7.637425E-1,-6.839347E-1,-1.2121886E-1,-4.8448387E-1,2.2425808E-2,1.6620906E-1,-2.2749469E-1,8.7203866E-1,-6.6171557E-1,1.02385536E-1,-4.2861128E-1,1.1307342E0,-1.0679691E-2,-1.9822459E-1,-8.969208E-1,3.528253E-2,-8.467438E-1,-6.69342E-1,6.9981605E-1,2.8229222E-1,-5.927689E-2,7.926904E-2,-4.9524545E-3,2.8859204E-2,-5.1564097E-2,1.2498396E-1,3.5989098E-3,-8.0730155E-2,2.0182682E-2,7.6824627E-3,6.7157745E-2,4.3884557E-2,-7.413148E-2,1.3359068E-1,-1.0318465E-2,-6.541168E-2,9.381827E-2,4.2340916E-2,-9.104865E-2,-4.066724E-2,-1.2140977E-1,3.772166E-2,-3.7127744E-2,-1.0333212E-1,-1.9368874E-3,8.60372E-2,-7.665201E-2,1.5324062E-1,-2.0537486E-2,1.9858383E-2,1.2497548E-1,-1.848838E-3,-7.621741E-2],"categories":[],"categories_nodes":[],"categories_segments":[],"categories_sizes":[],"default_left":[0,0,0,0,0,0,0,0,0,0,0,0,0,0,0,0,0,0,0,0,0,0,0,0,0,0,0,0,0,0,0,0,0,0,0,0,0,0,0,0,0,0,0,0,0,0,0,0,0,0,0,0,0,0,0,0,0,0,0,0,0,0,0],"id":27,"left_children":[1,3,5,7,9,11,13,15,17,19,21,23,25,27,29,31,33,35,37,39,41,43,45,47,49,51,53,55,57,59,61,-1,-1,-1,-1,-1,-1,-1,-1,-1,-1,-1,-1,-1,-1,-1,-1,-1,-1,-1,-1,-1,-1,-1,-1,-1,-1,-1,-1,-1,-1,-1,-1],"loss_changes":[5.0869927E0,7.937068E0,8.894499E0,1.3326265E1,9.634735E0,8.375124E0,9.526355E0,1.1494484E1,7.542985E0,8.327241E0,6.0470266E0,4.069622E0,8.764009E0,9.238358E0,1.0583715E1,2.3270329E1,1.9544292E1,1.0904808E0,6.059185E0,1.0126413E1,8.696361E0,3.78759E0,5.386832E0,6.4954667E0,3.900299E0,9.069547E0,2.0930758E0,5.8863735E0,4.759332E0,9.406946E0,1.08654995E1,0E0,0E0,0E0,0E0,0E0,0E0,0E0,0E0,0E0,0E0,0E0,0E0,0E0,0E0,0E0,0E0,0E0,0E0,0E0,0E0,0E0,0E0,0E0,0E0,0E0,0E0,0E0,0E0,0E0,0E0,0E0,0E0],"parents":[2147483647,0,0,1,1,2,2,3,3,4,4,5,5,6,6,7,7,8,8,9,9,10,10,11,11,12,12,13,13,14,14,15,15,16,16,17,17,18,18,19,19,20,20,21,21,22,22,23,23,24,24,25,25,26,26,27,27,28,28,29,29,30,30],"right_children":[2,4,6,8,10,12,14,16,18,20,22,24,26,28,30,32,34,36,38,40,42,44,46,48,50,52,54,56,58,60,62,-1,-1,-1,-1,-1,-1,-1,-1,-1,-1,-1,-1,-1,-1,-1,-1,-1,-1,-1,-1,-1,-1,-1,-1,-1,-1,