{"learner":{"attributes":{"scikit_learn":"{\"_estimator_type\": \"classifier\"}"},"feature_names":["returns_1d","returns_3d","returns_5d","returns_7d","returns_10d","returns_14d","ATR","rolling_vol_30","ADX","MACD","MACD_signal","MACD_hist","RSI","volume_change","volume_sma_30","volume_ratio","Support_30","Resistance_30","Dist_to_Support_30","Dist_to_Resistance_30"],"feature_types":["float","float","float","float","float","float","float","float","float","float","float","float","float","float","float","float","float","float","float","float"],"gradient_booster":{"model":{"cats":{"enc":[],"feature_segments":[],"sorted_idx":[]},"gbtree_model_param":{"num_parallel_tree":"1","num_trees":"100"},"iteration_indptr":[0,1,2,3,4,5,6,7,8,9,10,11,12,13,14,15,16,17,18,19,20,21,22,23,24,25,26,27,28,29,30,31,32,33,34,35,36,37,38,39,40,41,42,43,44,45,46,47,48,49,50,51,52,53,54,55,56,57,58,59,60,61,62,63,64,65,66,67,68,69,70,71,72,73,74,75,76,77,78,79,80,81,82,83,84,85,86,87,88,89,90,91,92,93,94,95,96,97,98,99,100],"tree_info":[0,0,0,0,0,0,0,0,0,0,0,0,0,0,0,0,0,0,0,0,0,0,0,0,0,0,0,0,0,0,0,0,0,0,0,0,0,0,0,0,0,0,0,0,0,0,0,0,0,0,0,0,0,0,0,0,0,0,0,0,0,0,0,0,0,0,0,0,0,0,0,0,0,0,0,0,0,0,0,0,0,0,0,0,0,0,0,0,0,0,0,0,0,0,0,0,0,0,0,0],"trees":[{"base_weights":[6.180297E-8,2.8432047E-2,-8.122421E-1,3.8957138E-2,-7.8604424E-1,-9.6827495E-1,8.140683E-1,-3.2692757E-2,1.653418E-1,9.517393E-1,-1.0139505E0,-5.2150774E-1,-1.3467278E0,1.3204503E0,-2.1840004E-2,-5.8698904E-2,5.845099E-1,3.478951E-1,-1.6679624E-1,1.4426905E-1,-2.3640336E-3,-1.2266251E0,1.1607343E-1,-7.623068E-1,8.611328E-1,8.884453E-2,-1.5207074E0,1.4979209E-1,4.2886827E-2,2.7021503E-3,-1.986404E-2,1.3342999E-1,-9.795037E-4,2.237535E-2,1.0314033E-1,3.374431E-2,-3.5070952E-2,-1.7008347E-2,-1.4024425E-1,-1.0139505E-1,5.9103828E-2,-2.1840004E-2,1.6696839E-1,1.265875E-1,-1.1184478E-1,-4.3721274E-2,-1.5751037E-1],"categories":[],"categories_nodes":[],"categories_segments":[],"categories_sizes":[],"default_left":[0,0,0,0,0,0,0,0,0,0,0,0,0,0,0,0,0,0,0,0,0,0,0,0,0,0,0,0,0,0,0,0,0,0,0,0,0,0,0,0,0,0,0,0,0,0,0],"id":0,"left_children":[1,3,5,7,9,11,13,15,17,19,21,23,25,27,-1,29,31,33,35,-1,-1,37,-1,39,41,43,45,-1,-1,-1,-1,-1,-1,-1,-1,-1,-1,-1,-1,-1,-1,-1,-1,-1,-1,-1,-1],"loss_changes":[5.0748074E1,1.8231354E1,1.9647549E1,1.8994999E1,1.1711443E1,1.0840881E1,3.9740381E0,2.1529129E1,4.607131E1,1.7876027E0,1.2742138E1,1.1623922E1,9.208679E0,1.2843418E-1,0E0,1.543102E1,2.4180716E1,4.1350216E1,2.5142342E1,0E0,0E0,3.9927216E0,0E0,1.0334478E1,5.0393777E0,8.338581E0,1.2243347E0,0E0,0E0,0E0,0E0,0E0,0E0,0E0,0E0,0E0,0E0,0E0,0E0,0E0,0E0,0E0,0E0,0E0,0E0,0E0,0E0],"parents":[2147483647,0,0,1,1,2,2,3,3,4,4,5,5,6,6,7,7,8,8,9,9,10,10,11,11,12,12,13,13,15,15,16,16,17,17,18,18,21,21,23,23,24,24,25,25,26,26],"right_children":[2,4,6,8,10,12,14,16,18,20,22,24,26,28,-1,30,32,34,36,-1,-1,38,-1,40,42,44,46,-1,-1,-1,-1,-1,-1,-1,-1,-1,-1,-1,-1,-1,-1,-1,-1,-1,-1,-1,-1],"split_conditions":[2.6382124E1,6.762566E-2,1.957969E-2,3.7299098E8,2.7219174E8,4.968529E1,2.3807595E-2,1.9752838E-1,5.3224792E0,-6.955746E-2,4.6793842E1,-3.5584383E-3,3.628E-1,7.2303726E-3,-2.1840004E-2,3.2263768E-1,7.0837573E-3,2.620534E0,4.674617E8,1.4426905E-1,-2.3640336E-3,7.603085E-2,1.1607343E-1,2.3083495E-1,-2.4750743E-2,1.9970179E-2,3.0366637E-2,1.4979209E-1,4.2886827E-2,2.7021503E-3,-1.986404E-2,1.3342999E-1,-9.795037E-4,2.237535E-2,1.0314033E-1,3.374431E-2,-3.5070952E-2,-1.7008347E-2,-1.4024425E-1,-1.0139505E-1,5.9103828E-2,-2.1840004E-2,1.6696839E-1,1.265875E-1,-1.1184478E-1,-4.3721274E-2,-1.5751037E-1],"split_indices":[17,7,7,14,14,12,1,5,17,1,8,5,6,0,0,17,9,16,14,0,0,16,0,10,3,4,18,0,0,0,0,0,0,0,0,0,0,0,0,0,0,0,0,0,0,0,0],"split_type":[0,0,0,0,0,0,0,0,0,0,0,0,0,0,0,0,0,0,0,0,0,0,0,0,0,0,0,0,0,0,0,0,0,0,0,0,0,0,0,0,0,0,0,0,0,0,0],"sum_hessian":[2.1954895E3,2.1221694E3,7.332011E1,2.0960356E3,2.61339E1,6.727059E1,6.049514E0,1.3381525E3,7.578831E2,2.661786E0,2.3472115E1,3.1941433E1,3.5329163E1,3.8716888E0,2.177825E0,1.2849167E3,5.323572E1,4.890427E2,2.688404E2,1.4518833E0,1.2099028E0,2.177825E1,1.6938639E0,2.7585783E1,4.35565E0,3.8716888E0,3.1457472E1,2.661786E0,1.2099028E0,7.973259E2,4.8759082E2,2.2988152E1,3.024757E1,4.1499664E2,7.404605E1,7.162624E1,1.9721416E2,3.3877277E0,1.8390522E1,2.3472115E1,4.1136694E0,2.177825E0,2.177825E0,1.9358444E0,1.9358444E0,1.9358444E0,2.9521627E1],"tree_param":{"num_deleted":"0","num_feature":"20","num_nodes":"47","size_leaf_vector":"1"}},{"base_weights":[5.0453767E-5,2.5647487E-2,-7.449444E-1,-4.066798E-2,1.4728102E-1,-8.927206E-1,7.500776E-1,7.7131025E-2,-2.965862E-1,1.2064693E0,9.0032056E-2,-5.560102E-1,-1.366566E0,1.238322E0,-2.3905141E-2,1.01523295E-1,-1.2431504E0,3.956721E-1,-3.4541282E-1,-1.0694189E-1,1.4566653E0,2.978102E-1,-5.7553433E-2,5.877285E-1,-7.630607E-1,-1.675161E-2,-1.4270549E-1,3.616211E-2,1.4324997E-1,4.244505E-3,7.67003E-2,-1.97878E-3,-1.5103029E-1,-6.130562E-3,1.4613205E-1,-2.151174E-2,-9.0354495E-2,1.6185789E-1,-1.0780076E-1,3.8999766E-3,8.4328145E-2,1.7444763E-2,-3.180028E-2,1.4359075E-1,-8.412239E-2,-1.1908875E-1,-3.2260057E-2],"categories":[],"categories_nodes":[],"categories_segments":[],"categories_sizes":[],"default_left":[0,0,0,0,0,0,0,0,0,0,0,0,0,0,0,0,0,0,0,0,0,0,0,0,0,0,0,0,0,0,0,0,0,0,0,0,0,0,0,0,0,0,0,0,0,0,0],"id":1,"left_children":[1,3,5,7,9,11,13,15,17,19,21,23,25,27,-1,29,31,33,35,-1,37,39,41,43,45,-1,-1,-1,-1,-1,-1,-1,-1,-1,-1,-1,-1,-1,-1,-1,-1,-1,-1,-1,-1,-1,-1],"loss_changes":[4.1888874E1,1.7135792E1,1.6789898E1,4.147892E1,4.534047E1,9.907452E0,3.7282534E0,3.047823E1,1.4794685E1,2.339698E1,2.1855818E1,1.0103598E1,1.7255974E0,3.19551E-1,0E0,3.638532E1,5.582308E0,1.4230438E1,2.9303371E1,0E0,1.6099808E1,4.1744843E1,2.5266825E1,9.466991E0,6.203125E0,0E0,0E0,0E0,0E0,0E0,0E0,0E0,0E0,0E0,0E0,0E0,0E0,0E0,0E0,0E0,0E0,0E0,0E0,0E0,0E0,0E0,0E0],"parents":[2147483647,0,0,1,1,2,2,3,3,4,4,5,5,6,6,7,7,8,8,9,9,10,10,11,11,12,12,13,13,15,15,16,16,17,17,18,18,20,20,21,21,22,22,23,23,24,24],"right_children":[2,4,6,8,10,12,14,16,18,20,22,24,26,28,-1,30,32,34,36,-1,38,40,42,44,46,-1,-1,-1,-1,-1,-1,-1,-1,-1,-1,-1,-1,-1,-1,-1,-1,-1,-1,-1,-1,-1,-1],"split_conditions":[2.6382124E1,4.4493914E-1,1.957969E-2,3.2263768E-1,3.371483E-2,3.3009427E-3,2.7219174E8,1.4132374E-2,-1.18877456E-1,1.3662806E-2,5.3224792E0,1.4273392E8,-1.1182962E-2,-3.5396237E-2,-2.3905141E-2,1.2656783E-2,6.3331963E1,3.4991985E1,3.459683E-2,-1.0694189E-1,5.743662E-2,2.573882E0,4.674617E8,2.5261131E1,5.5803165E-2,-1.675161E-2,-1.4270549E-1,3.616211E-2,1.4324997E-1,4.244505E-3,7.67003E-2,-1.97878E-3,-1.5103029E-1,-6.130562E-3,1.4613205E-1,-2.151174E-2,-9.0354495E-2,1.6185789E-1,-1.0780076E-1,3.8999766E-3,8.4328145E-2,1.7444763E-2,-3.180028E-2,1.4359075E-1,-8.412239E-2,-1.1908875E-1,-3.2260057E-2],"split_indices":[17,16,7,17,6,3,14,9,3,6,17,14,2,2,0,6,12,12,7,0,9,16,14,16,10,0,0,0,0,0,0,0,0,0,0,0,0,0,0,0,0,0,0,0,0,0,0],"split_type":[0,0,0,0,0,0,0,0,0,0,0,0,0,0,0,0,0,0,0,0,0,0,0,0,0,0,0,0,0,0,0,0,0,0,0,0,0,0,0,0,0,0,0,0,0,0,0],"sum_hessian":[2.194622E3,2.122656E3,7.1966064E1,1.374134E3,7.4852203E2,6.585907E1,6.107E0,9.414731E2,4.3266095E2,3.7353542E1,7.1116846E2,3.9771313E1,2.6087753E1,3.920077E0,2.1869228E0,9.253012E2,1.6171885E1,2.8037992E1,4.0462296E2,3.3753746E0,3.397817E1,2.949315E2,4.16237E2,5.8143735E0,3.395694E1,1.4338769E0,2.4653875E1,1.2298223E0,2.690255E0,8.5083203E2,7.44692E1,3.0910802E0,1.3080804E1,2.0282711E1,7.7552824E0,3.2916507E2,7.545786E1,3.227771E1,1.7004592E0,2.0075195E2,9.4179535E1,2.2031593E2,1.9592107E2,3.645599E0,2.1687746E0,1.6361242E1,1.7595697E1],"tree_param":{"num_deleted":"0","num_feature":"20","num_nodes":"47","size_leaf_vector":"1"}},{"base_weights":[-1.8794384E-4,2.2941442E-2,-6.875047E-1,-2.979741E-1,4.803391E-2,-8.279891E-1,6.927604E-1,-8.11886E-1,-1.7722646E-3,-6.0603403E-2,1.3189296E-1,-4.1371563E-1,-1.1898907E0,1.0238985E0,-5.0597835E-2,1.1554676E-1,-8.9408004E-1,-6.2475705E-1,2.8290734E-1,-3.3783215E-1,1.1157671E-1,3.0016896E-1,4.973248E-2,-1.2759234E0,-7.051205E-2,1.2025992E-1,-1.3566942E0,-1.3930042E-3,1.4499128E-1,-1.22313894E-1,-6.755522E-2,3.2537397E-2,-1.00638926E-1,-7.4470714E-2,5.7261884E-2,-1.0945864E-1,-2.395874E-2,1.3076435E-2,-8.5836284E-2,2.328474E-2,1.1585047E-1,3.1071639E-2,-8.622649E-3,-3.682815E-2,-1.361414E-1,-5.1747125E-2,9.929127E-2,-1.0089739E-1,1.16113596E-1,-3.4210328E-2,-1.4109369E-1],"categories":[],"categories_nodes":[],"categories_segments":[],"categories_sizes":[],"default_left":[0,0,0,0,0,0,0,0,0,0,0,0,0,0,0,0,0,0,0,0,0,0,0,0,0,0,0,0,0,0,0,0,0,0,0,0,0,0,0,0,0,0,0,0,0,0,0,0,0,0,0],"id":2,"left_children":[1,3,5,7,9,11,13,15,17,19,21,23,25,27,-1,-1,29,31,33,35,37,39,41,43,45,47,49,-1,-1,-1,-1,-1,-1,-1,-1,-1,-1,-1,-1,-1,-1,-1,-1,-1,-1,-1,-1,-1,-1,-1,-1],"loss_changes":[3.4889317E1,1.7111826E1,1.4428223E1,2.3458334E1,1.7956245E1,9.2987175E0,3.3542347E0,1.0144688E1,1.769348E1,4.1038128E1,1.5361586E1,9.3740635E0,7.6640053E0,2.641655E0,0E0,0E0,3.1035995E0,1.1673032E1,2.0813501E1,2.422276E1,9.987439E0,2.0802597E1,2.6585985E1,2.006588E-1,1.1890274E1,6.8074627E0,1.1973915E0,0E0,0E0,0E0,0E0,0E0,0E0,0E0,0E0,0E0,0E0,0E0,0E0,0E0,0E0,0E0,0E0,0E0,0E0,0E0,0E0,0E0,0E0,0E0,0E0],"parents":[2147483647,0,0,1,1,2,2,3,3,4,4,5,5,6,6,7,7,8,8,9,9,10,10,11,11,12,12,13,13,16,16,17,17,18,18,19,19,20,20,21,21,22,22,23,23,24,24,25,25,26,26],"right_children":[2,4,6,8,10,12,14,16,18,20,22,24,26,28,-1,-1,30,32,34,36,38,40,42,44,46,48,50,-1,-1,-1,-1,-1,-1,-1,-1,-1,-1,-1,-1,-1,-1,-1,-1,-1,-1,-1,-1,-1,-1,-1,-1],"split_conditions":[2.6382124E1,1.3697204E1,1.957969E-2,-1.3218923E-2,8.302982E-1,4.968529E1,5.4520726E-2,3.4104748E7,6.5990677E-3,-1.1344925E-3,2.944894E-1,-2.3118918E-1,3.628E-1,-4.8677376E-3,-5.0597835E-2,1.1554676E-1,-5.4219123E-2,1.0896886E1,1.6864598E-2,1.33254616E8,4.9412146E-1,1.2656783E-2,4.8325144E-2,-2.4910996E-2,5.6404346E-1,1.2181462E-3,3.0366637E-2,-1.3930042E-3,1.4499128E-1,-1.22313894E-1,-6.755522E-2,3.2537397E-2,-1.00638926E-1,-7.4470714E-2,5.7261884E-2,-1.0945864E-1,-2.395874E-2,1.3076435E-2,-8.5836284E-2,2.328474E-2,1.1585047E-1,3.1071639E-2,-8.622649E-3,-3.682815E-2,-1.361414E-1,-5.1747125E-2,9.929127E-2,-1.0089739E-1,1.16113596E-1,-3.4210328E-2,-1.4109369E-1],"split_indices":[17,8,7,5,15,12,2,14,6,9,17,10,6,3,0,0,5,8,7,14,10,6,18,0,6,19,18,0,0,0,0,0,0,0,0,0,0,0,0,0,0,0,0,0,0,0,0,0,0,0,0],"split_type":[0,0,0,0,0,0,0,0,0,0,0,0,0,0,0,0,0,0,0,0,0,0,0,0,0,0,0,0,0,0,0,0,0,0,0,0,0,0,0,0,0,0,0,0,0,0,0,0,0,0,0],"sum_hessian":[2.1926887E3,2.1222385E3,7.045033E1,1.5311588E2,1.9691226E3,6.4305405E1,6.1449275E0,5.534719E1,9.7768684E1,8.5794867E2,1.111174E3,3.0982504E1,3.3322903E1,4.9291573E0,1.2157705E0,1.6959527E0,5.3651237E1,3.0289467E1,6.747921E1,3.2833365E2,5.2961505E2,3.6367136E2,7.4750256E2,8.047532E0,2.2934973E1,3.7949162E0,2.9527985E1,1.7160145E0,3.2131426E0,1.9576223E1,3.4075012E1,8.722042E0,2.1567425E1,1.4494903E1,5.298431E1,3.656228E1,2.9177136E2,5.2018964E2,9.4253645E0,3.3840094E2,2.5270409E1,2.5559074E2,4.919118E2,1.149656E0,6.897876E0,1.6509426E1,6.425547E0,1.8349023E0,1.9600139E0,1.8693478E0,2.7658638E1],"tree_param":{"num_deleted":"0","num_feature":"20","num_nodes":"51","size_leaf_vector":"1"}},{"base_weights":[-5.090791E-4,3.2231417E-2,-4.1808134E-1,-4.019902E-2,1.8275818E-1,-4.7130814E-1,1.395803E0,6.502321E-2,-2.704179E-1,1.0619134E0,1.274854E-1,-1.821267E-1,-7.990183E-1,1.7507362E-1,3.0664176E-2,9.0713225E-2,-1.0199988E0,-6.196541E-1,-1.8051861E-1,-1.01578765E-1,1.2835157E0,1.634443E-1,-7.3608905E-1,-3.4590292E-1,1.5252235E0,-2.3483266E-1,-9.284152E-1,4.07032E-3,6.463554E-2,2.844196E-2,-1.1588776E-1,4.2708483E-2,-9.85192E-2,-1.1748974E-2,-6.361187E-2,1.4266041E-1,-1.0230143E-1,3.434143E-2,1.0905813E-3,1.2204518E-2,-1.385508E-1,6.583396E-3,-7.471045E-2,-3.5087739E-3,1.8249528E-1,-1.20009355E-1,8.804411E-3,-4.102259E-2,-1.1641734E-1],"categories":[],"categories_nodes":[],"categories_segments":[],"categories_sizes":[],"default_left":[0,0,0,0,0,0,0,0,0,0,0,0,0,0,0,0,0,0,0,0,0,0,0,0,0,0,0,0,0,0,0,0,0,0,0,0,0,0,0,0,0,0,0,0,0,0,0,0,0],"id":3,"left_children":[1,3,5,7,9,11,13,15,17,19,21,23,25,-1,-1,27,29,31,33,-1,35,37,39,41,43,45,47,-1,-1,-1,-1,-1,-1,-1,-1,-1,-1,-1,-1,-1,-1,-1,-1,-1,-1,-1,-1,-1,-1],"loss_changes":[2.9983688E1,2.2180294E1,1.6052826E1,3.329798E1,3.1977823E1,1.4605751E1,1.3180017E0,2.6397556E1,1.3424507E1,1.9239178E1,1.946339E1,2.4011667E1,5.087345E0,0E0,0E0,2.561603E1,4.298538E0,3.403534E1,9.812031E0,0E0,1.3222511E1,1.6435257E1,1.4147139E1,1.2842917E1,3.5883503E0,4.7483315E0,6.7029266E0,0E0,0E0,0E0,0E0,0E0,0E0,0E0,0E0,0E0,0E0,0E0,0E0,0E0,0E0,0E0,0E0,0E0,0E0,0E0,0E0,0E0,0E0],"parents":[2147483647,0,0,1,1,2,2,3,3,4,4,5,5,6,6,7,7,8,8,9,9,10,10,11,11,12,12,15,15,16,16,17,17,18,18,20,20,21,21,22,22,23,23,24,24,25,25,26,26],"right_children":[2,4,6,8,10,12,14,16,18,20,22,24,26,-1,-1,28,30,32,34,-1,36,38,40,42,44,46,48,-1,-1,-1,-1,-1,-1,-1,-1,-1,-1,-1,-1,-1,-1,-1,-1,-1,-1,-1,-1,-1,-1],"split_conditions":[3.8384044E-1,4.4493914E-1,1.7856978E-1,3.2263768E-1,3.371483E-2,2.6408434E1,5.488178E-1,1.3747285E-2,2.7736452E-1,1.3662806E-2,1.0263697E-1,6.03399E-1,-5.56104E-1,1.7507362E-1,3.0664176E-2,1.2656783E-2,2.4196193E-2,-2.633389E-3,3.459683E-2,-1.01578765E-1,5.743662E-2,5.3224792E0,4.9219197E-3,2.6382124E1,-1.835584E-2,-2.8425442E-2,1.435225E-2,4.07032E-3,6.463554E-2,2.844196E-2,-1.1588776E-1,4.2708483E-2,-9.85192E-2,-1.1748974E-2,-6.361187E-2,1.4266041E-1,-1.0230143E-1,3.434143E-2,1.0905813E-3,1.2204518E-2,-1.385508E-1,6.583396E-3,-7.471045E-2,-3.5087739E-3,1.8249528E-1,-1.20009355E-1,8.804411E-3,-4.102259E-2,-1.1641734E-1],"split_indices":[6,16,19,17,6,8,6,9,16,6,2,6,10,0,0,6,7,11,7,0,9,17,10,17,19,3,7,0,0,0,0,0,0,0,0,0,0,0,0,0,0,0,0,0,0,0,0,0,0],"split_type":[0,0,0,0,0,0,0,0,0,0,0,0,0,0,0,0,0,0,0,0,0,0,0,0,0,0,0,0,0,0,0,0,0,0,0,0,0,0,0,0,0,0,0,0,0,0,0,0,0],"sum_hessian":[2.1911636E3,2.0327083E3,1.5845529E2,1.3728524E3,6.598559E2,1.5465718E2,3.7981083E0,9.427042E2,4.301482E2,3.7954155E1,6.2190173E2,8.298472E1,7.167247E1,2.406475E0,1.3916333E0,9.217953E2,2.0908909E1,8.6853065E1,3.4329514E2,3.3125439E0,3.4641613E1,5.978195E2,2.4082232E1,7.644883E1,6.53589E0,1.3896572E1,5.7775898E1,8.466653E2,7.513003E1,1.911086E0,1.8997824E1,2.2436487E1,6.441657E1,3.0267957E2,4.061558E1,3.2977318E1,1.6642934E0,2.7367606E2,3.2414343E2,1.0723888E1,1.3358342E1,3.814158E1,3.8307247E1,1.1954787E0,5.340411E0,2.8022344E0,1.1094337E1,1.8923237E1,3.885266E1],"tree_param":{"num_deleted":"0","num_feature":"20","num_nodes":"49","size_leaf_vector":"1"}},{"base_weights":[-7.3049834E-4,1.837702E-2,-5.935619E-1,-2.4350624E-1,4.4546403E-2,-7.2479165E-1,6.3758415E-1,-5.458143E-1,1.7628458E-1,5.421257E-2,-6.622233E-1,-3.254598E-1,-1.0865002E0,1.0598453E0,-2.2338463E-2,-1.6188696E-1,-9.868396E-1,1.4496843E0,-1.8516469E-3,-2.6563668E-1,7.527693E-2,-8.394876E-1,1.2055192E-1,-5.551499E-1,8.9311576E-1,1.10591814E-1,-1.2482843E0,1.21455215E-1,3.2532156E-2,-4.6114918E-2,5.5978544E-2,1.1220484E-1,-1.08044565E-1,-4.581233E-2,1.967517E-1,-2.1536363E-2,6.4058654E-2,-9.122621E-2,3.5912916E-4,2.1846995E-2,1.0727969E-3,8.990732E-2,-1.09369956E-1,-7.841217E-2,5.643009E-2,-1.08029265E-2,1.5796904E-1,-9.641476E-2,1.0765561E-1,-6.213219E-2,-1.368844E-1],"categories":[],"categories_nodes":[],"categories_segments":[],"categories_sizes":[],"default_left":[0,0,0,0,0,0,0,0,0,0,0,0,0,0,0,0,0,0,0,0,0,0,0,0,0,0,0,0,0,0,0,0,0,0,0,0,0,0,0,0,0,0,0,0,0,0,0,0,0,0,0],"id":4,"left_children":[1,3,5,7,9,11,13,15,17,19,21,23,25,27,-1,29,31,33,35,37,39,41,-1,43,45,47,49,-1,-1,-1,-1,-1,-1,-1,-1,-1,-1,-1,-1,-1,-1,-1,-1,-1,-1,-1,-1,-1,-1,-1,-1],"loss_changes":[2.4809153E1,1.45523205E1,1.1510893E1,2.4578938E1,1.3220452E1,8.640419E0,2.8250046E0,1.887162E1,1.849506E1,1.28533E1,9.657894E0,9.178781E0,6.383007E0,1.674571E-1,0E0,1.3493788E1,1.1499645E1,1.0786428E1,1.0084889E1,2.053076E1,1.6522833E1,1.1784769E1,0E0,7.2911396E0,3.8159666E0,5.9771595E0,1.3027802E0,0E0,0E0,0E0,0E0,0E0,0E0,0E0,0E0,0E0,0E0,0E0,0E0,0E0,0E0,0E0,0E0,0E0,0E0,0E0,0E0,0E0,0E0,0E0,0E0],"parents":[2147483647,0,0,1,1,2,2,3,3,4,4,5,5,6,6,7,7,8,8,9,9,10,10,11,11,12,12,13,13,15,15,16,16,17,17,18,18,19,19,20,20,21,21,23,23,24,24,25,25,26,26],"right_children":[2,4,6,8,10,12,14,16,18,20,22,24,26,28,-1,30,32,34,36,38,40,42,-1,44,46,48,50,-1,-1,-1,-1,-1,-1,-1,-1,-1,-1,-1,-1,-1,-1,-1,-1,-1,-1,-1,-1,-1,-1,-1,-1],"split_conditions":[2.6382124E1,1.30328424E8,1.957969E-2,1.0443517E0,6.762566E-2,4.968529E1,2.7219174E8,8.415131E-2,-1.2928823E-1,1.3422524E1,4.6793842E1,-3.5584383E-3,3.628E-1,1.2156284E0,-2.2338463E-2,8.0253976E7,2.071456E-3,-1.5862318E-3,8.9321636E-2,6.7064445E-3,2.944894E-1,2.7219174E8,1.2055192E-1,2.3083495E-1,-2.4750743E-2,1.2181462E-3,3.9216064E-2,1.21455215E-1,3.2532156E-2,-4.6114918E-2,5.5978544E-2,1.1220484E-1,-1.08044565E-1,-4.581233E-2,1.967517E-1,-2.1536363E-2,6.4058654E-2,-9.122621E-2,3.5912916E-4,2.1846995E-2,1.0727969E-3,8.990732E-2,-1.09369956E-1,-7.841217E-2,5.643009E-2,-1.08029265E-2,1.5796904E-1,-9.641476E-2,1.0765561E-1,-6.213219E-2,-1.368844E-1],"split_indices":[17,14,7,15,7,12,14,16,4,8,8,5,6,15,0,14,6,11,3,6,17,14,0,10,3,19,18,0,0,0,0,0,0,0,0,0,0,0,0,0,0,0,0,0,0,0,0,0,0,0,0],"split_type":[0,0,0,0,0,0,0,0,0,0,0,0,0,0,0,0,0,0,0,0,0,0,0,0,0,0,0,0,0,0,0,0,0,0,0,0,0,0,0,0,0,0,0,0,0,0,0,0,0,0,0],"sum_hessian":[2.1882E3,2.1208132E3,6.738682E1,1.9191992E2,1.9288933E3,6.126751E1,6.1193104E0,1.11397766E2,8.052216E1,1.9037795E3,2.5113823E1,3.0022255E1,3.1245253E1,3.9507017E0,2.1686087E0,6.0284847E1,5.1112915E1,9.005885E0,7.151628E1,1.169133E2,1.7868662E3,2.343973E1,1.6740925E0,2.5718908E1,4.303347E0,3.7576494E0,2.7487602E1,2.7235408E0,1.2271609E0,4.2868988E1,1.741586E1,1.7053552E0,4.940756E1,1.9472184E0,7.0586667E0,5.4175888E1,1.7340387E1,3.3666195E1,8.324711E1,5.544688E2,1.2323973E3,2.666535E0,2.0773195E1,2.1600338E1,4.118571E0,2.0934253E0,2.209922E0,1.7795684E0,1.9780809E0,5.4256268E0,2.2061975E1],"tree_param":{"num_deleted":"0","num_feature":"20","num_nodes":"51","size_leaf_vector":"1"}},{"base_weights":[-6.585009E-4,2.6920298E-2,-3.609238E-1,-3.916056E-2,1.6380648E-1,-4.114651E-1,1.2942845E0,5.353609E-2,-2.4344374E-1,9.49168E-1,1.1432931E-1,-1.3755201E-1,-7.2360367E-1,1.5943526E-1,3.1278707E-2,7.367069E-2,-1.0946251E0,-1.3674498E-2,-3.616581E-1,-9.581535E-2,1.1476299E0,1.5300567E-1,-5.8953935E-1,-2.8743953E-1,1.3698575E0,-2.1842298E-1,-8.420804E-1,2.9014759E-3,5.6635827E-2,7.5644352E-3,-1.3616417E-1,1.9150654E-2,-4.5977112E-2,-8.955195E-2,-2.3003412E-2,1.2768076E-1,-9.7546704E-2,2.1539003E-2,-2.3655389E-2,9.871262E-3,-9.906035E-2,-4.2851968E-4,-7.537248E-2,-4.8357556E-3,1.63949E-1,-6.650476E-2,3.6816705E-2,-3.4434926E-2,-1.073187E-1],"categories":[],"categories_nodes":[],"categories_segments":[],"categories_sizes":[],"default_left":[0,0,0,0,0,0,0,0,0,0,0,0,0,0,0,0,0,0,0,0,0,0,0,0,0,0,0,0,0,0,0,0,0,0,0,0,0,0,0,0,0,0,0,0,0,0,0,0,0],"id":5,"left_children":[1,3,5,7,9,11,13,15,17,19,21,23,25,-1,-1,27,29,31,33,-1,35,37,39,41,43,45,47,-1,-1,-1,-1,-1,-1,-1,-1,-1,-1,-1,-1,-1,-1,-1,-1,-1,-1,-1,-1,-1,-1],"loss_changes":[2.1736849E1,1.8388895E1,1.3546703E1,2.5982033E1,2.5608475E1,1.2872013E1,9.2990303E-1,2.1907309E1,1.1626684E1,1.5895107E1,1.7070383E1,1.8930157E1,4.04615E0,0E0,0E0,2.0418846E1,5.2072945E0,1.3498634E1,1.9660202E1,0E0,1.1079765E1,1.4439142E1,9.122532E0,9.958132E0,2.9829226E0,4.11608E0,6.175476E0,0E0,0E0,0E0,0E0,0E0,0E0,0E0,0E0,0E0,0E0,0E0,0E0,0E0,0E0,0E0,0E0,0E0,0E0,0E0,0E0,0E0,0E0],"parents":[2147483647,0,0,1,1,2,2,3,3,4,4,5,5,6,6,7,7,8,8,9,9,10,10,11,11,12,12,15,15,16,16,17,17,18,18,20,20,21,21,22,22,23,23,24,24,25,25,26,26],"right_children":[2,4,6,8,10,12,14,16,18,20,22,24,26,-1,-1,28,30,32,34,-1,36,38,40,42,44,46,48,-1,-1,-1,-1,-1,-1,-1,-1,-1,-1,-1,-1,-1,-1,-1,-1,-1,-1,-1,-1,-1,-1],"split_conditions":[3.8384044E-1,4.4493914E-1,1.7856978E-1,3.2263768E-1,3.371483E-2,2.6408434E1,5.488178E-1,1.4132374E-2,-2.590093E-2,1.3662806E-2,1.1148519E-1,6.03399E-1,-5.56104E-1,1.5943526E-1,3.1278707E-2,1.2656783E-2,6.3331963E1,-1.0517443E-3,2.7953202E-1,-9.581535E-2,5.743662E-2,2.5261468E-1,5.0692833E-3,2.466207E1,-1.835584E-2,6.1475704E-3,1.435225E-2,2.9014759E-3,5.6635827E-2,7.5644352E-3,-1.3616417E-1,1.9150654E-2,-4.5977112E-2,-8.955195E-2,-2.3003412E-2,1.2768076E-1,-9.7546704E-2,2.1539003E-2,-2.3655389E-2,9.871262E-3,-9.906035E-2,-4.2851968E-4,-7.537248E-2,-4.8357556E-3,1.63949E-1,-6.650476E-2,3.6816705E-2,-3.4434926E-2,-1.073187E-1],"split_indices":[6,16,19,17,6,8,6,9,2,6,3,6,10,0,0,6,12,11,16,0,9,9,10,16,19,3,7,0,0,0,0,0,0,0,0,0,0,0,0,0,0,0,0,0,0,0,0,0,0],"split_type":[0,0,0,0,0,0,0,0,0,0,0,0,0,0,0,0,0,0,0,0,0,0,0,0,0,0,0,0,0,0,0,0,0,0,0,0,0,0,0,0,0,0,0,0,0,0,0,0,0],"sum_hessian":[2.1857778E3,2.031211E3,1.545667E2,1.3703824E3,6.6082874E2,1.5071603E2,3.8506594E0,9.43151E2,4.272314E2,3.8086693E1,6.22742E2,8.1040596E1,6.967544E1,2.4708507E0,1.3798087E0,9.278163E2,1.5334713E1,1.4551483E2,2.8171658E2,3.2287562E0,3.4857937E1,5.910476E2,3.1694424E1,7.444733E1,6.5932684E0,1.3776507E1,5.5898933E1,8.5168097E2,7.6135284E1,2.9820063E0,1.2352707E1,1.0006219E2,4.545265E1,5.4571846E1,2.2714473E2,3.3234432E1,1.6235046E0,5.0984735E2,8.120024E1,1.1946807E1,1.9747618E1,4.6947426E1,2.74999E1,1.1843687E0,5.4089E0,7.745442E0,6.031065E0,1.8514502E1,3.738443E1],"tree_param":{"num_deleted":"0","num_feature":"20","num_nodes":"49","size_leaf_vector":"1"}},{"base_weights":[-8.4255537E-4,2.3981584E-2,-3.2957038E-1,9.39716E-1,1.4910946E-2,-3.7720788E-1,1.194584E0,-1.19056E-1,1.3015853E0,4.0254536E-1,-1.2805696E-3,-4.166387E-2,-6.0729146E-1,2.7542714E-2,1.4814071E-1,2.0548277E-1,8.654004E-2,8.539333E-1,-9.87038E-2,-1.3462026E-1,7.143403E-2,4.2509577E-1,-7.189451E-1,-3.8639998E-1,-9.193935E-1,1.6605748E-1,-8.305164E-2,-1.1862619E-1,1.0604705E-1,5.653572E-2,-7.9350315E-2,-3.301386E-2,3.4008499E-3,1.0297504E-2,-2.7251167E-2,-9.23243E-2,7.400152E-2,7.512975E-2,-8.114373E-2,3.0557573E-2,-5.5644806E-2,-1.2509213E-1,-3.4323756E-2],"categories":[],"categories_nodes":[],"categories_segments":[],"categories_sizes":[],"default_left":[0,0,0,0,0,0,0,0,0,0,0,0,0,0,0,0,0,0,0,0,0,0,0,0,0,0,0,0,0,0,0,0,0,0,0,0,0,0,0,0,0,0,0],"id":6,"left_children":[1,3,5,7,9,11,13,-1,15,17,19,21,23,-1,-1,-1,25,27,29,31,33,35,37,39,41,-1,-1,-1,-1,-1,-1,-1,-1,-1,-1,-1,-1,-1,-1,-1,-1,-1,-1],"loss_changes":[1.7821424E1,1.685265E1,1.1584063E1,1.6890318E1,1.2626649E1,1.1512829E1,8.804569E-1,0E0,1.5827927E1,1.8334774E1,1.8742035E1,1.9863451E1,5.7518272E0,0E0,0E0,0E0,1.2546704E1,1.9185753E1,1.8496593E1,2.2501387E1,1.359816E1,1.650199E1,4.0926094E0,6.4767437E0,6.4447002E0,0E0,0E0,0E0,0E0,0E0,0E0,0E0,0E0,0E0,0E0,0E0,0E0,0E0,0E0,0E0,0E0,0E0,0E0],"parents":[2147483647,0,0,1,1,2,2,3,3,4,4,5,5,6,6,8,8,9,9,10,10,11,11,12,12,16,16,17,17,18,18,19,19,20,20,21,21,22,22,23,23,24,24],"right_children":[2,4,6,8,10,12,14,-1,16,18,20,22,24,-1,-1,-1,26,28,30,32,34,36,38,40,42,-1,-1,-1,-1,-1,-1,-1,-1,-1,-1,-1,-1,-1,-1,-1,-1,-1,-1],"split_conditions":[3.8384044E-1,-9.854396E-2,1.7856978E-1,-1.8579954E-1,-5.978793E-2,2.3678772E1,1.7991344E-2,-1.19056E-1,4.5765648E1,2.1371593E-1,-6.911684E-4,2.466207E1,5.3253163E-2,2.7542714E-2,1.4814071E-1,2.0548277E-1,1.18179E-2,2.6632738E1,1.9875942E-2,8.2705545E-1,2.718604E-1,2.0924318E1,-1.1735024E-1,1.381772E-2,1.118292E-1,1.6605748E-1,-8.305164E-2,-1.1862619E-1,1.0604705E-1,5.653572E-2,-7.9350315E-2,-3.301386E-2,3.4008499E-3,1.0297504E-2,-2.7251167E-2,-9.23243E-2,7.400152E-2,7.512975E-2,-8.114373E-2,3.0557573E-2,-5.5644806E-2,-1.2509213E-1,-3.4323756E-2],"split_indices":[6,11,19,5,9,8,7,0,12,6,9,16,18,0,0,0,7,12,7,15,6,16,10,7,18,0,0,0,0,0,0,0,0,0,0,0,0,0,0,0,0,0,0],"split_type":[0,0,0,0,0,0,0,0,0,0,0,0,0,0,0,0,0,0,0,0,0,0,0,0,0,0,0,0,0,0,0,0,0,0,0,0,0,0,0,0,0,0,0],"sum_hessian":[2.1819265E3,2.0295876E3,1.5233885E2,1.890021E1,2.0106875E3,1.484515E2,3.887342E0,2.4118638E0,1.6488346E1,7.9662346E1,1.9310251E3,6.0866905E1,8.75846E1,1.3907611E0,2.4965808E0,9.751778E0,6.736568E0,4.154573E1,3.8116615E1,6.811399E2,1.2498853E3,3.6254124E1,2.4612782E1,5.259696E1,3.4987644E1,2.1814916E0,4.5550766E0,3.383142E0,3.816259E1,1.9584679E1,1.8531939E1,3.1497787E2,3.6616205E2,1.1455361E3,1.0434903E2,6.4985733E0,2.9755548E1,1.0351627E0,2.357762E1,1.0218376E1,4.2378582E1,2.1465157E1,1.3522489E1],"tree_param":{"num_deleted":"0","num_feature":"20","num_nodes":"43","size_leaf_vector":"1"}},{"base_weights":[-8.534296E-4,1.3712488E-2,-4.832694E-1,2.62112E-1,-1.2631518E-2,-6.082498E-1,6.29121E-1,1.1993183E0,-1.9099649E-2,-2.3751293E-1,1.0830967E-2,-2.9666242E-1,-1.0894732E0,9.7338164E-1,-3.0650912E-2,5.0566626E-1,1.5266435E0,1.1055206E0,-1.7058402E-1,6.1517473E-2,-6.8006825E-1,1.2332586E-1,-5.7896234E-2,6.1444706E-1,-4.8287603E-1,-3.570989E-1,-1.23119585E-1,3.2869708E-2,1.2269528E-1,1.3465816E-1,-1.7245423E-2,1.6900201E-1,-4.7981687E-2,-5.502809E-2,1.2533216E-1,3.5593163E-2,-3.7937913E-2,-8.305568E-3,1.3015398E-1,-8.046253E-2,1.3811952E-1,6.966453E-2,6.4324695E-3,-2.3193229E-2,4.9093897E-3,1.3123609E-1,-6.800149E-2,-9.2757E-2,-5.1012314E-3,5.4238033E-2,-7.880783E-2],"categories":[],"categories_nodes":[],"categories_segments":[],"categories_sizes":[],"default_left":[0,0,0,0,0,0,0,0,0,0,0,0,0,0,0,0,0,0,0,0,0,0,0,0,0,0,0,0,0,0,0,0,0,0,0,0,0,0,0,0,0,0,0,0,0,0,0,0,0,0,0],"id":7,"left_children":[1,3,5,7,9,11,13,15,17,19,21,23,25,27,-1,29,31,33,35,37,39,41,43,45,47,49,-1,-1,-1,-1,-1,-1,-1,-1,-1,-1,-1,-1,-1,-1,-1,-1,-1,-1,-1,-1,-1,-1,-1,-1,-1],"loss_changes":[1.5329971E1,1.386152E1,9.272171E0,5.3552723E1,1.0110026E1,8.3721485E0,2.536918E0,9.875107E0,2.6972101E1,2.3998274E1,1.3425984E1,6.501848E0,1.8871117E0,4.663868E-1,0E0,9.657874E0,1.1092262E1,5.289707E0,1.5461856E1,1.9639519E1,1.9873745E1,2.2231287E1,2.0085321E1,6.897071E0,5.892173E0,2.3824582E0,0E0,0E0,0E0,0E0,0E0,0E0,0E0,0E0,0E0,0E0,0E0,0E0,0E0,0E0,0E0,0E0,0E0,0E0,0E0,0E0,0E0,0E0,0E0,0E0,0E0],"parents":[2147483647,0,0,1,1,2,2,3,3,4,4,5,5,6,6,7,7,8,8,9,9,10,10,11,11,12,12,13,13,15,15,16,16,17,17,18,18,19,19,20,20,21,21,22,22,23,23,24,24,25,25],"right_children":[2,4,6,8,10,12,14,16,18,20,22,24,26,28,-1,30,32,34,36,38,40,42,44,46,48,50,-1,-1,-1,-1,-1,-1,-1,-1,-1,-1,-1,-1,-1,-1,-1,-1,-1,-1,-1,-1,-1,-1,-1,-1,-1],"split_conditions":[2.6382124E1,1.4789584E-2,1.957969E-2,7.2419376E0,1.30328424E8,3.3009427E-3,3.0455109E-2,2.620534E0,-4.8552863E-2,8.415131E-2,3.0049914E-1,1.4273392E8,3.9216064E-2,8.1214243E-1,-3.0650912E-2,4.0286393E-3,2.5261468E-1,1.7243828E-1,-3.6632497E-2,3.0970725E-3,1.2349649E-2,1.4900509E8,3.4679046E-1,2.5261131E1,5.5803165E-2,1.4278932E1,-1.23119585E-1,3.2869708E-2,1.2269528E-1,1.3465816E-1,-1.7245423E-2,1.6900201E-1,-4.7981687E-2,-5.502809E-2,1.2533216E-1,3.5593163E-2,-3.7937913E-2,-8.305568E-3,1.3015398E-1,-8.046253E-2,1.3811952E-1,6.966453E-2,6.4324695E-3,-2.3193229E-2,4.9093897E-3,1.3123609E-1,-6.800149E-2,-9.2757E-2,-5.1012314E-3,5.4238033E-2,-7.880783E-2],"split_indices":[17,7,7,16,14,3,1,16,10,16,17,14,18,15,0,10,9,6,11,6,6,14,16,16,10,8,0,0,0,0,0,0,0,0,0,0,0,0,0,0,0,0,0,0,0,0,0,0,0,0,0],"split_type":[0,0,0,0,0,0,0,0,0,0,0,0,0,0,0,0,0,0,0,0,0,0,0,0,0,0,0,0,0,0,0,0,0,0,0,0,0,0,0,0,0,0,0,0,0,0,0,0,0,0,0],"sum_hessian":[2.1796904E3,2.1167495E3,6.29409E1,2.0210811E2,1.9146414E3,5.6990997E1,5.949902E0,4.5893158E1,1.5621495E2,1.8002533E2,1.7346161E3,3.55738E1,2.1417198E1,4.320022E0,1.6298802E0,1.5529216E1,3.0363941E1,1.7796415E1,1.3841853E2,1.0794734E2,7.2077995E1,6.575396E2,1.0770764E3,5.6465526E0,2.9927248E1,4.043169E0,1.737403E1,1.867732E0,2.4522898E0,6.49242E0,9.036796E0,2.8223543E1,2.1403983E0,1.23522E0,1.6561195E1,3.9104523E1,9.931402E1,9.7511566E1,1.0435771E1,6.85456E1,3.5323958E0,6.0345917E1,5.971937E2,4.0961166E2,6.674648E2,3.659625E0,1.9869274E0,1.4179086E1,1.5748162E1,1.2259845E0,2.8171844E0],"tree_param":{"num_deleted":"0","num_feature":"20","num_nodes":"51","size_leaf_vector":"1"}},{"base_weights":[-6.8296504E-4,2.076048E-2,-2.9112238E-1,1.8922773E-1,-2.0761233E-2,-3.3609706E-1,1.1183931E0,2.8417265E-1,-1.2945655E-1,8.5172266E-1,-2.8873293E-2,-9.0639345E-2,-6.192747E-1,1.3772593E-1,2.6340786E-2,1.1471646E0,2.3182066E-1,6.3357145E-1,-3.4894425E-1,-3.2560948E-1,1.400072E0,-1.5315312E-1,3.9678417E-2,-3.4759092E-1,5.9266573E-1,-3.5685083E-1,-8.601897E-1,1.803659E-1,1.6125765E-2,6.94253E-2,1.4370668E-2,-6.937442E-2,1.1994888E-1,-8.630827E-2,-6.682397E-3,-8.479007E-2,8.49918E-2,2.4701204E-2,1.6322494E-1,-2.5079206E-2,1.8823473E-2,4.974715E-3,-1.1864393E-1,-4.871012E-2,6.2486183E-2,1.5490402E-1,1.4615931E-2,-5.352431E-2,1.003317E-1,-1.0966974E-1,-1.6338041E-2],"categories":[],"categories_nodes":[],"categories_segments":[],"categories_sizes":[],"default_left":[0,0,0,0,0,0,0,0,0,0,0,0,0,0,0,0,0,0,0,0,0,0,0,0,0,0,0,0,0,0,0,0,0,0,0,0,0,0,0,0,0,0,0,0,0,0,0,0,0,0,0],"id":8,"left_children":[1,3,5,7,9,11,13,15,17,19,21,23,25,-1,-1,27,29,31,33,35,37,39,41,43,45,47,49,-1,-1,-1,-1,-1,-1,-1,-1,-1,-1,-1,-1,-1,-1,-1,-1,-1,-1,-1,-1,-1,-1,-1,-1],"loss_changes":[1.3568552E1,1.4195958E1,9.87152E0,1.2178275E1,1.1551208E1,1.0087072E1,7.1348715E-1,1.3716034E1,1.5762048E1,1.016259E1,1.3761472E1,1.4136553E1,3.9659824E0,0E0,0E0,1.1001522E1,1.1840255E1,1.6670225E1,1.0488903E1,4.1520786E0,2.393488E0,1.918629E1,1.2915293E1,8.212375E0,9.190429E0,8.800999E0,5.5111103E0,0E0,0E0,0E0,0E0,0E0,0E0,0E0,0E0,0E0,0E0,0E0,0E0,0E0,0E0,0E0,0E0,0E0,0E0,0E0,0E0,0E0,0E0,0E0,0E0],"parents":[2147483647,0,0,1,1,2,2,3,3,4,4,5,5,6,6,7,7,8,8,9,9,10,10,11,11,12,12,15,15,16,16,17,17,18,18,19,19,20,20,21,21,22,22,23,23,24,24,25,25,26,26],"right_children":[2,4,6,8,10,12,14,16,18,20,22,24,26,-1,-1,28,30,32,34,36,38,40,42,44,46,48,50,-1,-1,-1,-1,-1,-1,-1,-1,-1,-1,-1,-1,-1,-1,-1,-1,-1,-1,-1,-1,-1,-1,-1,-1],"split_conditions":[3.8384044E-1,-2.7917223E-3,1.7856978E-1,1.511584E-1,2.5723696E1,2.6408434E1,5.488178E-1,-7.369404E-2,2.5894946E-1,-1.7803004E-3,0E0,5.488178E-1,4.4868103E1,1.3772593E-1,2.6340786E-2,1.2685271E1,3.6965808E-1,9.185595E-3,2.1398E-2,-1.1267677E-2,2.7642721E1,3.0855743E1,6.762566E-2,5.454186E-2,2.6181063E1,4.1506294E1,6.2228443E1,1.803659E-1,1.6125765E-2,6.94253E-2,1.4370668E-2,-6.937442E-2,1.1994888E-1,-8.630827E-2,-6.682397E-3,-8.479007E-2,8.49918E-2,2.4701204E-2,1.6322494E-1,-2.5079206E-2,1.8823473E-2,4.974715E-3,-1.1864393E-1,-4.871012E-2,6.2486183E-2,1.5490402E-1,1.4615931E-2,-5.352431E-2,1.003317E-1,-1.0966974E-1,-1.6338041E-2],"split_indices":[6,11,19,19,12,8,6,10,16,11,5,6,12,0,0,16,17,6,6,9,8,8,7,4,17,8,12,0,0,0,0,0,0,0,0,0,0,0,0,0,0,0,0,0,0,0,0,0,0,0,0],"split_type":[0,0,0,0,0,0,0,0,0,0,0,0,0,0,0,0,0,0,0,0,0,0,0,0,0,0,0,0,0,0,0,0,0,0,0,0,0,0,0,0,0,0,0,0,0,0,0,0,0,0,0],"sum_hessian":[2.176659E3,2.0278679E3,1.4879109E2,4.0027264E2,1.6275952E3,1.4492828E2,3.8628058E0,3.0847705E2,9.179559E1,1.403543E1,1.6135598E3,7.8341835E1,6.658645E1,2.4961753E0,1.3666308E0,1.6446905E1,2.9203015E2,2.0085094E1,7.17105E1,4.588946E0,9.446484E0,5.731826E2,1.0403772E3,5.728977E1,2.1052065E1,3.305813E1,3.352832E1,9.37491E0,7.071995E0,4.563794E1,2.4639221E2,5.936235E0,1.4148859E1,2.4677938E1,4.7032562E1,3.3702412E0,1.2187047E0,1.9292352E0,7.5172486E0,4.4591397E2,1.27268654E2,1.032855E3,7.5222535E0,5.0538506E1,6.7512655E0,5.914507E0,1.5137559E1,2.9761286E1,3.296842E0,2.4603601E1,8.924718E0],"tree_param":{"num_deleted":"0","num_feature":"20","num_nodes":"51","size_leaf_vector":"1"}},{"base_weights":[-4.546252E-4,-2.6494837E-1,2.0488884E-2,-7.0338297E-1,-2.940806E-2,4.9009033E-2,-1.8510234E-1,1.0850652E-1,-7.803783E-1,5.738433E-1,-2.0630436E-1,6.243945E-1,1.5515346E-2,1.4462163E-1,-3.037604E-1,-1.1015928E0,-5.7801807E-1,-4.611684E-1,1.0895289E0,-5.960089E-1,6.378043E-2,-5.6367236E-1,8.786901E-1,6.215451E-3,8.408925E-1,-6.028647E-1,5.163002E-1,-4.2658094E-2,-5.461948E-1,-3.3950888E-2,-1.3958205E-1,3.0404711E-2,-8.720765E-2,-1.19007446E-1,6.247936E-2,1.4774142E-1,-4.6187975E-3,1.2699702E-1,-7.499712E-2,1.5841375E-1,-2.102493E-2,-1.0479356E-1,1.1402631E-1,1.5824443E-1,6.789052E-2,3.458393E-3,-4.141372E-2,1.6040607E-1,-2.202843E-2,4.079962E-2,-9.477215E-2,1.0297151E-1,-5.900498E-2,5.814324E-2,-2.2352105E-2,-8.649215E-2,9.309554E-3],"categories":[],"categories_nodes":[],"categories_segments":[],"categories_sizes":[],"default_left":[0,0,0,0,0,0,0,0,0,0,0,0,0,0,0,0,0,0,0,0,0,0,0,0,0,0,0,0,0,0,0,0,0,0,0,0,0,0,0,0,0,0,0,0,0,0,0,0,0,0,0,0,0,0,0,0,0],"id":9,"left_children":[1,3,5,7,9,11,13,-1,15,17,19,21,23,25,27,29,31,33,35,37,39,41,43,45,47,49,51,53,55,-1,-1,-1,-1,-1,-1,-1,-1,-1,-1,-1,-1,-1,-1,-1,-1,-1,-1,-1,-1,-1,-1,-1,-1,-1,-1,-1,-1],"loss_changes":[1.2054797E1,1.6468664E1,1.1832966E1,8.524908E0,1.1314143E1,3.4133327E1,9.663399E0,0E0,2.875866E0,1.3340818E1,8.654167E0,2.9931248E1,1.2853688E1,1.857634E1,1.1441978E1,3.9617596E0,9.410125E0,7.6314535E0,7.271715E0,1.0607273E1,2.085367E1,1.5871773E1,1.026424E1,1.9780449E1,1.5463475E1,8.1587105E0,2.5854969E1,1.0095685E1,1.9200346E1,0E0,0E0,0E0,0E0,0E0,0E0,0E0,0E0,0E0,0E0,0E0,0E0,0E0,0E0,0E0,0E0,0E0,0E0,0E0,0E0,0E0,0E0,0E0,0E0,0E0,0E0,0E0,0E0],"parents":[2147483647,0,0,1,1,2,2,3,3,4,4,5,5,6,6,8,8,9,9,10,10,11,11,12,12,13,13,14,14,15,15,16,16,17,17,18,18,19,19,20,20,21,21,22,22,23,23,24,24,25,25,26,26,27,27,28,28],"right_children":[2,4,6,8,10,12,14,-1,16,18,20,22,24,26,28,30,32,34,36,38,40,42,44,46,48,50,52,54,56,-1,-1,-1,-1,-1,-1,-1,-1,-1,-1,-1,-1,-1,-1,-1,-1,-1,-1,-1,-1,-1,-1,-1,-1,-1,-1,-1,-1],"split_conditions":[1.3697204E1,-1.3218923E-2,1.2685271E1,3.4104748E7,-6.26112E-4,1.4789584E-2,2.1466282E1,1.0850652E-1,-5.4219123E-2,1.8214883E-2,2.4326247E-1,1.8402431E1,1.1082356E1,1.8332808E1,6.045543E-2,-2.6018461E-2,-9.979242E-4,2.1782488E-2,2.4277648E-2,1.5541916E-3,2.7154E-1,1.8758515E-1,5.0518334E-2,5.3224792E0,4.744124E8,3.0887974E8,2.4487144E1,3.628E-1,1.333701E-1,-3.3950888E-2,-1.3958205E-1,3.0404711E-2,-8.720765E-2,-1.19007446E-1,6.247936E-2,1.4774142E-1,-4.6187975E-3,1.2699702E-1,-7.499712E-2,1.5841375E-1,-2.102493E-2,-1.0479356E-1,1.1402631E-1,1.5824443E-1,6.789052E-2,3.458393E-3,-4.141372E-2,1.6040607E-1,-2.202843E-2,4.079962E-2,-9.477215E-2,1.0297151E-1,-5.900498E-2,5.814324E-2,-2.2352105E-2,-8.649215E-2,9.309554E-3],"split_indices":[8,5,16,14,10,7,8,0,5,7,16,8,16,17,18,0,10,5,7,6,16,6,18,17,14,14,16,6,18,0,0,0,0,0,0,0,0,0,0,0,0,0,0,0,0,0,0,0,0,0,0,0,0,0,0,0,0],"split_type":[0,0,0,0,0,0,0,0,0,0,0,0,0,0,0,0,0,0,0,0,0,0,0,0,0,0,0,0,0,0,0,0,0,0,0,0,0,0,0,0,0,0,0,0,0,0,0,0,0,0,0,0,0,0,0,0,0],"sum_hessian":[2.1742012E3,1.5867375E2,2.0155275E3,5.4759045E1,1.0391471E2,1.7706587E3,2.4486876E2,1.7197627E0,5.303928E1,2.3053558E1,8.086115E1,9.643127E1,1.6742274E3,6.47432E1,1.8012555E2,1.8782051E1,3.425723E1,7.7016344E0,1.5351923E1,3.2606533E1,4.8254616E1,1.6786814E1,7.964445E1,1.6565697E3,1.7657784E1,2.1294874E1,4.3448326E1,8.729001E1,9.283555E1,5.8315525E0,1.2950499E1,8.556617E0,2.5700613E1,4.5510583E0,3.1505764E0,1.1219295E1,4.132629E0,1.9328123E0,3.067372E1,6.639088E0,4.161553E1,1.3371568E1,3.4152465E0,1.608022E1,6.3564228E1,1.5526998E3,1.0386984E2,9.973523E0,7.6842613E0,5.37025E0,1.59246235E1,2.9723875E1,1.372445E1,1.911534E1,6.817467E1,6.171418E1,3.1121365E1],"tree_param":{"num_deleted":"0","num_feature":"20","num_nodes":"57","size_leaf_vector":"1"}},{"base_weights":[-3.4608462E-4,-7.964763E-3,6.137989E-1,2.1556403E-2,-2.0476505E-1,7.7929974E-1,-1.0338952E-1,4.108694E-1,-4.6036257E-3,3.0943943E-2,-5.5439013E-1,1.3773365E0,9.5566295E-2,-3.9639193E-1,7.072756E-1,-1.2913806E-2,9.9716926E-1,4.5557377E-1,-2.2740886E-1,-9.666604E-1,-2.7942592E-1,1.5904967E0,1.151315E-2,-2.0922615E-1,1.0805255E-1,-9.810742E-2,1.5513398E-2,1.0625749E-1,4.3561943E-2,5.6009565E-4,-5.333904E-2,1.5468723E-2,1.7274575E-1,-1.08894445E-2,8.949524E-2,-9.8539226E-2,-9.6486015E-3,8.813689E-2,-1.0382044E-1,9.568586E-2,-5.6153107E-2,5.2161973E-2,1.826698E-1,3.98734E-2,-1.0381583E-1],"categories":[],"categories_nodes":[],"categories_segments":[],"categories_sizes":[],"default_left":[0,0,0,0,0,0,0,0,0,0,0,0,0,0,0,0,0,0,0,0,0,0,0,0,0,0,0,0,0,0,0,0,0,0,0,0,0,0,0,0,0,0,0,0,0],"id":10,"left_children":[1,3,5,7,9,11,-1,13,15,17,19,21,23,25,27,29,31,33,35,37,39,41,-1,43,-1,-1,-1,-1,-1,-1,-1,-1,-1,-1,-1,-1,-1,-1,-1,-1,-1,-1,-1,-1,-1],"loss_changes":[1.0167105E1,1.2473727E1,8.066404E0,1.9018404E1,2.3096184E1,9.994985E0,0E0,2.8414366E1,1.458675E1,1.855857E1,1.2519962E1,3.3511887E0,4.0175476E0,1.0541596E1,7.8725815E0,1.6743689E1,8.602076E0,1.5962382E1,1.0350357E1,6.8298225E0,2.463381E1,1.8647785E0,0E0,5.6967754E0,0E0,0E0,0E0,0E0,0E0,0E0,0E0,0E0,0E0,0E0,0E0,0E0,0E0,0E0,0E0,0E0,0E0,0E0,0E0,0E0,0E0],"parents":[2147483647,0,0,1,1,2,2,3,3,4,4,5,5,7,7,8,8,9,9,10,10,11,11,12,12,13,13,14,14,15,15,16,16,17,17,18,18,19,19,20,20,21,21,23,23],"right_children":[2,4,6,8,10,12,-1,14,16,18,20,22,24,26,28,30,32,34,36,38,40,42,-1,44,-1,-1,-1,-1,-1,-1,-1,-1,-1,-1,-1,-1,-1,-1,-1,-1,-1,-1,-1,-1,-1],"split_conditions":[5.622041E1,2.790525E-1,1.5287851E1,1.5023663E-2,7.013644E-2,5.5558983E-2,-1.0338952E-1,1.8517164E1,1.0097955E1,3.8384044E-1,1.8332808E1,8.3601306E8,6.269578E-2,1.8758515E-1,2.5166527E1,4.838756E0,1.45198E1,2.280283E-2,4.2123398E-1,-5.555565E-2,2.136111E1,-2.6890022E-1,1.151315E-2,5.743662E-2,1.0805255E-1,-9.810742E-2,1.5513398E-2,1.0625749E-1,4.3561943E-2,5.6009565E-4,-5.333904E-2,1.5468723E-2,1.7274575E-1,-1.08894445E-2,8.949524E-2,-9.8539226E-2,-9.6486015E-3,8.813689E-2,-1.0382044E-1,9.568586E-2,-5.6153107E-2,5.2161973E-2,1.826698E-1,3.98734E-2,-1.0381583E-1],"split_indices":[8,6,16,7,18,3,0,8,16,6,17,14,11,6,8,16,8,10,6,3,8,13,0,9,0,0,0,0,0,0,0,0,0,0,0,0,0,0,0,0,0,0,0,0,0],"split_type":[0,0,0,0,0,0,0,0,0,0,0,0,0,0,0,0,0,0,0,0,0,0,0,0,0,0,0,0,0,0,0,0,0,0,0,0,0,0,0,0,0,0,0,0,0],"sum_hessian":[2.1708904E3,2.1452646E3,2.562571E1,1.8662126E3,2.7905206E2,2.3765633E1,1.8600768E0,1.16579094E2,1.7496335E3,1.6722466E2,1.1182742E2,1.2136148E1,1.1629483E1,3.1218441E1,8.536065E1,1.7362179E3,1.341564E1,6.296754E1,1.0425711E2,4.373594E1,6.8091484E1,1.0160208E1,1.975941E0,9.482677E0,2.146805E0,1.4775665E1,1.6442776E1,3.572476E1,4.9635895E1,1.6775327E3,5.8685143E1,6.7920027E0,6.6236377E0,2.7889788E1,3.507775E1,1.4394283E1,8.986283E1,1.2081959E0,4.2527744E1,1.2206489E1,5.5884995E1,2.4195297E0,7.7406783E0,5.7698793E0,3.7127988E0],"tree_param":{"num_deleted":"0","num_feature":"20","num_nodes":"45","size_leaf_vector":"1"}},{"base_weights":[-2.2880394E-4,-2.6507008E-1,1.705935E-2,-6.9665176E-1,-3.493749E-2,-6.439536E-2,8.553939E-2,1.00855924E-1,-7.860343E-1,6.20564E-1,-2.3119067E-1,-2.7748662E-1,5.7645895E-2,2.3244354E-1,1.4303991E-2,-6.446153E-1,-1.2985626E0,1.0002255E0,-3.815278E-1,-3.222403E-2,-7.7485454E-1,-8.55158E-1,-2.1365088E-1,-4.652505E-2,2.2780366E-1,1.7929325E-1,9.205893E-1,2.113283E-1,-9.44963E-2,-8.4887624E-2,1.0870956E-2,-3.911615E-2,-1.3862565E-1,-6.2690503E-3,1.3360174E-1,-8.142754E-2,7.811583E-2,1.0725143E-2,-1.16318226E-1,-1.0414498E-1,3.1880077E-2,9.301114E-2,-9.751962E-2,-8.6451685E-3,-5.909416E-2,3.0807704E-3,-7.17057E-2,9.782555E-2,1.4669157E-2,4.8922002E-2,8.366067E-3,3.441712E-2,1.3818285E-1,-1.6895569E-3,4.3814715E-2,-1.03193596E-1,-5.833292E-3],"categories":[],"categories_nodes":[],"categories_segments":[],"categories_sizes":[],"default_left":[0,0,0,0,0,0,0,0,0,0,0,0,0,0,0,0,0,0,0,0,0,0,0,0,0,0,0,0,0,0,0,0,0,0,0,0,0,0,0,0,0,0,0,0,0,0,0,0,0,0,0,0,0,0,0,0,0],"id":11,"left_children":[1,3,5,7,9,11,13,-1,15,17,19,21,23,25,27,29,31,33,35,37,39,41,43,45,47,49,51,53,55,-1,-1,-1,-1,-1,-1,-1,-1,-1,-1,-1,-1,-1,-1,-1,-1,-1,-1,-1,-1,-1,-1,-1,-1,-1,-1,-1,-1],"loss_changes":[9.936807E0,1.3184169E1,1.1369546E1,7.834095E0,1.14371395E1,2.4229223E1,1.1583509E1,0E0,2.3853817E0,8.180633E0,7.3621116E0,1.2326666E1,1.0518954E1,1.3057144E1,1.6026772E1,5.75955E0,1.4436913E-1,5.4884872E0,3.8342924E0,8.175474E0,5.6539707E0,8.069632E0,1.4672776E1,1.9132917E1,1.3569966E1,9.942402E0,6.3513145E0,1.3774978E1,1.627175E1,0E0,0E0,0E0,0E0,0E0,0E0,0E0,0E0,0E0,0E0,0E0,0E0,0E0,0E0,0E0,0E0,0E0,0E0,0E0,0E0,0E0,0E0,0E0,0E0,0E0,0E0,0E0,0E0],"parents":[2147483647,0,0,1,1,2,2,3,3,4,4,5,5,6,6,8,8,9,9,10,10,11,11,12,12,13,13,14,14,15,15,16,16,17,17,18,18,19,19,20,20,21,21,22,22,23,23,24,24,25,25,26,26,27,27,28,28],"right_children":[2,4,6,8,10,12,14,-1,16,18,20,22,24,26,28,30,32,34,36,38,40,42,44,46,48,50,52,54,56,-1,-1,-1,-1,-1,-1,-1,-1,-1,-1,-1,-1,-1,-1,-1,-1,-1,-1,-1,-1,-1,-1,-1,-1,-1,-1,-1,-1],"split_conditions":[1.3241718E1,-1.3218923E-2,8.496025E-1,3.4104748E7,-6.26112E-4,-1.5093351E-3,2.944894E-1,1.00855924E-1,4.3781546E8,3.1243583E-2,1.0779674E0,1.33254616E8,2.8787252E-2,1.2656783E-2,4.8325144E-2,1.3000229E-3,9.77167E-3,2.8626129E-2,2.7046027E-2,7.2786115E-2,1.0240785E0,-8.33283E-2,6.162611E-2,2.7059529E-2,4.7323082E1,2.3337072E-2,2.576181E1,-5.7373855E-2,9.598481E-3,-8.4887624E-2,1.0870956E-2,-3.911615E-2,-1.3862565E-1,-6.2690503E-3,1.3360174E-1,-8.142754E-2,7.811583E-2,1.0725143E-2,-1.16318226E-1,-1.0414498E-1,3.1880077E-2,9.301114E-2,-9.751962E-2,-8.6451685E-3,-5.909416E-2,3.0807704E-3,-7.17057E-2,9.782555E-2,1.4669157E-2,4.8922002E-2,8.366067E-3,3.441712E-2,1.3818285E-1,-1.6895569E-3,4.3814715E-2,-1.03193596E-1,-5.833292E-3],"split_indices":[8,5,15,14,10,9,17,0,14,4,15,14,7,6,18,10,18,19,1,19,13,1,18,7,12,7,8,4,6,0,0,0,0,0,0,0,0,0,0,0,0,0,0,0,0,0,0,0,0,0,0,0,0,0,0,0,0],"split_type":[0,0,0,0,0,0,0,0,0,0,0,0,0,0,0,0,0,0,0,0,0,0,0,0,0,0,0,0,0,0,0,0,0,0,0,0,0,0,0,0,0,0,0,0,0,0,0,0,0,0,0,0,0,0,0,0,0],"sum_hessian":[2.1682761E3,1.3198805E2,2.0362881E3,4.5198105E1,8.678995E1,9.300658E2,1.1062224E3,1.7389702E0,4.3459137E1,1.949915E1,6.7290794E1,3.3822723E2,5.9183856E2,3.605077E2,7.4571466E2,3.583038E1,7.628755E0,1.4142758E1,5.3563905E0,5.003762E1,1.7253178E1,3.2423122E1,3.058041E2,3.6755014E2,2.242884E2,3.3582977E2,2.467793E1,2.649605E2,4.8075415E2,2.808768E1,7.742699E0,1.1535074E0,6.475248E0,3.5905454E0,1.0552213E1,4.1218963E0,1.2344944E0,4.535E1,4.6876225E0,1.39101095E1,3.3430674E0,1.6175554E0,3.0805569E1,2.2961964E2,7.618446E1,3.303991E2,3.7151028E1,2.0798594E1,2.034898E2,7.821957E1,2.576102E2,1.1745532E1,1.2932399E1,1.3253253E2,1.3242798E2,1.68343E1,4.6391983E2],"tree_param":{"num_deleted":"0","num_feature":"20","num_nodes":"57","size_leaf_vector":"1"}},{"base_weights":[-3.5352024E-4,1.0709499E-2,-3.8974535E-1,-1.8993358E-1,3.0441716E-2,-3.9163884E-2,-7.502367E-1,-4.4561604E-1,1.5373772E-1,-1.3934387E-1,3.440405E-2,-2.525638E-1,1.0418866E0,-8.974397E-1,6.166494E-1,-1.2335145E-1,-8.331321E-1,1.2822907E0,-6.5449523E-3,8.9256656E-1,2.5939727E-2,-4.6719077E-1,8.510257E-1,3.6447903E-3,1.5982993E-1,2.0115103E-1,-1.0693275E0,-2.7762926E-3,9.977868E-2,-2.7422834E-2,1.0591536E-1,1.04267575E-1,-9.2296444E-2,-3.775426E-2,1.7107289E-1,-1.0000228E-2,1.1828703E-1,1.2286206E-1,-9.495064E-2,6.4155273E-3,-1.1586435E-2,1.2313108E-2,-7.48875E-2,1.4734489E-1,-4.535742E-2,1.0328938E-1,-8.362474E-2,-2.6874363E-2,-1.1801578E-1],"categories":[],"categories_nodes":[],"categories_segments":[],"categories_sizes":[],"default_left":[0,0,0,0,0,0,0,0,0,0,0,0,0,0,0,0,0,0,0,0,0,0,0,0,0,0,0,0,0,0,0,0,0,0,0,0,0,0,0,0,0,0,0,0,0,0,0,0,0],"id":12,"left_children":[1,3,5,7,9,11,13,15,17,-1,19,21,23,25,27,29,31,33,35,37,39,41,43,-1,-1,45,47,-1,-1,-1,-1,-1,-1,-1,-1,-1,-1,-1,-1,-1,-1,-1,-1,-1,-1,-1,-1,-1,-1],"loss_changes":[9.338976E0,8.351783E0,7.539687E0,1.6666412E1,1.0881203E1,7.511085E0,6.483639E0,1.3455326E1,1.4718779E1,0E0,1.3892734E1,6.803032E0,2.9484825E0,5.316408E0,8.770553E-1,1.10750475E1,9.239334E0,7.841608E0,8.144538E0,1.2731166E1,1.0293538E1,3.964253E0,4.5314493E0,0E0,0E0,4.743639E0,1.7695789E0,0E0,0E0,0E0,0E0,0E0,0E0,0E0,0E0,0E0,0E0,0E0,0E0,0E0,0E0,0E0,0E0,0E0,0E0,0E0,0E0,0E0,0E0],"parents":[2147483647,0,0,1,1,2,2,3,3,4,4,5,5,6,6,7,7,8,8,10,10,11,11,12,12,13,13,14,14,15,15,16,16,17,17,18,18,19,19,20,20,21,21,22,22,25,25,26,26],"right_children":[2,4,6,8,10,12,14,16,18,-1,20,22,24,26,28,30,32,34,36,38,40,42,44,-1,-1,46,48,-1,-1,-1,-1,-1,-1,-1,-1,-1,-1,-1,-1,-1,-1,-1,-1,-1,-1,-1,-1,-1,-1],"split_conditions":[2.6382124E1,1.30328424E8,4.968529E1,1.0443517E0,1.6814112E-3,-3.5584383E-3,1.9032495E-2,8.415131E-2,-1.2928823E-1,-1.3934387E-1,2.2971903E-3,2.3759605E8,-2.4750743E-2,3.628E-1,8.7028533E-1,3.0970725E-3,2.071456E-3,-1.5862318E-3,3.7922662E-1,2.6504654E-3,3.6807198E-2,-1.3335067E-2,-1.7393583E-3,3.6447903E-3,1.5982993E-1,1.9970179E-2,1.1816496E1,-2.7762926E-3,9.977868E-2,-2.7422834E-2,1.0591536E-1,1.04267575E-1,-9.2296444E-2,-3.775426E-2,1.7107289E-1,-1.0000228E-2,1.1828703E-1,1.2286206E-1,-9.495064E-2,6.4155273E-3,-1.1586435E-2,1.2313108E-2,-7.48875E-2,1.4734489E-1,-4.535742E-2,1.0328938E-1,-8.362474E-2,-2.6874363E-2,-1.1801578E-1],"split_indices":[17,14,12,15,6,5,7,16,4,0,6,14,3,6,15,6,6,11,17,9,1,0,1,0,0,4,8,0,0,0,0,0,0,0,0,0,0,0,0,0,0,0,0,0,0,0,0,0,0],"split_type":[0,0,0,0,0,0,0,0,0,0,0,0,0,0,0,0,0,0,0,0,0,0,0,0,0,0,0,0,0,0,0,0,0,0,0,0,0,0,0,0,0,0,0,0,0,0,0,0,0],"sum_hessian":[2.1659285E3,2.1070378E3,5.88906E1,1.8789005E2,1.9191477E3,3.0417706E1,2.847289E1,1.0756665E2,8.03234E1,4.352599E0,1.9147952E3,2.6043148E1,4.3745594E0,2.6014746E1,2.4581451E0,5.944748E1,4.8119167E1,9.118651E0,7.120475E1,1.7681595E1,1.8971135E3,2.2285675E1,3.7574728E0,1.9380339E0,2.4365253E0,3.496598E0,2.2518147E1,1.258121E0,1.200024E0,5.3401966E1,6.0455103E0,1.714359E0,4.640481E1,1.8951912E0,7.2234597E0,6.6866684E1,4.3380713E0,1.5235218E1,2.446377E0,1.4948153E3,4.0229828E2,7.380769E0,1.4904905E1,2.4561977E0,1.3012751E0,1.9430689E0,1.5535293E0,3.1547315E0,1.9363417E1],"tree_param":{"num_deleted":"0","num_feature":"20","num_nodes":"49","size_leaf_vector":"1"}},{"base_weights":[-2.3329452E-4,-1.3887093E-2,2.9219368E-1,-6.8648523E-3,-6.828707E-1,3.8738826E-1,-1.1727729E-1,-1.6255654E-2,6.821512E-1,8.1431025E-1,-9.387268E-1,-6.4180344E-2,8.384498E-1,-2.383779E-2,5.9905404E-1,9.515577E-1,-9.3214905E-1,1.2732472E-1,-6.659291E-3,-2.8584955E-2,-1.1259415E0,1.4963377E0,-3.8307747E-1,1.1320893E0,-1.3087173E-1,-1.2088054E-3,-5.3125113E-2,1.696568E-1,2.0514479E-2,-7.329334E-2,1.12897806E-1,-8.345786E-3,-1.2307718E-1,8.592346E-2,-9.331425E-2,-1.1734946E-1,-2.262052E-2,1.718494E-1,2.6146987E-2,1.0645559E-1,-7.398799E-2,1.3142093E-1,6.5119765E-3,-1.3513283E-1,4.4270884E-2],"categories":[],"categories_nodes":[],"categories_segments":[],"categories_sizes":[],"default_left":[0,0,0,0,0,0,0,0,0,0,0,0,0,0,0,0,0,0,0,0,0,0,0,0,0,0,0,0,0,0,0,0,0,0,0,0,0,0,0,0,0,0,0,0,0],"id":13,"left_children":[1,3,5,7,9,11,-1,13,15,17,19,21,23,25,27,29,31,-1,-1,33,35,37,39,41,43,-1,-1,-1,-1,-1,-1,-1,-1,-1,-1,-1,-1,-1,-1,-1,-1,-1,-1,-1,-1],"loss_changes":[8.645503E0,9.713572E0,1.39246025E1,1.3263918E1,8.992282E0,1.8680658E1,0E0,9.446035E0,1.2874534E1,1.568644E0,3.1726818E0,2.377729E1,1.3190342E1,1.1905655E1,1.0307296E1,8.034967E0,1.0243983E0,0E0,0E0,4.20279E0,4.008808E-1,1.7770424E0,2.1196457E1,6.7682495E0,8.683512E0,0E0,0E0,0E0,0E0,0E0,0E0,0E0,0E0,0E0,0E0,0E0,0E0,0E0,0E0,0E0,0E0,0E0,0E0,0E0,0E0],"parents":[2147483647,0,0,1,1,2,2,3,3,4,4,5,5,7,7,8,8,9,9,10,10,11,11,12,12,13,13,14,14,15,15,16,16,19,19,20,20,21,21,22,22,23,23,24,24],"right_children":[2,4,6,8,10,12,-1,14,16,18,20,22,24,26,28,30,32,-1,-1,34,36,38,40,42,44,-1,-1,-1,-1,-1,-1,-1,-1,-1,-1,-1,-1,-1,-1,-1,-1,-1,-1,-1,-1],"split_conditions":[9.990553E8,6.762566E-2,6.0089617E0,5.12043E-2,2.7219174E8,3.1985512E0,-1.1727729E-1,5.622041E1,4.4034806E-1,4.1506294E1,7.603085E-2,2.5567826E-2,3.585115E1,4.591211E-2,2.3447052E-2,5.291705E-3,4.8384007E-2,1.2732472E-1,-6.659291E-3,-4.086449E-2,1.099767E-1,-2.8425442E-2,1.2207527E0,1.2614705E-1,1.7243828E-1,-1.2088054E-3,-5.3125113E-2,1.696568E-1,2.0514479E-2,-7.329334E-2,1.12897806E-1,-8.345786E-3,-1.2307718E-1,8.592346E-2,-9.331425E-2,-1.1734946E-1,-2.262052E-2,1.718494E-1,2.6146987E-2,1.0645559E-1,-7.398799E-2,1.3142093E-1,6.5119765E-3,-1.3513283E-1,4.4270884E-2],"split_indices":[14,7,17,7,14,16,0,8,18,8,16,18,8,7,3,6,4,0,0,3,2,3,17,4,6,0,0,0,0,0,0,0,0,0,0,0,0,0,0,0,0,0,0,0,0],"split_type":[0,0,0,0,0,0,0,0,0,0,0,0,0,0,0,0,0,0,0,0,0,0,0,0,0,0,0,0,0,0,0,0,0,0,0,0,0,0,0,0,0,0,0,0,0],"sum_hessian":[2.16329E3,2.067699E3,9.559106E1,2.0472197E3,2.047916E1,9.044917E1,5.1418858E0,2.0206561E3,2.656371E1,2.6703732E0,1.7808786E1,4.5627796E1,4.4821373E1,1.9970093E3,2.3646826E1,2.3116415E1,3.4472952E0,1.4628582E0,1.207515E0,3.2349265E0,1.4573859E1,7.1155825E0,3.8512215E1,3.4271492E1,1.0549884E1,1.9528135E3,4.4195805E1,5.3720803E0,1.8274744E1,1.9043919E0,2.1212023E1,1.2302834E0,2.217012E0,1.6578543E0,1.5770723E0,1.3553275E1,1.0205846E0,5.6987233E0,1.4168593E0,7.223032E0,3.1289183E1,2.9076696E1,5.194794E0,2.9394376E0,7.6104465E0],"tree_param":{"num_deleted":"0","num_feature":"20","num_nodes":"45","size_leaf_vector":"1"}},{"base_weights":[-1.8721058E-4,-7.0853336E-3,5.482835E-1,-5.3101324E-2,7.5460345E-2,2.3748848E-1,1.459957E0,-7.1758844E-2,4.0564322E-1,9.884096E-2,-1.0197618E0,-7.08769E-1,4.2271617E-1,1.6315213E-1,3.7712246E-2,-5.1165547E-2,-4.2679283E-1,8.5796106E-1,-2.683111E-1,2.291095E-1,-1.4140756E-1,4.6187397E-2,-1.1659392E0,3.771434E-3,-1.05236195E-1,6.9409263E-1,-3.323085E-1,-4.1759955E-3,-8.816837E-2,-5.80734E-2,9.062137E-2,-1.3090931E-2,1.1317241E-1,7.85322E-3,-9.921057E-2,1.5114526E-2,7.77952E-2,-2.8261712E-2,2.6461527E-2,-3.111656E-2,-1.3129035E-1,2.5822831E-2,1.516091E-1,-7.9019316E-2,5.5482853E-2],"categories":[],"categories_nodes":[],"categories_segments":[],"categories_sizes":[],"default_left":[0,0,0,0,0,0,0,0,0,0,0,0,0,0,0,0,0,0,0,0,0,0,0,0,0,0,0,0,0,0,0,0,0,0,0,0,0,0,0,0,0,0,0,0,0],"id":14,"left_children":[1,3,5,7,9,11,13,15,17,19,21,23,25,-1,-1,27,29,31,33,35,37,-1,39,-1,-1,41,43,-1,-1,-1,-1,-1,-1,-1,-1,-1,-1,-1,-1,-1,-1,-1,-1,-1,-1],"loss_changes":[8.187303E0,8.121577E0,7.269143E0,1.1778526E1,1.9698841E1,4.022293E0,6.181221E-1,9.628746E0,1.6630447E1,2.3513004E1,4.0222797E0,1.0273005E0,3.9984422E0,0E0,0E0,9.717602E0,1.5347878E1,8.927849E0,5.6932178E0,2.0715097E1,1.5233826E1,0E0,1.466301E0,0E0,0E0,4.5709043E0,2.6880603E0,0E0,0E0,0E0,0E0,0E0,0E0,0E0,0E0,0E0,0E0,0E0,0E0,0E0,0E0,0E0,0E0,0E0,0E0],"parents":[2147483647,0,0,1,1,2,2,3,3,4,4,5,5,6,6,7,7,8,8,9,9,10,10,11,11,12,12,15,15,16,16,17,17,18,18,19,19,20,20,22,22,25,25,26,26],"right_children":[2,4,6,8,10,12,14,16,18,20,22,24,26,-1,-1,28,30,32,34,36,38,-1,40,-1,-1,42,44,-1,-1,-1,-1,-1,-1,-1,-1,-1,-1,-1,-1,-1,-1,-1,-1,-1,-1],"split_conditions":[2.3776355E0,3.7299098E8,1.9837444E-1,1.9752838E-1,4.4034806E-1,1.2397454E0,2.2353104E-1,3.403975E8,2.2696999E-1,5.3224792E0,2.7080952E1,5.172723E-2,3.035477E1,1.6315213E-1,3.7712246E-2,5.4178435E-1,4.263437E1,2.9017491E-2,3.2788342E-1,1.17242545E-1,7.9188585E-2,4.6187397E-2,-8.385976E-2,3.771434E-3,-1.05236195E-1,1.0564618E-2,3.787448E8,-4.1759955E-3,-8.816837E-2,-5.80734E-2,9.062137E-2,-1.3090931E-2,1.1317241E-1,7.85322E-3,-9.921057E-2,1.5114526E-2,7.77952E-2,-2.8261712E-2,2.6461527E-2,-3.111656E-2,-1.3129035E-1,2.5822831E-2,1.516091E-1,-7.9019316E-2,5.5482853E-2],"split_indices":[13,14,18,5,18,15,3,14,17,17,8,19,8,0,0,10,8,7,18,6,19,0,19,0,0,6,14,0,0,0,0,0,0,0,0,0,0,0,0,0,0,0,0,0,0],"split_type":[0,0,0,0,0,0,0,0,0,0,0,0,0,0,0,0,0,0,0,0,0,0,0,0,0,0,0,0,0,0,0,0,0,0,0,0,0,0,0,0,0,0,0,0,0],"sum_hessian":[2.1619692E3,2.1360906E3,2.587856E1,1.3717502E3,7.6434045E2,2.0239342E1,5.639217E0,1.3189509E3,5.2799248E1,7.4925525E2,1.5085218E1,2.850541E0,1.73888E1,4.4305305E0,1.2086861E0,1.2477225E3,7.122845E1,3.143137E1,2.1367878E1,4.858578E2,2.6339743E2,1.1607118E0,1.3924507E1,1.1790957E0,1.6714454E0,1.2850635E1,4.538166E0,1.2347888E3,1.2933671E1,6.436021E1,6.8682437E0,6.9280615E0,2.4503307E1,1.5048241E1,6.319638E0,4.26542E2,5.93158E1,1.9565506E2,6.774238E1,2.5001874E0,1.1424319E1,9.256516E0,3.5941179E0,3.065318E0,1.472848E0],"tree_param":{"num_deleted":"0","num_feature":"20","num_nodes":"45","size_leaf_vector":"1"}},{"base_weights":[-1.5043179E-4,-2.2640933E-1,1.54554285E-2,-6.060432E-1,-1.6313706E-2,-3.2852125E-1,2.8259372E-2,6.8651813E-1,-8.560348E-1,-5.812081E-1,1.6865382E-1,-7.8907603E-1,2.4907798E-1,3.6841574E-1,5.1252916E-3,-1.0210806E-1,1.2956434E0,2.84418E-1,-9.8230225E-1,-1.1079203E-1,-1.2987018E0,-4.6334112E-1,5.048743E-1,-1.2586057E0,-4.9809727E-1,-2.1534568E-1,1.4134315E0,1.9772151E-2,8.1396616E-1,-1.3111445E0,1.4505313E-2,1.5746222E-1,-1.5739443E-4,9.9222E-2,-9.035727E-2,-1.1184734E-1,6.7594037E-3,-6.351043E-2,9.328195E-2,-1.3856007E-1,-3.8440622E-2,-1.002537E-2,-1.23469315E-1,7.639434E-2,-3.3335753E-2,-6.81804E-2,-1.41634E-1,-1.02068735E-2,-9.261035E-2,1.1935367E-1,-6.6126555E-2,1.8504187E-1,-3.725135E-2,-1.4153411E-2,1.2956482E-1,1.9622136E-2,1.3091692E-1,-1.4358826E-1,-1.8544812E-2,-1.2721974E-1,2.2123165E-3],"categories":[],"categories_nodes":[],"categories_segments":[],"categories_sizes":[],"default_left":[0,0,0,0,0,0,0,0,0,0,0,0,0,0,0,0,0,0,0,0,0,0,0,0,0,0,0,0,0,0,0,0,0,0,0,0,0,0,0,0,0,0,0,0,0,0,0,0,0,0,0,0,0,0,0,0,0,0,0,0,0],"id":15,"left_children":[1,3,5,7,9,11,13,15,17,19,21,23,25,27,29,-1,31,33,35,37,39,41,43,45,47,49,51,53,55,57,59,-1,-1,-1,-1,-1,-1,-1,-1,-1,-1,-1,-1,-1,-1,-1,-1,-1,-1,-1,-1,-1,-1,-1,-1,-1,-1,-1,-1,-1,-1],"loss_changes":[7.633426E0,1.1115704E1,8.916334E0,1.6636389E1,9.587846E0,1.952447E1,1.5348691E1,1.0272411E1,6.3364563E0,7.4935565E0,1.4937108E1,4.9287605E0,1.8145334E1,1.9277868E1,2.2582613E1,0E0,2.4570704E0,5.074177E0,5.521759E0,8.669093E0,1.7190266E-1,6.7518606E0,1.0166913E1,3.902855E-1,4.4414635E0,1.615189E1,8.134394E0,1.4735088E1,1.6415276E1,1.5509987E0,1.7824173E1,0E0,0E0,0E0,0E0,0E0,0E0,0E0,0E0,0E0,0E0,0E0,0E0,0E0,0E0,0E0,0E0,0E0,0E0,0E0,0E0,0E0,0E0,0E0,0E0,0E0,0E0,0E0,0E0,0E0,0E0],"parents":[2147483647,0,0,1,1,2,2,3,3,4,4,5,5,6,6,7,7,8,8,9,9,10,10,11,11,12,12,13,13,14,14,16,16,17,17,18,18,19,19,20,20,21,21,22,22,23,23,24,24,25,25,26,26,27,27,28,28,29,29,30,30],"right_children":[2,4,6,8,10,12,14,16,18,20,22,24,26,28,30,-1,32,34,36,38,40,42,44,46,48,50,52,54,56,58,60,-1,-1,-1,-1,-1,-1,-1,-1,-1,-1,-1,-1,-1,-1,-1,-1,-1,-1,-1,-1,-1,-1,-1,-1,-1,-1,-1,-1,-1,-1],"split_conditions":[1.3422524E1,6.7064445E-3,6.66512E7,3.936128E7,1.6864598E-2,2.358291E1,9.923768E-2,-1.5750855E-4,1.0166424E1,4.0099882E8,-7.047699E-4,3.202113E-2,3.5523064E-2,8.986593E-4,1.09562504E8,-1.0210806E-1,3.5031747E-2,-1.1806049E-4,1.3853132E-3,3.0442026E-2,3.2806578E-1,5.2375344E8,3.160523E-2,-4.5667693E-4,1.935391E-2,-9.2038095E-2,5.0873455E1,8.244192E-2,1.0593747E-2,2.9169247E-1,3.4260342E-3,1.5746222E-1,-1.5739443E-4,9.9222E-2,-9.035727E-2,-1.1184734E-1,6.7594037E-3,-6.351043E-2,9.328195E-2,-1.3856007E-1,-3.8440622E-2,-1.002537E-2,-1.23469315E-1,7.639434E-2,-3.3335753E-2,-6.81804E-2,-1.41634E-1,-1.02068735E-2,-9.261035E-2,1.1935367E-1,-6.6126555E-2,1.8504187E-1,-3.725135E-2,-1.4153411E-2,1.2956482E-1,1.9622136E-2,1.3091692E-1,-1.4358826E-1,-1.8544812E-2,-1.2721974E-1,2.2123165E-3],"split_indices":[8,6,14,14,7,8,17,10,8,14,11,7,7,10,14,0,5,9,10,19,6,14,7,11,3,2,12,16,19,16,6,0,0,0,0,0,0,0,0,0,0,0,0,0,0,0,0,0,0,0,0,0,0,0,0,0,0,0,0,0,0],"split_type":[0,0,0,0,0,0,0,0,0,0,0,0,0,0,0,0,0,0,0,0,0,0,0,0,0,0,0,0,0,0,0,0,0,0,0,0,0,0,0,0,0,0,0,0,0,0,0,0,0,0,0,0,0,0,0,0,0,0,0,0,0],"sum_hessian":[2.1598618E3,1.3848936E2,2.0213723E3,4.8666485E1,8.982288E1,7.1656975E1,1.9497153E3,7.6040745E0,4.1062412E1,2.1628082E1,6.81948E1,3.966419E1,3.1992788E1,1.2320608E2,1.8265093E3,1.8214854E0,5.782589E0,3.9682744E0,3.709414E1,1.3760555E1,7.867528E0,2.3549892E1,4.464491E1,1.3903607E1,2.5760582E1,2.345313E1,8.539659E0,6.970569E1,5.3500385E1,1.1942016E1,1.8145673E3,4.5831037E0,1.1994854E0,2.5899687E0,1.3783057E0,3.2777576E1,4.3165593E0,9.419579E0,4.340977E0,6.7139206E0,1.1536072E0,1.6780853E1,6.769038E0,3.4172096E1,1.0472815E1,4.1286116E0,9.774996E0,1.4023395E1,1.1737188E1,5.2353835E0,1.8217747E1,6.831916E0,1.7077423E0,6.2671356E1,7.0343347E0,2.4426102E1,2.9074286E1,1.0502667E1,1.4393483E0,9.702793E0,1.8048645E3],"tree_param":{"num_deleted":"0","num_feature":"20","num_nodes":"61","size_leaf_vector":"1"}},{"base_weights":[-4.531137E-4,9.129737E-3,-3.498224E-1,2.0769818E-1,-1.1906236E-2,-4.6367818E-1,5.891711E-1,9.3204206E-1,-1.5101325E-2,-7.1612876E-3,-8.847985E-1,-2.1166523E-1,-1.0766838E0,8.884157E-1,-2.5312832E-2,3.3119878E-1,1.2210039E0,9.209146E-1,-1.4342912E-1,-1.4661129E-2,5.30669E-1,1.6273053E-1,-1.2789796E-1,1.9565615E-1,-5.795673E-1,-4.6383804E-1,-1.18668295E-1,3.2845285E-2,1.0775741E-1,1.0686336E-1,-2.5916716E-2,1.4557593E-1,1.6192299E-3,-5.0166126E-2,1.04709975E-1,-9.608294E-2,-3.5682686E-3,-2.0384893E-3,6.1468232E-2,2.4140593E-2,1.3325173E-1,8.6860195E-2,-6.8460934E-2,-1.4565664E-2,1.7362735E-1,-1.0460261E-1,2.9284074E-3,2.4225404E-2,-8.074151E-2],"categories":[],"categories_nodes":[],"categories_segments":[],"categories_sizes":[],"default_left":[0,0,0,0,0,0,0,0,0,0,0,0,0,0,0,0,0,0,0,0,0,0,0,0,0,0,0,0,0,0,0,0,0,0,0,0,0,0,0,0,0,0,0,0,0,0,0,0,0],"id":16,"left_children":[1,3,5,7,9,11,13,15,17,19,21,23,25,27,-1,29,31,33,35,37,39,41,-1,43,45,47,-1,-1,-1,-1,-1,-1,-1,-1,-1,-1,-1,-1,-1,-1,-1,-1,-1,-1,-1,-1,-1,-1,-1],"loss_changes":[7.2299285E0,8.782283E0,6.4367237E0,3.2516045E1,7.869373E0,7.8017645E0,1.9073148E0,7.823658E0,1.8750801E1,7.640369E0,4.4497414E0,5.819656E0,4.5389366E-1,1.9123411E-1,0E0,7.574528E0,8.922142E0,3.9042873E0,1.2047543E1,6.7385197E0,5.720601E0,2.8051035E0,0E0,1.0148453E1,5.7845163E0,1.1438668E0,0E0,0E0,0E0,0E0,0E0,0E0,0E0,0E0,0E0,0E0,0E0,0E0,0E0,0E0,0E0,0E0,0E0,0E0,0E0,0E0,0E0,0E0,0E0],"parents":[2147483647,0,0,1,1,2,2,3,3,4,4,5,5,6,6,7,7,8,8,9,9,10,10,11,11,12,12,13,13,15,15,16,16,17,17,18,18,19,19,20,20,21,21,23,23,24,24,25,25],"right_children":[2,4,6,8,10,12,14,16,18,20,22,24,26,28,-1,30,32,34,36,38,40,42,-1,44,46,48,-1,-1,-1,-1,-1,-1,-1,-1,-1,-1,-1,-1,-1,-1,-1,-1,-1,-1,-1,-1,-1,-1,-1],"split_conditions":[2.6382124E1,1.4789584E-2,1.957969E-2,7.2419376E0,1.7324996E-1,8.141661E-3,3.0455109E-2,2.620534E0,-4.8552863E-2,2.3776355E0,2.2189297E1,1.3523295E-2,1.4278932E1,8.1214243E-1,-2.5312832E-2,4.0286393E-3,2.0885628E-1,1.7243828E-1,1.502623E1,3.7591842E-1,1.9837444E-1,2.1128176E-2,-1.2789796E-1,6.666783E-2,5.6404346E-1,-3.480642E-4,-1.18668295E-1,3.2845285E-2,1.0775741E-1,1.0686336E-1,-2.5916716E-2,1.4557593E-1,1.6192299E-3,-5.0166126E-2,1.04709975E-1,-9.608294E-2,-3.5682686E-3,-2.0384893E-3,6.1468232E-2,2.4140593E-2,1.3325173E-1,8.6860195E-2,-6.8460934E-2,-1.4565664E-2,1.7362735E-1,-1.0460261E-1,2.9284074E-3,2.4225404E-2,-8.074151E-2],"split_indices":[17,7,7,16,11,1,1,16,10,13,8,7,8,15,0,10,18,6,8,9,18,7,0,19,6,0,0,0,0,0,0,0,0,0,0,0,0,0,0,0,0,0,0,0,0,0,0,0,0],"split_type":[0,0,0,0,0,0,0,0,0,0,0,0,0,0,0,0,0,0,0,0,0,0,0,0,0,0,0,0,0,0,0,0,0,0,0,0,0,0,0,0,0,0,0,0,0,0,0,0,0],"sum_hessian":[2.1575527E3,2.1009011E3,5.6651745E1,2.0039595E2,1.9005051E3,5.0976845E1,5.6748977E0,4.6390945E1,1.54005E2,1.8912328E3,9.272335E0,3.70787E1,1.3898148E1,4.146881E0,1.5280168E0,1.5762299E1,3.0628647E1,1.7823692E1,1.361813E2,1.8661824E3,2.5050472E1,2.6957073E0,6.5766277E0,1.7818832E1,1.9259867E1,2.9088156E0,1.0989331E1,1.7380751E0,2.4088058E0,6.6480284E0,9.11427E0,2.5459602E1,5.1690445E0,1.2097462E0,1.6613947E1,1.4938135E1,1.2124317E2,1.8503215E3,1.5860731E1,1.9365513E1,5.684958E0,1.4569288E0,1.2387784E0,1.5328391E1,2.4904404E0,1.0498572E1,8.761294E0,1.0486403E0,1.8601754E0],"tree_param":{"num_deleted":"0","num_feature":"20","num_nodes":"49","size_leaf_vector":"1"}},{"base_weights":[-3.318939E-4,-6.63419E-3,5.0372994E-1,-1.2817518E-3,-7.9334813E-1,6.547482E-1,-1.0020876E-1,5.2914247E-3,-5.313109E-1,9.107084E-2,-1.0150741E0,9.1509867E-1,-3.9568603E-1,1.9952673E-1,-1.5243983E-2,-1.1230703E-1,-3.029696E-1,7.692868E-2,-1.2925723E-1,-9.291306E-2,1.1017797E0,1.0732426E-1,-1.1783818E-1,8.4759496E-2,-4.4611996E-5,5.6612743E-3,-6.9116536E-3,7.512747E-2,-5.802411E-2,1.2635402E-1,-3.4164887E-2],"categories":[],"categories_nodes":[],"categories_segments":[],"categories_sizes":[],"default_left":[0,0,0,0,0,0,0,0,0,0,0,0,0,0,0,0,0,0,0,0,0,0,0,0,0,0,0,0,0,0,0],"id":17,"left_children":[1,3,5,7,9,11,-1,13,15,-1,17,19,21,23,25,-1,27,-1,-1,-1,29,-1,-1,-1,-1,-1,-1,-1,-1,-1,-1],"loss_changes":[6.851914E0,8.96895E0,6.7130075E0,7.3777466E0,6.36275E0,7.1476545E0,0E0,8.3469095E0,3.164846E0,0E0,7.5349455E0,7.973221E0,7.733382E0,2.5930834E1,7.3310986E0,0E0,6.3075824E0,0E0,0E0,0E0,4.818386E0,0E0,0E0,0E0,0E0,0E0,0E0,0E0,0E0,0E0,0E0],"parents":[2147483647,0,0,1,1,2,2,3,3,4,4,5,5,7,7,8,8,10,10,11,11,12,12,13,13,14,14,16,16,20,20],"right_children":[2,4,6,8,10,12,-1,14,16,-1,18,20,22,24,26,-1,28,-1,-1,-1,30,-1,-1,-1,-1,-1,-1,-1,-1,-1,-1],"split_conditions":[5.622041E1,5.4178435E-1,1.5287851E1,2.5261131E1,-2.2858137E-2,1.3381703E-1,-1.0020876E-1,1.4789584E-2,2.5708717E1,9.107084E-2,-1.7098505E-2,8.832724E-3,5.743662E-2,7.2419376E0,3.0049914E-1,-1.1230703E-1,-2.7776275E-2,7.692868E-2,-1.2925723E-1,-9.291306E-2,2.6911482E-2,1.0732426E-1,-1.1783818E-1,8.4759496E-2,-4.4611996E-5,5.6612743E-3,-6.9116536E-3,7.512747E-2,-5.802411E-2,1.2635402E-1,-3.4164887E-2],"split_indices":[8,10,16,16,5,4,0,7,16,0,19,6,9,16,17,0,4,0,0,0,0,0,0,0,0,0,0,0,0,0,0],"split_type":[0,0,0,0,0,0,0,0,0,0,0,0,0,0,0,0,0,0,0,0,0,0,0,0,0,0,0,0,0,0,0],"sum_hessian":[2.1548442E3,2.1292095E3,2.5634716E1,2.1158162E3,1.3393407E1,2.381182E1,1.8228967E0,2.090876E3,2.4940062E1,1.1842895E0,1.2209117E1,1.9185518E1,4.6263E0,1.9908675E2,1.8917893E3,5.853083E0,1.9086977E1,1.4046638E0,1.0804454E1,1.3979558E0,1.7787563E1,1.479127E0,3.147173E0,4.61821E1,1.5290465E2,8.105732E2,1.0812162E3,3.6186364E0,1.5468341E1,1.6107117E1,1.6804473E0],"tree_param":{"num_deleted":"0","num_feature":"20","num_nodes":"31","size_leaf_vector":"1"}},{"base_weights":[-3.8061733E-4,2.6140703E-2,-1.19811006E-1,-1.8308188E-1,4.8582252E-2,2.0252474E-1,-2.1994995E-1,-2.777266E-1,8.3724195E-1,-1.2734087E-1,5.2494936E-2,-4.1629738E-1,4.7448072E-1,-4.723359E-1,-1.2877256E-1,1.0706422E0,-3.4049976E-1,-1.00772955E-1,1.1425638E0,6.7478156E-1,4.2826843E-2,-9.806119E-1,3.1766066E-1,7.6113343E-1,-3.729035E-1,1.2579837E-1,-5.1584476E-1,5.0248694E-1,-1.8701077E-1,1.418525E-1,-4.2695418E-2,-1.3219075E-2,-5.8688123E-2,3.337104E-2,1.7243712E-1,1.6635023E-1,1.1185907E-2,4.0885612E-2,3.1256408E-3,1.4712425E-3,-1.3001075E-1,-4.481638E-2,1.1575373E-1,-6.564062E-3,1.0228375E-1,3.1900253E-2,-1.1378813E-1,-6.0438134E-2,2.944017E-2,7.027333E-2,-4.844795E-2,-2.7223859E-2,1.1992565E-2],"categories":[],"categories_nodes":[],"categories_segments":[],"categories_sizes":[],"default_left":[0,0,0,0,0,0,0,0,0,0,0,0,0,0,0,0,0,0,0,0,0,0,0,0,0,0,0,0,0,0,0,0,0,0,0,0,0,0,0,0,0,0,0,0,0,0,0,0,0,0,0,0,0],"id":18,"left_children":[1,3,5,7,9,11,13,15,17,-1,19,21,23,25,27,29,31,-1,33,35,37,39,41,43,45,-1,47,49,51,-1,-1,-1,-1,-1,-1,-1,-1,-1,-1,-1,-1,-1,-1,-1,-1,-1,-1,-1,-1,-1,-1,-1,-1],"loss_changes":[6.8242755E0,8.286723E0,1.2681526E1,1.6745167E1,8.306777E0,1.5902179E1,6.823929E0,1.3672754E1,9.468136E0,0E0,9.532704E0,1.23322115E1,1.6144306E1,6.5982227E0,8.224495E0,4.375265E0,7.6720047E0,0E0,5.6064796E0,1.3308659E1,6.619543E0,5.314558E0,9.118638E0,1.0695038E1,9.454072E0,0E0,5.758688E0,4.085922E0,5.3484383E0,0E0,0E0,0E0,0E0,0E0,0E0,0E0,0E0,0E0,0E0,0E0,0E0,0E0,0E0,0E0,0E0,0E0,0E0,0E0,0E0,0E0,0E0,0E0,0E0],"parents":[2147483647,0,0,1,1,2,2,3,3,4,4,5,5,6,6,7,7,8,8,10,10,11,11,12,12,13,13,14,14,15,15,16,16,18,18,19,19,20,20,21,21,22,22,23,23,24,24,26,26,27,27,28,28],"right_children":[2,4,6,8,10,12,14,16,18,-1,20,22,24,26,28,30,32,-1,34,36,38,40,42,44,46,-1,48,50,52,-1,-1,-1,-1,-1,-1,-1,-1,-1,-1,-1,-1,-1,-1,-1,-1,-1,-1,-1,-1,-1,-1,-1,-1],"split_conditions":[4.1259438E-2,1.3425141E8,1.8958572E1,1.0668184E-1,1.6814112E-3,2.1782488E-2,8.5677826E-1,-1.4322716E-1,6.0217956E-4,-1.2734087E-1,6.573155E-2,6.0352154E-2,1.9837444E-1,3.1542315E1,-4.114699E-1,-1.4015767E-1,9.57334E-2,-1.00772955E-1,8.6978456E7,1.6444213E8,1.4364747E8,-4.276207E-3,5.7884835E-2,1.3843285E1,1.4712812E-2,1.2579837E-1,9.947781E-2,7.2314995E1,6.932609E-1,1.418525E-1,-4.2695418E-2,-1.3219075E-2,-5.8688123E-2,3.337104E-2,1.7243712E-1,1.6635023E-1,1.1185907E-2,4.0885612E-2,3.1256408E-3,1.4712425E-3,-1.3001075E-1,-4.481638E-2,1.1575373E-1,-6.564062E-3,1.0228375E-1,3.1900253E-2,-1.1378813E-1,-6.0438134E-2,2.944017E-2,7.027333E-2,-4.844795E-2,-2.7223859E-2,1.1992565E-2],"split_indices":[1,14,8,4,6,5,15,3,11,0,16,1,18,12,13,5,16,0,14,14,14,9,19,8,6,0,1,12,13,0,0,0,0,0,0,0,0,0,0,0,0,0,0,0,0,0,0,0,0,0,0,0,0],"split_type":[0,0,0,0,0,0,0,0,0,0,0,0,0,0,0,0,0,0,0,0,0,0,0,0,0,0,0,0,0,0,0,0,0,0,0,0,0,0,0,0,0,0,0,0,0,0,0,0,0,0,0,0,0],"sum_hessian":[2.1525115E3,1.7620114E3,3.905001E2,1.6999449E2,1.5920168E3,9.2317665E1,2.981824E2,1.5623044E2,1.3764051E1,3.7405143E0,1.5882764E3,2.8022692E1,6.4294975E1,7.802444E1,2.2015797E2,6.2355227E0,1.4999492E2,1.6277121E0,1.2136339E1,2.324611E1,1.5650303E3,1.5652204E1,1.2370489E1,4.8119064E1,1.6175909E1,1.2291387E0,7.6795296E1,1.795127E1,2.0220671E2,5.1029396E0,1.1325834E0,8.210979E1,6.7885124E1,5.7357826E0,6.4005566E0,7.724184E0,1.5521927E1,4.690362E1,1.5181266E3,4.0352235E0,1.1616981E1,6.7144485E0,5.65604E0,1.1749451E1,3.6369614E1,8.799732E0,7.376178E0,6.945946E1,7.3358374E0,1.5162853E1,2.788416E0,1.5835025E2,4.385647E1],"tree_param":{"num_deleted":"0","num_feature":"20","num_nodes":"53","size_leaf_vector":"1"}},{"base_weights":[-2.86482E-4,5.6160977E-3,-5.224487E-1,-3.7185844E-2,8.365076E-2,7.7158356E-1,-7.199313E-1,-5.4707974E-2,3.852889E-1,1.685425E0,6.6582076E-2,1.1976681E-1,-5.478272E-3,-9.19511E-1,9.754515E-2,1.6182413E-2,-1.572972E-1,7.865592E-1,-2.4312879E-1,1.8796863E-1,5.0028253E-2,8.318898E-2,-1.4054076E-1,6.370781E-4,-1.0970144E0,-6.8914605E-4,8.574441E-2,-7.933173E-3,-6.359022E-2,-1.2947078E-2,1.0267363E-1,-9.5598094E-2,1.4029278E-2,1.0899256E-2,-8.441624E-2,8.205154E-2,-8.750861E-2,-3.5983432E-2,-1.17396414E-1],"categories":[],"categories_nodes":[],"categories_segments":[],"categories_sizes":[],"default_left":[0,0,0,0,0,0,0,0,0,0,0,0,0,0,0,0,0,0,0,0,0,0,0,0,0,0,0,0,0,0,0,0,0,0,0,0,0,0,0],"id":19,"left_children":[1,3,5,7,9,11,13,15,17,19,21,-1,-1,23,-1,25,27,29,31,-1,-1,33,-1,35,37,-1,-1,-1,-1,-1,-1,-1,-1,-1,-1,-1,-1,-1,-1],"loss_changes":[6.635017E0,7.113179E0,6.7047496E0,1.0202724E1,2.0511461E1,1.3573742E0,8.135983E0,9.613323E0,1.403448E1,8.812771E-1,1.8387829E1,0E0,0E0,3.2110596E0,0E0,1.5193118E1,2.010363E1,7.556053E0,6.1902637E0,0E0,0E0,1.7800161E1,0E0,3.7177608E0,5.122833E-1,0E0,0E0,0E0,0E0,0E0,0E0,0E0,0E0,0E0,0E0,0E0,0E0,0E0,0E0],"parents":[2147483647,0,0,1,1,2,2,3,3,4,4,5,5,6,6,7,7,8,8,9,9,10,10,13,13,15,15,16,16,17,17,18,18,21,21,23,23,24,24],"right_children":[2,4,6,8,10,12,14,16,18,20,22,-1,-1,24,-1,26,28,30,32,-1,-1,34,-1,36,38,-1,-1,-1,-1,-1,-1,-1,-1,-1,-1,-1,-1,-1,-1],"split_conditions":[6.762566E-2,3.7299098E8,2.7219174E8,1.9752838E-1,7.5550526E-3,4.1506294E1,4.6793842E1,2.6353445E-2,2.2696999E-1,7.146069E-1,2.0605978E1,1.1976681E-1,-5.478272E-3,7.603085E-2,9.754515E-2,1.9343095E-1,3.6965808E-1,2.9017491E-2,-3.466818E-2,1.8796863E-1,5.0028253E-2,9.018242E-2,-1.4054076E-1,-4.086449E-2,-1.0026264E-1,-6.8914605E-4,8.574441E-2,-7.933173E-3,-6.359022E-2,-1.2947078E-2,1.0267363E-1,-9.5598094E-2,1.4029278E-2,1.0899256E-2,-8.441624E-2,8.205154E-2,-8.750861E-2,-3.5983432E-2,-1.17396414E-1],"split_indices":[7,14,14,5,6,8,8,7,17,13,17,0,0,16,0,19,17,7,19,0,0,11,0,3,1,0,0,0,0,0,0,0,0,0,0,0,0,0,0],"split_type":[0,0,0,0,0,0,0,0,0,0,0,0,0,0,0,0,0,0,0,0,0,0,0,0,0,0,0,0,0,0,0,0,0,0,0,0,0,0,0],"sum_hessian":[2.1508035E3,2.1277405E3,2.306297E1,1.3744044E3,7.533361E2,2.668718E0,2.039425E1,1.3205068E3,5.3897484E1,6.9124045E0,7.464237E2,1.4643584E0,1.2043598E0,1.8655743E1,1.7385081E0,7.813955E2,5.391114E2,3.2740005E1,2.1157478E1,5.4354215E0,1.4769831E0,7.3902954E2,7.394205E0,3.1779888E0,1.5477754E1,7.6150104E2,1.9894415E1,4.6459412E2,7.45173E1,6.8967786E0,2.5843225E1,6.8775473E0,1.4279931E1,7.198813E2,1.9148247E1,1.6738877E0,1.5041012E0,1.9994261E0,1.3478328E1],"tree_param":{"num_deleted":"0","num_feature":"20","num_nodes":"39","size_leaf_vector":"1"}},{"base_weights":[-2.829034E-4,8.6067945E-2,-3.4414675E-2,7.5155473E-3,3.0954745E-1,2.3080636E-2,-1.9554543E-1,-2.6773217E-1,1.17193446E-1,4.1271245E-1,-2.1278913E-1,-6.4545083E-1,4.00061E-2,-3.5185733E-1,5.4420374E-2,2.426025E-1,-4.620972E-1,-9.789799E-2,2.3964068E-1,1.8728255E-1,8.6870074E-1,-1.2948152E-1,5.6066405E-2,6.800851E-1,-9.3149525E-1,2.007341E-1,-5.7323515E-2,-3.1442577E-1,-1.2453308E0,2.3217861E-1,-3.2040483E-1,-2.2492902E-2,7.212245E-2,1.573153E-2,-7.8405775E-2,-4.0527888E-2,2.0184368E-2,6.104562E-3,4.5694392E-2,5.008052E-2,-5.927323E-2,1.2950756E-1,1.0867403E-2,-4.178011E-2,7.098066E-2,-9.240122E-2,1.4325738E-1,-1.0775893E-1,-1.5266696E-2,6.868724E-2,1.2700836E-2,-1.5021125E-3,-5.4765552E-2,-6.788662E-4,-4.057157E-2,-5.5247553E-2,-1.3888185E-1,5.3954985E-2,-2.4818715E-2,-6.834709E-2,4.5989625E-2],"categories":[],"categories_nodes":[],"categories_segments":[],"categories_sizes":[],"default_left":[0,0,0,0,0,0,0,0,0,0,0,0,0,0,0,0,0,0,0,0,0,0,0,0,0,0,0,0,0,0,0,0,0,0,0,0,0,0,0,0,0,0,0,0,0,0,0,0,0,0,0,0,0,0,0,0,0,0,0,0,0],"id":20,"left_children":[1,3,5,7,9,11,13,15,17,19,21,23,25,27,29,31,33,35,37,39,41,-1,43,45,47,49,51,53,55,57,59,-1,-1,-1,-1,-1,-1,-1,-1,-1,-1,-1,-1,-1,-1,-1,-1,-1,-1,-1,-1,-1,-1,-1,-1,-1,-1,-1,-1,-1,-1],"loss_changes":[6.3381696E0,1.0692426E1,1.4283254E1,1.3670536E1,8.624615E0,1.2889342E1,1.5860608E1,1.2911405E1,8.550491E0,1.3471033E1,7.8655753E0,1.1299086E1,1.7371286E1,7.9554863E0,1.0525315E1,8.272946E0,1.882774E1,1.0968407E1,7.990196E0,2.2313671E1,1.3989151E1,0E0,7.240543E0,8.0479965E0,2.516037E0,1.4921537E1,1.4344229E1,6.7622776E0,1.9684029E-1,1.592902E1,1.4728088E1,0E0,0E0,0E0,0E0,0E0,0E0,0E0,0E0,0E0,0E0,0E0,0E0,0E0,0E0,0E0,0E0,0E0,0E0,0E0,0E0,0E0,0E0,0E0,0E0,0E0,0E0,0E0,0E0,0E0,0E0],"parents":[2147483647,0,0,1,1,2,2,3,3,4,4,5,5,6,6,7,7,8,8,9,9,10,10,11,11,12,12,13,13,14,14,15,15,16,16,17,17,18,18,19,19,20,20,22,22,23,23,24,24,25,25,26,26,27,27,28,28,29,29,30,30],"right_children":[2,4,6,8,10,12,14,16,18,20,22,24,26,28,30,32,34,36,38,40,42,-1,44,46,48,50,52,54,56,58,60,-1,-1,-1,-1,-1,-1,-1,-1,-1,-1,-1,-1,-1,-1,-1,-1,-1,-1,-1,-1,-1,-1,-1,-1,-1,-1,-1,-1,-1,-1],"split_conditions":[-2.590093E-2,3.130644E1,6.8457454E-2,-5.5404636E-3,3.6703181E0,6.66512E7,8.8310194E-1,-2.7351938E-2,7.691415E-1,3.2659677E-1,-1.0638348E-1,1.2306008E1,4.3274164E-3,5.3653214E1,-3.8409175E-3,1.0572509E-1,2.136111E1,2.7978584E-2,-1.1474027E-2,3.2553926E-1,1.716937E-2,-1.2948152E-1,5.848259E8,-7.210118E-5,7.8667745E-2,1.4117283E8,9.7090244E-2,2.27088E-2,-6.030296E-4,1.5533389E-1,3.1350564E-2,-2.2492902E-2,7.212245E-2,1.573153E-2,-7.8405775E-2,-4.0527888E-2,2.0184368E-2,6.104562E-3,4.5694392E-2,5.008052E-2,-5.927323E-2,1.2950756E-1,1.0867403E-2,-4.178011E-2,7.098066E-2,-9.240122E-2,1.4325738E-1,-1.0775893E-1,-1.5266696E-2,6.868724E-2,1.2700836E-2,-1.5021125E-3,-5.4765552E-2,-6.788662E-4,-4.057157E-2,-5.5247553E-2,-1.3888185E-1,5.3954985E-2,-2.4818715E-2,-6.834709E-2,4.5989625E-2],"split_indices":[2,8,19,9,16,14,15,11,15,16,3,8,10,12,9,19,8,7,0,17,9,0,14,10,1,14,2,7,9,19,7,0,0,0,0,0,0,0,0,0,0,0,0,0,0,0,0,0,0,0,0,0,0,0,0,0,0,0,0,0,0],"split_type":[0,0,0,0,0,0,0,0,0,0,0,0,0,0,0,0,0,0,0,0,0,0,0,0,0,0,0,0,0,0,0,0,0,0,0,0,0,0,0,0,0,0,0,0,0,0,0,0,0,0,0,0,0,0,0,0,0,0,0,0,0],"sum_hessian":[2.1484902E3,6.0821924E2,1.540271E3,4.507985E2,1.5742073E2,1.1358347E3,4.0443625E2,1.2803662E2,3.2276187E2,1.3163232E2,2.5788403E1,2.7129362E1,1.1087054E3,2.4858205E2,1.558542E2,3.524566E1,9.279097E1,1.17159454E2,2.056024E2,8.902913E1,4.2603195E1,4.3729925E0,2.141541E1,4.57077E0,2.2558592E1,4.1776126E2,6.9094415E2,2.3988414E2,8.697897E0,1.05976265E2,4.987794E1,1.8097527E1,1.714813E1,3.1910492E1,6.0880478E1,5.7668808E1,5.9490646E1,1.1355547E2,9.2046936E1,6.3759365E1,2.5269768E1,2.6841263E1,1.576193E1,1.2625006E1,8.790404E0,1.3867216E0,3.1840482E0,1.8672388E1,3.8862028E0,5.3917744E1,3.638435E2,6.370174E2,5.392674E1,5.5140625E1,1.8474352E2,2.3244092E0,6.373487E0,6.45497E1,4.1426567E1,3.4124332E1,1.5753608E1],"tree_param":{"num_deleted":"0","num_feature":"20","num_nodes":"61","size_leaf_vector":"1"}},{"base_weights":[-4.923989E-4,-2.0519593E-1,1.2542744E-2,-6.000567E-1,-3.7607606E-4,-2.859544E-1,2.3432324E-2,8.154433E-2,-6.7697424E-1,1.5676048E-1,-6.8796635E-1,-7.052015E-1,2.3507366E-1,2.3401454E-1,-1.6164898E-3,-5.277788E-1,-1.2098434E0,2.910586E-1,-6.9545054E-1,-9.3944585E-1,5.372075E-1,-1.2869358E0,-4.8295954E-1,-1.8769157E-1,1.272205E0,4.5177948E-1,-2.1920848E-1,-4.9612653E-1,2.1076823E-2,-6.790186E-2,1.3854508E-1,-3.296038E-2,-1.298518E-1,-8.310043E-3,6.9864675E-2,4.9774673E-2,-1.0473011E-1,3.316134E-2,-1.0907199E-1,-1.6750563E-3,8.4152736E-2,-1.3613938E-1,-3.6413267E-2,-5.6976646E-2,8.8805296E-2,8.942884E-2,-6.681158E-2,1.6549163E-1,-3.2661702E-2,2.9808655E-2,1.3388827E-1,-5.0746907E-2,3.1217163E-2,-1.358401E-2,-1.0878282E-1,1.0761644E-1,6.6768866E-5],"categories":[],"categories_nodes":[],"categories_segments":[],"categories_sizes":[],"default_left":[0,0,0,0,0,0,0,0,0,0,0,0,0,0,0,0,0,0,0,0,0,0,0,0,0,0,0,0,0,0,0,0,0,0,0,0,0,0,0,0,0,0,0,0,0,0,0,0,0,0,0,0,0,0,0,0,0],"id":21,"left_children":[1,3,5,7,9,11,13,-1,15,17,19,21,23,25,27,29,31,33,35,37,39,41,43,45,47,49,51,53,55,-1,-1,-1,-1,-1,-1,-1,-1,-1,-1,-1,-1,-1,-1,-1,-1,-1,-1,-1,-1,-1,-1,-1,-1,-1,-1,-1,-1],"loss_changes":[5.73143E0,1.03994E1,6.570731E0,5.3337374E0,9.364094E0,1.5708333E1,1.0282261E1,0E0,2.7165508E0,8.27665E0,5.471944E0,4.5081787E0,1.4478023E1,2.0550896E1,1.9570667E1,1.0994145E1,2.3214245E-1,9.459681E0,4.677184E0,3.003621E0,5.8420545E-1,2.1660233E-1,4.113292E0,1.3042964E1,6.37362E0,1.8728947E1,1.0562961E1,1.616467E1,3.5906128E1,0E0,0E0,0E0,0E0,0E0,0E0,0E0,0E0,0E0,0E0,0E0,0E0,0E0,0E0,0E0,0E0,0E0,0E0,0E0,0E0,0E0,0E0,0E0,0E0,0E0,0E0,0E0,0E0],"parents":[2147483647,0,0,1,1,2,2,3,3,4,4,5,5,6,6,8,8,9,9,10,10,11,11,12,12,13,13,14,14,15,15,16,16,17,17,18,18,19,19,20,20,21,21,22,22,23,23,24,24,25,25,26,26,27,27,28,28],"right_children":[2,4,6,8,10,12,14,-1,16,18,20,22,24,26,28,30,32,34,36,38,40,42,44,46,48,50,52,54,56,-1,-1,-1,-1,-1,-1,-1,-1,-1,-1,-1,-1,-1,-1,-1,-1,-1,-1,-1,-1,-1,-1,-1,-1,-1,-1,-1,-1],"split_conditions":[1.3241718E1,-1.3218923E-2,6.66512E7,3.4104748E7,1.193686E0,2.358291E1,1.0248632E-1,8.154433E-2,4.3630216E-1,5.0672367E-2,1.1648924E0,3.1084672E-2,3.5523064E-2,2.0597771E8,1.2912197E-1,3.892228E-1,-8.33283E-2,2.769073E8,-2.981635E-1,1.9723815E-3,1.1530487E1,9.85774E-1,1.9277665E-1,-4.8847165E-2,5.0873455E1,8.479235E-2,5.291705E-3,5.6914794E-3,1.3993688E-1,-6.790186E-2,1.3854508E-1,-3.296038E-2,-1.298518E-1,-8.310043E-3,6.9864675E-2,4.9774673E-2,-1.0473011E-1,3.316134E-2,-1.0907199E-1,-1.6750563E-3,8.4152736E-2,-1.3613938E-1,-3.6413267E-2,-5.6976646E-2,8.8805296E-2,8.942884E-2,-6.681158E-2,1.6549163E-1,-3.2661702E-2,2.9808655E-2,1.3388827E-1,-5.0746907E-2,3.1217163E-2,-1.358401E-2,-1.0878282E-1,1.0761644E-1,6.6768866E-5],"split_indices":[8,5,14,14,15,8,16,0,13,4,13,7,7,14,16,13,1,14,13,6,8,13,4,1,12,16,6,6,16,0,0,0,0,0,0,0,0,0,0,0,0,0,0,0,0,0,0,0,0,0,0,0,0,0,0,0,0],"split_type":[0,0,0,0,0,0,0,0,0,0,0,0,0,0,0,0,0,0,0,0,0,0,0,0,0,0,0,0,0,0,0,0,0,0,0,0,0,0,0,0,0,0,0,0,0,0,0,0,0,0,0,0,0,0,0,0,0],"sum_hessian":[2.145974E3,1.2758835E2,2.0183857E3,4.2918495E1,8.466985E1,7.0152695E1,1.9482332E3,1.717119E0,4.1201374E1,6.954792E1,1.512193E1,3.8677345E1,3.1475348E1,2.0622057E2,1.7420126E3,3.3744003E1,7.457372E0,6.0648865E1,8.899058E0,1.2740106E1,2.3818238E0,9.367235E0,2.9310108E1,2.2942385E1,8.532963E0,1.3929512E2,6.6925446E1,7.5518845E1,1.6664937E3,3.1869806E1,1.8741977E0,1.1141925E0,6.3431797E0,3.2036247E1,2.8612617E1,1.9321357E0,6.9669223E0,1.2281994E0,1.1511907E1,1.1795778E0,1.2022461E0,8.22806E0,1.1391752E0,2.8114435E1,1.1956726E0,6.7896724E0,1.6152712E1,6.856607E0,1.6763556E0,1.19864334E2,1.9430786E1,4.341752E1,2.350793E1,4.7702454E1,2.7816395E1,3.0642527E1,1.6358512E3],"tree_param":{"num_deleted":"0","num_feature":"20","num_nodes":"57","size_leaf_vector":"1"}},{"base_weights":[-4.7797727E-4,-6.1888015E-3,4.5874542E-1,-1.4194518E-3,-7.3585194E-1,5.998436E-1,-9.596564E-2,-3.8293993E-1,7.396747E-3,8.453901E-2,-9.553209E-1,1.1336124E0,1.3270687E-1,-4.8568144E-2,-9.991677E-1,1.1364094E-3,5.1081294E-1,-1.2364651E-1,7.316175E-2,-4.6983134E-2,1.3694283E0,6.0773623E-1,-7.207137E-1,1.0100567E-1,-2.5009254E-2,-1.20964244E-1,1.6413305E-3,2.9165407E-3,-1.1833347E-2,2.583299E-2,1.1816192E-1,-1.0246841E-2,1.627318E-1,-3.513163E-2,9.2671655E-2,-9.896364E-2,1.4209305E-2],"categories":[],"categories_nodes":[],"categories_segments":[],"categories_sizes":[],"default_left":[0,0,0,0,0,0,0,0,0,0,0,0,0,0,0,0,0,0,0,0,0,0,0,0,0,0,0,0,0,0,0,0,0,0,0,0,0],"id":22,"left_children":[1,3,5,7,9,11,-1,13,15,-1,17,19,21,23,25,27,29,-1,-1,-1,31,33,35,-1,-1,-1,-1,-1,-1,-1,-1,-1,-1,-1,-1,-1,-1],"loss_changes":[5.62666E0,7.3733263E0,5.849838E0,7.087505E0,5.582484E0,5.979491E0,0E0,9.7578E0,6.490708E0,0E0,6.8575096E0,4.9317293E0,6.212137E0,7.05871E0,3.5872765E0,6.8192754E0,3.9792514E0,0E0,0E0,0E0,4.016758E0,3.2906969E0,1.4285018E0,0E0,0E0,0E0,0E0,0E0,0E0,0E0,0E0,0E0,0E0,0E0,0E0,0E0,0E0],"parents":[2147483647,0,0,1,1,2,2,3,3,4,4,5,5,7,7,8,8,10,10,11,11,12,12,13,13,14,14,15,15,16,16,20,20,21,21,22,22],"right_children":[2,4,6,8,10,12,-1,14,16,-1,18,20,22,24,26,28,30,-1,-1,-1,32,34,36,-1,-1,-1,-1,-1,-1,-1,-1,-1,-1,-1,-1,-1,-1],"split_conditions":[5.622041E1,5.4178435E-1,1.5287851E1,-2.0441894E-1,-2.2858137E-2,2.3094182E-1,-9.596564E-2,-6.645194E-2,2.3776355E0,8.453901E-2,4.3881774E-2,1.3179545E-2,6.051651E1,1.12016335E-1,3.892228E-1,3.977465E-2,1.9837444E-1,-1.2364651E-1,7.316175E-2,-4.6983134E-2,-2.4804519E-1,7.626959E1,2.9425986E-2,1.0100567E-1,-2.5009254E-2,-1.20964244E-1,1.6413305E-3,2.9165407E-3,-1.1833347E-2,2.583299E-2,1.1816192E-1,-1.0246841E-2,1.627318E-1,-3.513163E-2,9.2671655E-2,-9.896364E-2,1.4209305E-2],"split_indices":[8,10,16,5,5,18,0,2,13,0,2,6,8,17,13,1,18,0,0,0,9,12,7,0,0,0,0,0,0,0,0,0,0,0,0,0,0],"split_type":[0,0,0,0,0,0,0,0,0,0,0,0,0,0,0,0,0,0,0,0,0,0,0,0,0,0,0,0,0,0,0,0,0,0,0,0,0],"sum_hessian":[2.143414E3,2.1180605E3,2.535332E1,2.1053015E3,1.27590885E1,2.3584322E1,1.7689966E0,4.659217E1,2.0587095E3,1.207469E0,1.155162E1,1.0341265E1,1.3243058E1,3.0902796E1,1.5689374E1,2.0344122E3,2.4297104E1,1.013034E1,1.4212801E0,1.198645E0,9.14262E0,8.692523E0,4.5505347E0,4.300391E0,2.6602406E1,1.2837727E1,2.8516476E0,1.6484281E3,3.8598416E2,1.865914E1,5.6379633E0,1.4529009E0,7.6897187E0,2.1442392E0,6.548284E0,3.3571646E0,1.1933702E0],"tree_param":{"num_deleted":"0","num_feature":"20","num_nodes":"37","size_leaf_vector":"1"}},{"base_weights":[-4.1357495E-4,1.310189E-2,-1.8296652E-1,7.7419925E-1,5.994173E-3,-2.2205986E-1,1.0356915E0,-1.0113174E-1,1.075063E0,1.2830992E-1,-2.260477E-2,-8.053899E-2,-6.498368E-1,1.2596162E-1,2.5391618E-2,1.6091189E-1,1.1390492E-1,4.2860088E-1,5.4432128E-2,-6.615971E-1,-1.5757717E-2,1.3184024E0,-1.6099758E-1,1.237148E0,-8.454893E-1,1.3889392E-1,-6.840972E-2,2.0681571E-2,1.7462385E-1,-2.685532E-2,1.8109785E-2,8.792206E-2,-8.6573735E-2,-1.4703204E-2,1.6228602E-3,1.5967193E-1,5.8036353E-3,-4.610183E-2,1.4412175E-2,1.2852973E-2,1.662202E-1,5.2308716E-2,-1.0079976E-1],"categories":[],"categories_nodes":[],"categories_segments":[],"categories_sizes":[],"default_left":[0,0,0,0,0,0,0,0,0,0,0,0,0,0,0,0,0,0,0,0,0,0,0,0,0,0,0,0,0,0,0,0,0,0,0,0,0,0,0,0,0,0,0],"id":23,"left_children":[1,3,5,7,9,11,13,-1,15,17,19,21,23,-1,-1,-1,25,27,29,31,33,35,37,39,41,-1,-1,-1,-1,-1,-1,-1,-1,-1,-1,-1,-1,-1,-1,-1,-1,-1,-1],"loss_changes":[5.2899604E0,1.079453E1,7.2710805E0,1.1005212E1,6.924981E0,8.66674E0,5.152397E-1,0E0,8.175907E0,8.299143E0,7.0103426E0,1.252173E1,1.4211826E1,0E0,0E0,0E0,7.963396E0,2.1242012E1,1.2412723E1,6.1046147E0,6.673228E0,2.0318727E0,9.614804E0,1.5563335E0,7.8454914E0,0E0,0E0,0E0,0E0,0E0,0E0,0E0,0E0,0E0,0E0,0E0,0E0,0E0,0E0,0E0,0E0,0E0,0E0],"parents":[2147483647,0,0,1,1,2,2,3,3,4,4,5,5,6,6,8,8,9,9,10,10,11,11,12,12,16,16,17,17,18,18,19,19,20,20,21,21,22,22,23,23,24,24],"right_children":[2,4,6,8,10,12,14,-1,16,18,20,22,24,-1,-1,-1,26,28,30,32,34,36,38,40,42,-1,-1,-1,-1,-1,-1,-1,-1,-1,-1,-1,-1,-1,-1,-1,-1,-1,-1],"split_conditions":[3.7079108E-1,-9.854396E-2,1.7856978E-1,-1.8579954E-1,-2.7917223E-3,3.931087E8,5.488178E-1,-1.0113174E-1,4.5765648E1,3.6965808E-1,1.00817755E-2,2.2726093E1,-5.819677E-1,1.2596162E-1,2.5391618E-2,1.6091189E-1,1.18179E-2,3.455892E-1,-7.7343725E-2,1.17242545E-1,-8.1191876E-4,2.3005121E1,-4.331853E-3,-9.8585606E-2,-9.16681E-2,1.3889392E-1,-6.840972E-2,2.0681571E-2,1.7462385E-1,-2.685532E-2,1.8109785E-2,8.792206E-2,-8.6573735E-2,-1.4703204E-2,1.6228602E-3,1.5967193E-1,5.8036353E-3,-4.610183E-2,1.4412175E-2,1.2852973E-2,1.662202E-1,5.2308716E-2,-1.0079976E-1],"split_indices":[6,11,19,5,11,14,6,0,12,17,7,17,9,0,0,0,7,17,4,6,11,8,11,4,5,0,0,0,0,0,0,0,0,0,0,0,0,0,0,0,0,0,0],"split_type":[0,0,0,0,0,0,0,0,0,0,0,0,0,0,0,0,0,0,0,0,0,0,0,0,0,0,0,0,0,0,0,0,0,0,0,0,0,0,0,0,0,0,0],"sum_hessian":[2.1420671E3,1.9952736E3,1.4679358E2,1.7462456E1,1.977811E3,1.4302332E2,3.770263E0,2.1776311E0,1.5284824E1,3.7414246E2,1.6036686E3,1.0836224E2,3.4661064E1,2.4556603E0,1.3146026E0,9.392083E0,5.892742E0,7.2924576E1,3.012179E2,1.5987957E1,1.5876807E3,5.056598E0,1.0330565E2,2.7561355E0,3.1904928E1,1.9833146E0,3.9094274E0,6.340858E1,9.515992E0,8.453687E1,2.1668102E2,1.4835346E0,1.4504423E1,3.1035657E2,1.2773241E3,3.9233627E0,1.1332352E0,5.1830402E1,5.1475246E1,1.1248102E0,1.6313252E0,3.1508625E0,2.8754066E1],"tree_param":{"num_deleted":"0","num_feature":"20","num_nodes":"43","size_leaf_vector":"1"}},{"base_weights":[-9.4540585E-5,-1.0816336E-2,2.2805734E-1,-1.6220171E-3,-5.344926E-1,5.741205E-1,-8.4469184E-2,-9.251511E-3,5.645842E-1,-1.0949352E0,1.4911735E-2,8.789698E-1,-5.013047E-1,3.7396684E-1,-9.946748E-1,4.7815745E-4,-2.8862166E-1,8.279482E-1,-1.322436E-1,1.1141156E-1,-1.3252149E0,7.931834E-1,-8.0052197E-1,1.2036142E0,-4.398951E-1,-1.0051146E0,1.3415854E-1,6.414027E-1,-1.0701046E0,-1.1181757E0,1.6889742E-2,-2.2316994E-3,1.9897114E-2,2.5664795E-2,-5.3601783E-2,-9.50064E-2,1.08391345E-1,-5.589332E-2,8.1157885E-2,-2.6836684E-2,-1.4875415E-1,1.14610426E-1,-9.768219E-2,-1.0901294E-1,2.3669071E-2,1.6988432E-1,6.4581655E-2,-8.787825E-2,8.523976E-2,1.1952084E-1,-1.5114506E-1,1.5567277E-1,3.4313858E-2,-2.8890997E-2,-1.1875E-1,-9.835623E-3,-1.276995E-1],"categories":[],"categories_nodes":[],"categories_segments":[],"categories_sizes":[],"default_left":[0,0,0,0,0,0,0,0,0,0,0,0,0,0,0,0,0,0,0,0,0,0,0,0,0,0,0,0,0,0,0,0,0,0,0,0,0,0,0,0,0,0,0,0,0,0,0,0,0,0,0,0,0,0,0,0,0],"id":24,"left_children":[1,3,5,7,9,11,13,15,17,19,21,23,25,27,29,31,33,35,-1,37,39,41,43,45,47,49,-1,51,53,55,-1,-1,-1,-1,-1,-1,-1,-1,-1,-1,-1,-1,-1,-1,-1,-1,-1,-1,-1,-1,-1,-1,-1,-1,-1,-1,-1],"loss_changes":[5.239205E0,9.848544E0,1.0445672E1,8.693946E0,1.0883371E1,1.5438505E1,2.1813847E1,5.397306E0,1.4392973E1,5.0047626E0,1.2571414E1,1.5946129E1,1.13207245E1,1.4164869E1,2.70154E0,8.690717E0,9.152306E0,1.1996077E1,0E0,2.2019877E0,2.1328259E0,7.444885E0,3.166552E0,6.9584503E0,5.198399E0,1.1840549E1,0E0,7.675847E0,1.9142103E-1,2.4559498E0,0E0,0E0,0E0,0E0,0E0,0E0,0E0,0E0,0E0,0E0,0E0,0E0,0E0,0E0,0E0,0E0,0E0,0E0,0E0,0E0,0E0,0E0,0E0,0E0,0E0,0E0,0E0],"parents":[2147483647,0,0,1,1,2,2,3,3,4,4,5,5,6,6,7,7,8,8,9,9,10,10,11,11,12,12,13,13,14,14,15,15,16,16,17,17,19,19,20,20,21,21,22,22,23,23,24,24,25,25,27,27,28,28,29,29],"right_children":[2,4,6,8,10,12,14,16,18,20,22,24,26,28,30,32,34,36,-1,38,40,42,44,46,48,50,-1,52,54,56,-1,-1,-1,-1,-1,-1,-1,-1,-1,-1,-1,-1,-1,-1,-1,-1,-1,-1,-1,-1,-1,-1,-1,-1,-1,-1,-1],"split_conditions":[9.990553E8,9.046196E8,5.9577435E-2,8.451292E8,9.132256E-1,3.585115E1,-9.543038E-3,3.6715403E-1,8.167762E-2,-6.896136E-2,1.5973137E-1,1.2614705E-1,1.7243828E-1,6.0089617E0,2.722506E-1,2.3094182E-1,7.4834456E-3,-8.499427E-2,-1.322436E-1,9.4711866E8,-2.6890022E-1,7.535102E-2,9.7961875E8,1.7181449E-1,6.751668E-2,5.3529177E-2,1.3415854E-1,1.0978149E9,-4.8928123E-2,7.050363E-2,1.6889742E-2,-2.2316994E-3,1.9897114E-2,2.5664795E-2,-5.3601783E-2,-9.50064E-2,1.08391345E-1,-5.589332E-2,8.1157885E-2,-2.6836684E-2,-1.4875415E-1,1.14610426E-1,-9.768219E-2,-1.0901294E-1,2.3669071E-2,1.6988432E-1,6.4581655E-2,-8.787825E-2,8.523976E-2,1.1952084E-1,-1.5114506E-1,1.5567277E-1,3.4313858E-2,-2.8890997E-2,-1.1875E-1,-9.835623E-3,-1.276995E-1],"split_indices":[14,14,19,14,15,8,5,18,9,5,6,4,6,17,19,18,6,4,0,14,13,3,14,18,11,10,0,14,18,19,0,0,0,0,0,0,0,0,0,0,0,0,0,0,0,0,0,0,0,0,0,0,0,0,0,0,0],"split_type":[0,0,0,0,0,0,0,0,0,0,0,0,0,0,0,0,0,0,0,0,0,0,0,0,0,0,0,0,0,0,0,0,0,0,0,0,0,0,0,0,0,0,0,0,0,0,0,0,0,0,0,0,0,0,0,0,0],"sum_hessian":[2.1397666E3,2.0446333E3,9.513314E1,2.0103403E3,3.4292965E1,4.474718E1,5.0385956E1,1.9845823E3,2.5758112E1,1.648441E1,1.7808556E1,3.500659E1,9.740592E0,3.3900635E1,1.6485323E1,1.9187557E3,6.582652E1,2.3095943E1,2.6621695E0,2.7250595E0,1.3759351E1,9.125869E0,8.682686E0,2.816182E1,6.844771E0,8.006398E0,1.7341932E0,2.9072388E1,4.8282447E0,1.4938747E1,1.5465759E0,1.7218986E3,1.9685715E2,2.0533216E1,4.529331E1,2.56525E0,2.0530693E1,1.4952306E0,1.2298291E0,2.1852503E0,1.15741005E1,7.9026475E0,1.2232214E0,6.7476177E0,1.935068E0,1.3833982E1,1.4327837E1,5.3483505E0,1.4964206E0,1.2432504E0,6.763148E0,6.108153E0,2.2964235E1,1.08294E0,3.7453048E0,2.2311635E0,1.2707583E1],"tree_param":{"num_deleted":"0","num_feature":"20","num_nodes":"57","size_leaf_vector":"1"}},{"base_weights":[-1.8534348E-4,7.749831E-2,-3.090249E-2,1.0955304E-1,-4.230178E-1,-1.6697714E-2,-5.324663E-1,3.0485345E-2,3.3973205E-1,1.8071432E-1,-6.27718E-1,-4.1730183E-1,-3.7700073E-3,-6.476329E-1,1.3676035E-1,-2.1927585E-1,1.2989795E-1,-3.011081E-1,4.1364083E-1,-6.0859674E-1,7.94644E-1,-1.2603283E-1,-4.3145183E-1,8.66917E-2,-4.9168208E-1,-1.1690132E-1,4.376604E-2,5.6231713E-1,-7.429081E-1,2.2007585E-2,-3.9429154E-2,1.4071203E-4,3.8230862E-2,8.4654175E-2,-7.134948E-2,5.3567667E-2,-1.1642978E-2,-9.708694E-2,3.0507563E-2,-2.5521317E-2,1.1836703E-1,-9.1981655E-3,-1.0274153E-1,1.8747188E-2,-6.226197E-2,2.8528536E-2,-1.8083273E-2,3.1926475E-2,5.9476634E-4,-3.742763E-2,1.1603683E-1,-4.526332E-2,-1.2571989E-1],"categories":[],"categories_nodes":[],"categories_segments":[],"categories_sizes":[],"default_left":[0,0,0,0,0,0,0,0,0,0,0,0,0,0,0,0,0,0,0,0,0,0,0,0,0,0,0,0,0,0,0,0,0,0,0,0,0,0,0,0,0,0,0,0,0,0,0,0,0,0,0,0,0],"id":25,"left_children":[1,3,5,7,9,11,13,15,17,19,21,23,25,27,-1,29,31,33,35,37,39,-1,41,-1,43,45,47,49,51,-1,-1,-1,-1,-1,-1,-1,-1,-1,-1,-1,-1,-1,-1,-1,-1,-1,-1,-1,-1,-1,-1,-1,-1],"loss_changes":[5.1065354E0,9.775491E0,1.0917388E1,1.0376281E1,4.6495385E0,7.7273765E0,1.0121075E1,1.0602964E1,7.031025E0,5.363495E0,2.8873005E0,4.8818655E0,7.785463E0,5.0831985E0,0E0,9.438938E0,9.899803E0,8.014099E0,8.5468445E0,1.9419564E0,2.7927132E0,0E0,4.48005E0,0E0,4.0944223E0,1.1064615E1,1.0619476E1,2.4078548E0,5.096014E0,0E0,0E0,0E0,0E0,0E0,0E0,0E0,0E0,0E0,0E0,0E0,0E0,0E0,0E0,0E0,0E0,0E0,0E0,0E0,0E0,0E0,0E0,0E0,0E0],"parents":[2147483647,0,0,1,1,2,2,3,3,4,4,5,5,6,6,7,7,8,8,9,9,10,10,11,11,12,12,13,13,15,15,16,16,17,17,18,18,19,19,20,20,22,22,24,24,25,25,26,26,27,27,28,28],"right_children":[2,4,6,8,10,12,14,16,18,20,22,24,26,28,-1,30,32,34,36,38,40,-1,42,-1,44,46,48,50,52,-1,-1,-1,-1,-1,-1,-1,-1,-1,-1,-1,-1,-1,-1,-1,-1,-1,-1,-1,-1,-1,-1,-1,-1],"split_conditions":[-2.590093E-2,2.6911482E-2,2.2572449E-1,3.130644E1,-3.6036614E-2,6.66512E7,1.6767229E0,-5.5404636E-3,-2.0917958E-1,-1.867296E-2,-2.3329662E-2,-4.666521E-3,-2.7851695E-3,6.709916E-2,1.3676035E-1,-2.7351938E-2,3.0197816E-2,-2.0494148E-1,3.333447E-2,-5.9946623E-2,-4.7713408E-1,-1.2603283E-1,9.478434E-3,8.66917E-2,1.2306008E1,-6.586917E-2,1.517264E8,-8.095687E-2,-1.4664177E-2,2.2007585E-2,-3.9429154E-2,1.4071203E-4,3.8230862E-2,8.4654175E-2,-7.134948E-2,5.3567667E-2,-1.1642978E-2,-9.708694E-2,3.0507563E-2,-2.5521317E-2,1.1836703E-1,-9.1981655E-3,-1.0274153E-1,1.8747188E-2,-6.226197E-2,2.8528536E-2,-1.8083273E-2,3.1926475E-2,5.9476634E-4,-3.742763E-2,1.1603683E-1,-4.526332E-2,-1.2571989E-1],"split_indices":[2,0,19,8,1,14,15,9,4,18,1,10,5,16,0,11,7,2,5,13,13,0,1,0,8,9,14,4,9,0,0,0,0,0,0,0,0,0,0,0,0,0,0,0,0,0,0,0,0,0,0,0,0],"split_type":[0,0,0,0,0,0,0,0,0,0,0,0,0,0,0,0,0,0,0,0,0,0,0,0,0,0,0,0,0,0,0,0,0,0,0,0,0,0,0,0,0,0,0,0,0,0,0,0,0,0,0,0,0],"sum_hessian":[2.1380063E3,6.0540765E2,1.5325988E3,5.6970306E2,3.5704575E1,1.4913943E3,4.120445E1,4.2488525E2,1.4481786E2,9.070293E0,2.6634281E1,4.5645664E1,1.4457487E3,3.9471184E1,1.7332649E0,1.2062499E2,3.0426025E2,1.4657045E1,1.301608E2,3.9721303E0,5.098163E0,5.022877E0,2.1611404E1,1.9156495E0,4.3730015E1,4.2731647E2,1.0184321E3,2.523385E0,3.69478E1,3.428927E1,8.633573E1,2.0228943E2,1.0197081E2,3.5962079E0,1.1060838E1,1.0579379E2,2.4367014E1,2.799516E0,1.1726143E0,1.471372E0,3.626791E0,1.45040245E1,7.1073794E0,6.998429E0,3.6731583E1,5.8134605E1,3.691819E2,1.2202975E2,8.964024E2,1.1291789E0,1.3942062E0,2.4819397E1,1.2128403E1],"tree_param":{"num_deleted":"0","num_feature":"20","num_nodes":"53","size_leaf_vector":"1"}},{"base_weights":[-2.4133731E-4,1.7380172E-2,-1.3105907E-1,5.4259496E-3,8.573046E-1,2.6675753E-2,-3.7040377E-1,1.2624615E-2,-9.148843E-1,1.3003232E0,-3.596012E-1,8.7867105E-1,-5.2100178E-2,1.0233822E0,-4.8554313E-1,3.9425054E-1,-5.4788864E-3,-1.0665625E0,4.3800086E-2,5.229652E-1,1.5786345E0,4.298142E-1,-1.1629645E-1,1.25669E0,-9.73793E-2,1.7448308E-1,-3.6865938E-1,1.3957872E0,-2.83727E-2,-6.1296993E-1,6.7098457E-1,-6.987673E-2,6.893896E-2,1.1364517E-3,-2.5274387E-2,7.545314E-4,-1.2257334E-1,9.814418E-2,-6.600685E-2,7.289338E-2,1.6974688E-1,-8.571022E-2,1.1913847E-1,-4.446216E-2,1.5305854E-1,5.0086122E-2,-2.3110403E-2,-1.04683556E-1,-2.4179338E-2,2.2391925E-2,1.7569815E-1,-4.607876E-2,-1.3724017E-1,1.1359667E-1,-2.1233167E-2],"categories":[],"categories_nodes":[],"categories_segments":[],"categories_sizes":[],"default_left":[0,0,0,0,0,0,0,0,0,0,0,0,0,0,0,0,0,0,0,0,0,0,0,0,0,0,0,0,0,0,0,0,0,0,0,0,0,0,0,0,0,0,0,0,0,0,0,0,0,0,0,0,0,0,0],"id":26,"left_children":[1,3,5,7,9,11,13,15,17,19,21,23,25,27,29,31,33,35,-1,37,39,41,-1,43,-1,45,47,49,-1,51,53,-1,-1,-1,-1,-1,-1,-1,-1,-1,-1,-1,-1,-1,-1,-1,-1,-1,-1,-1,-1,-1,-1,-1,-1],"loss_changes":[4.9290533E0,1.8915998E1,9.592833E0,1.232723E1,1.4720142E1,1.037731E1,1.668914E1,1.2752476E1,3.4306202E0,3.4143867E0,5.471367E0,1.0386169E1,1.0238775E1,4.3004074E0,1.4246365E1,2.7449318E1,7.3450975E0,2.2791443E0,0E0,4.2612844E0,1.6980743E-1,5.6118813E0,0E0,5.947649E0,0E0,1.1149562E1,4.865835E0,2.3203278E0,0E0,9.20092E0,4.264017E0,0E0,0E0,0E0,0E0,0E0,0E0,0E0,0E0,0E0,0E0,0E0,0E0,0E0,0E0,0E0,0E0,0E0,0E0,0E0,0E0,0E0,0E0,0E0,0E0],"parents":[2147483647,0,0,1,1,2,2,3,3,4,4,5,5,6,6,7,7,8,8,9,9,10,10,11,11,12,12,13,13,14,14,15,15,16,16,17,17,19,19,20,20,21,21,23,23,25,25,26,26,27,27,29,29,30,30],"right_children":[2,4,6,8,10,12,14,16,18,20,22,24,26,28,30,32,34,36,-1,38,40,42,-1,44,-1,46,48,50,-1,52,54,-1,-1,-1,-1,-1,-1,-1,-1,-1,-1,-1,-1,-1,-1,-1,-1,-1,-1,-1,-1,-1,-1,-1,-1],"split_conditions":[1.2685271E1,1.1220724E1,3.0887974E8,2.6669154E-1,4.744124E8,1.6190239E1,-1.0132129E-1,1.4789584E-2,2.3842487E-2,8.39507E-1,1.3551936E-1,9.392141E-2,2.6751074E1,5.17821E-1,4.7647835E1,1.8402431E1,5.3224792E0,-2.723805E-1,4.3800086E-2,2.860643E-1,2.6014421E1,7.9390806E-1,-1.1629645E-1,1.0166424E1,-9.73793E-2,2.6382124E1,1.3569133E8,5.6837235E8,-2.83727E-2,9.018242E-2,1.5287851E1,-6.987673E-2,6.893896E-2,1.1364517E-3,-2.5274387E-2,7.545314E-4,-1.2257334E-1,9.814418E-2,-6.600685E-2,7.289338E-2,1.6974688E-1,-8.571022E-2,1.1913847E-1,-4.446216E-2,1.5305854E-1,5.0086122E-2,-2.3110403E-2,-1.04683556E-1,-2.4179338E-2,2.2391925E-2,1.7569815E-1,-4.607876E-2,-1.3724017E-1,1.1359667E-1,-2.1233167E-2],"split_indices":[16,16,14,9,14,16,5,7,7,15,18,4,8,6,8,8,17,13,0,6,8,15,0,8,0,17,14,14,0,11,16,0,0,0,0,0,0,0,0,0,0,0,0,0,0,0,0,0,0,0,0,0,0,0,0],"split_type":[0,0,0,0,0,0,0,0,0,0,0,0,0,0,0,0,0,0,0,0,0,0,0,0,0,0,0,0,0,0,0,0,0,0,0,0,0,0,0,0,0,0,0,0,0,0,0,0,0,0,0,0,0,0,0],"sum_hessian":[2.136239E3,1.8834061E3,2.5283289E2,1.857969E3,2.543708E1,1.529338E2,9.989908E1,1.8445273E3,1.3441607E1,1.8597902E1,6.839179E0,1.2084181E1,1.4084962E2,7.0209394E0,9.287814E1,8.259651E1,1.7619309E3,1.2276833E1,1.1647745E0,5.662077E0,1.2935825E1,3.6840613E0,3.1551175E0,1.0303277E1,1.7809036E0,8.235283E1,5.8496788E1,5.4113603E0,1.6095792E0,8.408374E1,8.794398E0,1.727026E1,6.532625E1,1.6504576E3,1.1147322E2,1.7074312E0,1.0569402E1,4.203458E0,1.458619E0,2.4624696E0,1.0473356E1,1.3229963E0,2.3610651E0,1.3422871E0,8.96099E0,4.550212E1,3.6850708E1,8.075706E0,5.0421085E1,1.6565964E0,3.7547638E0,7.138557E1,1.2698179E1,5.5741253E0,3.2202728E0],"tree_param":{"num_deleted":"0","num_feature":"20","num_nodes":"55","size_leaf_vector":"1"}},{"base_weights":[-2.536109E-4,2.4263756E-2,-9.3317986E-2,-1.879603E-1,4.664165E-2,2.4059509E-1,-1.958847E-1,-2.700274E-1,7.469311E-1,-1.2148817E-1,5.04314E-2,-2.691204E-1,4.824746E-1,-6.9307774E-1,-1.5077667E-1,2.5636835E-3,-5.3635377E-1,-9.662177E-2,1.0553995E0,6.256727E-1,4.1341588E-2,1.109956E0,-4.2771015E-1,1.0816525E0,1.866036E-1,-1.0493858E0,-2.534564E-1,-8.1012225E-1,-1.246308E-1,6.912193E-2,-4.060714E-2,-7.956935E-2,-2.365492E-2,1.4130162E-1,2.4486866E-2,1.4661793E-1,1.3705352E-2,5.850131E-3,-1.6594918E-2,3.364381E-3,1.5605162E-1,-7.535811E-2,1.3965979E-2,1.3589369E-1,1.7587557E-2,3.8341306E-2,-9.457211E-2,-2.6983654E-2,-1.2448906E-1,2.8358275E-2,-8.432668E-2,-1.0448276E-1,4.2502318E-2,-1.9075267E-2,1.8321535E-2],"categories":[],"categories_nodes":[],"categories_segments":[],"categories_sizes":[],"default_left":[0,0,0,0,0,0,0,0,0,0,0,0,0,0,0,0,0,0,0,0,0,0,0,0,0,0,0,0,0,0,0,0,0,0,0,0,0,0,0,0,0,0,0,0,0,0,0,0,0,0,0,0,0,0,0],"id":27,"left_children":[1,3,5,7,9,11,13,15,17,-1,19,21,23,25,27,29,31,-1,33,35,37,39,41,43,45,47,49,51,53,-1,-1,-1,-1,-1,-1,-1,-1,-1,-1,-1,-1,-1,-1,-1,-1,-1,-1,-1,-1,-1,-1,-1,-1,-1,-1],"loss_changes":[4.8705072E0,8.0325E0,1.5290824E1,1.2581562E1,7.371969E0,1.3080122E1,7.5444345E0,1.0823549E1,8.041156E0,0E0,7.95094E0,8.008308E0,1.24902115E1,4.1341267E0,5.3114915E0,2.1291664E1,5.6746826E0,0E0,3.0561714E0,9.516114E0,5.3555326E0,1.805213E0,5.950538E0,5.6525974E0,1.1312613E1,1.9801788E0,4.639912E0,3.862895E0,6.206075E0,0E0,0E0,0E0,0E0,0E0,0E0,0E0,0E0,0E0,0E0,0E0,0E0,0E0,0E0,0E0,0E0,0E0,0E0,0E0,0E0,0E0,0E0,0E0,0E0,0E0,0E0],"parents":[2147483647,0,0,1,1,2,2,3,3,4,4,5,5,6,6,7,7,8,8,10,10,11,11,12,12,13,13,14,14,15,15,16,16,18,18,19,19,20,20,21,21,22,22,23,23,24,24,25,25,26,26,27,27,28,28],"right_children":[2,4,6,8,10,12,14,16,18,-1,20,22,24,26,28,30,32,-1,34,36,38,40,42,44,46,48,50,52,54,-1,-1,-1,-1,-1,-1,-1,-1,-1,-1,-1,-1,-1,-1,-1,-1,-1,-1,-1,-1,-1,-1,-1,-1,-1,-1],"split_conditions":[3.6807198E-2,1.3425141E8,1.8958572E1,1.0668184E-1,1.6814112E-3,2.1782488E-2,5.851211E-1,-3.9952615E-4,6.0217956E-4,-1.2148817E-1,6.573155E-2,5.3183466E-1,-5.432936E-4,-2.3166866E-3,-1.947996E-2,1.1325567E-1,2.2466066E1,-9.662177E-2,1.1351673E-1,1.6444213E8,2.642072E-2,1.46565875E-2,6.0352154E-2,1.4816352E0,1.0937491E-1,8.039056E-2,8.279779E-3,3.0033914E-2,6.20434E8,6.912193E-2,-4.060714E-2,-7.956935E-2,-2.365492E-2,1.4130162E-1,2.4486866E-2,1.4661793E-1,1.3705352E-2,5.850131E-3,-1.6594918E-2,3.364381E-3,1.5605162E-1,-7.535811E-2,1.3965979E-2,1.3589369E-1,1.7587557E-2,3.8341306E-2,-9.457211E-2,-2.6983654E-2,-1.2448906E-1,2.8358275E-2,-8.432668E-2,-1.0448276E-1,4.2502318E-2,-1.9075267E-2,1.8321535E-2],"split_indices":[1,14,8,4,6,5,15,11,11,0,16,15,10,10,11,17,8,0,3,14,0,2,1,15,1,16,9,7,14,0,0,0,0,0,0,0,0,0,0,0,0,0,0,0,0,0,0,0,0,0,0,0,0,0,0],"split_type":[0,0,0,0,0,0,0,0,0,0,0,0,0,0,0,0,0,0,0,0,0,0,0,0,0,0,0,0,0,0,0,0,0,0,0,0,0,0,0,0,0,0,0,0,0,0,0,0,0,0,0,0,0,0,0],"sum_hessian":[2.1326099E3,1.6885173E3,4.440926E2,1.6035622E2,1.5281611E3,1.0403939E2,3.400532E2,1.4806947E2,1.2286744E1,3.61986E0,1.5245413E3,3.3445877E1,7.059351E1,2.709041E1,3.129628E2,7.3663536E1,7.440594E1,1.5494149E0,1.07373295E1,2.2660463E1,1.5018807E3,2.8307881E0,3.0615091E1,2.2457756E1,4.8135754E1,1.4196934E1,1.2893476E1,1.0793292E1,3.021695E2,2.7175043E1,4.64885E1,3.9008453E1,3.5397484E1,6.934443E0,3.8028867E0,7.595051E0,1.50654125E1,1.3877217E3,1.1415911E2,1.1524501E0,1.678338E0,1.9237669E1,1.1377422E1,1.6811094E1,5.646661E0,4.1571587E1,6.5641675E0,3.3238254E0,1.0873109E1,7.020399E0,5.873077E0,9.199304E0,1.5939883E0,2.4905554E2,5.3113953E1],"tree_param":{"num_deleted":"0","num_feature":"20","num_nodes":"55","size_leaf_vector":"1"}},{"base_weights":[-3.2894957E-4,-3.4487255E-2,6.1424598E-2,2.7519062E-2,-1.3089153E-1,1.4532738E0,4.6331916E-2,-4.8741903E-2,1.7751652E-1,-8.709913E-2,-5.5722755E-1,1.7094915E-1,-4.638389E-3,6.747417E-2,-1.0138308E0,-6.624913E-1,4.893954E-3,1.0145934E0,9.072688E-2,-7.653638E-1,-5.576993E-2,-6.768906E-1,1.17506005E-1,1.7549956E-1,-1.3422866E-1,-1.5371627E-1,-1.2065861E0,-1.29194E-1,-2.4607722E-2,-1.6231776E-3,1.02778904E-1,1.4339598E-1,-2.8183013E-3,8.491672E-2,-1.0955852E-3,1.585461E-2,-1.03636734E-1,-1.8299501E-2,1.1900819E-2,-2.7054364E-2,-1.2700556E-1,1.0424537E-2,6.739382E-2,-2.6217317E-2,2.3265077E-2,5.900166E-2,-8.3968006E-2,-2.1452507E-2,-1.2863123E-1],"categories":[],"categories_nodes":[],"categories_segments":[],"categories_sizes":[],"default_left":[0,0,0,0,0,0,0,0,0,0,0,0,0,0,0,0,0,0,0,0,0,0,0,0,0,0,0,0,0,0,0,0,0,0,0,0,0,0,0,0,0,0,0,0,0,0,0,0,0],"id":28,"left_children":[1,3,5,7,9,11,13,15,17,19,21,-1,-1,23,25,27,29,31,33,35,37,39,-1,41,43,45,47,-1,-1,-1,-1,-1,-1,-1,-1,-1,-1,-1,-1,-1,-1,-1,-1,-1,-1,-1,-1,-1,-1],"loss_changes":[4.4979115E0,8.210377E0,1.5885448E1,9.5754795E0,9.987987E0,3.1968193E0,1.6930613E1,1.828093E1,2.0402771E1,1.0341469E1,1.1136923E1,0E0,0E0,1.6115349E1,2.2635612E0,1.1380058E1,1.1072113E1,1.15867E1,1.9806227E1,5.5467796E0,1.043232E1,1.1057138E1,0E0,1.7026394E1,1.2178438E1,2.459774E0,6.6695595E-1,0E0,0E0,0E0,0E0,0E0,0E0,0E0,0E0,0E0,0E0,0E0,0E0,0E0,0E0,0E0,0E0,0E0,0E0,0E0,0E0,0E0,0E0],"parents":[2147483647,0,0,1,1,2,2,3,3,4,4,5,5,6,6,7,7,8,8,9,9,10,10,13,13,14,14,15,15,16,16,17,17,18,18,19,19,20,20,21,21,23,23,24,24,25,25,26,26],"right_children":[2,4,6,8,10,12,14,16,18,20,22,-1,-1,24,26,28,30,32,34,36,38,40,-1,42,44,46,48,-1,-1,-1,-1,-1,-1,-1,-1,-1,-1,-1,-1,-1,-1,-1,-1,-1,-1,-1,-1,-1,-1],"split_conditions":[3.7299098E8,3.2263768E-1,7.5550526E-3,8.524121E-3,3.202113E-2,1.752833E-1,4.4034806E-1,-6.161852E-3,1.5450792E1,1.3102175E1,3.7446892E-1,1.7094915E-1,-4.638389E-3,5.3224792E0,-7.008898E-2,3.1766825E1,1.0096456E-2,3.0332232E-1,2.3796596E-1,1.2739968E-2,7.1724073E-4,2.7974524E1,1.17506005E-1,1.17242545E-1,7.9188585E-2,2.4527794E-1,6.039732E1,-1.29194E-1,-2.4607722E-2,-1.6231776E-3,1.02778904E-1,1.4339598E-1,-2.8183013E-3,8.491672E-2,-1.0955852E-3,1.585461E-2,-1.03636734E-1,-1.8299501E-2,1.1900819E-2,-2.7054364E-2,-1.2700556E-1,1.0424537E-2,6.739382E-2,-2.6217317E-2,2.3265077E-2,5.900166E-2,-8.3968006E-2,-2.1452507E-2,-1.2863123E-1],"split_indices":[14,17,6,6,7,17,18,9,8,8,19,0,0,17,19,8,9,17,17,7,11,8,0,6,19,4,12,0,0,0,0,0,0,0,0,0,0,0,0,0,0,0,0,0,0,0,0,0,0],"split_type":[0,0,0,0,0,0,0,0,0,0,0,0,0,0,0,0,0,0,0,0,0,0,0,0,0,0,0,0,0,0,0,0,0,0,0,0,0,0,0,0,0,0,0,0,0,0,0,0,0],"sum_hessian":[2.1303171E3,1.3719044E3,7.5841254E2,8.353377E2,5.365668E2,7.1135135E0,7.51299E2,5.542326E2,2.8110513E2,4.8767773E2,4.888901E1,5.956004E0,1.1575091E0,7.375273E2,1.3771755E1,4.36298E1,5.1060278E2,2.5403252E1,2.5570189E2,2.0496962E1,4.6718076E2,4.629995E1,2.5890608E0,4.8038098E2,2.5714633E2,2.850352E0,1.0921403E1,1.6534233E1,2.7095568E1,5.01235E2,9.367814E0,1.7849642E1,7.5536084E0,2.9359732E1,2.2634216E2,4.7427745E0,1.5754188E1,2.7034402E2,1.9683675E2,2.834105E1,1.7958902E1,4.2135535E2,5.9025635E1,1.908687E2,6.6277626E1,1.4346998E0,1.4156522E0,1.0869455E0,9.834457E0],"tree_param":{"num_deleted":"0","num_feature":"20","num_nodes":"49","size_leaf_vector":"1"}},{"base_weights":[-3.4676548E-4,3.1195272E-2,-6.8670556E-2,-2.5306923E-2,1.3996953E-1,-4.8230702E-1,-3.1680614E-2,-3.3652306E-2,1.0546788E0,7.825556E-1,7.402346E-2,-8.3950454E-1,-1.1000942E-1,2.3556007E-2,-2.3879585E-1,5.071333E-2,-1.4215335E-1,1.445113E0,6.584737E-3,-7.547877E-1,1.0027577E0,1.011943E-1,-1.175646E0,-1.3754904E0,-5.329311E-1,7.735029E-1,-4.1982633E-1,2.3694454E-1,-6.851533E-2,3.1087494E-1,-3.9390257E-1,-8.293338E-3,2.5834909E-2,-7.07172E-3,-6.257218E-2,1.6251892E-1,4.4305947E-2,-1.283923E-1,3.5769153E-2,1.1652088E-1,-5.3867217E-2,1.1714193E-2,-1.2438574E-1,-1.025927E-2,-1.295579E-1,-1.4597833E-1,-3.7866607E-2,-9.748891E-2,-3.4515222E-3,-1.466434E-2,1.5546687E-1,-7.270765E-2,2.239483E-2,2.8111462E-2,-1.09463565E-1,-1.84175E-2,1.24471355E-2,-6.2031914E-3,8.417391E-2,5.0766695E-2,-4.6338E-2],"categories":[],"categories_nodes":[],"categories_segments":[],"categories_sizes":[],"default_left":[0,0,0,0,0,0,0,0,0,0,0,0,0,0,0,0,0,0,0,0,0,0,0,0,0,0,0,0,0,0,0,0,0,0,0,0,0,0,0,0,0,0,0,0,0,0,0,0,0,0,0,0,0,0,0,0,0,0,0,0,0],"id":29,"left_children":[1,3,5,7,9,11,13,15,17,19,21,23,25,27,29,31,33,35,-1,37,39,41,43,45,47,49,51,53,55,57,59,-1,-1,-1,-1,-1,-1,-1,-1,-1,-1,-1,-1,-1,-1,-1,-1,-1,-1,-1,-1,-1,-1,-1,-1,-1,-1,-1,-1,-1,-1],"loss_changes":[4.5878787E0,8.955107E0,1.0272568E1,8.68259E0,2.104854E1,7.2381563E0,7.0788226E0,8.730985E0,2.757063E0,1.64149E1,1.5494351E1,3.864832E0,8.027954E0,9.623708E0,1.1228317E1,1.4919796E1,1.43657255E1,2.2705841E-1,0E0,4.2063875E0,1.0866283E1,9.671978E0,1.1173735E0,2.4956894E-1,4.246942E0,5.732552E0,4.412324E0,8.990116E0,7.6652393E0,5.8380594E0,6.6266184E0,0E0,0E0,0E0,0E0,0E0,0E0,0E0,0E0,0E0,0E0,0E0,0E0,0E0,0E0,0E0,0E0,0E0,0E0,0E0,0E0,0E0,0E0,0E0,0E0,0E0,0E0,0E0,0E0,0E0,0E0],"parents":[2147483647,0,0,1,1,2,2,3,3,4,4,5,5,6,6,7,7,8,8,9,9,10,10,11,11,12,12,13,13,14,14,15,15,16,16,17,17,19,19,20,20,21,21,22,22,23,23,24,24,