{"learner":{"attributes":{"scikit_learn":"{\"_estimator_type\": \"classifier\"}"},"feature_names":["returns_1d","returns_3d","returns_5d","returns_7d","returns_10d","returns_14d","ATR","rolling_vol_30","ADX","MACD","MACD_signal","MACD_hist","RSI","volume_change","volume_sma_30","volume_ratio","Support_30","Resistance_30","Dist_to_Support_30","Dist_to_Resistance_30","SPY_returns_1d","SPY_returns_3d","SPY_returns_7d","SPY_volatility","VIX_close","VIX_high_regime"],"feature_types":["float","float","float","float","float","float","float","float","float","float","float","float","float","float","float","float","float","float","float","float","float","float","float","float","float","int"],"gradient_booster":{"model":{"cats":{"enc":[],"feature_segments":[],"sorted_idx":[]},"gbtree_model_param":{"num_parallel_tree":"1","num_trees":"450"},"iteration_indptr":[0,3,6,9,12,15,18,21,24,27,30,33,36,39,42,45,48,51,54,57,60,63,66,69,72,75,78,81,84,87,90,93,96,99,102,105,108,111,114,117,120,123,126,129,132,135,138,141,144,147,150,153,156,159,162,165,168,171,174,177,180,183,186,189,192,195,198,201,204,207,210,213,216,219,222,225,228,231,234,237,240,243,246,249,252,255,258,261,264,267,270,273,276,279,282,285,288,291,294,297,300,303,306,309,312,315,318,321,324,327,330,333,336,339,342,345,348,351,354,357,360,363,366,369,372,375,378,381,384,387,390,393,396,399,402,405,408,411,414,417,420,423,426,429,432,435,438,441,444,447,450],"tree_info":[0,1,2,0,1,2,0,1,2,0,1,2,0,1,2,0,1,2,0,1,2,0,1,2,0,1,2,0,1,2,0,1,2,0,1,2,0,1,2,0,1,2,0,1,2,0,1,2,0,1,2,0,1,2,0,1,2,0,1,2,0,1,2,0,1,2,0,1,2,0,1,2,0,1,2,0,1,2,0,1,2,0,1,2,0,1,2,0,1,2,0,1,2,0,1,2,0,1,2,0,1,2,0,1,2,0,1,2,0,1,2,0,1,2,0,1,2,0,1,2,0,1,2,0,1,2,0,1,2,0,1,2,0,1,2,0,1,2,0,1,2,0,1,2,0,1,2,0,1,2,0,1,2,0,1,2,0,1,2,0,1,2,0,1,2,0,1,2,0,1,2,0,1,2,0,1,2,0,1,2,0,1,2,0,1,2,0,1,2,0,1,2,0,1,2,0,1,2,0,1,2,0,1,2,0,1,2,0,1,2,0,1,2,0,1,2,0,1,2,0,1,2,0,1,2,0,1,2,0,1,2,0,1,2,0,1,2,0,1,2,0,1,2,0,1,2,0,1,2,0,1,2,0,1,2,0,1,2,0,1,2,0,1,2,0,1,2,0,1,2,0,1,2,0,1,2,0,1,2,0,1,2,0,1,2,0,1,2,0,1,2,0,1,2,0,1,2,0,1,2,0,1,2,0,1,2,0,1,2,0,1,2,0,1,2,0,1,2,0,1,2,0,1,2,0,1,2,0,1,2,0,1,2,0,1,2,0,1,2,0,1,2,0,1,2,0,1,2,0,1,2,0,1,2,0,1,2,0,1,2,0,1,2,0,1,2,0,1,2,0,1,2,0,1,2,0,1,2,0,1,2,0,1,2,0,1,2,0,1,2,0,1,2,0,1,2,0,1,2,0,1,2,0,1,2,0,1,2,0,1,2,0,1,2,0,1,2,0,1,2,0,1,2,0,1,2,0,1,2,0,1,2,0,1,2,0,1,2,0,1,2,0,1,2,0,1,2,0,1,2],"trees":[{"base_weights":[-7.4476656E-4,-1.3224389E-1,9.8576926E-2,-1.8786065E-1,-7.261103E-2,4.427915E-2,2.1258666E-1,-1.7093548E-1,-4.689923E-1,-6.484226E-2,-2.3936947E-1,1.4379112E-2,9.6394494E-2,2.6374713E-1,1.6039959E-1,-2.0086543E-1,-4.56314E-2,-2.1756828E-1,-6.621392E-1,-7.734118E-2,6.429199E-2,-1.3283905E-1,-5.1952696E-1,5.3927027E-2,-4.4262405E-3,1.2581526E-1,4.7779236E-2,2.4324155E-1,4.2693922E-1,1.3752805E-1,3.0672482E-1,-2.0710232E-2,-1.3796285E-2,-5.318285E-3,1.5077085E-2,-7.086618E-3,-2.7953578E-2,-4.0884577E-2,-5.781816E-2,-6.733608E-3,2.3569516E-3,7.7843154E-3,-9.201168E-3,-6.5947627E-3,-1.9126676E-2,-2.7791843E-2,-5.6795295E-2,3.96401E-3,4.048791E-2,-8.579842E-4,1.3396418E-2,6.1019026E-3,1.2295179E-2,5.117941E-2,3.661806E-3,1.6129766E-2,2.2963634E-2,2.2159351E-2,4.0002935E-2,1.30820405E-2,2.0742018E-3,1.3103613E-2,3.1240754E-2],"categories":[],"categories_nodes":[],"categories_segments":[],"categories_sizes":[],"default_left":[0,0,0,0,0,0,0,0,0,0,0,0,0,0,0,0,0,0,0,0,0,0,0,0,0,0,0,0,0,0,0,0,0,0,0,0,0,0,0,0,0,0,0,0,0,0,0,0,0,0,0,0,0,0,0,0,0,0,0,0,0,0,0],"id":0,"left_children":[1,3,5,7,9,11,13,15,17,19,21,23,25,27,29,31,33,35,37,39,41,43,45,47,49,51,53,55,57,59,61,-1,-1,-1,-1,-1,-1,-1,-1,-1,-1,-1,-1,-1,-1,-1,-1,-1,-1,-1,-1,-1,-1,-1,-1,-1,-1,-1,-1,-1,-1,-1,-1],"loss_changes":[3.0531477E3,3.3359802E2,8.2441846E2,2.4756714E2,6.2872864E1,1.405744E2,1.1466797E2,1.8410461E2,1.433504E2,7.48705E1,6.441029E1,4.263438E1,4.70347E1,7.249121E1,7.114575E1,6.527014E1,4.621157E1,2.1827366E1,1.4923035E1,3.0847519E1,2.4243832E1,8.369757E0,1.925003E1,3.6537792E1,4.2063957E1,2.828183E1,1.4701693E1,3.508142E1,2.638971E1,5.337326E1,3.435977E1,0E0,0E0,0E0,0E0,0E0,0E0,0E0,0E0,0E0,0E0,0E0,0E0,0E0,0E0,0E0,0E0,0E0,0E0,0E0,0E0,0E0,0E0,0E0,0E0,0E0,0E0,0E0,0E0,0E0,0E0,0E0,0E0],"parents":[2147483647,0,0,1,1,2,2,3,3,4,4,5,5,6,6,7,7,8,8,9,9,10,10,11,11,12,12,13,13,14,14,15,15,16,16,17,17,18,18,19,19,20,20,21,21,22,22,23,23,24,24,25,25,26,26,27,27,28,28,29,29,30,30],"right_children":[2,4,6,8,10,12,14,16,18,20,22,24,26,28,30,32,34,36,38,40,42,44,46,48,50,52,54,56,58,60,62,-1,-1,-1,-1,-1,-1,-1,-1,-1,-1,-1,-1,-1,-1,-1,-1,-1,-1,-1,-1,-1,-1,-1,-1,-1,-1,-1,-1,-1,-1,-1,-1],"split_conditions":[1.5745506E-2,1.1364632E-2,3.0802252E-2,4.869339E7,6.572925E7,2.3006186E-2,2.214E1,1.871E1,6.18199E-1,2.523E1,1.0274947E-2,7.3555387E-3,1.206209E-2,6.0005046E-2,6.514345E-2,7.936199E-3,2.843E1,3.246106E-1,6.572925E7,6.1807504E0,2.0335061E-2,4.1592166E-2,9.865951E-1,2.2564892E1,1.9856524E-2,4.6711966E-1,7.3086664E4,8.542761E-1,3.9363694E-1,2.3494644E-2,-5.0116587E-2,-2.0710232E-2,-1.3796285E-2,-5.318285E-3,1.5077085E-2,-7.086618E-3,-2.7953578E-2,-4.0884577E-2,-5.781816E-2,-6.733608E-3,2.3569516E-3,7.7843154E-3,-9.201168E-3,-6.5947627E-3,-1.9126676E-2,-2.7791843E-2,-5.6795295E-2,3.96401E-3,4.048791E-2,-8.579842E-4,1.3396418E-2,6.1019026E-3,1.2295179E-2,5.117941E-2,3.661806E-3,1.6129766E-2,2.2963634E-2,2.2159351E-2,4.0002935E-2,1.30820405E-2,2.0742018E-3,1.3103613E-2,3.1240754E-2],"split_indices":[7,7,7,14,14,7,24,24,6,24,23,23,23,7,7,7,24,6,14,6,22,5,6,6,23,6,14,6,6,23,2,0,0,0,0,0,0,0,0,0,0,0,0,0,0,0,0,0,0,0,0,0,0,0,0,0,0,0,0,0,0,0,0],"split_type":[0,0,0,0,0,0,0,0,0,0,0,0,0,0,0,0,0,0,0,0,0,0,0,0,0,0,0,0,0,0,0,0,0,0,0,0,0,0,0,0,0,0,0,0,0,0,0,0,0,0,0,0,0,0,0,0,0,0,0,0,0,0,0],"sum_hessian":[2.337637E5,1.0058787E5,1.3317584E5,5.2045418E4,4.8542453E4,9.021284E4,4.2962992E4,4.909153E4,2.953884E3,4.6383E4,2.1594517E3,5.73251E4,3.2887746E4,2.1692832E4,2.127016E4,3.9625938E4,9.465597E3,1.2842593E3,1.6696248E3,4.2290137E4,4.092863E3,1.5656024E3,5.938492E2,1.8473406E4,3.8851695E4,2.0487578E4,1.2400168E4,1.9273545E4,2.419288E3,1.8396596E4,2.873563E3,1.3024302E4,2.6601635E4,8.692231E3,7.7336456E2,6.5003E2,6.342292E2,4.8060965E2,1.1890151E3,3.9748832E4,2.541306E3,3.4568782E3,6.3598486E2,1.0630471E3,5.025553E2,3.1338382E2,2.8046536E2,1.8297402E4,1.7600409E2,3.7479215E4,1.3724807E3,7.3781265E3,1.3109451E4,4.08189E1,1.235935E4,9.886075E3,9.38747E3,7.944324E2,1.6248557E3,1.4920406E4,3.4761904E3,1.0630471E3,1.8105159E3],"tree_param":{"num_deleted":"0","num_feature":"26","num_nodes":"63","size_leaf_vector":"1"}},{"base_weights":[-1.2193063E-3,2.4659747E-1,-2.2024973E-1,4.892078E-1,1.653813E-1,-1.2321838E-1,-3.9806908E-1,4.4115204E-1,1.1513504E0,2.5040504E-1,9.103046E-2,-4.066254E-2,-1.8583822E-1,-3.4072998E-1,-4.6543634E-1,4.696201E-1,2.4689968E-1,6.216314E-1,1.427948E0,2.2695042E-1,4.4138345E-1,8.036468E-2,2.8762996E-1,-8.872188E-2,-8.499829E-3,-2.0348555E-1,-6.424587E-2,-3.5589194E-1,-2.3188518E-1,-4.360632E-1,-5.282215E-1,5.865127E-2,3.54198E-2,6.7116823E-3,2.800268E-2,2.9389085E-2,6.9052204E-2,1.1448692E-1,-3.880396E-2,1.9340618E-2,2.1522774E-3,2.4314255E-2,7.136307E-2,9.62699E-3,3.7045723E-3,1.0526735E-2,7.397094E-2,-1.1856871E-2,-4.993005E-3,-4.1241124E-3,3.016084E-3,-1.2618396E-2,-2.043353E-2,-6.0510854E-3,4.2684212E-2,-2.6665127E-2,-3.1999182E-2,-1.1995202E-2,-2.4055919E-2,-3.610766E-2,-2.044133E-2,-4.0908925E-2,-4.5598056E-2],"categories":[],"categories_nodes":[],"categories_segments":[],"categories_sizes":[],"default_left":[0,0,0,0,0,0,0,0,0,0,0,0,0,0,0,0,0,0,0,0,0,0,0,0,0,0,0,0,0,0,0,0,0,0,0,0,0,0,0,0,0,0,0,0,0,0,0,0,0,0,0,0,0,0,0,0,0,0,0,0,0,0,0],"id":1,"left_children":[1,3,5,7,9,11,13,15,17,19,21,23,25,27,29,31,33,35,37,39,41,43,45,47,49,51,53,55,57,59,61,-1,-1,-1,-1,-1,-1,-1,-1,-1,-1,-1,-1,-1,-1,-1,-1,-1,-1,-1,-1,-1,-1,-1,-1,-1,-1,-1,-1,-1,-1,-1,-1],"loss_changes":[1.2964791E4,2.2079844E3,2.187599E3,8.937842E2,5.307283E2,4.2406104E2,1.727417E2,1.447959E2,2.7766016E2,1.753435E2,9.390082E1,5.469334E1,1.0008191E2,3.982837E1,3.771924E1,1.6151709E2,5.6315002E1,3.984105E1,8.187988E0,1.0332947E2,2.6504303E2,5.7837036E1,2.2895995E2,2.2193764E1,4.2167328E1,9.675598E1,4.031506E1,2.099878E1,1.6644852E1,3.858252E1,4.32251E0,0E0,0E0,0E0,0E0,0E0,0E0,0E0,0E0,0E0,0E0,0E0,0E0,0E0,0E0,0E0,0E0,0E0,0E0,0E0,0E0,0E0,0E0,0E0,0E0,0E0,0E0,0E0,0E0,0E0,0E0,0E0,0E0],"parents":[2147483647,0,0,1,1,2,2,3,3,4,4,5,5,6,6,7,7,8,8,9,9,10,10,11,11,12,12,13,13,14,14,15,15,16,16,17,17,18,18,19,19,20,20,21,21,22,22,23,23,24,24,25,25,26,26,27,27,28,28,29,29,30,30],"right_children":[2,4,6,8,10,12,14,16,18,20,22,24,26,28,30,32,34,36,38,40,42,44,46,48,50,52,54,56,58,60,62,-1,-1,-1,-1,-1,-1,-1,-1,-1,-1,-1,-1,-1,-1,-1,-1,-1,-1,-1,-1,-1,-1,-1,-1,-1,-1,-1,-1,-1,-1,-1,-1],"split_conditions":[1.6669206E-2,9.132177E-3,3.0515717E-2,4.4700132E7,1.2549022E-2,2.085743E-2,4.185684E-2,9.152085E-3,6.414577E-1,2.8442074E7,6.28838E7,7.986135E-3,1.6658252E-2,1.9237628E-2,6.0005046E-2,5.171916E-3,-1.4294566E-3,3.4626216E-1,1.1699911E-1,1.26676215E-2,9.865951E-1,1.4333441E-2,1.2206703E-2,1.8260345E1,8.4454894E-1,2.489561E-2,2.6519126E8,3.67742E-2,6.910135E-2,2.6611833E-2,8.0792844E-2,5.865127E-2,3.54198E-2,6.7116823E-3,2.800268E-2,2.9389085E-2,6.9052204E-2,1.1448692E-1,-3.880396E-2,1.9340618E-2,2.1522774E-3,2.4314255E-2,7.136307E-2,9.62699E-3,3.7045723E-3,1.0526735E-2,7.397094E-2,-1.1856871E-2,-4.993005E-3,-4.1241124E-3,3.016084E-3,-1.2618396E-2,-2.043353E-2,-6.0510854E-3,4.2684212E-2,-2.6665127E-2,-3.1999182E-2,-1.1995202E-2,-2.4055919E-2,-3.610766E-2,-2.044133E-2,-4.0908925E-2,-4.5598056E-2],"split_indices":[7,7,7,14,7,7,7,23,6,14,14,23,23,23,7,7,21,6,18,23,6,7,23,8,6,7,14,7,19,23,7,0,0,0,0,0,0,0,0,0,0,0,0,0,0,0,0,0,0,0,0,0,0,0,0,0,0,0,0,0,0,0,0],"split_type":[0,0,0,0,0,0,0,0,0,0,0,0,0,0,0,0,0,0,0,0,0,0,0,0,0,0,0,0,0,0,0,0,0,0,0,0,0,0,0,0,0,0,0,0,0,0,0,0,0,0,0,0,0,0,0,0,0,0,0,0,0,0,0],"sum_hessian":[2.3885083E5,1.1206144E5,1.2678938E5,2.8103916E4,8.395752E4,8.202966E4,4.475973E4,2.620381E4,1.9001055E3,3.9166445E4,4.479108E4,3.538325E4,4.6646402E4,2.4182795E4,2.0576938E4,2.2853213E4,3.3505984E3,6.5292334E2,1.2471821E3,3.488438E4,4.2820664E3,4.248749E4,2.3035923E3,1.4185186E4,2.1198066E4,4.073382E4,5.9125835E3,2.122404E4,2.958755E3,1.402397E4,6.5529683E3,2.1123728E3,2.074084E4,1.2991294E3,2.051469E3,3.1929654E2,3.3362683E2,1.2453909E3,1.7912849E0,3.2480025E4,2.4043523E3,3.2825295E3,9.99537E2,1.9545158E4,2.294233E4,1.851293E3,4.5229944E2,4.348344E3,9.836841E3,1.0972964E4,1.0225103E4,2.1657082E4,1.9076736E4,5.8028677E3,1.097162E2,1.4042778E4,7.181261E3,1.3519723E3,1.6067826E3,1.2928151E4,1.0958186E3,4.6774927E3,1.8754753E3],"tree_param":{"num_deleted":"0","num_feature":"26","num_nodes":"63","size_leaf_vector":"1"}},{"base_weights":[1.8404884E-4,-1.2951848E-1,1.17945984E-1,-2.683772E-1,-8.202945E-2,6.121915E-2,1.7987205E-1,-2.3831269E-1,-5.333621E-1,-1.3061257E-1,-4.547678E-2,1.4472422E-1,3.8932357E-2,2.3051956E-1,1.3539939E-1,-3.894509E-1,-2.23707E-1,-3.1123066E-1,-6.7862403E-1,-1.1169897E-1,-2.2238809E-1,-1.1331153E-3,-7.659461E-2,8.3473295E-2,1.8378867E-1,7.736941E-2,9.595741E-3,2.8066787E-1,1.957193E-1,7.0657365E-2,1.7924315E-1,-3.3885594E-2,-6.855071E-3,-2.0384481E-2,-1.5623078E-2,9.342763E-3,-2.6717626E-2,-4.3122686E-2,-5.9427008E-2,-4.77167E-3,-1.1017281E-2,-1.614705E-2,-4.714716E-2,2.087253E-3,-2.9059567E-3,-5.6058336E-3,-2.9321322E-2,4.8071165E-3,1.5307474E-2,1.61345E-2,3.7804511E-3,8.215987E-3,2.4908718E-3,-1.0772004E-3,4.0001986E-3,2.100889E-2,3.979788E-2,1.2063922E-2,1.75604E-2,7.718053E-3,-1.4015209E-3,2.5655722E-2,1.2120478E-2],"categories":[],"categories_nodes":[],"categories_segments":[],"categories_sizes":[],"default_left":[0,0,0,0,0,0,0,0,0,0,0,0,0,0,0,0,0,0,0,0,0,0,0,0,0,0,0,0,0,0,0,0,0,0,0,0,0,0,0,0,0,0,0,0,0,0,0,0,0,0,0,0,0,0,0,0,0,0,0,0,0,0,0],"id":2,"left_children":[1,3,5,7,9,11,13,15,17,19,21,23,25,27,29,31,33,35,37,39,41,43,45,47,49,51,53,55,57,59,61,-1,-1,-1,-1,-1,-1,-1,-1,-1,-1,-1,-1,-1,-1,-1,-1,-1,-1,-1,-1,-1,-1,-1,-1,-1,-1,-1,-1,-1,-1,-1,-1],"loss_changes":[3.6351106E3,7.4680994E2,4.3817822E2,2.2980225E2,1.4986493E2,1.2115613E2,1.3429407E2,5.7135986E1,9.4657104E1,6.2869873E1,6.6456924E1,3.2800476E1,5.794712E1,4.8601807E1,9.0127686E1,2.3624756E1,2.0843262E1,1.1371155E1,1.5525818E1,4.0680023E1,4.6561127E1,1.9028822E1,5.348587E1,1.3465042E1,2.0445526E1,2.6047714E1,2.715947E1,4.4574097E1,1.7556335E1,2.9195824E1,7.423596E1,0E0,0E0,0E0,0E0,0E0,0E0,0E0,0E0,0E0,0E0,0E0,0E0,0E0,0E0,0E0,0E0,0E0,0E0,0E0,0E0,0E0,0E0,0E0,0E0,0E0,0E0,0E0,0E0,0E0,0E0,0E0,0E0],"parents":[2147483647,0,0,1,1,2,2,3,3,4,4,5,5,6,6,7,7,8,8,9,9,10,10,11,11,12,12,13,13,14,14,15,15,16,16,17,17,18,18,19,19,20,20,21,21,22,22,23,23,24,24,25,25,26,26,27,27,28,28,29,29,30,30],"right_children":[2,4,6,8,10,12,14,16,18,20,22,24,26,28,30,32,34,36,38,40,42,44,46,48,50,52,54,56,58,60,62,-1,-1,-1,-1,-1,-1,-1,-1,-1,-1,-1,-1,-1,-1,-1,-1,-1,-1,-1,-1,-1,-1,-1,-1,-1,-1,-1,-1,-1,-1,-1,-1],"split_conditions":[1.6847026E-2,9.219305E-3,2.6504084E-2,3.2292946E7,1.238973E-2,9.6505E0,1.4089939E1,5.171916E-3,6.658621E1,1.836954E7,2.5649994E1,2.0087242E-2,-4.922733E-3,-1.2542327E-2,2.049E1,1.0879233E-2,1.393E1,-2.3915258E-1,4.656655E7,2.6554592E1,3.33524E2,8.123554E-3,8.0541336E7,5.3007092E7,9.956545E-2,1.1043643E7,2.1807412E-2,4.244E1,8.469256E-3,1.0535376E-2,-8.1036754E-2,-3.3885594E-2,-6.855071E-3,-2.0384481E-2,-1.5623078E-2,9.342763E-3,-2.6717626E-2,-4.3122686E-2,-5.9427008E-2,-4.77167E-3,-1.1017281E-2,-1.614705E-2,-4.714716E-2,2.087253E-3,-2.9059567E-3,-5.6058336E-3,-2.9321322E-2,4.8071165E-3,1.5307474E-2,1.61345E-2,3.7804511E-3,8.215987E-3,2.4908718E-3,-1.0772004E-3,4.0001986E-3,2.100889E-2,3.979788E-2,1.2063922E-2,1.75604E-2,7.718053E-3,-1.4015209E-3,2.5655722E-2,1.2120478E-2],"split_indices":[7,7,7,14,7,16,16,7,17,14,17,7,4,2,24,23,24,10,14,17,17,2,14,14,4,14,7,24,23,23,2,0,0,0,0,0,0,0,0,0,0,0,0,0,0,0,0,0,0,0,0,0,0,0,0,0,0,0,0,0,0,0,0],"split_type":[0,0,0,0,0,0,0,0,0,0,0,0,0,0,0,0,0,0,0,0,0,0,0,0,0,0,0,0,0,0,0,0,0,0,0,0,0,0,0,0,0,0,0,0,0,0,0,0,0,0,0,0,0,0,0,0,0,0,0,0,0,0,0],"sum_hessian":[2.3799103E5,1.1325373E5,1.24737305E5,2.8860492E4,8.4393234E4,6.5102613E4,5.963469E4,2.592141E4,2.9390813E3,3.6232746E4,4.816049E4,1.3713778E4,5.1388836E4,2.7879756E4,3.1754934E4,2.2819841E3,2.3639426E4,1.1633119E3,1.7757693E3,3.0043445E4,6.189302E3,1.9860225E4,2.8300264E4,5.341593E3,8.372186E3,2.2243541E4,2.9145293E4,1.1418402E4,1.6461355E4,1.2822769E4,1.8932164E4,2.0511965E3,2.3078752E2,1.128359E4,1.2355837E4,5.8478073E1,1.1048339E3,5.624609E2,1.2133085E3,1.0013143E4,2.0030303E4,5.8625386E3,3.2676297E2,1.1197882E4,8.662344E3,2.7678877E4,6.213853E2,4.3912124E3,9.503803E2,7.4017173E3,9.704682E2,1.4369536E4,7.874006E3,1.8555852E4,1.0589441E4,1.054257E4,8.758319E2,5.701389E3,1.0759966E4,9.918506E3,2.9042622E3,3.1020164E3,1.5830148E4],"tree_param":{"num_deleted":"0","num_feature":"26","num_nodes":"63","size_leaf_vector":"1"}},{"base_weights":[-1.7869503E-4,-1.2404684E-1,9.236663E-2,-1.8638316E-1,-6.8244055E-2,4.3645684E-2,2.0110226E-1,-1.6934322E-1,-4.5664337E-1,-6.0229875E-2,-2.4612269E-1,1.7442837E-2,9.97521E-2,2.4704283E-1,1.4875992E-1,-1.9968022E-1,-3.803237E-2,-9.786118E-2,-6.0352224E-1,-6.480121E-2,2.4076866E-1,-1.2953654E-1,-4.6789345E-1,1.3873567E-2,1.6764416E-1,1.1954109E-1,5.0218236E-2,2.195137E-1,3.5886618E-1,1.2739387E-1,2.7714586E-1,-2.0287212E-2,-1.379276E-2,-5.0219223E-3,1.8268658E-2,-3.8605563E-2,-5.28604E-3,-3.49313E-2,-5.2869886E-2,-6.1792145E-3,-8.596662E-4,6.921346E-3,3.0362599E-2,-4.4151875E-3,-1.7301021E-2,-2.5518162E-2,-4.8364814E-2,1.6834127E-3,-3.808666E-3,2.5178973E-2,9.782064E-3,9.093172E-3,2.4240343E-2,4.4646636E-3,-2.2083886E-2,1.4606762E-2,2.0650893E-2,-2.1011718E-2,2.9194819E-2,7.3580276E-3,1.3897604E-2,4.013702E-3,2.45983E-2],"categories":[],"categories_nodes":[],"categories_segments":[],"categories_sizes":[],"default_left":[0,0,0,0,0,0,0,0,0,0,0,0,0,0,0,0,0,0,0,0,0,0,0,0,0,0,0,0,0,0,0,0,0,0,0,0,0,0,0,0,0,0,0,0,0,0,0,0,0,0,0,0,0,0,0,0,0,0,0,0,0,0,0],"id":3,"left_children":[1,3,5,7,9,11,13,15,17,19,21,23,25,27,29,31,33,35,37,39,41,43,45,47,49,51,53,55,57,59,61,-1,-1,-1,-1,-1,-1,-1,-1,-1,-1,-1,-1,-1,-1,-1,-1,-1,-1,-1,-1,-1,-1,-1,-1,-1,-1,-1,-1,-1,-1,-1,-1],"loss_changes":[2.6805315E3,3.4782263E2,7.0902954E2,2.174353E2,7.5202896E1,1.3587976E2,9.954602E1,1.7699072E2,1.4753363E2,6.9488815E1,5.874559E1,3.377494E1,2.8835724E1,6.781091E1,5.3071533E1,5.301892E1,5.498243E1,9.930751E0,1.8729004E1,3.3441315E1,1.6139427E1,9.608971E0,1.5748962E1,2.712733E1,9.720295E0,2.2631317E1,1.5337614E1,2.519757E1,1.6523376E1,2.7221039E1,1.8996124E1,0E0,0E0,0E0,0E0,0E0,0E0,0E0,0E0,0E0,0E0,0E0,0E0,0E0,0E0,0E0,0E0,0E0,0E0,0E0,0E0,0E0,0E0,0E0,0E0,0E0,0E0,0E0,0E0,0E0,0E0,0E0,0E0],"parents":[2147483647,0,0,1,1,2,2,3,3,4,4,5,5,6,6,7,7,8,8,9,9,10,10,11,11,12,12,13,13,14,14,15,15,16,16,17,17,18,18,19,19,20,20,21,21,22,22,23,23,24,24,25,25,26,26,27,27,28,28,29,29,30,30],"right_children":[2,4,6,8,10,12,14,16,18,20,22,24,26,28,30,32,34,36,38,40,42,44,46,48,50,52,54,56,58,60,62,-1,-1,-1,-1,-1,-1,-1,-1,-1,-1,-1,-1,-1,-1,-1,-1,-1,-1,-1,-1,-1,-1,-1,-1,-1,-1,-1,-1,-1,-1,-1,-1],"split_conditions":[1.5745506E-2,1.0975384E-2,3.140667E-2,4.656655E7,6.572925E7,2.3991687E-2,2.263E1,1.871E1,3.007715E1,3.291E1,5.69809E-1,1.4832679E1,2.442E1,5.27387E-2,6.514345E-2,7.825087E-3,2.816E1,-1.9128472E-1,7.61498E1,2.126E1,-5.7828348E-2,4.3467875E-3,1.954E1,4.869339E7,4.7554334E5,1.5437882E0,3.3148067E8,8.542761E-1,9.152086E-3,8.93062E-3,-4.1425537E-2,-2.0287212E-2,-1.379276E-2,-5.0219223E-3,1.8268658E-2,-3.8605563E-2,-5.28604E-3,-3.49313E-2,-5.2869886E-2,-6.1792145E-3,-8.596662E-4,6.921346E-3,3.0362599E-2,-4.4151875E-3,-1.7301021E-2,-2.5518162E-2,-4.8364814E-2,1.6834127E-3,-3.808666E-3,2.5178973E-2,9.782064E-3,9.093172E-3,2.4240343E-2,4.4646636E-3,-2.2083886E-2,1.4606762E-2,2.0650893E-2,-2.1011718E-2,2.9194819E-2,7.3580276E-3,1.3897604E-2,4.013702E-3,2.45983E-2],"split_indices":[7,7,7,14,14,7,24,24,16,24,6,6,24,7,7,7,24,10,17,24,11,11,24,14,14,13,14,6,6,1,21,0,0,0,0,0,0,0,0,0,0,0,0,0,0,0,0,0,0,0,0,0,0,0,0,0,0,0,0,0,0,0,0],"split_type":[0,0,0,0,0,0,0,0,0,0,0,0,0,0,0,0,0,0,0,0,0,0,0,0,0,0,0,0,0,0,0,0,0,0,0,0,0,0,0,0,0,0,0,0,0,0,0,0,0,0,0,0,0,0,0,0,0,0,0,0,0,0,0],"sum_hessian":[2.3383153E5,9.99937E4,1.3383783E5,4.723074E4,5.2762965E4,9.242608E4,4.1411758E4,4.4430984E4,2.7997524E3,5.048954E4,2.2734268E3,6.3003473E4,2.9422605E4,2.2052598E4,1.9359158E4,3.6092043E4,8.338939E3,8.137252E2,1.9860272E3,4.9734984E4,7.5455176E2,1.4911205E3,7.8230634E2,6.1542125E4,1.4613477E3,2.102258E4,8.400025E3,1.7698477E4,4.354122E3,1.6598775E4,2.7603835E3,1.212148E4,2.3970564E4,7.6309604E3,7.079793E2,6.101893E1,7.527063E2,5.1016476E2,1.4758625E3,4.0430805E4,9.304182E3,3.5810297E2,3.964488E2,8.0374255E2,6.8737787E2,3.7597064E2,4.0633566E2,5.511599E4,6.426139E3,3.4307965E2,1.1182681E3,2.0371682E4,6.5089764E2,8.259344E3,1.4068161E2,9.050501E3,8.647976E3,4.169803E1,4.312424E3,9.408514E3,7.1902607E3,3.257227E2,2.434661E3],"tree_param":{"num_deleted":"0","num_feature":"26","num_nodes":"63","size_leaf_vector":"1"}},{"base_weights":[1.7203837E-4,2.114298E-1,-2.2600041E-1,4.0943676E-1,1.2023459E-1,-1.3266288E-1,-3.7730205E-1,3.7280017E-1,9.120452E-1,2.0192346E-1,6.0167946E-2,-7.761607E-2,-1.9867101E-1,-3.244065E-1,-4.5161158E-1,4.5806393E-1,3.0718437E-1,4.5485887E-1,1.2404698E0,1.8904595E-1,5.530059E-1,1.4383512E-2,9.137383E-2,-1.9584459E-1,-6.2796965E-2,-2.8120413E-1,-1.7517163E-1,-3.458795E-1,-2.7592272E-1,-4.2894945E-1,-5.1954687E-1,1.7876068E-2,3.8097598E-2,2.2665342E-2,3.1219624E-2,1.9285107E-2,5.7898276E-2,8.276457E-2,1.051238E-1,8.998478E-3,1.7239293E-2,1.3647858E-2,7.3171E-2,-4.2653102E-3,2.7918885E-3,6.3007646E-3,4.901254E-2,-2.0218398E-2,-1.1581635E-2,-1.7846621E-3,-7.474602E-3,-2.4534384E-2,-1.6670419E-2,-1.2251094E-2,-1.7996835E-2,-2.4003694E-2,-2.9158128E-2,-1.833991E-2,-2.5206506E-2,-3.7600845E-2,-3.2945685E-2,-4.195579E-2,-1.8479314E-2],"categories":[],"categories_nodes":[],"categories_segments":[],"categories_sizes":[],"default_left":[0,0,0,0,0,0,0,0,0,0,0,0,0,0,0,0,0,0,0,0,0,0,0,0,0,0,0,0,0,0,0,0,0,0,0,0,0,0,0,0,0,0,0,0,0,0,0,0,0,0,0,0,0,0,0,0,0,0,0,0,0,0,0],"id":4,"left_children":[1,3,5,7,9,11,13,15,17,19,21,23,25,27,29,31,33,35,37,39,41,43,45,47,49,51,53,55,57,59,61,-1,-1,-1,-1,-1,-1,-1,-1,-1,-1,-1,-1,-1,-1,-1,-1,-1,-1,-1,-1,-1,-1,-1,-1,-1,-1,-1,-1,-1,-1,-1,-1],"loss_changes":[1.1407409E4,2.2289922E3,1.6282651E3,7.1642334E2,4.1470105E2,2.5910095E2,1.727666E2,2.0284619E2,3.9642188E2,1.6180798E2,6.9587875E1,6.8118454E1,6.2842285E1,2.6662598E1,2.7935791E1,6.7096924E1,4.0542847E1,6.345143E1,2.1943115E1,6.992639E1,1.7500308E2,2.7422363E1,1.9041096E2,1.2545959E1,4.2861862E1,1.326593E1,2.7656921E1,1.5069824E1,1.435553E1,9.456543E0,6.341797E0,0E0,0E0,0E0,0E0,0E0,0E0,0E0,0E0,0E0,0E0,0E0,0E0,0E0,0E0,0E0,0E0,0E0,0E0,0E0,0E0,0E0,0E0,0E0,0E0,0E0,0E0,0E0,0E0,0E0,0E0,0E0,0E0],"parents":[2147483647,0,0,1,1,2,2,3,3,4,4,5,5,6,6,7,7,8,8,9,9,10,10,11,11,12,12,13,13,14,14,15,15,16,16,17,17,18,18,19,19,20,20,21,21,22,22,23,23,24,24,25,25,26,26,27,27,28,28,29,29,30,30],"right_children":[2,4,6,8,10,12,14,16,18,20,22,24,26,28,30,32,34,36,38,40,42,44,46,48,50,52,54,56,58,60,62,-1,-1,-1,-1,-1,-1,-1,-1,-1,-1,-1,-1,-1,-1,-1,-1,-1,-1,-1,-1,-1,-1,-1,-1,-1,-1,-1,-1,-1,-1,-1,-1],"split_conditions":[1.7753374E-2,1.0083335E-2,3.0515717E-2,4.3076652E7,1.3106499E-2,2.3006186E-2,4.335249E-2,7.936199E-3,7.61498E1,6.869875E7,2.2201029E1,5.1969457E0,7.6451674E0,8.6446E-2,6.514345E-2,-2.038869E-2,1.1208183E7,2.9283463E1,6.02196E7,1.7009802E1,2.8863894E1,2.8926212E6,7.594531E7,2.1720161E1,1.9724222E-2,1.6406635E-2,1.0773486E0,3.3018768E-2,3.5025954E-2,-8.222247E-2,2.3452562E2,1.7876068E-2,3.8097598E-2,2.2665342E-2,3.1219624E-2,1.9285107E-2,5.7898276E-2,8.276457E-2,1.051238E-1,8.998478E-3,1.7239293E-2,1.3647858E-2,7.3171E-2,-4.2653102E-3,2.7918885E-3,6.3007646E-3,4.901254E-2,-2.0218398E-2,-1.1581635E-2,-1.7846621E-3,-7.474602E-3,-2.4534384E-2,-1.6670419E-2,-1.2251094E-2,-1.7996835E-2,-2.4003694E-2,-2.9158128E-2,-1.833991E-2,-2.5206506E-2,-3.7600845E-2,-3.2945685E-2,-4.195579E-2,-1.8479314E-2],"split_indices":[7,7,7,14,7,7,7,7,17,14,16,16,16,11,7,22,14,16,14,16,16,14,14,8,7,11,15,7,7,5,16,0,0,0,0,0,0,0,0,0,0,0,0,0,0,0,0,0,0,0,0,0,0,0,0,0,0,0,0,0,0,0,0],"split_type":[0,0,0,0,0,0,0,0,0,0,0,0,0,0,0,0,0,0,0,0,0,0,0,0,0,0,0,0,0,0,0,0,0,0,0,0,0,0,0,0,0,0,0,0,0,0,0,0,0,0,0,0,0,0,0,0,0,0,0,0,0,0,0],"sum_hessian":[2.3874319E5,1.2344174E5,1.1530145E5,3.8924254E4,8.4517484E4,7.1311484E4,4.398997E4,3.6281344E4,2.64291E3,3.5811938E4,4.870555E4,3.88855E4,3.2425984E4,2.57008E4,1.8289166E4,1.5775744E4,2.0505602E4,1.1058652E3,1.5370446E3,3.4546336E4,1.2656013E3,1.9742031E4,2.8963518E4,4.329783E3,3.455572E4,7.183958E3,2.5242027E4,1.7807777E4,7.8930225E3,1.3719782E4,4.569384E3,1.1341051E3,1.4641639E4,1.5931961E4,4.57364E3,6.170816E2,4.887836E2,4.0860303E2,1.1284415E3,8.870232E3,2.5676104E4,6.158461E2,6.4975525E2,4.590795E3,1.5151236E4,2.8280326E4,6.8319086E2,2.0464918E3,2.2832915E3,1.4885033E4,1.9670686E4,5.3197573E3,1.8642004E3,1.7501295E4,7.7407324E3,5.1449663E3,1.26628125E4,3.604092E3,4.28893E3,4.0307087E3,9.689074E3,4.4922744E3,7.710933E1],"tree_param":{"num_deleted":"0","num_feature":"26","num_nodes":"63","size_leaf_vector":"1"}},{"base_weights":[-8.3820644E-4,-1.1982851E-1,1.0805801E-1,-2.5631025E-1,-7.410459E-2,5.488208E-2,1.6508831E-1,-2.2838326E-1,-5.062926E-1,-1.1838012E-1,-4.1582603E-2,7.602236E-2,-2.029599E-2,2.1015851E-1,1.2534368E-1,-3.2882673E-1,-2.0592684E-1,-2.8194857E-1,-6.5441424E-1,-1.00034855E-1,-2.0662104E-1,-1.532619E-3,-6.982869E-2,1.3123478E-1,5.540819E-2,-6.1784722E-2,1.9560931E-2,2.5242895E-1,1.7639196E-1,6.4357564E-2,1.6579479E-1,-1.8334055E-2,-2.8952533E-2,-1.6601205E-2,3.6426485E-2,-1.7214261E-2,-3.4309253E-2,-4.1884482E-2,-5.7221264E-2,-4.1768267E-3,-1.0232329E-2,-1.2916145E-2,-2.8091315E-2,3.7349965E-3,-2.0223607E-3,-5.1373425E-3,-2.7744383E-2,8.543294E-3,1.729102E-2,2.9386168E-3,1.0737792E-2,-3.4105384E-3,-2.3828167E-2,1.7191205E-2,6.3778204E-4,1.884483E-2,3.4161504E-2,1.062417E-2,1.5938116E-2,7.088796E-3,-8.781539E-4,2.3974089E-2,1.1134103E-2],"categories":[],"categories_nodes":[],"categories_segments":[],"categories_sizes":[],"default_left":[0,0,0,0,0,0,0,0,0,0,0,0,0,0,0,0,0,0,0,0,0,0,0,0,0,0,0,0,0,0,0,0,0,0,0,0,0,0,0,0,0,0,0,0,0,0,0,0,0,0,0,0,0,0,0,0,0,0,0,0,0,0,0],"id":5,"left_children":[1,3,5,7,9,11,13,15,17,19,21,23,25,27,29,31,33,35,37,39,41,43,45,47,49,51,53,55,57,59,61,-1,-1,-1,-1,-1,-1,-1,-1,-1,-1,-1,-1,-1,-1,-1,-1,-1,-1,-1,-1,-1,-1,-1,-1,-1,-1,-1,-1,-1,-1,-1,-1],"loss_changes":[3.080784E3,7.0898535E2,3.7647852E2,1.9892395E2,1.22539E2,1.02105225E2,1.07274536E2,5.7782593E1,9.4993286E1,5.831958E1,5.550611E1,5.7065125E1,2.3319643E1,4.0018433E1,7.852161E1,1.5359802E1,2.2111145E1,1.10984955E1,1.3356934E1,3.9762604E1,4.042914E1,2.3239256E1,4.470163E1,2.8266907E1,5.3739784E1,3.1228127E1,1.6280268E1,3.660199E1,1.5508118E1,2.3197552E1,6.816217E1,0E0,0E0,0E0,0E0,0E0,0E0,0E0,0E0,0E0,0E0,0E0,0E0,0E0,0E0,0E0,0E0,0E0,0E0,0E0,0E0,0E0,0E0,0E0,0E0,0E0,0E0,0E0,0E0,0E0,0E0,0E0,0E0],"parents":[2147483647,0,0,1,1,2,2,3,3,4,4,5,5,6,6,7,7,8,8,9,9,10,10,11,11,12,12,13,13,14,14,15,15,16,16,17,17,18,18,19,19,20,20,21,21,22,22,23,23,24,24,25,25,26,26,27,27,28,28,29,29,30,30],"right_children":[2,4,6,8,10,12,14,16,18,20,22,24,26,28,30,32,34,36,38,40,42,44,46,48,50,52,54,56,58,60,62,-1,-1,-1,-1,-1,-1,-1,-1,-1,-1,-1,-1,-1,-1,-1,-1,-1,-1,-1,-1,-1,-1,-1,-1,-1,-1,-1,-1,-1,-1,-1,-1],"split_conditions":[1.6944649E-2,9.219305E-3,2.6504084E-2,3.2292946E7,1.238973E-2,1.5343729E-1,1.4089939E1,6.1394186E-3,6.658621E1,1.836954E7,2.5649994E1,9.6505E0,2.085743E-2,-5.729692E-3,2.037E1,2.4537518E1,1.07142925E-1,2.5196727E-2,4.656655E7,2.7743767E1,5.3640026E1,-1.142612E-2,8.53536E7,4.869339E7,1.1615937E-1,1.6658252E-2,7.029333E5,4.036E1,8.469256E-3,1.68323E2,-8.1036754E-2,-1.8334055E-2,-2.8952533E-2,-1.6601205E-2,3.6426485E-2,-1.7214261E-2,-3.4309253E-2,-4.1884482E-2,-5.7221264E-2,-4.1768267E-3,-1.0232329E-2,-1.2916145E-2,-2.8091315E-2,3.7349965E-3,-2.0223607E-3,-5.1373425E-3,-2.7744383E-2,8.543294E-3,1.729102E-2,2.9386168E-3,1.0737792E-2,-3.4105384E-3,-2.3828167E-2,1.7191205E-2,6.3778204E-4,1.884483E-2,3.4161504E-2,1.062417E-2,1.5938116E-2,7.088796E-3,-8.781539E-4,2.3974089E-2,1.1134103E-2],"split_indices":[7,7,7,14,7,11,16,7,17,14,17,16,7,2,24,16,19,5,14,16,16,3,14,14,19,23,14,24,23,17,2,0,0,0,0,0,0,0,0,0,0,0,0,0,0,0,0,0,0,0,0,0,0,0,0,0,0,0,0,0,0,0,0],"split_type":[0,0,0,0,0,0,0,0,0,0,0,0,0,0,0,0,0,0,0,0,0,0,0,0,0,0,0,0,0,0,0,0,0,0,0,0,0,0,0,0,0,0,0,0,0,0,0,0,0,0,0,0,0,0,0,0,0,0,0,0,0,0,0],"sum_hessian":[2.3775695E5,1.1361278E5,1.2414417E5,2.8509602E4,8.510318E4,6.424402E4,5.990015E4,2.5646406E4,2.8631956E3,3.603813E4,4.906505E4,5.0143516E4,1.4100505E4,2.8067484E4,3.1832664E4,4.683652E3,2.0962754E4,1.1397864E3,1.7234093E3,2.983713E4,6.201E3,2.02929E4,2.8772152E4,1.3630523E4,3.6512992E4,6.9085537E3,7.1919517E3,1.2461353E4,1.5606133E4,1.2695254E4,1.913741E4,1.1692612E3,3.5143909E3,2.091321E4,4.954373E1,7.85335E2,3.5445132E2,5.500847E2,1.1733246E3,1.0986619E4,1.8850512E4,4.7260205E3,1.4749794E3,6.6957153E3,1.3597185E4,2.8201975E4,5.701772E2,1.0585275E4,3.0452476E3,2.9519615E4,6.993377E3,6.391194E3,5.173598E2,4.0181052E2,6.790141E3,1.136558E4,1.0957725E3,5.3672183E3,1.0238915E4,9.603445E3,3.091808E3,3.172191E3,1.596522E4],"tree_param":{"num_deleted":"0","num_feature":"26","num_nodes":"63","size_leaf_vector":"1"}},{"base_weights":[1.5494174E-3,-3.0175589E-2,1.0876011E-1,-6.511177E-2,1.1249768E-1,5.637562E-2,2.1305558E-1,-1.05956696E-1,-1.677014E-2,7.797182E-2,1.9692571E-1,1.2623642E-2,1.1460036E-1,2.4381225E-1,1.2255982E-1,-1.6060272E-1,-6.2322073E-2,-4.4874507E-3,-1.5638967E-1,5.093062E-2,1.3880117E-1,1.2004691E-1,2.3264994E-1,-1.1486221E-2,9.754651E-2,8.8875376E-2,1.9097598E-1,2.1687034E-1,3.4023097E-1,9.244432E-2,3.857863E-1,-2.1345152E-2,-9.243148E-3,-9.998701E-3,-8.7450177E-4,-1.7351295E-3,6.440704E-3,-3.0728832E-3,-3.138934E-2,5.8068302E-3,-3.2556492E-3,1.2095189E-2,-8.787278E-3,8.7627955E-3,3.580401E-2,1.4152335E-2,2.0466842E-2,-2.79554E-3,2.5941946E-3,2.0952167E-3,1.3076995E-2,2.7074425E-3,9.949241E-3,1.915697E-2,5.817124E-3,1.2532853E-2,2.0174924E-2,2.4228895E-2,3.591809E-2,-1.0642648E-2,8.768185E-3,2.4596028E-2,6.527379E-2],"categories":[],"categories_nodes":[],"categories_segments":[],"categories_sizes":[],"default_left":[0,0,0,0,0,0,0,0,0,0,0,0,0,0,0,0,0,0,0,0,0,0,0,0,0,0,0,0,0,0,0,0,0,0,0,0,0,0,0,0,0,0,0,0,0,0,0,0,0,0,0,0,0,0,0,0,0,0,0,0,0,0,0],"id":6,"left_children":[1,3,5,7,9,11,13,15,17,19,21,23,25,27,29,31,33,35,37,39,41,43,45,47,49,51,53,55,57,59,61,-1,-1,-1,-1,-1,-1,-1,-1,-1,-1,-1,-1,-1,-1,-1,-1,-1,-1,-1,-1,-1,-1,-1,-1,-1,-1,-1,-1,-1,-1,-1,-1],"loss_changes":[7.955236E2,8.9962006E2,2.9177722E2,2.8626794E2,1.0347089E2,9.056659E1,4.966925E1,1.8737152E2,1.1386743E2,4.1443176E1,2.8270294E1,4.1565342E1,2.9952057E1,3.4542114E1,3.5884872E1,1.6695819E2,1.4071063E2,8.923408E1,1.4945787E2,3.4618427E1,2.3902328E1,1.1211956E1,9.045715E0,1.6289732E1,2.1109734E1,2.2284561E1,2.2014587E1,2.211325E1,1.1683716E1,1.5750362E1,1.5413467E1,0E0,0E0,0E0,0E0,0E0,0E0,0E0,0E0,0E0,0E0,0E0,0E0,0E0,0E0,0E0,0E0,0E0,0E0,0E0,0E0,0E0,0E0,0E0,0E0,0E0,0E0,0E0,0E0,0E0,0E0,0E0,0E0],"parents":[2147483647,0,0,1,1,2,2,3,3,4,4,5,5,6,6,7,7,8,8,9,9,10,10,11,11,12,12,13,13,14,14,15,15,16,16,17,17,18,18,19,19,20,20,21,21,22,22,23,23,24,24,25,25,26,26,27,27,28,28,29,29,30,30],"right_children":[2,4,6,8,10,12,14,16,18,20,22,24,26,28,30,32,34,36,38,40,42,44,46,48,50,52,54,56,58,60,62,-1,-1,-1,-1,-1,-1,-1,-1,-1,-1,-1,-1,-1,-1,-1,-1,-1,-1,-1,-1,-1,-1,-1,-1,-1,-1,-1,-1,-1,-1,-1,-1],"split_conditions":[8.581476E-2,1.4850494E-1,4.1533448E-2,1.68E1,4.8057206E-2,1.5039484E-1,1.6816126E-2,1.4051197E-2,4.869339E7,2.4711126E-1,2.0819849E-1,-1.7678618E-2,3.7916897E1,1.8207288E-1,3.0274138E-1,5.5045947E-2,3.0559035E-2,2.637E1,3.8342907E1,7.051522E1,2.5664693E-2,7.002713E-2,1.0566641E-1,1.4613753E-2,5.905529E-3,1.9847687E-1,1.4572564E-2,6.742281E-2,3.6918817E0,-4.853457E0,2.1634951E-2,-2.1345152E-2,-9.243148E-3,-9.998701E-3,-8.7450177E-4,-1.7351295E-3,6.440704E-3,-3.0728832E-3,-3.138934E-2,5.8068302E-3,-3.2556492E-3,1.2095189E-2,-8.787278E-3,8.7627955E-3,3.580401E-2,1.4152335E-2,2.0466842E-2,-2.79554E-3,2.5941946E-3,2.0952167E-3,1.3076995E-2,2.7074425E-3,9.949241E-3,1.915697E-2,5.817124E-3,1.2532853E-2,2.0174924E-2,2.4228895E-2,3.591809E-2,-1.0642648E-2,8.768185E-3,2.4596028E-2,6.527379E-2],"split_indices":[19,18,18,24,1,19,23,19,14,18,18,10,12,19,19,18,18,24,17,12,23,19,4,18,18,19,23,18,6,9,5,0,0,0,0,0,0,0,0,0,0,0,0,0,0,0,0,0,0,0,0,0,0,0,0,0,0,0,0,0,0,0,0],"split_type":[0,0,0,0,0,0,0,0,0,0,0,0,0,0,0,0,0,0,0,0,0,0,0,0,0,0,0,0,0,0,0,0,0,0,0,0,0,0,0,0,0,0,0,0,0,0,0,0,0,0,0,0,0,0,0,0,0,0,0,0,0,0,0],"sum_hessian":[2.3388889E5,1.8048253E5,5.3406355E4,1.4498164E5,3.5500883E4,3.555146E4,1.7854895E4,7.85835E4,6.639815E4,2.519827E4,1.0302614E4,2.0299197E4,1.5252265E4,1.3324591E4,4.5303037E3,3.4888293E4,4.3695203E4,6.1030195E4,5.3679507E3,1.7445049E4,7.753221E3,3.2699717E3,7.0326426E3,1.5811211E4,4.4879863E3,1.1410965E4,3.8413E3,1.0417047E4,2.9075444E3,4.0664197E3,4.638841E2,1.0391416E4,2.4496879E4,1.9687934E4,2.400727E4,5.0758387E4,1.0271812E4,3.5795093E3,1.7884415E3,1.4110427E4,3.334622E3,7.3856216E3,3.6759943E2,3.1695715E3,1.0040014E2,2.0683296E3,4.964313E3,1.0306066E4,5.505145E3,2.15573E3,2.3322566E3,4.474535E3,6.9364297E3,2.7236199E3,1.1176802E3,3.8532239E3,6.5638223E3,2.166739E3,7.408053E2,2.8707965E2,3.7793398E3,3.9386804E2,7.0016045E1],"tree_param":{"num_deleted":"0","num_feature":"26","num_nodes":"63","size_leaf_vector":"1"}},{"base_weights":[2.9259457E-4,1.9817166E-1,-2.1509962E-1,3.663967E-1,1.083307E-1,-1.2698433E-1,-3.6401355E-1,3.355476E-1,8.387468E-1,1.855927E-1,5.7153337E-2,-6.0893085E-2,-1.7830779E-1,-3.1173617E-1,-4.3497083E-1,3.7249824E-1,1.9200313E-1,4.1793117E-1,1.1416802E0,1.7450814E-1,4.8676285E-1,4.088269E-2,1.5210578E-1,-1.988512E-1,-4.7576092E-2,-2.0391521E-1,-8.235419E-2,-3.251691E-1,-1.5403762E-1,-3.9908198E-1,-4.7930744E-1,3.86583E-2,2.5155626E-2,1.950358E-2,6.1567402E-3,1.6712593E-2,5.5711314E-2,7.611062E-2,9.5421076E-2,1.4946553E-2,-8.118475E-5,1.983441E-2,9.02088E-2,4.8122276E-3,-1.6958395E-3,7.5330273E-3,4.211899E-2,-1.1064789E-2,-2.1738488E-2,-6.7294934E-3,-5.431753E-4,-1.3542311E-2,-2.0202382E-2,-1.4430631E-2,-3.9859763E-3,-2.3878329E-2,-2.9186537E-2,-1.5349819E-2,5.8807773E-3,-3.326863E-2,-1.4755909E-2,-3.7587933E-2,-4.5587767E-2],"categories":[],"categories_nodes":[],"categories_segments":[],"categories_sizes":[],"default_left":[0,0,0,0,0,0,0,0,0,0,0,0,0,0,0,0,0,0,0,0,0,0,0,0,0,0,0,0,0,0,0,0,0,0,0,0,0,0,0,0,0,0,0,0,0,0,0,0,0,0,0,0,0,0,0,0,0,0,0,0,0,0,0],"id":7,"left_children":[1,3,5,7,9,11,13,15,17,19,21,23,25,27,29,31,33,35,37,39,41,43,45,47,49,51,53,55,57,59,61,-1,-1,-1,-1,-1,-1,-1,-1,-1,-1,-1,-1,-1,-1,-1,-1,-1,-1,-1,-1,-1,-1,-1,-1,-1,-1,-1,-1,-1,-1,-1,-1],"loss_changes":[1.0155025E4,1.8767305E3,1.4968867E3,6.2964795E2,3.2006836E2,2.4310767E2,1.5717969E2,2.151748E2,3.3729016E2,1.075907E2,7.5226166E1,5.75513E1,9.911267E1,5.1685303E1,2.8430908E1,2.0730371E2,4.9493744E1,6.4496414E1,1.3835571E1,6.72962E1,1.7487952E2,4.973616E1,1.5447456E2,1.2130501E1,4.258744E1,5.3577515E1,2.7096798E1,2.3713867E1,1.6534657E1,3.5739136E1,6.6187744E0,0E0,0E0,0E0,0E0,0E0,0E0,0E0,0E0,0E0,0E0,0E0,0E0,0E0,0E0,0E0,0E0,0E0,0E0,0E0,0E0,0E0,0E0,0E0,0E0,0E0,0E0,0E0,0E0,0E0,0E0,0E0,0E0],"parents":[2147483647,0,0,1,1,2,2,3,3,4,4,5,5,6,6,7,7,8,8,9,9,10,10,11,11,12,12,13,13,14,14,15,15,16,16,17,17,18,18,19,19,20,20,21,21,22,22,23,23,24,24,25,25,26,26,27,27,28,28,29,29,30,30],"right_children":[2,4,6,8,10,12,14,16,18,20,22,24,26,28,30,32,34,36,38,40,42,44,46,48,50,52,54,56,58,60,62,-1,-1,-1,-1,-1,-1,-1,-1,-1,-1,-1,-1,-1,-1,-1,-1,-1,-1,-1,-1,-1,-1,-1,-1,-1,-1,-1,-1,-1,-1,-1,-1],"split_conditions":[1.7753374E-2,1.0414953E-2,3.0802252E-2,4.656655E7,1.3106499E-2,2.1807412E-2,4.335249E-2,1.822E1,7.61498E1,6.869875E7,2.5767246E7,4.586724E0,1.4439482E-2,2.3494644E-2,5.5963874E-2,7.5902734E-3,1.0879233E-2,3.007715E1,6.02196E7,1.3056907E-2,1.0371435E-2,2.159E1,1.3135424E-2,1.586E1,9.75555E-3,2.6069319E-2,1.229755E1,3.67742E-2,5.540681E7,2.6611833E-2,7.290353E-1,3.86583E-2,2.5155626E-2,1.950358E-2,6.1567402E-3,1.6712593E-2,5.5711314E-2,7.611062E-2,9.5421076E-2,1.4946553E-2,-8.118475E-5,1.983441E-2,9.02088E-2,4.8122276E-3,-1.6958395E-3,7.5330273E-3,4.211899E-2,-1.1064789E-2,-2.1738488E-2,-6.7294934E-3,-5.431753E-4,-1.3542311E-2,-2.0202382E-2,-1.4430631E-2,-3.9859763E-3,-2.3878329E-2,-2.9186537E-2,-1.5349819E-2,5.8807773E-3,-3.326863E-2,-1.4755909E-2,-3.7587933E-2,-4.5587767E-2],"split_indices":[7,7,7,14,7,7,7,24,17,14,14,16,23,23,7,7,23,16,14,23,23,24,23,24,23,7,16,7,14,23,18,0,0,0,0,0,0,0,0,0,0,0,0,0,0,0,0,0,0,0,0,0,0,0,0,0,0,0,0,0,0,0,0],"split_type":[0,0,0,0,0,0,0,0,0,0,0,0,0,0,0,0,0,0,0,0,0,0,0,0,0,0,0,0,0,0,0,0,0,0,0,0,0,0,0,0,0,0,0,0,0,0,0,0,0,0,0,0,0,0,0,0,0,0,0,0,0,0,0],"sum_hessian":[2.38258E5,1.2417736E5,1.1408064E5,4.322901E4,8.094834E4,7.1672484E4,4.240816E4,4.058042E4,2.6485898E3,3.2253262E4,4.8695082E4,3.132991E4,4.0342574E4,2.4421295E4,1.7986865E4,3.2271596E4,8.308826E3,1.1095936E3,1.5389962E3,3.1109844E4,1.1434172E3,4.157278E4,7.1223027E3,2.756797E3,2.8573113E4,3.1843326E4,8.499246E3,2.2503371E4,1.9179231E3,9.945966E3,8.0409E3,1.10972705E4,2.1174326E4,5.7287017E3,2.5801248E3,6.348211E2,4.7477258E2,3.2984952E2,1.2091467E3,2.9068807E4,2.0410383E3,8.3399023E2,3.09427E2,3.1725164E4,9.847617E3,6.168809E3,9.5349347E2,1.5074536E3,1.2493434E3,1.5070043E4,1.350307E4,1.8597607E4,1.3245719E4,2.116514E3,6.3827324E3,1.3456608E4,9.046764E3,1.6446224E3,2.733006E2,9.224065E3,7.219001E2,7.285962E3,7.549379E2],"tree_param":{"num_deleted":"0","num_feature":"26","num_nodes":"63","size_leaf_vector":"1"}},{"base_weights":[-9.275803E-4,-4.2262528E-2,1.012401E-1,-8.3488844E-2,5.3919427E-2,1.5241726E-1,4.7646493E-2,-1.39145E-2,-1.2543494E-1,1.4657718E-2,1.3470465E-1,2.4591012E-1,1.3372473E-1,9.33449E-3,1.4489555E-1,-4.543454E-2,4.426552E-2,-1.0983465E-1,-3.731914E-1,-2.1427829E-2,8.331352E-2,2.0955913E-1,9.4319105E-2,1.8198709E-1,3.3729085E-1,1.9902112E-1,1.0948313E-1,-5.8529887E-2,3.456245E-2,7.4715376E-2,2.1232244E-1,8.3488645E-3,-4.5684804E-3,2.8951757E-2,3.095522E-3,-2.2858221E-2,-7.292682E-3,-1.3999907E-2,-3.8906008E-2,6.025148E-3,-3.3090068E-3,1.0190016E-2,3.5031526E-3,2.2024894E-2,1.4697774E-2,4.1040108E-3,1.0440064E-2,1.2822055E-2,2.437149E-2,2.4405444E-2,4.1483458E-2,1.8248452E-2,1.2453838E-2,4.0293923E-3,1.1259551E-2,-9.849941E-3,7.192269E-4,6.6456567E-3,8.873572E-4,4.574087E-2,5.573902E-3,2.1099672E-2,9.201671E-3],"categories":[],"categories_nodes":[],"categories_segments":[],"categories_sizes":[],"default_left":[0,0,0,0,0,0,0,0,0,0,0,0,0,0,0,0,0,0,0,0,0,0,0,0,0,0,0,0,0,0,0,0,0,0,0,0,0,0,0,0,0,0,0,0,0,0,0,0,0,0,0,0,0,0,0,0,0,0,0,0,0,0,0],"id":8,"left_children":[1,3,5,7,9,11,13,15,17,19,21,23,25,27,29,31,33,35,37,39,41,43,45,47,49,51,53,55,57,59,61,-1,-1,-1,-1,-1,-1,-1,-1,-1,-1,-1,-1,-1,-1,-1,-1,-1,-1,-1,-1,-1,-1,-1,-1,-1,-1,-1,-1,-1,-1,-1,-1],"loss_changes":[1.00429175E3,6.713572E2,1.878706E2,3.4586224E2,1.6111845E2,6.120221E1,1.2466857E2,8.1749306E1,2.8572888E2,8.4696266E1,5.0203857E1,3.4035065E1,4.620343E1,4.1101402E1,4.4733414E1,5.0556435E1,2.7707443E1,2.2847253E2,9.8108765E1,4.321925E1,2.0505592E1,9.838974E0,1.6792969E1,9.103302E0,1.3866943E1,9.931091E0,3.9353806E1,2.8375914E1,1.9923813E1,1.1575716E1,2.4098938E1,0E0,0E0,0E0,0E0,0E0,0E0,0E0,0E0,0E0,0E0,0E0,0E0,0E0,0E0,0E0,0E0,0E0,0E0,0E0,0E0,0E0,0E0,0E0,0E0,0E0,0E0,0E0,0E0,0E0,0E0,0E0,0E0],"parents":[2147483647,0,0,1,1,2,2,3,3,4,4,5,5,6,6,7,7,8,8,9,9,10,10,11,11,12,12,13,13,14,14,15,15,16,16,17,17,18,18,19,19,20,20,21,21,22,22,23,23,24,24,25,25,26,26,27,27,28,28,29,29,30,30],"right_children":[2,4,6,8,10,12,14,16,18,20,22,24,26,28,30,32,34,36,38,40,42,44,46,48,50,52,54,56,58,60,62,-1,-1,-1,-1,-1,-1,-1,-1,-1,-1,-1,-1,-1,-1,-1,-1,-1,-1,-1,-1,-1,-1,-1,-1,-1,-1,-1,-1,-1,-1,-1,-1],"split_conditions":[7.002713E-2,1.1569658E-1,2.279102E1,2.367692E1,1.5531043E-2,-8.4685646E-2,1.5039484E-1,1.918E1,4.3076652E7,2.1774544E-1,1.0183338E1,2.593E1,4.0969515E0,3.717067E1,2.271E1,2.4353E0,1.9936E0,4.429354E-1,5.2793354E1,7.248E0,1.4089939E1,2.2063403E0,3.0084837E-2,1.3360481E-1,1.3573861E0,-2.7027E-3,1.871E1,1.0883081E-1,-3.0339502E-2,4.2196E5,-3.1775404E-2,8.3488645E-3,-4.5684804E-3,2.8951757E-2,3.095522E-3,-2.2858221E-2,-7.292682E-3,-1.3999907E-2,-3.8906008E-2,6.025148E-3,-3.3090068E-3,1.0190016E-2,3.5031526E-3,2.2024894E-2,1.4697774E-2,4.1040108E-3,1.0440064E-2,1.2822055E-2,2.437149E-2,2.4405444E-2,4.1483458E-2,1.8248452E-2,1.2453838E-2,4.0293923E-3,1.1259551E-2,-9.849941E-3,7.192269E-4,6.6456567E-3,8.873572E-4,4.574087E-2,5.573902E-3,2.1099672E-2,9.201671E-3],"split_indices":[19,18,16,16,19,2,19,24,14,18,16,24,16,12,24,16,17,6,16,16,16,17,19,18,6,2,24,19,2,14,2,0,0,0,0,0,0,0,0,0,0,0,0,0,0,0,0,0,0,0,0,0,0,0,0,0,0,0,0,0,0,0,0],"split_type":[0,0,0,0,0,0,0,0,0,0,0,0,0,0,0,0,0,0,0,0,0,0,0,0,0,0,0,0,0,0,0,0,0,0,0,0,0,0,0,0,0,0,0,0,0,0,0,0,0,0,0,0,0,0,0,0,0,0,0,0,0,0,0],"sum_hessian":[2.3780736E5,1.69309E5,6.849836E4,1.18511664E5,5.0797332E4,3.5038164E4,3.3460195E4,4.4576203E4,7.393547E4,3.4184707E4,1.6612625E4,5.836095E3,2.920207E4,2.4004527E4,9.455669E3,2.8912547E4,1.5663655E4,6.955716E4,4.378307E3,2.2407824E4,1.1776883E4,5.820379E3,1.0792246E4,3.4357183E3,2.400377E3,7.9042427E3,2.1297826E4,6.504853E3,1.7499674E4,4.634271E3,4.8213975E3,2.0893408E3,2.6823205E4,2.6891345E2,1.5394741E4,6.6752134E3,6.2881945E4,1.5919707E3,2.7863367E3,3.8279985E3,1.8579826E4,5.5677285E3,6.2091543E3,1.6391859E3,4.1811934E3,4.931388E3,5.8608584E3,2.920983E3,5.1473535E2,2.0403324E3,3.6004453E2,4.727831E3,3.1764116E3,7.3677866E3,1.393004E4,3.3240344E3,3.1808186E3,5.7053823E3,1.1794292E4,4.540534E1,4.5888657E3,3.1532222E3,1.6681753E3],"tree_param":{"num_deleted":"0","num_feature":"26","num_nodes":"63","size_leaf_vector":"1"}},{"base_weights":[1.0496291E-3,-1.0751752E-1,8.4650554E-2,-1.6597208E-1,-5.8660068E-2,4.195832E-2,1.7891335E-1,-1.4942269E-1,-4.3635818E-1,-5.1439848E-2,-2.2005945E-1,1.4971434E-2,8.3058566E-2,2.0749243E-1,9.45104E-2,-1.7835864E-1,-2.568243E-2,-8.025583E-2,-5.679405E-1,-6.1447803E-2,9.1867596E-2,-1.2286391E-1,-4.7908083E-1,5.856285E-2,-5.9222826E-3,1.1079917E-1,3.7747473E-2,1.884392E-1,3.3286303E-1,6.1428312E-2,2.1115114E-1,-1.8033838E-2,-1.2187537E-2,-3.975525E-3,1.8144075E-2,-8.604684E-3,6.769003E-2,-3.232231E-2,-5.061271E-2,-5.453583E-3,3.5915198E-3,1.41173955E-2,-2.734074E-3,9.763236E-3,-1.2232619E-2,-1.9425618E-2,-4.8318196E-2,4.338414E-3,3.7753712E-2,-1.0638866E-3,1.3460318E-2,5.776562E-3,1.0622821E-2,5.5817664E-3,-1.3283154E-3,1.2369323E-2,1.8383654E-2,2.379274E-2,3.8037505E-2,3.1932388E-2,4.250272E-3,2.693151E-2,1.2962405E-2],"categories":[],"categories_nodes":[],"categories_segments":[],"categories_sizes":[],"default_left":[0,0,0,0,0,0,0,0,0,0,0,0,0,0,0,0,0,0,0,0,0,0,0,0,0,0,0,0,0,0,0,0,0,0,0,0,0,0,0,0,0,0,0,0,0,0,0,0,0,0,0,0,0,0,0,0,0,0,0,0,0,0,0],"id":9,"left_children":[1,3,5,7,9,11,13,15,17,19,21,23,25,27,29,31,33,35,37,39,41,43,45,47,49,51,53,55,57,59,61,-1,-1,-1,-1,-1,-1,-1,-1,-1,-1,-1,-1,-1,-1,-1,-1,-1,-1,-1,-1,-1,-1,-1,-1,-1,-1,-1,-1,-1,-1,-1,-1],"loss_changes":[2.1238586E3,2.9072388E2,5.3200574E2,2.0732593E2,6.46107E1,1.0092383E2,9.938513E1,1.5637744E2,1.2518466E2,7.613406E1,5.9712967E1,5.0027706E1,4.5328125E1,7.347339E1,4.0217903E1,4.3305176E1,5.020168E1,1.835904E1,2.0444519E1,3.5469894E1,3.695758E1,1.2731007E1,1.8958801E1,3.1848095E1,4.7707954E1,1.897049E1,2.3841661E1,3.7348267E1,2.0385712E1,2.2750341E1,1.4143547E1,0E0,0E0,0E0,0E0,0E0,0E0,0E0,0E0,0E0,0E0,0E0,0E0,0E0,0E0,0E0,0E0,0E0,0E0,0E0,0E0,0E0,0E0,0E0,0E0,0E0,0E0,0E0,0E0,0E0,0E0,0E0,0E0],"parents":[2147483647,0,0,1,1,2,2,3,3,4,4,5,5,6,6,7,7,8,8,9,9,10,10,11,11,12,12,13,13,14,14,15,15,16,16,17,17,18,18,19,19,20,20,21,21,22,22,23,23,24,24,25,25,26,26,27,27,28,28,29,29,30,30],"right_children":[2,4,6,8,10,12,14,16,18,20,22,24,26,28,30,32,34,36,38,40,42,44,46,48,50,52,54,56,58,60,62,-1,-1,-1,-1,-1,-1,-1,-1,-1,-1,-1,-1,-1,-1,-1,-1,-1,-1,-1,-1,-1,-1,-1,-1,-1,-1,-1,-1,-1,-1,-1,-1],"split_conditions":[1.601844E-2,1.0975384E-2,3.170408E-2,4.656655E7,6.572925E7,2.3006186E-2,1.6658252E-2,1.871E1,2.7265203E1,2.637E1,1.0274947E-2,7.4123186E-3,1.206209E-2,6.0005046E-2,8.0989204E-2,7.936199E-3,2.816E1,4.0442556E-1,7.61498E1,6.1807504E0,-5.6759412E-3,-3.251392E-2,2.9762415E1,2.2564892E1,1.9501915E-2,4.6711966E-1,4.0948982E1,1.0561422E0,4.439838E0,4.2196E5,-5.5176294E-3,-1.8033838E-2,-1.2187537E-2,-3.975525E-3,1.8144075E-2,-8.604684E-3,6.769003E-2,-3.232231E-2,-5.061271E-2,-5.453583E-3,3.5915198E-3,1.41173955E-2,-2.734074E-3,9.763236E-3,-1.2232619E-2,-1.9425618E-2,-4.8318196E-2,4.338414E-3,3.7753712E-2,-1.0638866E-3,1.3460318E-2,5.776562E-3,1.0622821E-2,5.5817664E-3,-1.3283154E-3,1.2369323E-2,1.8383654E-2,2.379274E-2,3.8037505E-2,3.1932388E-2,4.250272E-3,2.693151E-2,1.2962405E-2],"split_indices":[7,7,7,14,14,7,23,24,17,24,23,23,23,7,2,7,24,6,17,6,21,2,17,6,23,6,17,6,6,14,19,0,0,0,0,0,0,0,0,0,0,0,0,0,0,0,0,0,0,0,0,0,0,0,0,0,0,0,0,0,0,0,0],"split_type":[0,0,0,0,0,0,0,0,0,0,0,0,0,0,0,0,0,0,0,0,0,0,0,0,0,0,0,0,0,0,0,0,0,0,0,0,0,0,0,0,0,0,0,0,0,0,0,0,0,0,0,0,0,0,0,0,0,0,0,0,0,0,0],"sum_hessian":[2.3399814E5,1.01798586E5,1.3219956E5,4.6346176E4,5.5452406E4,9.099072E4,4.120884E4,4.367456E4,2.6716177E3,5.307922E4,2.3731855E3,5.4926637E4,3.6064086E4,3.0783875E4,1.0424965E4,3.539678E4,8.277778E3,7.2126404E2,1.9503535E3,4.9614906E4,3.4643135E3,1.7267223E3,6.4646344E2,1.7796102E4,3.7130535E4,2.2368234E4,1.3695851E4,2.6724863E4,4.059013E3,8.1227007E3,2.3022644E3,1.2597744E4,2.2799035E4,7.559645E3,7.18133E2,7.014738E2,1.979026E1,5.541377E2,1.3962158E3,4.666549E4,2.9494192E3,2.0727158E3,1.3915977E3,1.8834584E2,1.5383763E3,2.2458035E2,4.218831E2,1.7612623E4,1.8347794E2,3.5622844E4,1.5076906E3,8.1198145E3,1.424842E4,8.617824E3,5.078026E3,1.4704105E4,1.2020757E4,3.2532866E3,8.057263E2,1.937044E2,7.9289966E3,6.460097E2,1.6562548E3],"tree_param":{"num_deleted":"0","num_feature":"26","num_nodes":"63","size_leaf_vector":"1"}},{"base_weights":[-6.030416E-4,1.7949371E-1,-2.1157156E-1,3.3041516E-1,8.527647E-2,-1.2505522E-1,-3.4734017E-1,3.0081156E-1,7.336226E-1,1.3005245E-1,2.136971E-2,-7.520131E-2,-1.7714879E-1,-2.9729325E-1,-4.189157E-1,4.0182272E-1,2.5486073E-1,2.1818504E-1,9.3327457E-1,1.2064878E-1,3.4283236E-1,2.5561939E-3,8.9943774E-2,-1.3027093E-1,-4.478799E-2,-2.8257933E-1,-1.6187766E-1,-3.178359E-1,-2.4779052E-1,-3.943791E-1,-4.767922E-1,4.6776064E-2,3.0012058E-2,1.437878E-2,2.1903945E-2,2.1197686E-2,-6.9356607E-3,5.2631974E-2,8.1924304E-2,4.8361123E-3,1.1539085E-2,1.4839122E-2,7.150021E-2,-1.1532807E-3,5.331225E-3,5.9863976E-3,4.8819833E-2,-1.5885493E-2,-8.460391E-3,-4.798799E-3,5.1212106E-3,-1.4027225E-2,-2.3862561E-2,-1.1288032E-2,-1.6687209E-2,-2.4586674E-2,-3.1890493E-2,-1.7484466E-2,-2.5497643E-2,-3.4905102E-2,-3.0391268E-2,-3.712652E-2,-4.5208566E-2],"categories":[],"categories_nodes":[],"categories_segments":[],"categories_sizes":[],"default_left":[0,0,0,0,0,0,0,0,0,0,0,0,0,0,0,0,0,0,0,0,0,0,0,0,0,0,0,0,0,0,0,0,0,0,0,0,0,0,0,0,0,0,0,0,0,0,0,0,0,0,0,0,0,0,0,0,0,0,0,0,0,0,0],"id":10,"left_children":[1,3,5,7,9,11,13,15,17,19,21,23,25,27,29,31,33,35,37,39,41,43,45,47,49,51,53,55,57,59,61,-1,-1,-1,-1,-1,-1,-1,-1,-1,-1,-1,-1,-1,-1,-1,-1,-1,-1,-1,-1,-1,-1,-1,-1,-1,-1,-1,-1,-1,-1,-1,-1],"loss_changes":[9.047679E3,1.8266562E3,1.2881108E3,5.891255E2,2.2631592E2,1.73948E2,1.5277051E2,2.1340186E2,3.4725574E2,9.3013855E1,4.20394E1,5.7323257E1,5.2692017E1,2.546875E1,2.4750488E1,6.992554E1,4.49375E1,1.3488228E1,6.0157715E1,6.3239502E1,1.7040927E2,2.78138E1,5.512122E1,2.0369202E1,3.646756E1,6.9240417E0,2.7741577E1,1.4940308E1,1.5217804E1,7.3308105E0,5.6016846E0,0E0,0E0,0E0,0E0,0E0,0E0,0E0,0E0,0E0,0E0,0E0,0E0,0E0,0E0,0E0,0E0,0E0,0E0,0E0,0E0,0E0,0E0,0E0,0E0,0E0,0E0,0E0,0E0,0E0,0E0,0E0,0E0],"parents":[2147483647,0,0,1,1,2,2,3,3,4,4,5,5,6,6,7,7,8,8,9,9,10,10,11,11,12,12,13,13,14,14,15,15,16,16,17,17,18,18,19,19,20,20,21,21,22,22,23,23,24,24,25,25,26,26,27,27,28,28,29,29,30,30],"right_children":[2,4,6,8,10,12,14,16,18,20,22,24,26,28,30,32,34,36,38,40,42,44,46,48,50,52,54,56,58,60,62,-1,-1,-1,-1,-1,-1,-1,-1,-1,-1,-1,-1,-1,-1,-1,-1,-1,-1,-1,-1,-1,-1,-1,-1,-1,-1,-1,-1,-1,-1,-1,-1],"split_conditions":[1.8150749E-2,1.0892372E-2,3.0515717E-2,4.3076652E7,1.485763E-2,2.2851964E-2,4.335249E-2,7.7084647E-3,3.007715E1,6.572925E7,1.697752E7,1.9050627E1,3.7758698E0,9.842074E-2,6.2319096E-2,4.5089587E-3,1.5814926E1,1.1826254E8,7.61498E1,1.7009802E1,6.2343777E1,2.0335061E-2,2.90759E2,4.586724E0,2.7749216E7,-7.938579E-3,1.0773486E0,2.2927278E-1,3.8274046E-2,-1.00590274E-1,7.290353E-1,4.6776064E-2,3.0012058E-2,1.437878E-2,2.1903945E-2,2.1197686E-2,-6.9356607E-3,5.2631974E-2,8.1924304E-2,4.8361123E-3,1.1539085E-2,1.4839122E-2,7.150021E-2,-1.1532807E-3,5.331225E-3,5.9863976E-3,4.8819833E-2,-1.5885493E-2,-8.460391E-3,-4.798799E-3,5.1212106E-3,-1.4027225E-2,-2.3862561E-2,-1.1288032E-2,-1.6687209E-2,-2.4586674E-2,-3.1890493E-2,-1.7484466E-2,-2.5497643E-2,-3.4905102E-2,-3.0391268E-2,-3.712652E-2,-4.5208566E-2],"split_indices":[7,7,7,14,7,7,7,7,16,14,14,17,16,11,7,7,16,14,17,16,16,22,17,16,14,19,15,19,7,5,18,0,0,0,0,0,0,0,0,0,0,0,0,0,0,0,0,0,0,0,0,0,0,0,0,0,0,0,0,0,0,0,0],"split_type":[0,0,0,0,0,0,0,0,0,0,0,0,0,0,0,0,0,0,0,0,0,0,0,0,0,0,0,0,0,0,0,0,0,0,0,0,0,0,0,0,0,0,0,0,0,0,0,0,0,0,0,0,0,0,0,0,0,0,0,0,0,0,0],"sum_hessian":[2.3812773E5,1.2846318E5,1.0966456E5,4.9372906E4,7.909027E4,6.698279E4,4.268177E4,4.5997504E4,3.3754045E3,4.6505426E4,3.2584846E4,3.4228406E4,3.2754383E4,2.5121502E4,1.756027E4,1.4379686E4,3.1617818E4,9.4299225E2,2.4324124E3,4.4538637E4,1.9667886E3,2.5570525E4,7.0143193E3,1.2176694E4,2.2051713E4,4.141858E3,2.8612525E4,1.7750127E4,7.371375E3,1.2337593E4,5.222677E3,1.8276132E3,1.2552072E4,6.3679243E3,2.5249893E4,8.176493E2,1.2534297E2,6.05104E2,1.8273083E3,1.2540594E4,3.1998043E4,1.5308992E3,4.358894E2,2.0216984E4,5.3535425E3,6.81743E3,1.96889E2,3.2145032E3,8.962191E3,1.9349531E4,2.7021821E3,5.3057196E2,3.611286E3,1.9806709E4,8.805815E3,1.5712488E4,2.037638E3,5.22281E3,2.1485652E3,3.1605625E3,9.17703E3,4.571045E3,6.5163165E2],"tree_param":{"num_deleted":"0","num_feature":"26","num_nodes":"63","size_leaf_vector":"1"}},{"base_weights":[-1.3131909E-4,-1.07121095E-1,9.602674E-2,-2.3266068E-1,-6.5379806E-2,5.1305912E-2,1.4365806E-1,-3.9579332E-1,-2.1537936E-1,-1.0393585E-1,-3.466387E-2,1.20019004E-1,3.2654583E-2,1.0033495E-1,1.7654346E-1,-4.2934456E-1,-4.2118646E-2,-1.8896669E-1,-2.530529E-1,-5.2858472E-2,-1.252451E-1,3.319256E-3,-6.160001E-2,1.3522421E-1,3.6429573E-2,2.0608807E-2,1.15125954E-1,1.4812925E-1,4.9971648E-2,2.7218613E-1,1.5735061E-1,-2.3312408E-2,-3.798856E-2,-7.7941404E-3,4.8976377E-2,-1.6580906E-2,-8.719987E-3,-1.6891364E-2,-2.3847044E-2,-3.6654847E-3,-1.8477188E-2,-1.0739954E-2,1.4231913E-3,2.5235503E-3,-2.5046857E-3,-2.685218E-3,-7.2070784E-3,7.2821532E-3,1.316848E-2,3.998932E-3,-2.861494E-2,2.1572455E-3,-7.558285E-3,1.3470566E-3,1.0975102E-2,1.2771713E-2,4.5436947E-3,5.946815E-3,-2.8318542E-3,1.7686164E-2,2.8249973E-2,1.7313432E-2,1.0466603E-2],"categories":[],"categories_nodes":[],"categories_segments":[],"categories_sizes":[],"default_left":[0,0,0,0,0,0,0,0,0,0,0,0,0,0,0,0,0,0,0,0,0,0,0,0,0,0,0,0,0,0,0,0,0,0,0,0,0,0,0,0,0,0,0,0,0,0,0,0,0,0,0,0,0,0,0,0,0,0,0,0,0,0,0],"id":11,"left_children":[1,3,5,7,9,11,13,15,17,19,21,23,25,27,29,31,33,35,37,39,41,43,45,47,49,51,53,55,57,59,61,-1,-1,-1,-1,-1,-1,-1,-1,-1,-1,-1,-1,-1,-1,-1,-1,-1,-1,-1,-1,-1,-1,-1,-1,-1,-1,-1,-1,-1,-1,-1,-1],"loss_changes":[2.444637E3,5.893799E2,2.6656738E2,7.903552E1,9.996365E1,8.2718216E1,8.631946E1,3.1867981E1,2.5206299E1,4.0731262E1,4.807044E1,1.750885E1,5.0432053E1,6.2943756E1,6.319336E1,1.526886E1,8.525608E0,2.1809814E1,1.9674255E1,1.3806818E1,3.4016144E1,1.905534E1,2.1952034E1,1.5124603E1,1.1356644E1,3.2410923E1,1.4027756E1,1.4105286E1,2.6491415E1,2.373349E1,4.4916138E1,0E0,0E0,0E0,0E0,0E0,0E0,0E0,0E0,0E0,0E0,0E0,0E0,0E0,0E0,0E0,0E0,0E0,0E0,0E0,0E0,0E0,0E0,0E0,0E0,0E0,0E0,0E0,0E0,0E0,0E0,0E0,0E0],"parents":[2147483647,0,0,1,1,2,2,3,3,4,4,5,5,6,6,7,7,8,8,9,9,10,10,11,11,12,12,13,13,14,14,15,15,16,16,17,17,18,18,19,19,20,20,21,21,22,22,23,23,24,24,25,25,26,26,27,27,28,28,29,29,30,30],"right_children":[2,4,6,8,10,12,14,16,18,20,22,24,26,28,30,32,34,36,38,40,42,44,46,48,50,52,54,56,58,60,62,-1,-1,-1,-1,-1,-1,-1,-1,-1,-1,-1,-1,-1,-1,-1,-1,-1,-1,-1,-1,-1,-1,-1,-1,-1,-1,-1,-1,-1,-1,-1,-1],"split_conditions":[1.6944649E-2,9.219305E-3,2.6504084E-2,5.171916E-3,1.2549022E-2,9.6505E0,2.049E1,1.130937E-2,5.3640026E1,2.180748E1,2.5649994E1,7.952097E-2,1.2423062E-1,1.4527682E1,-8.1036754E-2,3.3595882E1,7.449515E1,5.130197E-1,6.306071E-3,2.712E1,1.2780208E-2,5.488526E1,7.986135E-3,2.0087242E-2,4.948958E-2,1.8596819E-2,7.3258886E-3,1.07461475E-2,1.056812E-2,1.6658252E-2,9.253353E0,-2.3312408E-2,-3.798856E-2,-7.7941404E-3,4.8976377E-2,-1.6580906E-2,-8.719987E-3,-1.6891364E-2,-2.3847044E-2,-3.6654847E-3,-1.8477188E-2,-1.0739954E-2,1.4231913E-3,2.5235503E-3,-2.5046857E-3,-2.685218E-3,-7.2070784E-3,7.2821532E-3,1.316848E-2,3.998932E-3,-2.861494E-2,2.1572455E-3,-7.558285E-3,1.3470566E-3,1.0975102E-2,1.2771713E-2,4.5436947E-3,5.946815E-3,-2.8318542E-3,1.7686164E-2,2.8249973E-2,1.7313432E-2,1.0466603E-2],"split_indices":[7,7,7,7,7,16,24,23,16,17,17,4,19,16,2,17,16,6,23,24,23,12,23,7,19,23,23,23,23,23,16,0,0,0,0,0,0,0,0,0,0,0,0,0,0,0,0,0,0,0,0,0,0,0,0,0,0,0,0,0,0,0,0],"split_type":[0,0,0,0,0,0,0,0,0,0,0,0,0,0,0,0,0,0,0,0,0,0,0,0,0,0,0,0,0,0,0,0,0,0,0,0,0,0,0,0,0,0,0,0,0,0,0,0,0,0,0,0,0,0,0,0,0,0,0,0,0,0,0],"sum_hessian":[2.3761988E5,1.1247501E5,1.2514486E5,2.8064545E4,8.441047E4,6.4545473E4,6.0599387E4,2.6861223E3,2.5378422E4,3.742744E4,4.6983023E4,1.3778578E4,5.0766895E4,2.6151521E4,3.4447867E4,2.4531873E3,2.3293492E2,1.4922426E4,1.0455997E4,1.1018949E4,2.6408492E4,1.9494441E4,2.7488582E4,1.1657433E4,2.121145E3,4.4297977E4,6.4689175E3,1.3416984E4,1.2734537E4,5.755182E3,2.8692686E4,6.104455E2,1.842742E3,2.1556493E2,1.7369993E1,1.2142825E4,2.7796E3,5.418807E3,5.0371895E3,1.060118E4,4.1776978E2,2.484454E4,1.5639539E3,1.07402E4,8.754242E3,1.3855708E4,1.3632874E4,4.656713E3,7.00072E3,2.051451E3,6.969404E1,4.198001E4,2.3179675E3,1.1862137E3,5.2827036E3,1.191389E4,1.5030947E3,9.907253E3,2.8272842E3,3.5299238E3,2.2252585E3,8.888026E3,1.9804658E4],"tree_param":{"num_deleted":"0","num_feature":"26","num_nodes":"63","size_leaf_vector":"1"}},{"base_weights":[4.8205737E-4,-2.7139354E-2,9.700561E-2,-4.7412354E-2,1.18493065E-1,5.6521405E-2,1.6535522E-1,-8.309662E-2,-4.5129433E-3,7.660935E-2,1.7843479E-1,9.631455E-3,1.1835988E-1,1.3368064E-1,2.7467942E-1,-1.2509605E-1,-4.208576E-2,5.192222E-3,-1.0459108E-1,8.362978E-2,-1.2633044E-1,1.4239335E-1,2.2471495E-1,-9.803931E-3,1.0098563E-1,1.6200893E-1,7.140353E-2,8.1230424E-2,1.773767E-1,2.557841E-1,4.794623E-1,-1.2575862E-2,-3.3941462E-3,-4.9796505E-3,3.4446102E-3,-4.2030457E-4,6.786839E-3,-1.4557233E-3,-1.6111141E-2,5.7317005E-3,1.4622967E-2,-2.579086E-2,-6.757254E-4,9.996066E-3,1.9134304E-2,2.113655E-2,1.3154185E-2,-1.0951333E-3,1.9958254E-2,2.3922047E-2,6.35362E-3,1.0222636E-2,2.0421725E-2,3.858241E-3,1.5553789E-2,2.1390397E-2,5.547235E-3,1.5241487E-2,-2.0331987E-3,2.2983436E-2,8.426069E-3,4.165451E-2,-1.1596728E-2],"categories":[],"categories_nodes":[],"categories_segments":[],"categories_sizes":[],"default_left":[0,0,0,0,0,0,0,0,0,0,0,0,0,0,0,0,0,0,0,0,0,0,0,0,0,0,0,0,0,0,0,0,0,0,0,0,0,0,0,0,0,0,0,0,0,0,0,0,0,0,0,0,0,0,0,0,0,0,0,0,0,0,0],"id":12,"left_children":[1,3,5,7,9,11,13,15,17,19,21,23,25,27,29,31,33,35,37,39,41,43,45,47,49,51,53,55,57,59,61,-1,-1,-1,-1,-1,-1,-1,-1,-1,-1,-1,-1,-1,-1,-1,-1,-1,-1,-1,-1,-1,-1,-1,-1,-1,-1,-1,-1,-1,-1,-1,-1],"loss_changes":[6.2311145E2,5.3650214E2,1.4387885E2,2.4418427E2,5.573419E1,9.469543E1,6.6942505E1,1.499809E2,7.035364E1,1.8636414E1,1.520166E1,3.2981575E1,2.885524E1,3.436203E1,1.6687164E1,1.1416272E2,7.562915E1,5.493562E1,5.3546936E1,1.5002586E1,1.0109358E1,8.642494E0,9.472321E0,1.5433992E1,1.3893478E1,2.3263657E1,1.9339958E1,1.507328E1,2.1809448E1,1.8835175E1,9.491455E0,0E0,0E0,0E0,0E0,0E0,0E0,0E0,0E0,0E0,0E0,0E0,0E0,0E0,0E0,0E0,0E0,0E0,0E0,0E0,0E0,0E0,0E0,0E0,0E0,0E0,0E0,0E0,0E0,0E0,0E0,0E0,0E0],"parents":[2147483647,0,0,1,1,2,2,3,3,4,4,5,5,6,6,7,7,8,8,9,9,10,10,11,11,12,12,13,13,14,14,15,15,16,16,17,17,18,18,19,19,20,20,21,21,22,22,23,23,24,24,25,25,26,26,27,27,28,28,29,29,30,30],"right_children":[2,4,6,8,10,12,14,16,18,20,22,24,26,28,30,32,34,36,38,40,42,44,46,48,50,52,54,56,58,60,62,-1,-1,-1,-1,-1,-1,-1,-1,-1,-1,-1,-1,-1,-1,-1,-1,-1,-1,-1,-1,-1,-1,-1,-1,-1,-1,-1,-1,-1,-1,-1,-1],"split_conditions":[8.817173E-2,8.529773E-2,4.2251045E1,1.71E1,7.5472385E-2,1.683891E-1,1.6059905E-1,1.7473066E-2,4.869339E7,2.5664693E-2,2.532928E-2,-9.565064E-3,2.411E1,4.619795E1,3.0274138E-1,2.835421E-2,1.4105176E-2,7.855628E-2,5.4139274E-1,5.945139E0,2.99E1,2.566E1,1.7091335E0,5.6837606E-1,-5.49149E-2,3.7916897E1,-6.4024436E-3,9.0259E5,3.713E1,3.195E1,2.1011667E8,-1.2575862E-2,-3.3941462E-3,-4.9796505E-3,3.4446102E-3,-4.2030457E-4,6.786839E-3,-1.4557233E-3,-1.6111141E-2,5.7317005E-3,1.4622967E-2,-2.579086E-2,-6.757254E-4,9.996066E-3,1.9134304E-2,2.113655E-2,1.3154185E-2,-1.0951333E-3,1.9958254E-2,2.3922047E-2,6.35362E-3,1.0222636E-2,2.0421725E-2,3.858241E-3,1.5553789E-2,2.1390397E-2,5.547235E-3,1.5241487E-2,-2.0331987E-3,2.2983436E-2,8.426069E-3,4.165451E-2,-1.1596728E-2],"split_indices":[19,4,12,24,2,19,19,19,14,23,0,10,24,12,19,2,1,5,6,6,24,24,15,11,0,12,2,14,24,24,14,0,0,0,0,0,0,0,0,0,0,0,0,0,0,0,0,0,0,0,0,0,0,0,0,0,0,0,0,0,0,0,0],"split_type":[0,0,0,0,0,0,0,0,0,0,0,0,0,0,0,0,0,0,0,0,0,0,0,0,0,0,0,0,0,0,0,0,0,0,0,0,0,0,0,0,0,0,0,0,0,0,0,0,0,0,0,0,0,0,0,0,0,0,0,0,0,0,0],"sum_hessian":[2.3371302E5,1.8171402E5,5.1999E4,1.5950986E5,2.2204156E4,3.265746E4,1.9341537E4,8.707709E4,7.2432766E4,1.3072293E4,9.131863E3,1.8574344E4,1.4083118E4,1.4998296E4,4.3432427E3,4.3019035E4,4.4058062E4,6.603036E4,6.402404E3,1.2635764E4,4.365296E2,5.13611E3,3.9957537E3,1.5316653E4,3.2576895E3,7.2973223E3,6.7857964E3,6.817646E3,8.1806494E3,3.9784038E3,3.648388E2,3.0985719E4,1.2033315E4,3.5623547E4,8.434515E3,5.8374836E4,7.6555225E3,3.3836282E3,3.0187756E3,1.1274876E4,1.3608873E3,1.6326503E2,2.7326456E2,4.353771E3,7.823388E2,2.4122236E3,1.5835302E3,1.5091462E4,2.2519211E2,3.186436E2,2.9390457E3,5.339995E3,1.957327E3,5.7112466E3,1.0745496E3,4.0803076E2,6.409615E3,7.6828257E3,4.9782373E2,3.2887632E3,6.896405E2,3.424024E2,2.2436407E1],"tree_param":{"num_deleted":"0","num_feature":"26","num_nodes":"63","size_leaf_vector":"1"}},{"base_weights":[-1.3976796E-3,1.6178694E-1,-2.0790462E-1,2.9181236E-1,6.833412E-2,-1.3287686E-1,-3.469788E-1,4.049049E-1,2.3404615E-1,1.15464725E-1,1.5359335E-2,-8.780695E-2,-1.9800639E-1,-3.0761573E-1,-4.1953886E-1,4.4684082E-1,2.1167038E-1,2.4920253E-1,2.4134722E-2,5.25777E-2,1.4260654E-1,-2.1026302E-2,4.429469E-2,-2.0080224E-1,-7.322378E-2,-2.1848749E-1,-6.2688336E-2,-3.205404E-1,-1.860225E-1,-3.8017684E-1,-4.4619107E-1,5.0937712E-2,3.3049393E-2,2.5753552E-2,8.742093E-3,1.1377279E-2,2.2182358E-2,-2.3518912E-3,1.0047374E-2,-7.0314336E-4,6.4011463E-3,7.627173E-3,1.4256294E-2,-8.895844E-4,-1.2690125E-2,-1.488961E-3,6.92381E-3,-1.785945E-2,-7.661062E-3,-7.4886624E-3,1.2755224E-5,-2.0502226E-2,-1.5096062E-2,-7.3934062E-3,1.7785922E-2,-2.29729E-2,-2.786968E-2,-2.0500084E-2,-8.82478E-3,-3.1520486E-2,-1.17734345E-2,-3.6292516E-2,-2.5369758E-2],"categories":[],"categories_nodes":[],"categories_segments":[],"categories_sizes":[],"default_left":[0,0,0,0,0,0,0,0,0,0,0,0,0,0,0,0,0,0,0,0,0,0,0,0,0,0,0,0,0,0,0,0,0,0,0,0,0,0,0,0,0,0,0,0,0,0,0,0,0,0,0,0,0,0,0,0,0,0,0,0,0,0,0],"id":13,"left_children":[1,3,5,7,9,11,13,15,17,19,21,23,25,27,29,31,33,35,37,39,41,43,45,47,49,51,53,55,57,59,61,-1,-1,-1,-1,-1,-1,-1,-1,-1,-1,-1,-1,-1,-1,-1,-1,-1,-1,-1,-1,-1,-1,-1,-1,-1,-1,-1,-1,-1,-1,-1,-1],"loss_changes":[8.0150938E3,1.6143779E3,1.0954297E3,3.6286035E2,1.9300052E2,2.0016919E2,1.04950195E2,1.5210742E2,1.1699817E2,6.9815796E1,3.8319416E1,6.640558E1,7.72854E1,3.74292E1,1.3401611E1,9.8555176E1,3.779596E1,1.0299194E2,1.3460877E1,2.0767952E1,4.8060608E1,2.1975985E1,5.3889046E1,1.083786E1,5.3405746E1,2.7219604E1,3.1099562E1,1.9929688E1,1.217141E1,1.6793274E1,7.282715E0,0E0,0E0,0E0,0E0,0E0,0E0,0E0,0E0,0E0,0E0,0E0,0E0,0E0,0E0,0E0,0E0,0E0,0E0,0E0,0E0,0E0,0E0,0E0,0E0,0E0,0E0,0E0,0E0,0E0,0E0,0E0,0E0],"parents":[2147483647,0,0,1,1,2,2,3,3,4,4,5,5,6,6,7,7,8,8,9,9,10,10,11,11,12,12,13,13,14,14,15,15,16,16,17,17,18,18,19,19,20,20,21,21,22,22,23,23,24,24,25,25,26,26,27,27,28,28,29,29,30,30],"right_children":[2,4,6,8,10,12,14,16,18,20,22,24,26,28,30,32,34,36,38,40,42,44,46,48,50,52,54,56,58,60,62,-1,-1,-1,-1,-1,-1,-1,-1,-1,-1,-1,-1,-1,-1,-1,-1,-1,-1,-1,-1,-1,-1,-1,-1,-1,-1,-1,-1,-1,-1,-1,-1],"split_conditions":[1.8595664E-2,1.1364632E-2,3.232993E-2,8.050419E-3,1.485763E-2,2.4707045E-2,4.779162E-2,8.093461E-3,1.1687847E-2,1.7521187E1,7.986135E-3,5.0156345E0,1.7197493E-2,2.2603193E-2,5.5963874E-2,5.171916E-3,1.864E1,1.62702E1,1.583751E-2,6.438159E0,7.2651184E-3,1.978E1,2.4698708E1,8.375115E-2,1.3568399E-2,1.6772429E1,1.2748458E2,3.723928E-2,2.6116569E-2,2.8712807E-2,1.1186337E2,5.0937712E-2,3.3049393E-2,2.5753552E-2,8.742093E-3,1.1377279E-2,2.2182358E-2,-2.3518912E-3,1.0047374E-2,-7.0314336E-4,6.4011463E-3,7.627173E-3,1.4256294E-2,-8.895844E-4,-1.2690125E-2,-1.488961E-3,6.92381E-3,-1.785945E-2,-7.661062E-3,-7.4886624E-3,1.2755224E-5,-2.0502226E-2,-1.5096062E-2,-7.3934062E-3,1.7785922E-2,-2.29729E-2,-2.786968E-2,-2.0500084E-2,-8.82478E-3,-3.1520486E-2,-1.17734345E-2,-3.6292516E-2,-2.5369758E-2],"split_indices":[7,7,7,7,7,7,7,23,23,16,23,16,23,23,7,7,24,16,22,16,23,24,17,9,23,16,16,7,4,23,16,0,0,0,0,0,0,0,0,0,0,0,0,0,0,0,0,0,0,0,0,0,0,0,0,0,0,0,0,0,0,0,0],"split_type":[0,0,0,0,0,0,0,0,0,0,0,0,0,0,0,0,0,0,0,0,0,0,0,0,0,0,0,0,0,0,0,0,0,0,0,0,0,0,0,0,0,0,0,0,0,0,0,0,0,0,0,0,0,0,0,0,0,0,0,0,0,0,0],"sum_hessian":[2.3784339E5,1.3285766E5,1.0498573E5,5.5556746E4,7.7300914E4,6.819684E4,3.6788883E4,1.8781342E4,3.6775402E4,4.0906254E4,3.6394656E4,4.0306754E4,2.7890096E4,2.3853723E4,1.293516E4,1.5431148E4,3.3501934E3,3.429872E4,2.4766829E3,1.2333265E4,2.857299E4,1.6121925E4,2.027273E4,4.6059023E3,3.570085E4,2.4223178E4,3.6669182E3,2.1560344E4,2.2933792E3,5.2285293E3,7.7066313E3,2.3245881E3,1.3106561E4,1.6121881E3,1.7380054E3,7.1312715E3,2.716745E4,1.621709E3,8.5497394E2,3.8106763E3,8.522588E3,1.2276109E4,1.6296881E4,1.504019E4,1.081734E3,8.1457686E3,1.2126962E4,3.7941765E3,8.1172565E2,2.7939496E4,7.7613525E3,1.06737705E4,1.3549406E4,3.3211677E3,3.4575067E2,9.808124E3,1.175222E4,1.188543E3,1.104836E3,4.934946E3,2.9358377E2,7.2828755E3,4.2375583E2],"tree_param":{"num_deleted":"0","num_feature":"26","num_nodes":"63","size_leaf_vector":"1"}},{"base_weights":[2.659838E-4,-1.05727285E-1,8.780572E-2,-2.267033E-1,-6.7420036E-2,4.2879976E-2,1.3908358E-1,-3.7206236E-1,-2.1066593E-1,-1.008068E-1,-3.667124E-2,6.043123E-2,-2.0186182E-2,1.8000765E-1,1.0282699E-1,-4.0745202E-1,-3.899743E-2,-8.605466E-2,-2.2013764E-1,-5.2158356E-2,-1.18795745E-1,1.5152852E-3,-6.379642E-2,2.7298857E-2,8.4665485E-2,-1.4960568E-2,-2.7835253E-1,2.1640606E-1,1.4905062E-1,4.6247963E-2,1.4081086E-1,-1.8596401E-2,-3.525128E-2,-6.931222E-3,4.5678187E-2,-1.1976303E-2,3.2182848E-3,-1.5225985E-2,-2.0083236E-2,-4.703859E-3,8.864806E-3,-1.0172265E-2,1.5354173E-3,2.4509688E-3,-2.4178624E-3,-2.6313572E-3,-7.6688346E-3,2.6100343E-3,-9.224913E-3,1.0757729E-2,4.967796E-3,-3.6958766E-3,1.5520483E-3,-3.58142E-2,-1.3491641E-2,1.622231E-2,2.8396377E-2,6.054776E-3,1.279885E-2,5.518078E-3,-2.6697782E-3,1.991042E-2,9.353467E-3],"categories":[],"categories_nodes":[],"categories_segments":[],"categories_sizes":[],"default_left":[0,0,0,0,0,0,0,0,0,0,0,0,0,0,0,0,0,0,0,0,0,0,0,0,0,0,0,0,0,0,0,0,0,0,0,0,0,0,0,0,0,0,0,0,0,0,0,0,0,0,0,0,0,0,0,0,0,0,0,0,0,0,0],"id":14,"left_children":[1,3,5,7,9,11,13,15,17,19,21,23,25,27,29,31,33,35,37,39,41,43,45,47,49,51,53,55,57,59,61,-1,-1,-1,-1,-1,-1,-1,-1,-1,-1,-1,-1,-1,-1,-1,-1,-1,-1,-1,-1,-1,-1,-1,-1,-1,-1,-1,-1,-1,-1,-1,-1],"loss_changes":[2.2075088E3,4.9869604E2,3.0016406E2,6.0253784E1,8.3905304E1,7.687784E1,9.0265015E1,3.0280914E1,2.7494751E1,3.428662E1,4.407385E1,4.362329E1,2.0395704E1,3.2174194E1,6.933597E1,1.3391571E1,7.256139E0,1.3255223E1,1.9911133E1,1.1455143E1,3.299301E1,1.6335537E1,2.4649055E1,1.7440142E1,3.5263046E1,1.591083E1,5.49634E0,2.4726318E1,1.2381989E1,2.3458498E1,4.981723E1,0E0,0E0,0E0,0E0,0E0,0E0,0E0,0E0,0E0,0E0,0E0,0E0,0E0,0E0,0E0,0E0,0E0,0E0,0E0,0E0,0E0,0E0,0E0,0E0,0E0,0E0,0E0,0E0,0E0,0E0,0E0,0E0],"parents":[2147483647,0,0,1,1,2,2,3,3,4,4,5,5,6,6,7,7,8,8,9,9,10,10,11,11,12,12,13,13,14,14,15,15,16,16,17,17,18,18,19,19,20,20,21,21,22,22,23,23,24,24,25,25,26,26,27,27,28,28,29,29,30,30],"right_children":[2,4,6,8,10,12,14,16,18,20,22,24,26,28,30,32,34,36,38,40,42,44,46,48,50,52,54,56,58,60,62,-1,-1,-1,-1,-1,-1,-1,-1,-1,-1,-1,-1,-1,-1,-1,-1,-1,-1,-1,-1,-1,-1,-1,-1,-1,-1,-1,-1,-1,-1,-1,-1],"split_conditions":[1.6464299E-2,9.045934E-3,2.6504084E-2,5.171916E-3,1.2549022E-2,1.5343729E-1,1.4089939E1,1.0879233E-2,8.059241E0,2.0124277E1,2.5649994E1,1.9724222E-2,2.3494644E-2,-3.0037425E-3,2.049E1,1.9851915E1,7.449515E1,6.0525E0,6.3735954E-3,1.3032874E-1,1.2780208E-2,5.403438E1,7.986135E-3,1.0797184E-1,1.05817995E1,2.085743E-2,2.239976E-2,4.036E1,6.191082E-3,1.056812E-2,-5.8805186E-2,-1.8596401E-2,-3.525128E-2,-6.931222E-3,4.5678187E-2,-1.1976303E-2,3.2182848E-3,-1.5225985E-2,-2.0083236E-2,-4.703859E-3,8.864806E-3,-1.0172265E-2,1.5354173E-3,2.4509688E-3,-2.4178624E-3,-2.6313572E-3,-7.6688346E-3,2.6100343E-3,-9.224913E-3,1.0757729E-2,4.967796E-3,-3.6958766E-3,1.5520483E-3,-3.58142E-2,-1.3491641E-2,1.622231E-2,2.8396377E-2,6.054776E-3,1.279885E-2,5.518078E-3,-2.6697782E-3,1.991042E-2,9.353467E-3],"split_indices":[7,7,7,7,7,11,16,23,16,17,17,7,23,2,24,17,16,16,23,18,23,12,23,5,16,7,7,24,23,23,1,0,0,0,0,0,0,0,0,0,0,0,0,0,0,0,0,0,0,0,0,0,0,0,0,0,0,0,0,0,0,0,0],"split_type":[0,0,0,0,0,0,0,0,0,0,0,0,0,0,0,0,0,0,0,0,0,0,0,0,0,0,0,0,0,0,0,0,0,0,0,0,0,0,0,0,0,0,0,0,0,0,0,0,0,0,0,0,0,0,0,0,0,0,0,0,0,0,0],"sum_hessian":[2.379114E5,1.0761308E5,1.3029832E5,2.5879512E4,8.173357E4,6.94518E4,6.0846523E4,2.5693467E3,2.3310164E4,3.918479E4,4.2548777E4,5.433145E4,1.5120351E4,2.8581557E4,3.2264967E4,2.3223618E3,2.4698477E2,1.6473584E3,2.1662807E4,1.0579093E4,2.8605697E4,1.76717E4,2.4877078E4,2.2952957E4,3.1378492E4,1.4821405E4,2.9894598E2,1.3133528E4,1.5448029E4,1.296103E4,1.9303938E4,3.7150638E2,1.9508555E3,2.2988712E2,1.709766E1,1.095181E3,5.5217737E2,1.1029499E4,1.0633308E4,1.0165553E4,4.135396E2,2.6972152E4,1.6335452E3,9.215772E3,8.455928E3,1.2668626E4,1.2208452E4,2.2127262E4,8.256944E2,9.783034E3,2.1595459E4,7.763358E3,7.058047E3,1.1632536E2,1.826206E2,1.1959678E4,1.1738506E3,2.0048527E3,1.3443177E4,1.0082937E4,2.8780947E3,3.4933933E3,1.5810544E4],"tree_param":{"num_deleted":"0","num_feature":"26","num_nodes":"63","size_leaf_vector":"1"}},{"base_weights":[9.41341E-4,-9.9684544E-2,7.500154E-2,-1.4816046E-1,-4.981903E-2,3.3556584E-2,1.4940427E-1,-1.3696672E-1,-4.4802752E-1,-3.7976693E-2,-1.4351526E-1,1.3811188E-2,7.126668E-2,1.728538E-1,7.533829E-2,-1.7227764E-1,-7.938189E-2,-3.4754973E-2,-5.815811E-1,8.8082395E-2,-4.628552E-2,-8.088729E-2,-3.7613088E-1,5.0378583E-2,-3.9690286E-3,9.377616E-2,2.9260078E-2,1.5579519E-1,3.095596E-1,5.563386E-2,2.2530092E-1,-1.8660538E-2,-1.1296312E-2,-6.846494E-4,-9.055062E-3,-4.4086237E-2,-4.5553756E-5,-2.9881226E-2,-5.2049268E-2,4.186664E-3,4.064413E-2,-4.212684E-3,3.8372357E-3,4.880178E-3,-8.072826E-3,-5.7624313E-3,-4.3203864E-2,3.7012526E-3,3.6443114E-2,-4.651056E-4,3.3573475E-2,6.2929764E-3,1.34326825E-2,2.6903686E-3,-2.4544919E-2,1.1190768E-2,1.6993344E-2,2.237313E-2,3.4252945E-2,5.473337E-3,-1.0479349E-2,2.2574345E-2,6.320543E-3],"categories":[],"categories_nodes":[],"categories_segments":[],"categories_sizes":[],"default_left":[0,0,0,0,0,0,0,0,0,0,0,0,0,0,0,0,0,0,0,0,0,0,0,0,0,0,0,0,0,0,0,0,0,0,0,0,0,0,0,0,0,0,0,0,0,0,0,0,0,0,0,0,0,0,0,0,0,0,0,0,0,0,0],"id":15,"left_children":[1,3,5,7,9,11,13,15,17,19,21,23,25,27,29,31,33,35,37,39,41,43,45,47,49,51,53,55,57,59,61,-1,-1,-1,-1,-1,-1,-1,-1,-1,-1,-1,-1,-1,-1,-1,-1,-1,-1,-1,-1,-1,-1,-1,-1,-1,-1,-1,-1,-1,-1,-1,-1],"loss_changes":[1.7395935E3,2.3921735E2,4.1462927E2,1.683778E2,5.4125084E1,6.4302734E1,8.353552E1,9.8354126E1,9.9624695E1,4.536912E1,7.971167E1,3.685374E1,2.8059769E1,8.51543E1,3.4174385E1,5.6788208E1,4.4031242E1,7.8012156E0,1.93544E1,4.01886E1,2.4410103E1,1.2262123E1,5.7825027E1,3.0880756E1,2.9809149E1,2.163733E1,1.52181835E1,2.923529E1,1.4248383E1,2.4406961E1,1.1155281E1,0E0,0E0,0E0,0E0,0E0,0E0,0E0,0E0,0E0,0E0,0E0,0E0,0E0,0E0,0E0,0E0,0E0,0E0,0E0,0E0,0E0,0E0,0E0,0E0,0E0,0E0,0E0,0E0,0E0,0E0,0E0,0E0],"parents":[2147483647,0,0,1,1,2,2,3,3,4,4,5,5,6,6,7,7,8,8,9,9,10,10,11,11,12,12,13,13,14,14,15,15,16,16,17,17,18,18,19,19,20,20,21,21,22,22,23,23,24,24,25,25,26,26,27,27,28,28,29,29,30,30],"right_children":[2,4,6,8,10,12,14,16,18,20,22,24,26,28,30,32,34,36,38,40,42,44,46,48,50,52,54,56,58,60,62,-1,-1,-1,-1,-1,-1,-1,-1,-1,-1,-1,-1,-1,-1,-1,-1,-1,-1,-1,-1,-1,-1,-1,-1,-1,-1,-1,-1,-1,-1,-1,-1],"split_conditions":[1.5835082E-2,1.1364632E-2,2.966613E-2,6.572925E7,3.1431136E7,2.3006186E-2,1.6658252E-2,7.2944085E-3,2.9283463E1,-3.238721E-2,4.726075E1,7.4123186E-3,1.2418524E-2,6.0005046E-2,9.71787E-2,7.825087E-3,-4.2133536E-3,-2.0897888E-1,6.253474E-1,3.125001E-2,6.1807504E0,-3.1775404E-2,7.3258886E-3,2.2564892E1,2.811756E-2,2.5771978E-1,3.3148067E8,3.580224E0,4.439838E0,1.3373528E2,4.9773272E-2,-1.8660538E-2,-1.1296312E-2,-6.846494E-4,-9.055062E-3,-4.4086237E-2,-4.5553756E-5,-2.9881226E-2,-5.2049268E-2,4.186664E-3,4.064413E-2,-4.212684E-3,3.8372357E-3,4.880178E-3,-8.072826E-3,-5.7624313E-3,-4.3203864E-2,3.7012526E-3,3.6443114E-2,-4.651056E-4,3.3573475E-2,6.2929764E-3,1.34326825E-2,2.6903686E-3,-2.4544919E-2,1.1190768E-2,1.6993344E-2,2.237313E-2,3.4252945E-2,5.473337E-3,-1.0479349E-2,2.2574345E-2,6.320543E-3],"split_indices":[7,7,7,14,14,7,23,23,16,22,17,23,23,7,1,7,21,9,6,4,6,2,23,6,23,11,14,6,6,16,21,0,0,0,0,0,0,0,0,0,0,0,0,0,0,0,0,0,0,0,0,0,0,0,0,0,0,0,0,0,0,0,0],"split_type":[0,0,0,0,0,0,0,0,0,0,0,0,0,0,0,0,0,0,0,0,0,0,0,0,0,0,0,0,0,0,0,0,0,0,0,0,0,0,0,0,0,0,0,0,0,0,0,0,0,0,0,0,0,0,0,0,0,0,0,0,0,0,0],"sum_hessian":[2.3342614E5,9.8963586E4,1.3446256E5,5.0179984E4,4.87836E4,8.635899E4,4.8103562E4,4.8375625E4,1.8043573E3,4.3310906E4,5.472693E3,5.6681395E4,2.9677602E4,3.65351E4,1.1568461E4,2.9986168E4,1.8389459E4,4.4099335E2,1.363364E3,2.677598E3,4.063331E4,4.3128706E3,1.1598224E3,1.854313E4,3.8138266E4,1.9322365E4,1.0355236E4,3.2483805E4,4.0512969E3,1.0226159E4,1.3423011E3,1.012006E4,1.9866107E4,5.942107E3,1.2447352E4,2.6445929E1,4.1454742E2,3.4125558E2,1.0221084E3,2.4685886E3,2.0900935E2,3.8060207E4,2.5731003E3,5.331014E2,3.7797693E3,4.0671747E2,7.53105E2,1.8357887E4,1.852432E2,3.7973887E4,1.6437659E2,1.6051816E4,3.2705488E3,1.0223216E4,1.3202005E2,2.5360902E4,7.122903E3,3.238374E3,8.1292267E2,9.571217E3,6.549432E2,9.658535E2,3.7644766E2],"tree_param":{"num_deleted":"0","num_feature":"26","num_nodes":"63","size_leaf_vector":"1"}},{"base_weights":[-8.1889174E-4,1.5400095E-1,-1.9602726E-1,2.7370995E-1,6.376169E-2,-1.1548223E-1,-3.1946146E-1,3.6049384E-1,2.1098332E-1,1.0692969E-1,1.5082018E-2,-7.8542866E-2,-1.7217433E-1,-2.7716094E-1,-3.988058E-1,3.880921E-1,1.61751E-1,2.1680067E-1,-3.772298E-2,4.853336E-2,1.3447087E-1,-2.3343917E-2,4.3577693E-2,-1.2856767E-1,-5.08179E-2,-2.4764317E-1,-1.4938061E-1,-3.0005226E-1,-2.2379923E-1,-3.6954564E-1,-4.413527E-1,4.7490086E-2,2.8762197E-2,1.1405758E-2,5.0431415E-2,1.1578992E-2,1.8901197E-2,-7.1280473E-3,9.847254E-3,6.1392346E-3,-1.348649E-3,1.2897036E-2,8.45514E-3,-7.039754E-3,-4.91836E-4,6.6762026E-3,3.5082884E-4,-1.8773062E-2,-9.100863E-3,-3.4042767E-3,-1.666254E-2,-2.2014791E-2,-1.327175E-2,-1.3460791E-2,-5.9411237E-3,-2.2121942E-2,-2.6669316E-2,-1.9816231E-2,-1.0223392E-2,-3.465582E-2,-2.8403109E-2,-3.5896435E-2,-2.4308527E-2],"categories":[],"categories_nodes":[],"categories_segments":[],"categories_sizes":[],"default_left":[0,0,0,0,0,0,0,0,0,0,0,0,0,0,0,0,0,0,0,0,0,0,0,0,0,0,0,0,0,0,0,0,0,0,0,0,0,0,0,0,0,0,0,0,0,0,0,0,0,0,0,0,0,0,0,0,0,0,0,0,0,0,0],"id":16,"left_children":[1,3,5,7,9,11,13,15,17,19,21,23,25,27,29,31,33,35,37,39,41,43,45,47,49,51,53,55,57,59,61,-1,-1,-1,-1,-1,-1,-1,-1,-1,-1,-1,-1,-1,-1,-1,-1,-1,-1,-1,-1,-1,-1,-1,-1,-1,-1,-1,-1,-1,-1,-1,-1],"loss_changes":[7.173916E3,1.4300249E3,1.0437913E3,3.0966455E2,1.5861853E2,1.3304022E2,1.390332E2,1.3086621E2,4.7796143E1,6.433545E1,3.8848244E1,5.3350647E1,4.3080322E1,3.2968018E1,1.778125E1,1.2283789E2,2.6086151E1,4.5236694E1,6.2553716E0,2.3652777E1,2.090628E1,1.679536E1,3.1835915E1,2.1523376E1,3.220526E1,1.3041412E1,2.7291473E1,1.4739624E1,1.8609222E1,7.738159E0,5.7963867E0,0E0,0E0,0E0,0E0,0E0,0E0,0E0,0E0,0E0,0E0,0E0,0E0,0E0,0E0,0E0,0E0,0E0,0E0,0E0,0E0,0E0,0E0,0E0,0E0,0E0,0E0,0E0,0E0,0E0,0E0,0E0,0E0],"parents":[2147483647,0,0,1,1,2,2,3,3,4,4,5,5,6,6,7,7,8,8,9,9,10,10,11,11,12,12,13,13,14,14,15,15,16,16,17,17,18,18,19,19,20,20,21,21,22,22,23,23,24,24,25,25,26,26,27,27,28,28,29,29,30,30],"right_children":[2,4,6,8,10,12,14,16,18,20,22,24,26,28,30,32,34,36,38,40,42,44,46,48,50,52,54,56,58,60,62,-1,-1,-1,-1,-1,-1,-1,-1,-1,-1,-1,-1,-1,-1,-1,-1,-1,-1,-1,-1,-1,-1,-1,-1,-1,-1,-1,-1,-1,-1,-1,-1],"split_conditions":[1.8474184E-2,1.1442514E-2,3.0515717E-2,8.570029E-3,1.485763E-2,2.4165811E-2,4.583597E-2,1.934E1,2.795E1,1.887551E1,2.3102028E1,1.8788021E1,8.059241E0,9.219712E-2,6.0005046E-2,5.171916E-3,2.5846002E2,1.603223E1,1.6526049E-3,1.954E1,1.3106499E-2,5.660656E0,9.125422E-1,2.2915478E0,1.6059905E-1,1.7491974E-2,2.735E1,3.723928E-2,2.771E1,-1.2077493E-1,1.1186337E2,4.7490086E-2,2.8762197E-2,1.1405758E-2,5.0431415E-2,1.1578992E-2,1.8901197E-2,-7.1280473E-3,9.847254E-3,6.1392346E-3,-1.348649E-3,1.2897036E-2,8.45514E-3,-7.039754E-3,-4.91836E-4,6.6762026E-3,3.5082884E-4,-1.8773062E-2,-9.100863E-3,-3.4042767E-3,-1.666254E-2,-2.2014791E-2,-1.327175E-2,-1.3460791E-2,-5.9411237E-3,-2.2121942E-2,-2.6669316E-2,-1.9816231E-2,-1.0223392E-2,-3.465582E-2,-2.8403109E-2,-3.5896435E-2,-2.4308527E-2],"split_indices":[7,7,7,7,7,7,7,24,24,16,16,17,16,11,7,7,17,16,22,24,7,17,15,16,19,11,24,7,24,4,16,0,0,0,0,0,0,0,0,0,0,0,0,0,0,0,0,0,0,0,0,0,0,0,0,0,0,0,0,0,0,0,0],"split_type":[0,0,0,0,0,0,0,0,0,0,0,0,0,0,0,0,0,0,0,0,0,0,0,0,0,0,0,0,0,0,0,0,0,0,0,0,0,0,0,0,0,0,0,0,0,0,0,0,0,0,0,0,0,0,0,0,0,0,0,0,0,0,0],"sum_hessian":[2.3737095E5,1.323803E5,1.0499066E5,5.6898387E4,7.5481914E4,6.35343E4,4.145636E4,2.386953E4,3.3028855E4,4.0005113E4,3.54768E4,3.8470273E4,2.5064027E4,2.7043342E4,1.4413017E4,2.0958229E4,2.9112993E3,3.2274078E4,7.5477783E2,1.2821689E4,2.7183426E4,1.5106339E4,2.037046E4,1.3716907E4,2.4753367E4,5.8117554E3,1.9252271E4,1.892164E4,8.1217E3,8.545695E3,5.8673213E3,2.5549004E3,1.8403328E4,2.7980925E3,1.1320696E2,6.865214E3,2.5408865E4,5.7236237E2,1.8241547E2,8.957594E3,3.8640952E3,1.4088588E4,1.3094837E4,3.1728838E3,1.1933455E4,1.0096751E4,1.027371E4,1.6780859E3,1.2038821E4,2.3520188E4,1.2331794E3,4.3453623E3,1.4663927E3,1.5384416E4,3.8678557E3,1.1095092E4,7.82655E3,6.501408E3,1.6202922E3,1.5807744E3,6.9649204E3,5.567339E3,2.999827E2],"tree_param":{"num_deleted":"0","num_feature":"26","num_nodes":"63","size_leaf_vector":"1"}},{"base_weights":[1.8673069E-3,-9.3851335E-2,8.5310854E-2,-2.0244943E-1,-5.6593135E-2,4.5177408E-2,1.2974605E-1,-1.7595895E-1,-4.3894482E-1,-8.2982704E-2,-2.239741E-2,1.07706554E-1,2.821154E-2,8.932572E-2,1.6028304E-1,-3.144563E-1,-1.6351551E-1,-2.329477E-1,-5.941151E-1,-6.527419E-2,-1.691704E-1,5.8881263E-3,-4.3998476E-2,6.547255E-2,1.3376547E-1,1.789402E-2,1.3949507E-1,1.0709048E-1,-6.319005E-3,2.488803E-1,1.40205E-1,-2.7657017E-2,-4.6111303E-3,-1.3203618E-2,4.1662827E-2,-1.4065619E-2,-2.9434077E-2,-3.758398E-2,-5.2699804E-2,-1.7545116E-3,-6.9658915E-3,-1.2493312E-2,-4.7372784E-2,-2.221579E-3,3.0312624E-3,-3.2698186E-3,-3.530499E-2,3.6473882E-3,1.2307526E-2,1.1494667E-3,1.1628487E-2,2.660441E-3,-1.4809652E-3,1.5211287E-2,4.791501E-3,5.9716636E-3,1.2316184E-2,2.0548457E-3,-1.4599639E-2,9.397078E-3,2.188209E-2,1.6553858E-2,9.655576E-3],"categories":[],"categories_nodes":[],"categories_segments":[],"categories_sizes":[],"default_left":[0,0,0,0,0,0,0,0,0,0,0,0,0,0,0,0,0,0,0,0,0,0,0,0,0,0,0,0,0,0,0,0,0,0,0,0,0,0,0,0,0,0,0,0,0,0,0,0,0,0,0,0,0,0,0,0,0,0,0,0,0,0,0],"id":17,"left_children":[1,3,5,7,9,11,13,15,17,19,21,23,25,27,29,31,33,35,37,39,41,43,45,47,49,51,53,55,57,59,61,-1,-1,-1,-1,-1,-1,-1,-1,-1,-1,-1,-1,-1,-1,-1,-1,-1,-1,-1,-1,-1,-1,-1,-1,-1,-1,-1,-1,-1,-1,-1,-1],"loss_changes":[1.8945986E3,4.4699988E2,2.2599579E2,1.7672095E2,7.422873E1,7.0639175E1,7.421875E1,4.3687317E1,9.0704285E1,7.0849976E1,2.1893E1,1.5631714E1,6.0137844E1,4.3981033E1,6.0904724E1,1.6766403E1,2.4464844E1,9.363182E0,1.2709534E1,3.6390137E1,4.3432022E1,1.6713846E1,2.5212734E1,9.52318E0,1.2158951E1,2.6809027E1,1.7904938E1,3.317897E1,2.2871698E1,2.0463196E1,3.6332275E1,0E0,0E0,0E0,0E0,0E0,0E0,0E0,0E0,0E0,0E0,0E0,0E0,0E0,0E0,0E0,0E0,0E0,0E0,0E0,0E0,0E0,0E0,0E0,0E0,0E0,0E0,0E0,0E0,0E0,0E0,0E0,0E0],"parents":[2147483647,0,0,1,1,2,2,3,3,4,4,5,5,6,6,7,7,8,8,9,9,10,10,11,11,12,12,13,13,14,14,15,15,16,16,17,17,18,18,19,19,20,20,21,21,22,22,23,23,24,24,25,25,26,26,27,27,28,28,29,29,30,30],"right_children":[2,4,6,8,10,12,14,16,18,20,22,24,26,28,30,32,34,36,38,40,42,44,46,48,50,52,54,56,58,60,62,-1,-1,-1,-1,-1,-1,-1,-1,-1,-1,-1,-1,-1,-1,-1,-1,-1,-1,-1,-1,-1,-1,-1,-1,-1,-1,-1,-1,-1,-1,-1,-1],"split_conditions":[1.6847026E-2,9.3083335E-3,2.672076E-2,3.1431136E7,1.3430512E-2,9.6505E0,2.049E1,5.171916E-3,6.658621E1,1.8730946E7,2.367692E1,2.0087242E-2,1.4150238E-1,1.0790948E-2,-5.8805186E-2,1.0790948E-2,1.07142925E-1,2.6770907E-2,4.656655E7,2.5649994E1,3.8490002E2,2.7290482E-2,1.5116045E8,4.869339E7,-1.6372958E-2,1.5343729E-1,1.1043643E7,7.650877E-3,6.6674213E0,1.0371435E-2,7.6979947E0,-2.7657017E-2,-4.6111303E-3,-1.3203618E-2,4.1662827E-2,-1.4065619E-2,-2.9434077E-2,-3.758398E-2,-5.2699804E-2,-1.7545116E-3,-6.9658915E-3,-1.2493312E-2,-4.7372784E-2,-2.221579E-3,3.0312624E-3,-3.2698186E-3,-3.530499E-2,3.6473882E-3,1.2307526E-2,1.1494667E-3,1.1628487E-2,2.660441E-3,-1.4809652E-3,1.5211287E-2,4.791501E-3,5.9716636E-3,1.2316184E-2,2.0548457E-3,-1.4599639E-2,9.397078E-3,2.188209E-2,1.6553858E-2,9.655576E-3],"split_indices":[7,7,7,14,7,16,24,7,17,14,16,7,19,23,1,23,19,11,14,17,17,19,14,14,19,11,14,23,6,23,17,0,0,0,0,0,0,0,0,0,0,0,0,0,0,0,0,0,0,0,0,0,0,0,0,0,0,0,0,0,0,0,0],"split_type":[0,0,0,0,0,0,0,0,0,0,0,0,0,0,0,0,0,0,0,0,0,0,0,0,0,0,0,0,0,0,0,0,0,0,0,0,0,0,0,0,0,0,0,0,0,0,0,0,0,0,0,0,0,0,0,0,0,0,0,0,0,0,0],"sum_hessian":[2.3720525E5,1.1047665E5,1.267286E5,2.8219525E4,8.225712E4,6.658851E4,6.0140094E4,2.537855E4,2.840976E3,4.642699E4,3.583013E4,1.4210213E4,5.2378297E4,2.5883402E4,3.425669E4,2.0901848E3,2.3288365E4,1.2216581E3,1.619318E3,3.851523E4,7.9117583E3,1.5514882E4,2.0315248E4,5.423612E3,8.786601E3,4.7935203E4,4.4430938E3,2.1828855E4,4.0545464E3,6.326908E3,2.7929783E4,1.8630881E3,2.2709654E2,2.3237178E4,5.118644E1,8.599852E2,3.616729E2,5.567412E2,1.0625768E3,1.288956E4,2.5625672E4,7.67711E3,2.3464857E2,7.561951E3,7.95293E3,2.0157766E4,1.574821E2,4.4288145E3,9.9479736E2,7.7769104E2,8.0089097E3,3.371099E4,1.4224215E4,2.7145703E3,1.7285234E3,1.2900096E4,8.928761E3,3.4319463E3,6.226001E2,1.0000726E3,5.3268354E3,6.3172905E3,2.1612494E4],"tree_param":{"num_deleted":"0","num_feature":"26","num_nodes":"63","size_leaf_vector":"1"}},{"base_weights":[1.3462313E-3,-2.388682E-2,8.496338E-2,-6.1523948E-2,6.345446E-2,4.36697E-2,1.6575241E-1,-1.0985154E-1,-2.6448723E-2,3.8319733E-2,1.5278004E-1,1.4069325E-2,9.996935E-2,1.9921255E-1,1.0483681E-1,-9.5909216E-2,-2.979496E-1,-6.257015E-2,9.186315E-3,1.8441267E-2,8.37531E-2,8.581801E-2,1.961258E-1,5.8042355E-2,-1.7484099E-2,1.729774E-1,7.061613E-2,1.7361446E-1,2.8261688E-1,8.844542E-2,2.721662E-1,-1.0189031E-2,-2.3281276E-3,-1.0925259E-2,-4.2914677E-2,-4.4811624E-3,-1.8114153E-2,1.7499533E-2,4.7400838E-4,3.7663558E-3,-2.02201E-3,7.6442747E-3,-3.4089936E-3,1.191856E-2,3.7976739E-3,2.0621797E-2,1.4198099E-2,1.7195025E-2,4.021745E-3,-4.426274E-3,1.508636E-3,3.7024298E-3,1.6750287E-2,9.880261E-3,2.6396303E-3,2.4140533E-2,1.2252657E-2,2.9584553E-2,1.9790962E-2,1.0042852E-2,1.3890421E-3,1.7889913E-2,5.082286E-2],"categories":[],"categories_nodes":[],"categories_segments":[],"categories_sizes":[],"default_left":[0,0,0,0,0,0,0,0,0,0,0,0,0,0,0,0,0,0,0,0,0,0,0,0,0,0,0,0,0,0,0,0,0,0,0,0,0,0,0,0,0,0,0,0,0,0,0,0,0,0,0,0,0,0,0,0,0,0,0,0,0,0,0],"id":18,"left_children":[1,3,5,7,9,11,13,15,17,19,21,23,25,27,29,31,33,35,37,39,41,43,45,47,49,51,53,55,57,59,61,-1,-1,-1,-1,-1,-1,-1,-1,-1,-1,-1,-1,-1,-1,-1,-1,-1,-1,-1,-1,-1,-1,-1,-1,-1,-1,-1,-1,-1,-1,-1,-1],"loss_changes":[4.9245828E2,5.89399E2,1.804942E2,2.1239606E2,1.2122298E2,5.9669464E1,3.7280304E1,1.3816687E2,9.3459595E1,3.8056683E1,3.43974E1,3.256416E1,2.6429161E1,2.5167694E1,1.7777672E1,1.0308963E2,1.3986401E2,3.871971E1,2.497776E1,3.670258E1,1.9128792E1,1.1282333E1,8.2282715E0,1.1943176E1,1.879488E1,1.630487E1,1.7508648E1,2.3650513E1,8.423645E0,1.5586838E1,1.0056534E1,0E0,0E0,0E0,0E0,0E0,0E0,0E0,0E0,0E0,0E0,0E0,0E0,0E0,0E0,0E0,0E0,0E0,0E0,0E0,0E0,0E0,0E0,0E0,0E0,0E0,0E0,0E0,0E0,0E0,0E0,0E0,0E0],"parents":[2147483647,0,0,1,1,2,2,3,3,4,4,5,5,6,6,7,7,8,8,9,9,10,10,11,11,12,12,13,13,14,14,15,15,16,16,17,17,18,18,19,19,20,20,21,21,22,22,23,23,24,24,25,25,26,26,27,27,28,28,29,29,30,30],"right_children":[2,4,6,8,10,12,14,16,18,20,22,24,26,28,30,32,34,36,38,40,42,44,46,48,50,52,54,56,58,60,62,-1,-1,-1,-1,-1,-1,-1,-1,-1,-1,-1,-1,-1,-1,-1,-1,-1,-1,-1,-1,-1,-1,-1,-1,-1,-1,-1,-1,-1,-1,-1,-1],"split_conditions":[8.581476E-2,1.1308463E-1,4.1533448E-2,1.9851955E-2,7.5472385E-2,1.683891E-1,2.523E1,4.4700132E7,3.322594E-2,2.0394008E-1,2.0819849E-1,2.1649961E1,2.270837E1,1.772455E-1,3.0274138E-1,1.729E1,5.1365982E1,6.572925E7,-3.8775887E-2,2.8480864E1,3.018E1,6.2704277E-3,7.004029E-3,7.029333E5,5.905529E-3,-3.9134163E-2,1.777309E1,1.5255858E1,4.74513E6,2.135892E-2,2.2814356E-2,-1.0189031E-2,-2.3281276E-3,-1.0925259E-2,-4.2914677E-2,-4.4811624E-3,-1.8114153E-2,1.7499533E-2,4.7400838E-4,3.7663558E-3,-2.02201E-3,7.6442747E-3,-3.4089936E-3,1.191856E-2,3.7976739E-3,2.0621797E-2,1.4198099E-2,1.7195025E-2,4.021745E-3,-4.426274E-3,1.508636E-3,3.7024298E-3,1.6750287E-2,9.880261E-3,2.6396303E-3,2.4140533E-2,1.2252657E-2,2.9584553E-2,1.9790962E-2,1.0042852E-2,1.3890421E-3,1.7889913E-2,5.082286E-2],"split_indices":[19,18,18,19,2,19,24,14,18,18,18,8,8,19,19,24,17,14,21,8,24,21,23,14,18,22,17,8,14,23,5,0,0,0,0,0,0,0,0,0,0,0,0,0,0,0,0,0,0,0,0,0,0,0,0,0,0,0,0,0,0,0,0],"split_type":[0,0,0,0,0,0,0,0,0,0,0,0,0,0,0,0,0,0,0,0,0,0,0,0,0,0,0,0,0,0,0,0,0,0,0,0,0,0,0,0,0,0,0,0,0,0,0,0,0,0,0,0,0,0,0,0,0,0,0,0,0,0,0],"sum_hessian":[2.3339989E5,1.7929497E5,5.410492E4,1.25300664E5,5.3994305E4,3.5805305E4,1.829962E4,5.2694555E4,7.260611E4,4.213863E4,1.1855675E4,2.346794E4,1.2337365E4,1.1810175E4,6.4894443E3,4.9059633E4,3.634921E3,3.605661E4,3.65495E4,2.9314193E4,1.2824436E4,4.6598926E3,7.1957827E3,9.804079E3,1.3663859E4,3.536472E3,8.800894E3,9.039035E3,2.7711392E3,5.9118545E3,5.775895E2,3.3354906E4,1.5704726E4,2.1688296E3,1.4660912E3,3.4670836E4,1.3857747E3,5.590671E2,3.5990434E4,1.7711492E4,1.1602702E4,1.1729361E4,1.0950737E3,1.7592429E3,2.9006497E3,1.6683108E3,5.5274717E3,4.6139343E2,9.342686E3,6.6933267E3,6.970533E3,7.8979694E2,2.7466748E3,3.6572546E3,5.1436387E3,1.2424313E3,7.796604E3,7.9474243E2,1.9763969E3,3.8842947E3,2.02756E3,5.1090668E2,6.6682816E1],"tree_param":{"num_deleted":"0","num_feature":"26","num_nodes":"63","size_leaf_vector":"1"}},{"base_weights":[-1.3914068E-3,3.0614315E-2,-1.912055E-1,-1.73843E-1,6.631162E-2,-1.2261574E-1,-2.7446318E-1,-3.1184554E-1,-1.2158691E-1,-2.7682971E-2,1.1327057E-1,-2.4466175E-1,-2.935534E-2,-2.4712054E-1,-4.1574818E-1,-3.6905757E-1,-2.546064E-1,-8.617363E-2,-2.6003316E-1,-1.4728974E-1,6.598984E-3,9.665776E-2,4.5263037E-1,-3.1185868E-1,-1.9970891E-1,1.1756646E-2,-1.13951355E-1,-3.217723E-1,-1.9835857E-1,-3.7491235E-1,-4.968878E-1,-2.6116844E-2,-3.31073E-2,-6.59664E-3,-2.2199122E-2,-5.081226E-3,-1.9414395E-2,-1.8121416E-2,-2.7397277E-2,-5.4335506E-3,-1.7053964E-2,5.1951883E-3,-1.1697753E-2,1.2244914E-2,-1.0822661E-3,1.6901499E-2,5.3730972E-2,-1.1766844E-2,-2.61486E-2,-1.8001746E-2,-8.351451E-3,-5.5525536E-3,3.1377098E-3,-1.2395061E-2,-5.84475E-4,-3.1978633E-2,-2.368162E-2,-1.2827871E-2,-2.0815503E-2,-4.0252846E-2,-2.776103E-2,-4.0579032E-2,-2.2833996E-2],"categories":[],"categories_nodes":[],"categories_segments":[],"categories_sizes":[],"default_left":[0,0,0,0,0,0,0,0,0,0,0,0,0,0,0,0,0,0,0,0,0,0,0,0,0,0,0,0,0,0,0,0,0,0,0,0,0,0,0,0,0,0,0,0,0,0,0,0,0,0,0,0,0,0,0,0,0,0,0,0,0,0,0],"id":19,"left_children":[1,3,5,7,9,11,13,15,17,19,21,23,25,27,29,31,33,35,37,39,41,43,45,47,49,51,53,55,57,59,61,-1,-1,-1,-1,-1,-1,-1,-1,-1,-1,-1,-1,-1,-1,-1,-1,-1,-1,-1,-1,-1,-1,-1,-1,-1,-1,-1,-1,-1,-1,-1,-1],"loss_changes":[1.4404388E3,1.480841E3,1.9533252E2,2.1745215E2,7.624363E2,2.135163E2,5.959143E1,2.7030151E1,1.0723767E2,2.359674E2,6.493552E2,2.4482819E1,3.6988934E1,4.707367E1,8.11084E0,7.7628174E0,1.6299683E1,6.1767715E1,1.223233E1,6.702536E1,3.987982E2,6.8248364E2,2.8400232E2,7.996826E0,1.1729919E1,1.595843E1,1.5202324E1,1.015033E1,1.8374542E1,5.800171E0,1.6833496E0,0E0,0E0,0E0,0E0,0E0,0E0,0E0,0E0,0E0,0E0,0E0,0E0,0E0,0E0,0E0,0E0,0E0,0E0,0E0,0E0,0E0,0E0,0E0,0E0,0E0,0E0,0E0,0E0,0E0,0E0,0E0,0E0],"parents":[2147483647,0,0,1,1,2,2,3,3,4,4,5,5,6,6,7,7,8,8,9,9,10,10,11,11,12,12,13,13,14,14,15,15,16,16,17,17,18,18,19,19,20,20,21,21,22,22,23,23,24,24,25,25,26,26,27,27,28,28,29,29,30,30],"right_children":[2,4,6,8,10,12,14,16,18,20,22,24,26,28,30,32,34,36,38,40,42,44,46,48,50,52,54,56,58,60,62,-1,-1,-1,-1,-1,-1,-1,-1,-1,-1,-1,-1,-1,-1,-1,-1,-1,-1,-1,-1,-1,-1,-1,-1,-1,-1,-1,-1,-1,-1,-1,-1],"split_conditions":[1.5707357E-1,-6.5261185E-2,2.3436908E-1,-1.3985975E-1,1.887551E1,6.1540325E1,4.8799068E-1,1.7009802E1,3.8157735E-2,4.586724E0,5.7670508E7,5.488526E1,7.79488E-2,6.279037E1,7.290353E-1,1.206209E-2,1.1151109E0,-1.5529879E-2,8.595645E-2,7.3734665E6,3.7264946E-1,1.760125E0,5.839734E1,-6.499776E-1,1.6174462E-2,1.6526049E-3,7.28147E1,5.4142952E1,1.4927557E-1,5.9670128E1,1.08776535E2,-2.6116844E-2,-3.31073E-2,-6.59664E-3,-2.2199122E-2,-5.081226E-3,-1.9414395E-2,-1.8121416E-2,-2.7397277E-2,-5.4335506E-3,-1.7053964E-2,5.1951883E-3,-1.1697753E-2,1.2244914E-2,-1.0822661E-3,1.6901499E-2,5.3730972E-2,-1.1766844E-2,-2.61486E-2,-1.8001746E-2,-8.351451E-3,-5.5525536E-3,3.1377098E-3,-1.2395061E-2,-5.84475E-4,-3.1978633E-2,-2.368162E-2,-1.2827871E-2,-2.0815503E-2,-4.0252846E-2,-2.776103E-2,-4.0579032E-2,-2.2833996E-2],"split_indices":[18,5,18,5,16,12,18,16,18,16,14,12,3,12,18,23,6,11,18,14,6,6,16,11,23,22,12,12,4,12,16,0,0,0,0,0,0,0,0,0,0,0,0,0,0,0,0,0,0,0,0,0,0,0,0,0,0,0,0,0,0,0,0],"split_type":[0,0,0,0,0,0,0,0,0,0,0,0,0,0,0,0,0,0,0,0,0,0,0,0,0,0,0,0,0,0,0,0,0,0,0,0,0,0,0,0,0,0,0,0,0,0,0,0,0,0,0,0,0,0,0,0,0,0,0,0,0,0,0],"sum_hessian":[2.3710197E5,2.0289194E5,3.421002E4,3.0157896E4,1.7273405E5,1.875865E4,1.545137E4,8.281747E3,2.1876148E4,5.754683E4,1.1518722E5,8.1246436E3,1.0634006E4,1.2948264E4,2.5031064E3,4.1391304E3,4.1426167E3,1.7421508E4,4.45464E3,1.2819034E4,4.4727793E4,1.098128E5,5.3744253E3,3.254209E3,4.8704346E3,7.1568027E3,3.4772034E3,5.113774E3,7.8344897E3,1.668837E3,8.342693E2,2.125604E3,2.0135261E3,4.8658603E2,3.656031E3,1.5219501E4,2.2020078E3,3.1696672E3,1.2849727E3,5.815377E3,7.003657E3,3.2370582E4,1.2357211E4,7.263232E4,3.7180477E4,2.5576604E3,2.816765E3,2.72408E2,2.981801E3,3.8473394E3,1.02309503E3,1.8090839E3,5.347719E3,2.511506E3,9.656972E2,1.2661527E3,3.847621E3,4.854201E3,2.9802883E3,2.9513358E2,1.3737035E3,7.940076E2,4.0261684E1],"tree_param":{"num_deleted":"0","num_feature":"26","num_nodes":"63","size_leaf_vector":"1"}},{"base_weights":[1.1134493E-4,-2.630602E-2,1.0517302E-1,2.6557906E-2,-6.665892E-2,8.594743E-2,1.6514787E-1,1.3137326E-1,1.3384367E-2,-1.276372E-1,-2.7764045E-2,1.2367792E-1,4.7969174E-2,1.04418494E-1,2.2484663E-1,4.3201834E-2,1.7154153E-1,-5.941358E-3,1.10894985E-1,-1.00670315E-1,-2.4542959E-1,7.408466E-2,-4.2320427E-2,1.829368E-1,1.03598565E-1,6.678326E-2,2.278357E-3,2.1668757E-1,8.048405E-2,2.5382075E-1,1.2068884E-1,9.918118E-3,-3.462302E-3,6.749407E-3,1.6301848E-2,1.3912935E-3,-4.133464E-3,3.0511927E-3,1.0962455E-2,-1.7784873E-2,-5.8667636E-3,-2.0499216E-2,1.4400574E-3,1.7402766E-2,5.191512E-3,-9.194227E-3,-1.1736385E-3,1.3139168E-2,3.320797E-2,4.5492924E-3,1.0294239E-2,3.0711575E-3,7.7747307E-3,3.150142E-3,-3.6925701E-3,1.1323916E-2,3.360957E-2,3.977076E-3,1.1310773E-2,1.569541E-2,2.5656914E-2,-1.0119155E-2,1.1355797E-2],"categories":[],"categories_nodes":[],"categories_segments":[],"categories_sizes":[],"default_left":[0,0,0,0,0,0,0,0,0,0,0,0,0,0,0,0,0,0,0,0,0,0,0,0,0,0,0,0,0,0,0,0,0,0,0,0,0,0,0,0,0,0,0,0,0,0,0,0,0,0,0,0,0,0,0,0,0,0,0,0,0,0,0],"id":20,"left_children":[1,3,5,7,9,11,13,15,17,19,21,23,25,27,29,31,33,35,37,39,41,43,45,47,49,51,53,55,57,59,61,-1,-1,-1,-1,-1,-1,-1,-1,-1,-1,-1,-1,-1,-1,-1,-1,-1,-1,-1,-1,-1,-1,-1,-1,-1,-1,-1,-1,-1,-1,-1,-1],"loss_changes":[6.591163E2,4.048108E2,5.5004456E1,1.1342816E2,2.5523706E2,5.1773254E1,4.1965607E1,3.247641E1,1.3752463E2,1.3310382E2,9.741816E1,2.1548798E1,1.5481796E1,1.5414997E1,1.7592438E1,2.0067364E1,1.7686676E1,6.4984726E1,2.2948227E1,1.133869E2,2.2236938E1,1.0819393E1,1.1541817E2,1.9839218E1,1.58629E1,1.1008057E1,9.442614E0,1.5358044E1,8.867113E0,1.7544739E1,6.7060623E0,0E0,0E0,0E0,0E0,0E0,0E0,0E0,0E0,0E0,0E0,0E0,0E0,0E0,0E0,0E0,0E0,0E0,0E0,0E0,0E0,0E0,0E0,0E0,0E0,0E0,0E0,0E0,0E0,0E0,0E0,0E0,0E0],"parents":[2147483647,0,0,1,1,2,2,3,3,4,4,5,5,6,6,7,7,8,8,9,9,10,10,11,11,12,12,13,13,14,14,15,15,16,16,17,17,18,18,19,19,20,20,21,21,22,22,23,23,24,24,25,25,26,26,27,27,28,28,29,29,30,30],"right_children":[2,4,6,8,10,12,14,16,18,20,22,24,26,28,30,32,34,36,38,40,42,44,46,48,50,52,54,56,58,60,62,-1,-1,-1,-1,-1,-1,-1,-1,-1,-1,-1,-1,-1,-1,-1,-1,-1,-1,-1,-1,-1,-1,-1,-1,-1,-1,-1,-1,-1,-1,-1,-1],"split_conditions":[9.629033E-2,2.367692E1,2.0502093E-1,2.4353E0,1.0705948E0,2.6868448E1,2.423E1,7.215743E-3,5.69809E-1,5.3640026E1,4.749054E1,4.4822197E0,2.9515429E1,1.5412487E-1,1.2875536E-2,1.2504349E0,5.8881445E-3,1.3246875E1,3.785715E-3,4.429354E-1,1.2993447E-2,5.1142243E-3,1.8275872E0,3.0424282E-2,1.934E1,2.159E1,-2.222694E-2,1.9936E0,4.3567657E-3,1.3144611E0,-7.093861E-2,9.918118E-3,-3.462302E-3,6.749407E-3,1.6301848E-2,1.3912935E-3,-4.133464E-3,3.0511927E-3,1.0962455E-2,-1.7784873E-2,-5.8667636E-3,-2.0499216E-2,1.4400574E-3,1.7402766E-2,5.191512E-3,-9.194227E-3,-1.1736385E-3,1.3139168E-2,3.320797E-2,4.5492924E-3,1.0294239E-2,3.0711575E-3,7.7747307E-3,3.150142E-3,-3.6925701E-3,1.1323916E-2,3.360957E-2,3.977076E-3,1.1310773E-2,1.569541E-2,2.5656914E-2,-1.0119155E-2,1.1355797E-2],"split_indices":[19,16,19,16,6,17,24,19,6,16,16,17,8,6,1,16,23,16,19,6,23,23,6,9,24,24,3,17,20,6,22,0,0,0,0,0,0,0,0,0,0,0,0,0,0,0,0,0,0,0,0,0,0,0,0,0,0,0,0,0,0,0,0],"split_type":[0,0,0,0,0,0,0,0,0,0,0,0,0,0,0,0,0,0,0,0,0,0,0,0,0,0,0,0,0,0,0,0,0,0,0,0,0,0,0,0,0,0,0,0,0,0,0,0,0,0,0,0,0,0,0,0,0,0,0,0,0,0,0],"sum_hessian":[2.3747864E5,1.8976395E5,4.7714684E4,8.214762E4,1.07616336E5,3.613398E4,1.1580704E4,9.170834E3,7.297679E4,4.190952E4,6.570682E4,1.8124988E4,1.8008992E4,5.742161E3,5.838543E3,2.8709734E3,6.299861E3,6.090659E4,1.2070197E4,3.4103797E4,7.805721E3,8.216084E3,5.7490734E4,4.585118E3,1.3539871E4,1.2755998E4,5.252993E3,1.00762964E3,4.7345317E3,4.56675E3,1.2717928E3,1.4842345E3,1.3867388E3,1.7015219E3,4.598339E3,4.0329016E4,2.0577574E4,3.1906658E3,8.879531E3,6.256418E3,2.7847379E4,7.4980444E3,3.0767667E2,4.933396E2,7.7227446E3,1.5854481E4,4.1636254E4,4.2449585E3,3.4015958E2,4.729781E3,8.81009E3,6.5968965E3,6.1591016E3,2.9747307E3,2.2782625E3,7.37081E2,2.7054865E2,3.1465334E3,1.5879982E3,2.4553416E3,2.1114084E3,1.00326515E2,1.1714663E3],"tree_param":{"num_deleted":"0","num_feature":"26","num_nodes":"63","size_leaf_vector":"1"}},{"base_weights":[3.0366218E-4,-2.6736416E-2,7.4214965E-2,-6.3738145E-2,5.5665556E-2,2.5380326E-2,1.3309169E-1,-1.1626373E-1,-3.1071233E-2,2.9354177E-2,1.2813997E-1,-1.9124226E-3,8.3883874E-2,1.6144212E-1,7.52474E-2,-1.0464352E-1,-3.0861878E-1,-6.278107E-2,9.540497E-3,4.7836784E-2,-4.102768E-2,6.303836E-2,1.640996E-1,-2.2869868E-2,6.851213E-2,1.6658472E-1,5.784616E-2,2.3657444E-1,1.3663279E-1,5.82175E-2,2.0789531E-1,-1.0981178E-2,-3.1435608E-3,-1.1344872E-2,-4.466842E-2,-5.765582E-3,4.4377944E-3,1.5112739E-3,-5.9495363E-3,2.5125458E-3,8.529538E-3,-5.05598E-3,1.643275E-2,6.40721E-3,-9.068451E-3,1.4189335E-2,4.787149E-3,1.6861991E-3,-3.738859E-3,2.6643162E-3,1.2094514E-2,1.0614094E-2,2.3296408E-2,7.4094664E-3,1.6197868E-3,1.5146247E-2,2.5758402E-2,7.137628E-3,1.4680307E-2,6.6335774E-3,-7.932869E-4,1.7835703E-2,-2.5382223E-2],"categories":[],"categories_nodes":[],"categories_segments":[],"categories_sizes":[],"default_left":[0,0,0,0,0,0,0,0,0,0,0,0,0,0,0,0,0,0,0,0,0,0,0,0,0,0,0,0,0,0,0,0,0,0,0,0,0,0,0,0,0,0,0,0,0,0,0,0,0,0,0,0,0,0,0,0,0,0,0,0,0,0,0],"id":21,"left_children":[1,3,5,7,9,11,13,15,17,19,21,23,25,27,29,31,33,35,37,39,41,43,45,47,49,51,53,55,57,59,61,-1,-1,-1,-1,-1,-1,-1,-1,-1,-1,-1,-1,-1,-1,-1,-1,-1,-1,-1,-1,-1,-1,-1,-1,-1,-1,-1,-1,-1,-1,-1,-1],"loss_changes":[4.6571106E2,5.2018634E2,1.7945544E2,2.0201758E2,1.00813126E2,5.4478096E1,4.6394104E1,1.0087872E2,9.348545E1,5.046039E1,3.295459E1,3.43404E1,2.3361702E1,3.5364014E1,2.10177E1,9.07561E1,1.0704054E2,4.478047E1,2.4974787E1,2.9667702E1,4.40975E1,1.5084505E1,1.253569E1,1.8807777E1,1.5526308E1,1.0941277E1,1.079216E1,1.8954803E1,3.1713287E1,1.3888704E1,8.439964E0,0E0,0E0,0E0,0E0,0E0,0E0,0E0,0E0,0E0,0E0,0E0,0E0,0E0,0E0,0E0,0E0,0E0,0E0,0E0,0E0,0E0,0E0,0E0,0E0,0E0,0E0,0E0,0E0,0E0,0E0,0E0,0E0],"parents":[2147483647,0,0,1,1,2,2,3,3,4,4,5,5,6,6,7,7,8,8,9,9,10,10,11,11,12,12,13,13,14,14,15,15,16,16,17,17,18,18,19,19,20,20,21,21,22,22,23,23,24,24,25,25,26,26,27,27,28,28,29,29,30,30],"right_children":[2,4,6,8,10,12,14,16,18,20,22,24,26,28,30,32,34,36,38,40,42,44,46,48,50,52,54,56,58,60,62,-1,-1,-1,-1,-1,-1,-1,-1,-1,-1,-1,-1,-1,-1,-1,-1,-1,-1,-1,-1,-1,-1,-1,-1,-1,-1,-1,-1,-1,-1,-1,-1],"split_conditions":[7.5807005E-2,1.1308463E-1,2.5770098E-2,1.5531043E-2,2.4050014E-1,1.683891E-1,2.523E1,5.3007092E7,4.2680807E-2,6.9607155E1,3.4821488E-2,-2.0665672E-2,2.1377577E1,1.8023142E1,2.6495984E-1,1.697E1,7.2986E1,2.637E1,3.1682451E1,1.9430457E-2,2.312E1,3.018E1,1.9237628E-2,2.1038738E1,1.2014917E-1,-4.8833672E-2,2.411E1,1.2014917E-1,6.474618E-2,2.2603193E-2,5.3367275E1,-1.0981178E-2,-3.1435608E-3,-1.1344872E-2,-4.466842E-2,-5.765582E-3,4.4377944E-3,1.5112739E-3,-5.9495363E-3,2.5125458E-3,8.529538E-3,-5.05598E-3,1.643275E-2,6.40721E-3,-9.068451E-3,1.4189335E-2,4.787149E-3,1.6861991E-3,-3.738859E-3,2.6643162E-3,1.2094514E-2,1.0614094E-2,2.3296408E-2,7.4094664E-3,1.6197868E-3,1.5146247E-2,2.5758402E-2,7.137628E-3,1.4680307E-2,6.6335774E-3,-7.932869E-4,1.7835703E-2,-2.5382223E-2],"split_indices":[19,18,18,19,18,19,24,14,18,12,2,10,8,8,19,24,16,24,8,0,24,24,23,8,19,2,24,19,18,23,8,0,0,0,0,0,0,0,0,0,0,0,0,0,0,0,0,0,0,0,0,0,0,0,0,0,0,0,0,0,0,0,0],"split_type":[0,0,0,0,0,0,0,0,0,0,0,0,0,0,0,0,0,0,0,0,0,0,0,0,0,0,0,0,0,0,0,0,0,0,0,0,0,0,0,0,0,0,0,0,0,0,0,0,0,0,0,0,0,0,0,0,0,0,0,0,0,0,0],"sum_hessian":[2.3302044E5,1.706058E5,6.2414633E4,1.17737336E5,5.2868473E4,3.4117598E4,2.8297035E4,4.5145188E4,7.259215E4,3.87881E4,1.408037E4,2.3265074E4,1.0852525E4,1.8988611E4,9.308423E3,4.257478E4,2.570407E3,4.0763363E4,3.1828781E4,3.0720953E4,8.067147E3,5.0110605E3,9.06931E3,1.7930008E4,5.3350654E3,2.597371E3,8.255154E3,4.7115796E3,1.4277031E4,8.250613E3,1.0578097E3,2.8397895E4,1.4176886E4,1.542011E3,1.028396E3,3.7794992E4,2.9683726E3,2.8638268E4,3.1905132E3,2.4011236E4,6.709717E3,7.4019346E3,6.6521246E2,4.5698457E3,4.41215E2,8.0448984E3,1.0244114E3,6.3102446E3,1.1619764E4,3.7425479E3,1.5925176E3,2.0434299E3,5.539413E2,4.288031E3,3.9671233E3,3.0355378E3,1.676042E3,7.0989697E3,7.1780615E3,6.05509E3,2.1955237E3,1.0288978E3,2.8911806E1],"tree_param":{"num_deleted":"0","num_feature":"26","num_nodes":"63","size_leaf_vector":"1"}},{"base_weights":[-1.3602495E-3,1.3731791E-1,-1.836722E-1,2.4500403E-1,5.650129E-2,-1.1055447E-1,-3.0016336E-1,2.2141278E-1,5.7364863E-1,9.888257E-2,1.1912986E-2,-7.894451E-2,-1.6533422E-1,-2.5271204E-1,-3.6645687E-1,2.4594556E-1,1.0146337E-1,2.861667E-1,8.4599036E-1,8.1491135E-2,2.0768179E-1,-5.001992E-3,7.221846E-2,-1.7824689E-1,-6.7873046E-2,-2.3212285E-1,-1.4555441E-1,-2.3047258E-1,-2.91124E-1,-3.3266774E-1,-4.090196E-1,2.6776701E-2,1.6755769E-2,1.0120699E-2,-3.1396626E-3,1.1900425E-2,3.9963473E-2,7.487628E-2,5.4747574E-2,9.407816E-3,2.8003596E-3,1.0488653E-2,3.8274355E-2,1.0830736E-3,-3.6663362E-3,-8.4209227E-4,9.080018E-3,-1.0089651E-2,-1.8009273E-2,-4.8363875E-3,-1.7817173E-2,-2.3397831E-2,-1.5893072E-2,-9.586423E-3,-1.6481891E-2,-2.3012774E-2,-1.62431E-2,-1.995491E-2,-2.583296E-2,-2.7529478E-2,-1.785115E-2,-3.184916E-2,-4.1112855E-2],"categories":[],"categories_nodes":[],"categories_segments":[],"categories_sizes":[],"default_left":[0,0,0,0,0,0,0,0,0,0,0,0,0,0,0,0,0,0,0,0,0,0,0,0,0,0,0,0,0,0,0,0,0,0,0,0,0,0,0,0,0,0,0,0,0,0,0,0,0,0,0,0,0,0,0,0,0,0,0,0,0,0,0],"id":22,"left_children":[1,3,5,7,9,11,13,15,17,19,21,23,25,27,29,31,33,35,37,39,41,43,45,47,49,51,53,55,57,59,61,-1,-1,-1,-1,-1,-1,-1,-1,-1,-1,-1,-1,-1,-1,-1,-1,-1,-1,-1,-1,-1,-1,-1,-1,-1,-1,-1,-1,-1,-1,-1,-1],"loss_changes":[5.987979E3,1.1706736E3,8.71511E2,4.470083E2,1.4521834E2,1.0884552E2,1.240293E2,1.5832275E2,3.021239E2,7.453229E1,3.8201653E1,4.3816925E1,3.035321E1,1.9581299E1,2.3533936E1,1.4465723E2,3.2210503E1,5.5055984E1,2.819226E1,5.7014435E1,1.1249684E2,2.2139582E1,2.8022625E1,9.739738E0,4.1186523E1,1.0551117E1,2.7584106E1,2.280194E1,1.1090332E1,1.1436768E1,8.121704E0,0E0,0E0,0E0,0E0,0E0,0E0,0E0,0E0,0E0,0E0,0E0,0E0,0E0,0E0,0E0,0E0,0E0,0E0,0E0,0E0,0E0,0E0,0E0,0E0,0E0,0E0,0E0,0E0,0E0,0E0,0E0,0E0],"parents":[2147483647,0,0,1,1,2,2,3,3,4,4,5,5,6,6,7,7,8,8,9,9,10,10,11,11,12,12,13,13,14,14,15,15,16,16,17,17,18,18,19,19,20,20,21,21,22,22,23,23,24,24,25,25,26,26,27,27,28,28,29,29,30,30],"right_children":[2,4,6,8,10,12,14,16,18,20,22,24,26,28,30,32,34,36,38,40,42,44,46,48,50,52,54,56,58,60,62,-1,-1,-1,-1,-1,-1,-1,-1,-1,-1,-1,-1,-1,-1,-1,-1,-1,-1,-1,-1,-1,-1,-1,-1,-1,-1,-1,-1,-1,-1,-1,-1],"split_conditions":[1.8595664E-2,1.1442514E-2,3.0802252E-2,4.3076652E7,1.4769364E-2,2.4707045E-2,4.335249E-2,1.918E1,7.61498E1,2.5767246E7,1.9890249E-2,4.586724E0,7.461421E0,3.723928E-2,5.5963874E-2,7.7084647E-3,2.637E1,2.9283463E1,8.4715E-3,1.687E1,4.6141106E1,1.100355E0,9.806376E-3,1.513E1,1.644552E-1,8.872563E6,1.0863283E0,9.046975E0,7.002713E-2,3.857E1,7.290353E-1,2.6776701E-2,1.6755769E-2,1.0120699E-2,-3.1396626E-3,1.1900425E-2,3.9963473E-2,7.487628E-2,5.4747574E-2,9.407816E-3,2.8003596E-3,1.0488653E-2,3.8274355E-2,1.0830736E-3,-3.6663362E-3,-8.4209227E-4,9.080018E-3,-1.0089651E-2,-1.8009273E-2,-4.8363875E-3,-1.7817173E-2,-2.3397831E-2,-1.5893072E-2,-9.586423E-3,-1.6481891E-2,-2.3012774E-2,-1.62431E-2,-1.995491E-2,-2.583296E-2,-2.7529478E-2,-1.785115E-2,-3.184916E-2,-4.1112855E-2],"split_indices":[7,7,7,14,7,7,7,24,17,14,22,16,16,7,7,7,24,16,7,24,16,15,11,24,19,14,15,16,19,24,18,0,0,0,0,0,0,0,0,0,0,0,0,0,0,0,0,0,0,0,0,0,0,0,0,0,0,0,0,0,0,0,0],"split_type":[0,0,0,0,0,0,0,0,0,0,0,0,0,0,0,0,0,0,0,0,0,0,0,0,0,0,0,0,0,0,0,0,0,0,0,0,0,0,0,0,0,0,0,0,0,0,0,0,0,0,0,0,0,0,0,0,0,0,0,0,0,0,0],"sum_hessian":[2.3683908E5,1.3451705E5,1.0232204E5,5.7670508E4,7.684654E4,6.2865402E4,3.9456633E4,5.3809543E4,3.860964E3,3.939771E4,3.744883E4,3.9864527E4,2.3000879E4,2.2999176E4,1.6457459E4,4.467192E4,9.137623E3,1.8792708E3,1.9816934E3,3.3969477E4,5.428234E3,2.9246457E4,8.20237E3,3.9972456E3,3.586728E4,5.252962E3,1.7747916E4,1.4570341E4,8.428835E3,9.17921E3,7.2782485E3,1.3014011E4,3.165791E4,7.757021E3,1.3806017E3,1.1441515E3,7.351192E2,1.2700582E3,7.116351E2,1.9118469E4,1.4851009E4,4.232633E3,1.1956008E3,2.0113297E4,9.133161E3,2.7303794E3,5.4719907E3,1.8942319E3,2.1030137E3,3.4228824E4,1.6384553E3,1.8708357E3,3.3821262E3,1.24532E4,5.294716E3,4.720579E3,9.849762E3,3.650425E3,4.77841E3,8.308455E3,8.707552E2,6.597165E3,6.810835E2],"tree_param":{"num_deleted":"0","num_feature":"26","num_nodes":"63","size_leaf_vector":"1"}},{"base_weights":[8.3134964E-4,-8.0552906E-2,8.561446E-2,-1.9384596E-1,-4.815691E-2,5.0157517E-2,1.20352544E-1,-1.6882864E-1,-4.2950016E-1,-8.754853E-2,-2.4673037E-2,1.0702527E-1,3.3955712E-2,2.1367633E-1,1.086985E-1,-3.264114E-1,-1.5949172E-1,-2.2592506E-1,-5.794657E-1,-7.167082E-2,-1.5800479E-1,3.582848E-3,-4.5193635E-2,9.647325E-2,2.4236763E-1,2.0950535E-2,1.0181199E-1,2.478091E-1,1.4732108E-1,1.4580378E-1,8.454637E-2,-2.9842267E-2,-2.793303E-3,-1.5546732E-2,-1.0193107E-2,-1.3748894E-2,-3.5099946E-2,-3.631032E-2,-5.131387E-2,-2.601617E-3,-7.4060694E-3,-1.1241025E-2,-4.0287074E-2,-1.548713E-3,2.7330054E-3,-3.2310684E-3,-2.1108415E-2,2.0705346E-2,7.1291584E-3,1.1461804E-2,3.0204156E-2,2.9038351E-3,-2.5225163E-3,1.10383695E-2,3.9187428E-3,2.1528443E-2,9.69023E-3,3.979428E-3,1.8539885E-2,1.3839519E-2,9.032246E-3,-9.2295854E-4,7.5900033E-3],"categories":[],"categories_nodes":[],"categories_segments":[],"categories_sizes":[],"default_left":[0,0,0,0,0,0,0,0,0,0,0,0,0,0,0,0,0,0,0,0,0,0,0,0,0,0,0,0,0,0,0,0,0,0,0,0,0,0,0,0,0,0,0,0,0,0,0,0,0,0,0,0,0,0,0,0,0,0,0,0,0,0,0],"id":23,"left_children":[1,3,5,7,9,11,13,15,17,19,21,23,25,27,29,31,33,35,37,39,41,43,45,47,49,51,53,55,57,59,61,-1,-1,-1,-1,-1,-1,-1,-1,-1,-1,-1,-1,-1,-1,-1,-1,-1,-1,-1,-1,-1,-1,-1,-1,-1,-1,-1,-1,-1,-1,-1,-1],"loss_changes":[1.6371046E3,4.4429944E2,1.4312329E2,1.5862329E2,8.7083466E1,5.298262E1,6.381488E1,3.575531E1,7.871945E1,3.9322296E1,3.4198463E1,1.8186813E1,3.9496666E1,1.4719513E1,4.675183E1,1.847226E1,2.565625E1,1.2549179E1,1.1276001E1,2.3483124E1,3.9013184E1,1.7409172E1,3.5889458E1,1.4110146E1,1.229142E1,3.0255358E1,1.374691E1,1.1569916E1,1.8239983E1,1.8384308E1,3.1371887E1,0E0,0E0,0E0,0E0,0E0,0E0,0E0,0E0,0E0,0E0,0E0,0E0,0E0,0E0,0E0,0E0,0E0,0E0,0E0,0E0,0E0,0E0,0E0,0E0,0E0,0E0,0E0,0E0,0E0,0E0,0E0,0E0],"parents":[2147483647,0,0,1,1,2,2,3,3,4,4,5,5,6,6,7,7,8,8,9,9,10,10,11,11,12,12,13,13,14,14,15,15,16,16,17,17,18,18,19,19,20,20,21,21,22,22,23,23,24,24,25,25,26,26,27,27,28,28,29,29,30,30],"right_children":[2,4,6,8,10,12,14,16,18,20,22,24,26,28,30,32,34,36,38,40,42,44,46,48,50,52,54,56,58,60,62,-1,-1,-1,-1,-1,-1,-1,-1,-1,-1,-1,-1,-1,-1,-1,-1,-1,-1,-1,-1,-1,-1,-1,-1,-1,-1,-1,-1,-1,-1,-1,-1],"split_conditions":[1.8046638E-2,9.219305E-3,2.7186569E-2,3.2292946E7,1.238973E-2,9.6505E0,-3.500823E-2,4.5089587E-3,6.658621E1,1.6645913E7,2.5649994E1,3.3148067E8,1.181545E-1,-3.0339502E-2,1.0183338E1,1.01675475E-2,1.393E1,3.454465E-2,4.656655E7,