{"learner":{"attributes":{"scikit_learn":"{\"_estimator_type\": \"classifier\"}"},"feature_names":["returns_1d","returns_3d","returns_5d","returns_7d","returns_10d","returns_14d","ATR","rolling_vol_30","ADX","MACD","MACD_signal","MACD_hist","RSI","volume_change","volume_sma_30","volume_ratio","Support_30","Resistance_30","Dist_to_Support_30","Dist_to_Resistance_30"],"feature_types":["float","float","float","float","float","float","float","float","float","float","float","float","float","float","float","float","float","float","float","float"],"gradient_booster":{"model":{"cats":{"enc":[],"feature_segments":[],"sorted_idx":[]},"gbtree_model_param":{"num_parallel_tree":"1","num_trees":"100"},"iteration_indptr":[0,1,2,3,4,5,6,7,8,9,10,11,12,13,14,15,16,17,18,19,20,21,22,23,24,25,26,27,28,29,30,31,32,33,34,35,36,37,38,39,40,41,42,43,44,45,46,47,48,49,50,51,52,53,54,55,56,57,58,59,60,61,62,63,64,65,66,67,68,69,70,71,72,73,74,75,76,77,78,79,80,81,82,83,84,85,86,87,88,89,90,91,92,93,94,95,96,97,98,99,100],"tree_info":[0,0,0,0,0,0,0,0,0,0,0,0,0,0,0,0,0,0,0,0,0,0,0,0,0,0,0,0,0,0,0,0,0,0,0,0,0,0,0,0,0,0,0,0,0,0,0,0,0,0,0,0,0,0,0,0,0,0,0,0,0,0,0,0,0,0,0,0,0,0,0,0,0,0,0,0,0,0,0,0,0,0,0,0,0,0,0,0,0,0,0,0,0,0,0,0,0,0,0,0],"trees":[{"base_weights":[-7.919389E-8,3.2211003E-1,-2.35005E-1,-1.6588521E-1,5.3078175E-1,-1.3795857E-1,-1.0000471E0,3.0423853E-1,-7.752528E-1,4.743214E-1,2.0311697E-1,1.904436E-1,-3.6516193E-1,-9.560855E-2,-1.1685563E0,7.488342E-1,-3.8216573E-1,-1.0559311E0,3.4057337E-1,5.727073E-1,-2.8619087E-1,-1.2470241E-1,2.4272378E-1,-5.5340594E-1,1.8274651E-1,-8.5096633E-1,8.382918E-1,1.0258704E-2,-1.2378854E0,1.939777E-1,3.4810606E-2,1.3319167E-2,-1.2672989E-1,-1.1824777E-1,2.8234094E-2,1.4745735E-1,-9.674032E-2,6.360402E-2,-2.0729925E-2,-5.8342107E-2,4.5493953E-2,-2.1012066E-2,4.1891225E-2,-2.1821352E-2,-9.348402E-2,1.1148571E-1,-2.6447928E-2,-1.8710981E-3,-1.0761026E-1,1.6777584E-1,-5.917827E-2,-1.3125838E-1,-2.4188687E-3],"categories":[],"categories_nodes":[],"categories_segments":[],"categories_sizes":[],"default_left":[0,0,0,0,0,0,0,0,0,0,0,0,0,0,0,0,0,0,0,0,0,0,0,0,0,0,0,0,0,0,0,0,0,0,0,0,0,0,0,0,0,0,0,0,0,0,0,0,0,0,0,0,0],"id":0,"left_children":[1,3,5,7,9,11,13,15,17,19,-1,21,23,25,27,29,31,33,35,37,39,-1,41,43,45,47,49,-1,51,-1,-1,-1,-1,-1,-1,-1,-1,-1,-1,-1,-1,-1,-1,-1,-1,-1,-1,-1,-1,-1,-1,-1,-1],"loss_changes":[6.0353226E1,3.4335663E1,3.4087044E1,2.9313122E1,1.9013443E1,3.0679493E1,7.7726593E0,1.799041E1,1.42918415E1,1.7266518E1,0E0,1.2959464E1,2.5146301E1,7.2130837E0,3.9621887E0,1.628913E1,1.0873649E1,6.394722E0,1.5809585E1,1.014637E1,6.1800013E0,0E0,1.3120627E1,2.293504E1,2.64929E1,1.0272875E0,6.543693E0,0E0,3.716587E0,0E0,0E0,0E0,0E0,0E0,0E0,0E0,0E0,0E0,0E0,0E0,0E0,0E0,0E0,0E0,0E0,0E0,0E0,0E0,0E0,0E0,0E0,0E0,0E0],"parents":[2147483647,0,0,1,1,2,2,3,3,4,4,5,5,6,6,7,7,8,8,9,9,11,11,12,12,13,13,14,14,15,15,16,16,17,17,18,18,19,19,20,20,22,22,23,23,24,24,25,25,26,26,28,28],"right_children":[2,4,6,8,10,12,14,16,18,20,-1,22,24,26,28,30,32,34,36,38,40,-1,42,44,46,48,50,-1,52,-1,-1,-1,-1,-1,-1,-1,-1,-1,-1,-1,-1,-1,-1,-1,-1,-1,-1,-1,-1,-1,-1,-1,-1],"split_conditions":[2.4420943E-2,1.5364371E1,7.0419075E1,1.1624036E-2,3.777455E1,2.16624E7,1.4642105E-1,2.1485902E-2,1.33822905E-2,5.1709216E-2,2.0311697E-1,1.0899388E1,2.4675837E-2,3.2897282E-1,-3.6234101E-3,2.5435581E0,-3.6234101E-3,2.745941E-2,1.9407244E-2,4.5179176E1,7.693164E-2,-1.2470241E-1,2.6517963E0,1.8838324E-1,1.645194E1,4.9621984E-4,1.3149062E-2,1.0258704E-2,8.433178E-3,1.939777E-1,3.4810606E-2,1.3319167E-2,-1.2672989E-1,-1.1824777E-1,2.8234094E-2,1.4745735E-1,-9.674032E-2,6.360402E-2,-2.0729925E-2,-5.8342107E-2,4.5493953E-2,-2.1012066E-2,4.1891225E-2,-2.1821352E-2,-9.348402E-2,1.1148571E-1,-2.6447928E-2,-1.8710981E-3,-1.0761026E-1,1.6777584E-1,-5.917827E-2,-1.3125838E-1,-2.4188687E-3],"split_indices":[10,8,12,3,8,14,18,7,10,1,0,8,7,6,11,17,11,7,19,16,5,0,16,10,8,0,7,0,19,0,0,0,0,0,0,0,0,0,0,0,0,0,0,0,0,0,0,0,0,0,0,0,0],"split_type":[0,0,0,0,0,0,0,0,0,0,0,0,0,0,0,0,0,0,0,0,0,0,0,0,0,0,0,0,0,0,0,0,0,0,0,0,0,0,0,0,0,0,0,0,0,0,0,0,0,0,0,0,0],"sum_hessian":[7.952952E2,3.3531888E2,4.5997635E2,1.0049903E2,2.3481985E2,4.0924365E2,5.0732685E1,5.7013874E1,4.3485157E1,2.2757233E2,7.247526E0,1.6741786E2,2.4182579E2,8.213863E0,4.251882E1,3.4546543E1,2.246733E1,3.4788128E1,8.697032E0,2.0172282E2,2.584951E1,5.0732684E0,1.6234459E2,1.7998024E2,6.184556E1,4.5901E0,3.623763E0,2.174258E0,4.0344563E1,7.730695E0,2.6815847E1,1.4736637E1,7.730695E0,3.1889116E1,2.8990107E0,4.5901E0,4.1069317E0,1.867446E2,1.4978221E1,1.8601984E1,7.247526E0,4.541783E1,1.1692676E2,9.663368E1,8.334655E1,1.9568321E1,4.2277237E1,1.207921E0,3.382179E0,2.174258E0,1.4495053E0,3.7928722E1,2.415842E0],"tree_param":{"num_deleted":"0","num_feature":"20","num_nodes":"53","size_leaf_vector":"1"}},{"base_weights":[-4.3111198E-4,3.725319E-1,-1.6870047E-1,-9.407297E-2,6.0717183E-1,-9.179799E-2,-8.8509864E-1,2.0667145E-1,-5.875219E-1,1.0091214E0,2.7965003E-1,1.23112656E-1,-2.9604515E-1,-7.532174E-2,-1.1016146E0,5.428087E-1,-4.2075014E-1,-9.12288E-1,4.587404E-1,1.3044957E0,2.1348095E-1,-1.3935456E-1,4.3503055E-1,-6.328949E-1,2.0785922E-1,-7.756494E-1,-5.3026594E-2,-1.1138234E-1,2.534858E-1,-1.167193E0,-2.2485368E-2,1.0419674E-1,-1.601324E-2,6.540361E-2,-7.141479E-2,-1.1035774E-1,7.347741E-2,1.7003608E-1,-3.538893E-2,1.01072624E-1,1.9082743E-1,1.0689863E-1,-5.0553806E-2,6.961111E-2,-4.150796E-2,4.4749033E-2,-1.19477384E-1,-1.0566819E-1,2.5925031E-2,2.917485E-3,-1.01755776E-1,-6.666452E-2,2.1913635E-2,-5.096059E-2,1.02828465E-1,-9.738383E-3,-1.21989466E-1,-4.704172E-2,4.356329E-2],"categories":[],"categories_nodes":[],"categories_segments":[],"categories_sizes":[],"default_left":[0,0,0,0,0,0,0,0,0,0,0,0,0,0,0,0,0,0,0,0,0,0,0,0,0,0,0,0,0,0,0,0,0,0,0,0,0,0,0,0,0,0,0,0,0,0,0,0,0,0,0,0,0,0,0,0,0,0,0],"id":1,"left_children":[1,3,5,7,9,11,13,15,17,19,21,23,25,27,29,31,33,35,37,39,41,-1,43,45,47,49,51,-1,53,55,57,-1,-1,-1,-1,-1,-1,-1,-1,-1,-1,-1,-1,-1,-1,-1,-1,-1,-1,-1,-1,-1,-1,-1,-1,-1,-1,-1,-1],"loss_changes":[4.9976086E1,2.7163067E1,3.0150745E1,1.2543697E1,2.142273E1,2.1837597E1,9.223476E0,1.1353061E1,1.1277628E1,1.702816E1,2.4584425E1,1.5682531E1,2.9673405E1,4.472677E0,2.9324226E0,1.2371814E1,6.4473987E0,8.600142E0,8.911286E0,7.562187E0,1.3539797E1,0E0,1.9188896E1,1.55366955E1,1.4506495E1,1.6708076E1,2.8583595E1,0E0,6.516347E0,2.102234E0,9.05659E-1,0E0,0E0,0E0,0E0,0E0,0E0,0E0,0E0,0E0,0E0,0E0,0E0,0E0,0E0,0E0,0E0,0E0,0E0,0E0,0E0,0E0,0E0,0E0,0E0,0E0,0E0,0E0,0E0],"parents":[2147483647,0,0,1,1,2,2,3,3,4,4,5,5,6,6,7,7,8,8,9,9,10,10,11,11,12,12,13,13,14,14,15,15,16,16,17,17,18,18,19,19,20,20,22,22,23,23,24,24,25,25,26,26,28,28,29,29,30,30],"right_children":[2,4,6,8,10,12,14,16,18,20,22,24,26,28,30,32,34,36,38,40,42,-1,44,46,48,50,52,-1,54,56,58,-1,-1,-1,-1,-1,-1,-1,-1,-1,-1,-1,-1,-1,-1,-1,-1,-1,-1,-1,-1,-1,-1,-1,-1,-1,-1,-1,-1],"split_conditions":[-5.1043495E-3,1.808977E1,7.0419075E1,2.1583665E-2,9.174289E0,2.29247E7,1.5378694E-1,9.521046E-3,2.7743334E7,2.7193284E-2,1.1065801E1,1.1941119E1,-1.0175328E-2,1.1275848E-2,8.433178E-3,-1.0327276E-2,1.2470193E1,2.0591733E0,3.72295E7,2.7690566E7,7.5026564E-2,-1.3935456E-1,8.1739396E-2,1.3209767E7,1.1814063E0,1.6755327E1,1.8857287E-2,-1.1138234E-1,2.7194738E1,-3.9530667E-3,-2.2703197E-3,1.0419674E-1,-1.601324E-2,6.540361E-2,-7.141479E-2,-1.1035774E-1,7.347741E-2,1.7003608E-1,-3.538893E-2,1.01072624E-1,1.9082743E-1,1.0689863E-1,-5.0553806E-2,6.961111E-2,-4.150796E-2,4.4749033E-2,-1.19477384E-1,-1.0566819E-1,2.5925031E-2,2.917485E-3,-1.01755776E-1,-6.666452E-2,2.1913635E-2,-5.096059E-2,1.02828465E-1,-9.738383E-3,-1.21989466E-1,-4.704172E-2,4.356329E-2],"split_indices":[9,8,12,7,16,14,18,2,14,1,17,8,11,7,19,10,8,6,14,14,19,0,18,14,16,8,7,0,8,11,1,0,0,0,0,0,0,0,0,0,0,0,0,0,0,0,0,0,0,0,0,0,0,0,0,0,0,0,0],"split_type":[0,0,0,0,0,0,0,0,0,0,0,0,0,0,0,0,0,0,0,0,0,0,0,0,0,0,0,0,0,0,0,0,0,0,0,0,0,0,0,0,0,0,0,0,0,0,0,0,0,0,0,0,0,0,0,0,0,0,0],"sum_hessian":[7.943256E2,2.4657875E2,5.477469E2,8.270691E1,1.6387184E2,4.9566714E2,5.2079746E1,5.1748627E1,3.0958284E1,7.264164E1,9.12302E1,2.4172218E2,2.5394495E2,1.1271572E1,4.080817E1,3.3783943E1,1.7964682E1,2.3722675E1,7.2356105E0,5.250871E1,2.013293E1,7.07503E0,8.4155174E1,2.3713205E1,2.1800897E2,8.466478E1,1.6928017E2,2.1364312E0,9.135141E0,3.8393406E1,2.4147668E0,1.9473505E1,1.4310438E1,3.588815E0,1.4375868E1,2.1549852E1,2.1728218E0,2.4301527E0,4.8054576E0,3.7121284E1,1.53874235E1,8.971594E0,1.1161337E1,6.452103E1,1.9634146E1,8.182812E0,1.5530394E1,7.7499647E0,2.10259E2,1.9769947E1,6.489484E1,5.1567238E1,1.1771293E2,4.7747808E0,4.3603606E0,1.9362656E0,3.6457138E1,1.2073834E0,1.2073834E0],"tree_param":{"num_deleted":"0","num_feature":"20","num_nodes":"59","size_leaf_vector":"1"}},{"base_weights":[-9.865252E-4,1.39722E-1,-3.863615E-1,9.846442E-2,1.2780794E0,-7.842509E-1,-1.4044982E-1,1.5430477E-1,-5.472292E-1,-3.2168582E-2,1.4933008E0,-1.1039265E0,-4.4726467E-1,1.4707029E-1,-6.0993284E-1,7.594105E-2,6.874891E-1,1.6582064E-1,-8.402019E-1,1.6397913E0,3.0853365E-2,8.445361E-2,-1.1852981E0,5.791092E-1,-6.881508E-1,1.4299562E0,-8.775533E-2,-9.3482184E-1,8.960696E-1,1.3586089E-1,4.2518876E-3,1.0180489E-1,1.938098E-2,7.31387E-2,-8.231497E-2,1.0705624E-2,-9.5402285E-2,6.0869195E-2,1.7636403E-1,-1.3028707E-1,-1.6521664E-2,-8.629755E-2,9.34078E-2,4.3767072E-2,-9.463496E-2,1.8755674E-1,-1.0105282E-1,8.6490735E-2,-3.790828E-2,-4.547915E-2,-1.344831E-1,-4.0838057E-3,1.6342738E-1],"categories":[],"categories_nodes":[],"categories_segments":[],"categories_sizes":[],"default_left":[0,0,0,0,0,0,0,0,0,0,0,0,0,0,0,0,0,0,0,0,0,0,0,0,0,0,0,0,0,0,0,0,0,0,0,0,0,0,0,0,0,0,0,0,0,0,0,0,0,0,0,0,0],"id":2,"left_children":[1,3,5,7,9,11,13,15,17,-1,19,21,23,25,27,29,31,33,35,37,-1,-1,39,41,43,45,47,49,51,-1,-1,-1,-1,-1,-1,-1,-1,-1,-1,-1,-1,-1,-1,-1,-1,-1,-1,-1,-1,-1,-1,-1,-1],"loss_changes":[4.3075066E1,2.7203993E1,2.0678576E1,2.0370825E1,7.4590797E0,8.225246E0,1.7979094E1,2.1617552E1,9.540981E0,0E0,2.625515E0,7.4783897E0,1.0555744E1,2.5128925E1,2.556126E1,1.9375044E1,1.0627712E1,8.399846E0,3.559124E0,9.474335E-1,0E0,0E0,4.5379868E0,5.081525E0,1.0219141E1,1.59236355E1,2.0060238E1,7.6651382E0,6.6213713E0,0E0,0E0,0E0,0E0,0E0,0E0,0E0,0E0,0E0,0E0,0E0,0E0,0E0,0E0,0E0,0E0,0E0,0E0,0E0,0E0,0E0,0E0,0E0,0E0],"parents":[2147483647,0,0,1,1,2,2,3,3,4,4,5,5,6,6,7,7,8,8,10,10,11,11,12,12,13,13,14,14,15,15,16,16,17,17,18,18,19,19,22,22,23,23,24,24,25,25,26,26,27,27,28,28],"right_children":[2,4,6,8,10,12,14,16,18,-1,20,22,24,26,28,30,32,34,36,38,-1,-1,40,42,44,46,48,50,52,-1,-1,-1,-1,-1,-1,-1,-1,-1,-1,-1,-1,-1,-1,-1,-1,-1,-1,-1,-1,-1,-1,-1,-1],"split_conditions":[1.9907546E-1,1.8039972E-1,5.000418E-1,6.741914E1,2.22029E7,2.0113777E-2,3.85951E1,1.048157E-1,1.6146165E-1,-3.2168582E-2,4.450549E-2,1.9927866E7,1.1169338E-3,1.70572E7,1.319218E0,4.0700346E-2,1.9328144E1,1.7125767E-2,2.1401241E-2,-5.7675246E-2,3.0853365E-2,8.445361E-2,6.407632E-2,-3.9757725E-2,1.3566508E-2,3.266508E-2,1.6853678E1,1.5560833E-2,1.7962229E1,1.3586089E-1,4.2518876E-3,1.0180489E-1,1.938098E-2,7.31387E-2,-8.231497E-2,1.0705624E-2,-9.5402285E-2,6.0869195E-2,1.7636403E-1,-1.3028707E-1,-1.6521664E-2,-8.629755E-2,9.34078E-2,4.3767072E-2,-9.463496E-2,1.8755674E-1,-1.0105282E-1,8.6490735E-2,-3.790828E-2,-4.547915E-2,-1.344831E-1,-4.0838057E-3,1.6342738E-1],"split_indices":[10,19,6,12,14,4,16,9,18,0,0,14,11,14,15,6,8,7,3,0,0,0,5,11,3,1,8,7,8,0,0,0,0,0,0,0,0,0,0,0,0,0,0,0,0,0,0,0,0,0,0,0,0],"split_type":[0,0,0,0,0,0,0,0,0,0,0,0,0,0,0,0,0,0,0,0,0,0,0,0,0,0,0,0,0,0,0,0,0,0,0,0,0,0,0,0,0,0,0,0,0,0,0,0,0,0,0,0,0],"sum_hessian":[7.923729E2,5.8090845E2,2.1146448E2,5.616394E2,1.9269043E1,7.993656E1,1.3152792E2,5.1763477E2,4.4004642E1,2.2262676E0,1.7042776E1,3.9853966E1,4.0082596E1,8.199773E1,4.953019E1,4.5230112E2,6.533364E1,1.2941375E1,3.1063267E1,1.48256035E1,2.217173E0,1.2216812E0,3.8632286E1,7.3521757E0,3.273042E1,1.1899519E1,7.009821E1,4.10531E1,8.477091E0,1.0479297E1,4.418218E2,3.84955E1,2.6838146E1,8.398785E0,4.5425897E0,3.3385012E0,2.7724766E1,2.2240624E0,1.2601541E1,3.43912E1,4.241084E0,1.1695737E0,6.182602E0,5.9764166E0,2.6754004E1,1.0257978E1,1.6415402E0,1.5955071E1,5.414314E1,1.9883326E1,2.1169773E1,4.152075E0,4.325016E0],"tree_param":{"num_deleted":"0","num_feature":"20","num_nodes":"53","size_leaf_vector":"1"}},{"base_weights":[-7.600803E-4,2.4131817E-1,-1.964567E-1,-1.136591E-1,4.0536022E-1,-1.2108259E-1,-8.1917727E-1,2.3628096E-1,-5.638544E-1,3.5764128E-1,1.6814864E-1,9.009005E-2,-3.334847E-1,-4.798853E-1,-1.2083789E0,5.8689356E-1,-3.0918986E-1,-8.224028E-1,5.4372555E-1,5.650653E-1,6.4282246E-2,-9.0839463E-1,1.5635543E-1,-7.470087E-1,-9.4970554E-2,-6.576713E-1,1.0719156E-1,-1.6686393E-2,-1.2754941E0,1.6870984E-1,2.1959733E-2,-4.9444746E-2,1.4406E-1,-1.107619E-2,-1.0489658E-1,1.5381879E-1,-6.159092E-2,3.2091126E-2,9.562319E-2,5.2178647E-2,-2.0450665E-2,6.674311E-2,-1.2544715E-1,-1.3154483E-1,1.9449184E-2,-8.273611E-2,8.859293E-2,-5.7300087E-2,1.9821486E-2,7.091692E-2,-7.902092E-2,-1.3608617E-1,-4.678899E-2],"categories":[],"categories_nodes":[],"categories_segments":[],"categories_sizes":[],"default_left":[0,0,0,0,0,0,0,0,0,0,0,0,0,0,0,0,0,0,0,0,0,0,0,0,0,0,0,0,0,0,0,0,0,0,0,0,0,0,0,0,0,0,0,0,0,0,0,0,0,0,0,0,0],"id":3,"left_children":[1,3,5,7,9,11,13,15,17,19,-1,21,23,25,27,29,31,33,35,37,39,41,43,45,47,49,-1,-1,51,-1,-1,-1,-1,-1,-1,-1,-1,-1,-1,-1,-1,-1,-1,-1,-1,-1,-1,-1,-1,-1,-1,-1,-1],"loss_changes":[3.7541336E1,2.0674234E1,2.046866E1,1.7895155E1,1.4165848E1,1.761538E1,5.645048E0,1.2448225E1,1.4651983E1,1.4265207E1,0E0,1.3202135E1,1.922868E1,8.110739E0,1.2758064E0,1.5546661E1,9.05988E0,6.432125E0,1.246788E1,1.2830086E1,1.2216728E1,7.6167946E0,1.0693406E1,1.0105568E1,1.7666542E1,5.035693E0,0E0,0E0,7.322426E-1,0E0,0E0,0E0,0E0,0E0,0E0,0E0,0E0,0E0,0E0,0E0,0E0,0E0,0E0,0E0,0E0,0E0,0E0,0E0,0E0,0E0,0E0,0E0,0E0],"parents":[2147483647,0,0,1,1,2,2,3,3,4,4,5,5,6,6,7,7,8,8,9,9,11,11,12,12,13,13,14,14,15,15,16,16,17,17,18,18,19,19,20,20,21,21,22,22,23,23,24,24,25,25,28,28],"right_children":[2,4,6,8,10,12,14,16,18,20,-1,22,24,26,28,30,32,34,36,38,40,42,44,46,48,50,-1,-1,52,-1,-1,-1,-1,-1,-1,-1,-1,-1,-1,-1,-1,-1,-1,-1,-1,-1,-1,-1,-1,-1,-1,-1,-1],"split_conditions":[2.9541807E-2,1.5559727E1,7.0419075E1,1.1624036E-2,3.777455E1,2.3538434E7,2.0064136E-1,2.1485902E-2,1.6132552E-2,6.747758E-2,1.6814864E-1,1.1484731E1,1.8925177E-2,2.5136495E-1,4.2295645E-4,2.5435581E0,3.0232415E-2,-2.0209653E-3,1.0991365E-2,-9.896881E-3,2.51524E7,-1.4093073E-2,4.1045668E6,6.889135E1,-1.0175328E-2,-8.967091E-4,1.0719156E-1,-1.6686393E-2,8.000755E1,1.6870984E-1,2.1959733E-2,-4.9444746E-2,1.4406E-1,-1.107619E-2,-1.0489658E-1,1.5381879E-1,-6.159092E-2,3.2091126E-2,9.562319E-2,5.2178647E-2,-2.0450665E-2,6.674311E-2,-1.2544715E-1,-1.3154483E-1,1.9449184E-2,-8.273611E-2,8.859293E-2,-5.7300087E-2,1.9821486E-2,7.091692E-2,-7.902092E-2,-1.3608617E-1,-4.678899E-2],"split_indices":[10,8,12,3,8,14,18,7,10,18,0,8,7,11,2,17,7,4,19,11,14,0,14,12,11,11,0,0,12,0,0,0,0,0,0,0,0,0,0,0,0,0,0,0,0,0,0,0,0,0,0,0,0],"split_type":[0,0,0,0,0,0,0,0,0,0,0,0,0,0,0,0,0,0,0,0,0,0,0,0,0,0,0,0,0,0,0,0,0,0,0,0,0,0,0,0,0,0,0,0,0,0,0,0,0,0,0,0,0],"sum_hessian":[7.90447E2,3.532459E2,4.3720108E2,1.1174454E2,2.4150139E2,3.9106143E2,4.6139645E1,6.314029E1,4.8604248E1,2.3403041E2,7.4709797E0,1.9638702E2,1.9467441E2,2.5843346E1,2.0296299E1,3.8389015E1,2.4751272E1,3.9614334E1,8.989911E0,1.365526E2,9.747781E1,1.1431349E1,1.8495567E2,7.0431625E1,1.24242775E2,2.3703842E1,2.139502E0,1.4397669E0,1.8856533E1,8.708914E0,2.9680103E1,2.3030375E1,1.7208978E0,9.925847E0,2.9688488E1,4.663885E0,4.326026E0,8.519617E1,5.135643E1,3.5726562E1,6.1751255E1,1.8912361E0,9.540113E0,3.8254712E0,1.811302E2,6.759861E1,2.8330138E0,4.6869316E1,7.737346E1,1.710726E0,2.1993116E1,1.643429E1,2.4222422E0],"tree_param":{"num_deleted":"0","num_feature":"20","num_nodes":"53","size_leaf_vector":"1"}},{"base_weights":[-6.950502E-4,2.9711175E-1,-1.3748711E-1,-8.4649436E-2,4.8536974E-1,-7.767803E-2,-7.2859675E-1,1.0105757E0,-2.1046685E-1,8.2653385E-1,2.0506957E-1,-3.157428E-1,3.5608236E-2,-3.705687E-1,-1.1673504E0,1.5970888E0,-4.107053E-2,1.03346124E-1,-5.379027E-1,-4.8117626E-1,9.516743E-1,-1.3410315E-1,3.4644037E-1,-1.0724614E0,-2.0455158E-1,4.9902597E-1,-1.5587377E-2,6.3873446E-1,-5.451643E-1,-1.5734443E-2,-1.2307507E0,4.369261E-2,1.8144245E-1,8.806013E-2,-7.326135E-2,4.5750484E-2,-3.9909754E-2,-6.940727E-2,1.7755007E-2,8.788076E-2,-9.915222E-2,1.7599446E-1,6.525974E-2,5.68884E-2,-3.9055463E-2,-1.1779203E-1,1.5570228E-2,-2.7957328E-3,-5.7655413E-2,1.2729996E-1,4.6403883E-3,-4.810274E-2,1.0683478E-2,1.0605838E-1,-3.68267E-2,-2.3412727E-2,-1.1953048E-1,-1.3145716E-1,-4.0729012E-2],"categories":[],"categories_nodes":[],"categories_segments":[],"categories_sizes":[],"default_left":[0,0,0,0,0,0,0,0,0,0,0,0,0,0,0,0,0,0,0,0,0,0,0,0,0,0,0,0,0,0,0,0,0,0,0,0,0,0,0,0,0,0,0,0,0,0,0,0,0,0,0,0,0,0,0,0,0,0,0],"id":4,"left_children":[1,3,5,7,9,11,13,15,17,19,21,23,25,27,29,31,33,35,37,39,41,-1,43,45,47,49,51,53,55,-1,57,-1,-1,-1,-1,-1,-1,-1,-1,-1,-1,-1,-1,-1,-1,-1,-1,-1,-1,-1,-1,-1,-1,-1,-1,-1,-1,-1,-1],"loss_changes":[3.215513E1,1.7896654E1,1.9065395E1,1.16367445E1,1.5756432E1,1.3288251E1,7.355526E0,5.4409704E0,7.781554E0,1.2696262E1,2.0738384E1,1.3144918E1,7.9429364E0,5.4173384E0,1.2031174E0,6.242218E-1,3.2552793E0,7.1637397E0,4.252531E0,5.865577E0,1.5431858E1,0E0,1.42847805E1,2.7884636E0,9.162584E0,1.1607921E1,1.7268549E1,2.3883145E0,4.788363E0,0E0,8.711262E-1,0E0,0E0,0E0,0E0,0E0,0E0,0E0,0E0,0E0,0E0,0E0,0E0,0E0,0E0,0E0,0E0,0E0,0E0,0E0,0E0,0E0,0E0,0E0,0E0,0E0,0E0,0E0,0E0],"parents":[2147483647,0,0,1,1,2,2,3,3,4,4,5,5,6,6,7,7,8,8,9,9,10,10,11,11,12,12,13,13,14,14,15,15,16,16,17,17,18,18,19,19,20,20,22,22,23,23,24,24,25,25,26,26,27,27,28,28,30,30],"right_children":[2,4,6,8,10,12,14,16,18,20,22,24,26,28,30,32,34,36,38,40,42,-1,44,46,48,50,52,54,56,-1,58,-1,-1,-1,-1,-1,-1,-1,-1,-1,-1,-1,-1,-1,-1,-1,-1,-1,-1,-1,-1,-1,-1,-1,-1,-1,-1,-1,-1],"split_conditions":[-5.1043495E-3,1.808977E1,7.0419075E1,1.4566011E-2,9.174289E0,7.187661E-1,2.0064136E-1,1.8673236E-2,-3.8309507E-3,9.055133E6,1.1065801E1,-1.8605659E-2,2.3369575E0,-1.5604335E-3,4.2295645E-4,-2.1727834E-2,1.72678E7,2.1735052E-2,8.3772324E-2,-2.0300165E-2,7.0421495E-2,-1.3410315E-1,8.1739396E-2,3.4011614E-2,2.3684281E-1,1.808977E1,2.8797302E0,5.612313E-2,-1.0666398E-2,-1.5734443E-2,1.14573285E-1,4.369261E-2,1.8144245E-1,8.806013E-2,-7.326135E-2,4.5750484E-2,-3.9909754E-2,-6.940727E-2,1.7755007E-2,8.788076E-2,-9.915222E-2,1.7599446E-1,6.525974E-2,5.68884E-2,-3.9055463E-2,-1.1779203E-1,1.5570228E-2,-2.7957328E-3,-5.7655413E-2,1.2729996E-1,4.6403883E-3,-4.810274E-2,1.0683478E-2,1.0605838E-1,-3.68267E-2,-2.3412727E-2,-1.1953048E-1,-1.3145716E-1,-4.0729012E-2],"split_indices":[9,8,12,7,16,15,18,18,1,14,17,5,17,0,2,0,14,7,19,2,6,0,18,2,10,8,17,2,19,0,1,0,0,0,0,0,0,0,0,0,0,0,0,0,0,0,0,0,0,0,0,0,0,0,0,0,0,0,0],"split_type":[0,0,0,0,0,0,0,0,0,0,0,0,0,0,0,0,0,0,0,0,0,0,0,0,0,0,0,0,0,0,0,0,0,0,0,0,0,0,0,0,0,0,0,0,0,0,0,0,0,0,0,0,0,0,0,0,0,0,0],"sum_hessian":[7.8732025E2,2.4744392E2,5.3987634E2,8.19041E1,1.6553981E2,4.9129773E2,4.85786E1,7.714885E0,7.418922E1,7.378478E1,9.1755035E1,1.5783313E2,3.334646E2,2.77659E1,2.08127E1,4.6197505E0,3.0951347E0,3.8232117E1,3.59571E1,6.195637E0,6.758914E1,6.9760118E0,8.477902E1,1.911303E1,1.387201E2,3.2304047E1,3.0116055E2,3.7027366E0,2.4063164E1,1.4349419E0,1.9377758E1,1.203848E0,3.4159024E0,1.2096097E0,1.885525E0,2.2477667E1,1.5754449E1,2.953914E1,6.4179573E0,1.4935637E0,4.7020736E0,1.6935507E1,5.0653637E1,6.529842E1,1.9480604E1,1.7639301E1,1.4737282E0,9.479492E1,4.392518E1,1.1251587E1,2.1052462E1,6.2106598E1,2.3905397E2,2.5720522E0,1.1306845E0,1.7196308E1,6.866855E0,1.7046207E1,2.3315506E0],"tree_param":{"num_deleted":"0","num_feature":"20","num_nodes":"59","size_leaf_vector":"1"}},{"base_weights":[-9.398042E-4,1.14112645E-1,-3.2274327E-1,-1.04565345E-1,2.6748875E-1,-1.1861985E0,-2.2359896E-1,1.2499388E-1,-6.8303317E-1,9.9732244E-1,1.613855E-1,5.4607965E-2,-1.4260827E-1,5.3924906E-1,-3.6865723E-1,3.5473183E-1,-4.7531572E-1,3.6506882E-1,-8.835605E-1,5.948127E-1,1.585654E0,1.1162315E-1,1.3036093E0,7.09734E-2,-9.1905884E-2,-7.116226E-1,1.1071407E0,-4.2823854E-1,1.0155029E0,7.543468E-2,1.0227603E-2,4.8034325E-2,-6.819264E-2,-1.6415609E-2,1.1445419E-1,-2.2492869E-2,-1.1421575E-1,-9.640116E-2,8.8016026E-2,1.7207025E-1,1.1132154E-2,2.8192345E-2,-1.76735E-2,1.4891508E-1,1.0009995E-2,-1.0262698E-1,8.678503E-2,1.4161772E-1,-8.630515E-2,-3.0470654E-2,-1.0213625E-1,1.5771653E-1,-8.901957E-2],"categories":[],"categories_nodes":[],"categories_segments":[],"categories_sizes":[],"default_left":[0,0,0,0,0,0,0,0,0,0,0,0,0,0,0,0,0,0,0,0,0,0,0,0,0,0,0,0,0,0,0,0,0,0,0,0,0,0,0,0,0,0,0,0,0,0,0,0,0,0,0,0,0],"id":5,"left_children":[1,3,5,7,9,11,13,15,17,19,21,23,-1,25,27,29,31,33,35,37,39,41,43,-1,-1,45,47,49,51,-1,-1,-1,-1,-1,-1,-1,-1,-1,-1,-1,-1,-1,-1,-1,-1,-1,-1,-1,-1,-1,-1,-1,-1],"loss_changes":[2.9121084E1,1.946101E1,1.7467867E1,3.1898684E1,2.6231993E1,6.359188E0,2.0896513E1,2.3938732E1,1.4659849E1,9.255569E0,1.6835968E1,3.4474447E0,0E0,2.230492E1,1.3444765E1,1.25560465E1,9.831031E0,4.9990907E0,9.5456085E0,1.2934943E1,3.1723404E0,1.4162423E1,2.6151428E0,0E0,0E0,5.8935213E0,1.4144562E1,1.0821831E1,8.689778E0,0E0,0E0,0E0,0E0,0E0,0E0,0E0,0E0,0E0,0E0,0E0,0E0,0E0,0E0,0E0,0E0,0E0,0E0,0E0,0E0,0E0,0E0,0E0,0E0],"parents":[2147483647,0,0,1,1,2,2,3,3,4,4,5,5,6,6,7,7,8,8,9,9,10,10,11,11,13,13,14,14,15,15,16,16,17,17,18,18,19,19,20,20,21,21,22,22,25,25,26,26,27,27,28,28],"right_children":[2,4,6,8,10,12,14,16,18,20,22,24,-1,26,28,30,32,34,36,38,40,42,44,-1,-1,46,48,50,52,-1,-1,-1,-1,-1,-1,-1,-1,-1,-1,-1,-1,-1,-1,-1,-1,-1,-1,-1,-1,-1,-1,-1,-1],"split_conditions":[1.9907546E-1,2.8797302E0,1.14499135E-2,2.3279397E0,1.9823134E7,1.3209767E7,1.7337266E7,3.5592146E-2,-2.9930016E-2,8.960918E-2,1.8039972E-1,3.3250973E-1,-1.4260827E-1,2.0910715E1,4.36699E7,2.2256114E-2,-3.9530667E-3,4.5623355E-2,-7.842753E-3,1.6460733E7,1.2795696E-1,1.8397211E1,2.7681591E1,7.09734E-2,-9.1905884E-2,4.2171814E1,3.266508E-2,1.9090858E-1,1.11873366E-1,7.543468E-2,1.0227603E-2,4.8034325E-2,-6.819264E-2,-1.6415609E-2,1.1445419E-1,-2.2492869E-2,-1.1421575E-1,-9.640116E-2,8.8016026E-2,1.7207025E-1,1.1132154E-2,2.8192345E-2,-1.76735E-2,1.4891508E-1,1.0009995E-2,-1.0262698E-1,8.678503E-2,1.4161772E-1,-8.630515E-2,-3.0470654E-2,-1.0213625E-1,1.5771653E-1,-8.901957E-2],"split_indices":[10,17,7,16,14,14,14,9,1,10,19,10,0,8,14,7,11,18,9,14,11,16,17,0,0,16,1,18,11,0,0,0,0,0,0,0,0,0,0,0,0,0,0,0,0,0,0,0,0,0,0,0,0],"split_type":[0,0,0,0,0,0,0,0,0,0,0,0,0,0,0,0,0,0,0,0,0,0,0,0,0,0,0,0,0,0,0,0,0,0,0,0,0,0,0,0,0,0,0,0,0,0,0,0,0,0,0,0,0],"sum_hessian":[7.845456E2,5.7839935E2,2.0614622E2,2.3857137E2,3.39828E2,2.0103035E1,1.860432E2,1.7135481E2,6.7216545E1,4.2067326E1,2.9776065E2,3.381987E0,1.6721048E1,2.9290377E1,1.5675282E2,1.2422363E2,4.7131187E1,1.0663065E1,5.655348E1,2.6172382E1,1.5894942E1,2.863818E2,1.1378846E1,2.1837406E0,1.1982464E0,9.066616E0,2.022376E1,1.5094595E2,5.8068676E0,4.7324753E1,7.689888E1,8.142752E0,3.8988434E1,6.8211985E0,3.8418658E0,1.6471445E1,4.0082035E1,3.6816325E0,2.2490751E1,1.4408062E1,1.4868805E0,1.8006201E2,1.063198E2,9.653287E0,1.7255595E0,7.8525524E0,1.2140636E0,1.7724728E1,2.4990325E0,1.2617978E2,2.4766172E1,4.618162E0,1.1887054E0],"tree_param":{"num_deleted":"0","num_feature":"20","num_nodes":"53","size_leaf_vector":"1"}},{"base_weights":[-9.78921E-4,1.0320201E-1,-2.9566008E-1,-9.496023E-2,2.4108714E-1,-1.1165012E0,-2.0379524E-1,1.1010074E-1,-6.5219516E-1,8.9309305E-1,1.4559835E-1,4.3933142E-2,-1.3501219E0,1.2089874E-1,-4.9311855E-1,3.154712E-1,-4.8560566E-1,5.203362E-1,-8.146399E-1,1.0304538E0,-4.9097195E-1,1.002784E-1,1.1961313E0,6.55927E-2,-8.786384E-2,-1.3958924E-1,-4.709185E-2,2.9420155E-1,-6.74887E-1,-5.924707E-1,9.16176E-1,3.820388E-2,-8.331897E-2,-9.472125E-2,2.2083626E-3,1.5606523E-1,-5.161208E-2,-1.09555624E-1,-4.673771E-3,-6.799162E-2,1.16058804E-1,-1.205887E-1,6.583739E-2,-6.888084E-2,1.5434809E-2,1.3673277E-1,9.380416E-3,1.61848E-1,1.7320205E-2,1.19465165E-1,-9.760124E-2,-1.1158128E-1,-3.596429E-2,1.4272122E-1,-8.5219316E-2],"categories":[],"categories_nodes":[],"categories_segments":[],"categories_sizes":[],"default_left":[0,0,0,0,0,0,0,0,0,0,0,0,0,0,0,0,0,0,0,0,0,0,0,0,0,0,0,0,0,0,0,0,0,0,0,0,0,0,0,0,0,0,0,0,0,0,0,0,0,0,0,0,0,0,0],"id":6,"left_children":[1,3,5,7,9,11,13,15,17,19,21,23,25,27,29,31,33,35,37,39,41,43,45,-1,-1,-1,-1,47,49,51,53,-1,-1,-1,-1,-1,-1,-1,-1,-1,-1,-1,-1,-1,-1,-1,-1,-1,-1,-1,-1,-1,-1,-1,-1],"loss_changes":[2.405068E1,1.5837555E1,1.5202213E1,2.7290663E1,2.1136927E1,5.582205E0,1.7462196E1,2.156051E1,1.2656406E1,8.76482E0,1.4122414E1,3.0507202E0,2.6334763E-2,1.2347484E1,1.4286417E1,1.031424E1,1.0626191E1,9.889714E0,1.2200886E1,9.657024E0,4.573147E0,1.2388309E1,2.1891365E0,0E0,0E0,0E0,0E0,1.142256E1,1.0205608E1,1.0845356E1,7.412815E0,0E0,0E0,0E0,0E0,0E0,0E0,0E0,0E0,0E0,0E0,0E0,0E0,0E0,0E0,0E0,0E0,0E0,0E0,0E0,0E0,0E0,0E0,0E0,0E0],"parents":[2147483647,0,0,1,1,2,2,3,3,4,4,5,5,6,6,7,7,8,8,9,9,10,10,11,11,12,12,13,13,14,14,15,15,16,16,17,17,18,18,19,19,20,20,21,21,22,22,27,27,28,28,29,29,30,30],"right_children":[2,4,6,8,10,12,14,16,18,20,22,24,26,28,30,32,34,36,38,40,42,44,46,-1,-1,-1,-1,48,50,52,54,-1,-1,-1,-1,-1,-1,-1,-1,-1,-1,-1,-1,-1,-1,-1,-1,-1,-1,-1,-1,-1,-1,-1,-1],"split_conditions":[1.9907546E-1,2.8797302E0,1.14499135E-2,2.6302896E0,1.9823134E7,1.3209767E7,2.3034166E7,3.5592146E-2,-1.020818E-1,6.086003E-2,1.8039972E-1,3.3250973E-1,8.521203E-1,1.6052455E-1,4.36699E7,2.3045983E0,2.826082E1,2.7533095E0,5.2287623E-2,9.889218E-3,7.850153E-2,1.1216478E1,2.7681591E1,6.55927E-2,-8.786384E-2,-1.3958924E-1,-4.709185E-2,1.58366E7,-1.3187172E-2,3.5027242E-1,1.11873366E-1,3.820388E-2,-8.331897E-2,-9.472125E-2,2.2083626E-3,1.5606523E-1,-5.161208E-2,-1.09555624E-1,-4.673771E-3,-6.799162E-2,1.16058804E-1,-1.205887E-1,6.583739E-2,-6.888084E-2,1.5434809E-2,1.3673277E-1,9.380416E-3,1.61848E-1,1.7320205E-2,1.19465165E-1,-9.760124E-2,-1.1158128E-1,-3.596429E-2,1.4272122E-1,-8.5219316E-2],"split_indices":[10,17,7,17,14,14,14,9,5,2,19,10,6,18,14,15,8,17,10,7,4,8,17,0,0,0,0,14,3,9,11,0,0,0,0,0,0,0,0,0,0,0,0,0,0,0,0,0,0,0,0,0,0,0,0],"split_type":[0,0,0,0,0,0,0,0,0,0,0,0,0,0,0,0,0,0,0,0,0,0,0,0,0,0,0,0,0,0,0,0,0,0,0,0,0,0,0,0,0,0,0,0,0,0,0,0,0,0,0,0,0,0,0],"sum_hessian":[7.8141187E2,5.777908E2,2.036211E2,2.372037E2,3.4058707E2,1.937205E1,1.8424904E2,1.7398141E2,6.3222286E1,4.244129E1,2.9814578E2,3.3825052E0,1.5989544E1,8.709196E1,9.715708E1,1.2972797E2,4.4253445E1,7.425031E0,5.5797253E1,3.8841934E1,3.599358E0,2.8686584E2,1.1279925E1,2.2073011E0,1.175204E0,1.4639733E1,1.3498106E0,7.203482E1,1.5057135E1,9.130022E1,5.856868E0,1.232526E2,6.4753733E0,2.272523E1,2.1528215E1,3.4532084E0,3.971823E0,4.0540073E1,1.5257178E1,2.4476352E0,3.63943E1,2.1887312E0,1.4106266E0,1.7643238E1,2.6922263E2,9.5555105E0,1.7244142E0,4.9946785E0,6.704014E1,1.6771641E0,1.3379971E1,2.6944006E1,6.435621E1,4.6934443E0,1.1634235E0],"tree_param":{"num_deleted":"0","num_feature":"20","num_nodes":"55","size_leaf_vector":"1"}},{"base_weights":[-1.4307405E-3,1.7695783E-1,-1.4862344E-1,3.6281574E-1,-6.224145E-2,-8.9201845E-2,-6.722807E-1,3.0935213E-1,1.4605399E0,-5.737442E-1,1.3493872E-1,-2.1745838E-1,1.5984812E-1,3.37272E-2,-8.249173E-1,3.8071886E-1,-4.526024E-1,4.2376477E-2,1.5627371E-1,-8.8645613E-1,2.8378364E-1,5.956798E-1,-8.5176475E-2,-3.5031444E-1,2.2480173E-1,6.60911E-1,-7.779944E-2,-4.0409705E-1,1.1702316E-1,2.149967E-2,-8.954582E-1,2.64125E-2,9.599378E-2,-9.817359E-2,1.6844366E-1,-1.0197979E-1,3.5810832E-2,1.11099124E-1,-8.143112E-2,-6.4794116E-2,7.241034E-2,8.8208266E-2,-1.858039E-2,-2.1881057E-2,-1.0024239E-1,6.94479E-2,-3.605215E-2,8.6862855E-2,-6.302684E-2,7.1109176E-2,-2.2075096E-2,-9.67631E-2,5.761921E-2,-9.59726E-2,2.297374E-2],"categories":[],"categories_nodes":[],"categories_segments":[],"categories_sizes":[],"default_left":[0,0,0,0,0,0,0,0,0,0,0,0,0,0,0,0,0,0,0,0,0,0,0,0,0,0,0,0,0,0,0,0,0,0,0,0,0,0,0,0,0,0,0,0,0,0,0,0,0,0,0,0,0,0,0],"id":7,"left_children":[1,3,5,7,9,11,13,15,17,19,21,23,25,27,29,31,33,-1,-1,35,37,39,41,43,45,47,49,51,-1,-1,53,-1,-1,-1,-1,-1,-1,-1,-1,-1,-1,-1,-1,-1,-1,-1,-1,-1,-1,-1,-1,-1,-1,-1,-1],"loss_changes":[2.0468208E1,1.5690053E1,1.3229885E1,1.119594E1,1.5705362E1,1.2323807E1,4.7017803E0,1.0532433E1,2.8591537E-1,1.18636E1,1.1474948E1,1.5024836E1,1.5692716E1,4.7874093E0,2.8114834E0,1.154767E1,2.062048E1,0E0,0E0,5.671343E0,1.2103666E1,6.3054533E0,7.668639E0,1.6588676E1,1.6572172E1,1.1909264E1,1.0305672E1,4.4260664E0,0E0,0E0,2.6522217E0,0E0,0E0,0E0,0E0,0E0,0E0,0E0,0E0,0E0,0E0,0E0,0E0,0E0,0E0,0E0,0E0,0E0,0E0,0E0,0E0,0E0,0E0,0E0,0E0],"parents":[2147483647,0,0,1,1,2,2,3,3,4,4,5,5,6,6,7,7,8,8,9,9,10,10,11,11,12,12,13,13,14,14,15,15,16,16,19,19,20,20,21,21,22,22,23,23,24,24,25,25,26,26,27,27,30,30],"right_children":[2,4,6,8,10,12,14,16,18,20,22,24,26,28,30,32,34,-1,-1,36,38,40,42,44,46,48,50,52,-1,-1,54,-1,-1,-1,-1,-1,-1,-1,-1,-1,-1,-1,-1,-1,-1,-1,-1,-1,-1,-1,-1,-1,-1,-1,-1],"split_conditions":[2.9541807E-2,1.330963E-2,7.0419075E1,3.447372E1,1.52379055E1,1.7548578E-2,1.4642105E-1,4.5179176E1,-9.490661E-2,1.33822905E-2,1.3149308E-2,6.423489E-1,2.148507E-1,2.9234634E7,-3.6234101E-3,6.7220093E-3,1.9748845E0,4.2376477E-2,1.5627371E-1,2.745941E-2,1.6086785E-2,-7.115643E-2,5.1967163E-2,3.1620066E7,3.9113243E1,7.97869E-2,-1.4631909E-2,5.00086E-1,1.1702316E-1,2.149967E-2,8.95669E-1,2.64125E-2,9.599378E-2,-9.817359E-2,1.6844366E-1,-1.0197979E-1,3.5810832E-2,1.11099124E-1,-8.143112E-2,-6.4794116E-2,7.241034E-2,8.8208266E-2,-1.858039E-2,-2.1881057E-2,-1.0024239E-1,6.94479E-2,-3.605215E-2,8.6862855E-2,-6.302684E-2,7.1109176E-2,-2.2075096E-2,-9.67631E-2,5.761921E-2,-9.59726E-2,2.297374E-2],"split_indices":[10,3,12,8,8,11,18,16,1,10,1,6,9,14,11,11,6,0,0,7,19,5,18,14,16,3,0,9,0,0,6,0,0,0,0,0,0,0,0,0,0,0,0,0,0,0,0,0,0,0,0,0,0,0,0],"split_type":[0,0,0,0,0,0,0,0,0,0,0,0,0,0,0,0,0,0,0,0,0,0,0,0,0,0,0,0,0,0,0,0,0,0,0,0,0,0,0,0,0,0,0,0,0,0,0,0,0,0,0,0,0,0,0],"sum_hessian":[7.775172E2,3.514179E2,4.260993E2,1.9746823E2,1.5394966E2,3.837266E2,4.2372715E1,1.8951967E2,7.948561E0,4.230278E1,1.1164688E2,2.5337143E2,1.3035516E2,7.670852E0,3.4701862E1,1.7374644E2,1.5773226E1,1.1749913E0,6.77357E0,3.0973892E1,1.1328886E1,3.5542904E1,7.610397E1,1.9500064E2,5.837079E1,4.1363056E1,8.89921E1,6.00279E0,1.6680621E0,2.074325E0,3.2627537E1,1.4584465E2,2.7901794E1,1.3076161E1,2.6970642E0,2.8139631E1,2.8342624E0,6.4547234E0,4.8741627E0,2.9481778E0,3.2594727E1,6.439533E0,6.9664444E1,1.6338757E2,3.1613068E1,3.2281147E1,2.6089642E1,3.591286E1,5.4501944E0,1.3042346E1,7.594976E1,3.8198211E0,2.1829689E0,3.1003754E1,1.623783E0],"tree_param":{"num_deleted":"0","num_feature":"20","num_nodes":"55","size_leaf_vector":"1"}},{"base_weights":[-1.0452939E-3,3.4243459E-1,-6.9447316E-2,8.1616646E-1,2.259787E-1,2.3602445E-2,-2.9500246E-1,1.2056048E-1,1.2123672E0,-4.6120968E-1,3.309188E-1,-1.7886432E-1,1.7189217E-1,-1.0897595E0,-2.1282655E-1,1.2988507E0,-7.354691E-1,1.3989198E0,-1.9430362E-2,1.1675947E-1,-8.1137025E-1,1.1398647E0,2.1975647E-1,6.1727134E-3,-8.2211083E-1,7.955951E-1,6.677576E-2,5.504439E-2,-1.2752126E0,9.22949E-1,-2.765786E-1,1.5509386E-1,3.1298228E-2,-1.24369934E-1,8.4360175E-2,3.5510242E-2,1.540832E-1,1.2198444E-1,-1.2035052E-1,-2.2256501E-2,1.340839E-1,4.5646466E-2,-2.4461446E-2,1.6718019E-2,-5.137017E-2,6.0256463E-2,-9.479945E-2,-6.144085E-2,9.402915E-2,-1.9912658E-2,2.5616312E-2,-1.325793E-1,-2.9925376E-2,1.2102795E-1,-4.9004596E-2,-4.4705924E-2,8.69793E-3],"categories":[],"categories_nodes":[],"categories_segments":[],"categories_sizes":[],"default_left":[0,0,0,0,0,0,0,0,0,0,0,0,0,0,0,0,0,0,0,0,0,0,0,0,0,0,0,0,0,0,0,0,0,0,0,0,0,0,0,0,0,0,0,0,0,0,0,0,0,0,0,0,0,0,0,0,0],"id":8,"left_children":[1,3,5,7,9,11,13,15,17,19,21,23,25,27,29,31,33,35,-1,-1,37,39,41,43,45,47,49,-1,51,53,55,-1,-1,-1,-1,-1,-1,-1,-1,-1,-1,-1,-1,-1,-1,-1,-1,-1,-1,-1,-1,-1,-1,-1,-1,-1,-1],"loss_changes":[1.8223433E1,6.922001E0,1.3582216E1,6.7533054E0,7.7085476E0,1.3806718E1,1.2110252E1,1.1238502E1,4.4283524E0,9.102467E0,7.9757338E0,2.3152077E1,1.734447E1,6.0148163E0,1.2746561E1,6.706104E-1,6.3005495E0,1.5424671E0,0E0,0E0,1.131184E1,3.259224E0,9.088446E0,1.2810545E1,8.364107E0,8.367563E0,1.1541924E1,0E0,3.9275742E-1,4.409137E0,1.0210564E1,0E0,0E0,0E0,0E0,0E0,0E0,0E0,0E0,0E0,0E0,0E0,0E0,0E0,0E0,0E0,0E0,0E0,0E0,0E0,0E0,0E0,0E0,0E0,0E0,0E0,0E0],"parents":[2147483647,0,0,1,1,2,2,3,3,4,4,5,5,6,6,7,7,8,8,9,9,10,10,11,11,12,12,13,13,14,14,15,15,16,16,17,17,20,20,21,21,22,22,23,23,24,24,25,25,26,26,28,28,29,29,30,30],"right_children":[2,4,6,8,10,12,14,16,18,20,22,24,26,28,30,32,34,36,-1,-1,38,40,42,44,46,48,50,-1,52,54,56,-1,-1,-1,-1,-1,-1,-1,-1,-1,-1,-1,-1,-1,-1,-1,-1,-1,-1,-1,-1,-1,-1,-1,-1,-1,-1],"split_conditions":[2.102769E-2,2.6302896E0,2.0384169E-1,1.8386787E1,2.6517963E0,2.8797302E0,1.14499135E-2,-1.339367E-2,-6.254977E-3,-8.690587E-2,1.8894966E7,2.3456829E0,1.9823134E7,1.2797633E7,1.60808E7,-8.283755E-3,-4.713957E-2,-7.1361996E-2,-1.9430362E-2,1.1675947E-1,-5.363707E-2,-6.509008E-2,2.298618E1,1.5779659E-1,-2.9930016E-2,1.0063521E-2,1.975877E-2,5.504439E-2,8.521203E-1,1.6052455E-1,2.926561E1,1.5509386E-1,3.1298228E-2,-1.24369934E-1,8.4360175E-2,3.5510242E-2,1.540832E-1,1.2198444E-1,-1.2035052E-1,-2.2256501E-2,1.340839E-1,4.5646466E-2,-2.4461446E-2,1.6718019E-2,-5.137017E-2,6.0256463E-2,-9.479945E-2,-6.144085E-2,9.402915E-2,-1.9912658E-2,2.5616312E-2,-1.325793E-1,-2.9925376E-2,1.2102795E-1,-4.9004596E-2,-4.4705924E-2,8.69793E-3],"split_indices":[18,17,10,8,16,17,7,10,2,10,14,16,14,14,14,1,3,1,0,0,18,2,16,18,1,7,7,0,6,18,8,0,0,0,0,0,0,0,0,0,0,0,0,0,0,0,0,0,0,0,0,0,0,0,0,0,0],"split_type":[0,0,0,0,0,0,0,0,0,0,0,0,0,0,0,0,0,0,0,0,0,0,0,0,0,0,0,0,0,0,0,0,0,0,0,0,0,0,0,0,0,0,0,0,0,0,0,0,0,0,0,0,0,0,0,0,0],"sum_hessian":[7.736273E2,1.27812454E2,6.458148E2,2.4034391E1,1.0377807E2,4.5783606E2,1.8797878E2,9.195037E0,1.4839354E1,1.3298614E1,9.0479454E1,1.9347272E2,2.6436334E2,1.6466192E1,1.7151259E2,3.6515412E0,5.543496E0,1.3106658E1,1.7326952E0,1.940012E0,1.1358602E1,9.813198E0,8.066625E1,1.5102042E2,4.24523E1,3.7181293E1,2.2718205E2,1.47274E0,1.4993452E1,8.399206E0,1.6311339E2,2.4515154E0,1.2000258E0,4.3544E0,1.1890959E0,1.9878129E0,1.1118846E1,1.4964391E0,9.862163E0,1.2476683E0,8.56553E0,5.3441856E1,2.7224398E1,1.1582676E2,3.5193653E1,3.139106E0,3.9313194E1,3.158351E0,3.4022945E1,9.4479774E1,1.3270227E2,1.3913896E1,1.0795567E0,7.099084E0,1.3001229E0,1.1088649E2,5.2226894E1],"tree_param":{"num_deleted":"0","num_feature":"20","num_nodes":"57","size_leaf_vector":"1"}},{"base_weights":[-5.746478E-4,3.576061E-2,-5.8513135E-1,8.996246E-3,7.5448704E-1,-2.5171864E-1,-1.0212715E0,1.1069262E0,-5.3179306E-3,2.9718298E-2,1.0233625E0,6.726488E-1,-4.2408228E-1,-2.1560207E-1,-1.1367171E0,1.3040984E0,-9.003467E-3,-6.170518E-1,1.8800665E-2,1.0352582E0,-1.14621975E-1,-1.9127822E-2,1.1183618E0,1.0448424E0,-2.9743431E-2,-1.3442697E-1,-1.0689758E0,3.6496785E-2,-7.664495E-2,-1.23895064E-1,-3.0798993E-1,1.5746543E-1,6.1403033E-3,-4.015663E-3,-1.1228391E-1,3.668959E-3,-8.631515E-2,1.2869503E-1,1.5047883E-2,1.579805E-1,7.309447E-2,1.4942273E-1,4.279993E-3,1.1726055E-1,-3.088595E-2,-2.4775906E-2,-1.1643459E-1,2.9221287E-2,-7.24583E-2],"categories":[],"categories_nodes":[],"categories_segments":[],"categories_sizes":[],"default_left":[0,0,0,0,0,0,0,0,0,0,0,0,0,0,0,0,0,0,0,0,0,0,0,0,0,0,0,0,0,0,0,0,0,0,0,0,0,0,0,0,0,0,0,0,0,0,0,0,0],"id":9,"left_children":[1,3,5,7,9,11,13,15,17,19,21,23,25,27,29,31,-1,33,35,37,-1,-1,39,41,-1,43,45,-1,-1,-1,47,-1,-1,-1,-1,-1,-1,-1,-1,-1,-1,-1,-1,-1,-1,-1,-1,-1,-1],"loss_changes":[1.639343E1,1.3971533E1,6.310953E0,1.1032031E1,5.0511694E0,4.575239E0,1.5446358E0,2.2494984E0,1.0244422E1,1.0748026E1,2.4052162E0,1.9782624E0,4.2100196E0,1.445647E0,1.0245113E0,2.5328379E0,0E0,7.639653E0,1.0574262E1,8.940296E-1,0E0,0E0,2.0200233E0,1.5388227E0,0E0,4.2897835E0,2.660284E-1,0E0,0E0,0E0,1.0001972E0,0E0,0E0,0E0,0E0,0E0,0E0,0E0,0E0,0E0,0E0,0E0,0E0,0E0,0E0,0E0,0E0,0E0,0E0],"parents":[2147483647,0,0,1,1,2,2,3,3,4,4,5,5,6,6,7,7,8,8,9,9,10,10,11,11,12,12,13,13,14,14,15,15,17,17,18,18,19,19,22,22,23,23,25,25,26,26,30,30],"right_children":[2,4,6,8,10,12,14,16,18,20,22,24,26,28,30,32,-1,34,36,38,-1,-1,40,42,-1,44,46,-1,-1,-1,48,-1,-1,-1,-1,-1,-1,-1,-1,-1,-1,-1,-1,-1,-1,-1,-1,-1,-1],"split_conditions":[7.0419075E1,1.6748084E-1,2.0064136E-1,3.898078E-2,2.4805E7,-1.5604335E-3,1.707781E-2,1.56385E-1,1.0899388E1,2.7533095E0,2.3072708E1,2.6062034E7,-1.0666398E-2,2.4466912E-1,8.000755E1,1.744367E-2,-9.003467E-3,1.8211557E1,5.919908E1,2.01186E-3,-1.14621975E-1,-1.9127822E-2,1.1143348E0,1.691769E-2,-2.9743431E-2,-8.967091E-4,2.9822735E1,3.6496785E-2,-7.664495E-2,-1.23895064E-1,-1.4067517E-1,1.5746543E-1,6.1403033E-3,-4.015663E-3,-1.1228391E-1,3.668959E-3,-8.631515E-2,1.2869503E-1,1.5047883E-2,1.579805E-1,7.309447E-2,1.4942273E-1,4.279993E-3,1.1726055E-1,-3.088595E-2,-2.4775906E-2,-1.1643459E-1,2.9221287E-2,-7.24583E-2],"split_indices":[12,19,18,6,14,0,2,18,8,17,8,14,19,18,12,7,0,16,17,1,0,0,15,1,0,11,8,0,0,0,13,0,0,0,0,0,0,0,0,0,0,0,0,0,0,0,0,0,0],"split_type":[0,0,0,0,0,0,0,0,0,0,0,0,0,0,0,0,0,0,0,0,0,0,0,0,0,0,0,0,0,0,0,0,0,0,0,0,0,0,0,0,0,0,0,0,0,0,0,0,0],"sum_hessian":[7.698329E2,7.2566534E2,4.4167557E1,7.0058887E2,2.5076431E1,2.592558E1,1.8241978E1,8.033975E0,6.9255493E2,7.0860686E0,1.7990362E1,3.6183367E0,2.2307241E1,2.6457095E0,1.5596268E1,6.8208814E0,1.2130932E0,2.5336884E1,6.67218E2,3.8842738E0,3.2017949E0,1.2314788E0,1.6758884E1,2.5593295E0,1.0590074E0,1.6227205E1,6.080036E0,1.4523925E0,1.193317E0,1.3442917E1,2.1533506E0,5.382E0,1.4388812E0,1.2340663E1,1.2996221E1,6.54893E2,1.2325011E1,2.6701546E0,1.2141193E0,6.2440085E0,1.0514875E1,1.4278164E0,1.131513E0,1.2368698E0,1.4990335E1,1.0069772E0,5.0730586E0,1.0045784E0,1.1487722E0],"tree_param":{"num_deleted":"0","num_feature":"20","num_nodes":"49","size_leaf_vector":"1"}},{"base_weights":[-5.665894E-4,3.0481136E-1,-6.158161E-2,7.373964E-1,1.991945E-1,-2.5893772E-2,-5.471792E-1,1.1435957E-1,1.0930154E0,-3.4350672E-1,3.1077695E-1,1.0258528E0,-4.175288E-2,-2.2821109E-1,-9.7847885E-1,1.1914208E0,-6.7946064E-1,1.2651824E0,-1.8430134E-2,1.7384267E-1,-1.1371992E0,8.8297635E-2,6.934147E-1,1.4049354E-1,3.123942E-1,-7.138514E-1,-1.5114382E-2,-3.6736053E-1,8.3705175E-1,1.2056185E-3,-1.0560598E0,1.4182325E-1,2.9440973E-2,-1.1657478E-1,7.921784E-2,1.383284E-1,1.5465251E-2,1.1289511E-1,-3.2611433E-2,-2.105273E-2,-1.3290076E-1,9.5679454E-4,1.2011389E-1,8.43712E-2,-5.500417E-2,-6.960845E-2,1.198379E-1,8.10216E-2,-8.960431E-2,-1.0339075E-1,7.779493E-4,-4.338388E-3,-9.4629325E-2,1.1473318E-1,1.1867058E-2,-1.1450557E-1,-2.940069E-2],"categories":[],"categories_nodes":[],"categories_segments":[],"categories_sizes":[],"default_left":[0,0,0,0,0,0,0,0,0,0,0,0,0,0,0,0,0,0,0,0,0,0,0,0,0,0,0,0,0,0,0,0,0,0,0,0,0,0,0,0,0,0,0,0,0,0,0,0,0,0,0,0,0,0,0,0,0],"id":10,"left_children":[1,3,5,7,9,11,13,15,17,19,21,23,25,27,29,31,33,35,-1,37,39,41,43,-1,45,47,49,51,53,-1,55,-1,-1,-1,-1,-1,-1,-1,-1,-1,-1,-1,-1,-1,-1,-1,-1,-1,-1,-1,-1,-1,-1,-1,-1,-1,-1],"loss_changes":[1.4339949E1,5.7086763E0,1.1102004E1,5.365507E0,6.4277415E0,1.0026993E1,5.8111534E0,9.463366E0,3.6768036E0,7.702343E0,7.3540277E0,1.9765549E0,1.0563999E1,4.2385883E0,1.42243E0,5.300946E-1,5.5492024E0,1.6125851E0,0E0,6.0657845E0,1.0256796E0,4.9146996E0,6.422035E0,0E0,4.7519054E0,6.972537E0,1.328302E1,4.4887443E0,6.1478376E-1,0E0,8.178463E-1,0E0,0E0,0E0,0E0,0E0,0E0,0E0,0E0,0E0,0E0,0E0,0E0,0E0,0E0,0E0,0E0,0E0,0E0,0E0,0E0,0E0,0E0,0E0,0E0,0E0,0E0],"parents":[2147483647,0,0,1,1,2,2,3,3,4,4,5,5,6,6,7,7,8,8,9,9,10,10,11,11,12,12,13,13,14,14,15,15,16,16,17,17,19,19,20,20,21,21,22,22,24,24,25,25,26,26,27,27,28,28,30,30],"right_children":[2,4,6,8,10,12,14,16,18,20,22,24,26,28,30,32,34,36,-1,38,40,42,44,-1,46,48,50,52,54,-1,56,-1,-1,-1,-1,-1,-1,-1,-1,-1,-1,-1,-1,-1,-1,-1,-1,-1,-1,-1,-1,-1,-1,-1,-1,-1,-1],"split_conditions":[2.102769E-2,2.6302896E0,7.0419075E1,1.8386787E1,3.165006E0,3.898078E-2,2.0064136E-1,-1.339367E-2,-6.254977E-3,-7.3101353E-3,-1.7034307E-2,1.16619274E-1,1.0899388E1,2.5136495E-1,4.2295645E-4,-8.283755E-3,-4.713957E-2,-4.385678E-3,-1.8430134E-2,7.0421495E-2,-8.591566E-3,3.6451557E1,4.5179176E1,1.4049354E-1,7.48579E-1,5.6373022E-2,1.1814063E0,4.6066102E-1,1.6436638E-1,1.2056185E-3,8.000755E1,1.4182325E-1,2.9440973E-2,-1.1657478E-1,7.921784E-2,1.383284E-1,1.5465251E-2,1.1289511E-1,-3.2611433E-2,-2.105273E-2,-1.3290076E-1,9.5679454E-4,1.2011389E-1,8.43712E-2,-5.500417E-2,-6.960845E-2,1.198379E-1,8.10216E-2,-8.960431E-2,-1.0339075E-1,7.779493E-4,-4.338388E-3,-9.4629325E-2,1.1473318E-1,1.1867058E-2,-1.1450557E-1,-2.940069E-2],"split_indices":[18,17,12,8,16,6,18,10,2,10,1,18,8,11,2,1,3,9,0,6,18,8,16,0,15,6,16,9,18,0,12,0,0,0,0,0,0,0,0,0,0,0,0,0,0,0,0,0,0,0,0,0,0,0,0,0,0],"split_type":[0,0,0,0,0,0,0,0,0,0,0,0,0,0,0,0,0,0,0,0,0,0,0,0,0,0,0,0,0,0,0,0,0,0,0,0,0,0,0,0,0,0,0,0,0,0,0,0,0,0,0,0,0,0,0,0,0],"sum_hessian":[7.6760693E2,1.27163345E2,6.404436E2,2.3780691E1,1.0338265E2,5.975793E2,4.2864334E1,9.121536E0,1.4659155E1,1.727655E1,8.610611E1,7.9309044E0,5.896484E2,2.5520065E1,1.734427E1,3.6577728E0,5.4637637E0,1.292634E1,1.7328151E0,1.0931853E1,6.344696E0,5.522631E1,3.0879795E1,4.5461864E0,3.3847182E0,2.1496117E1,5.681522E2,2.3151108E1,2.3689568E0,1.3211218E0,1.602315E1,2.4557624E0,1.2020105E0,4.2629695E0,1.2007943E0,1.1461804E1,1.4645358E0,3.3238797E0,7.6079736E0,1.44777E0,4.8969264E0,5.2519344E1,2.7069654E0,2.7836641E1,3.0431538E0,1.6831727E0,1.7015455E0,1.9272504E0,1.9568867E1,1.151612E1,5.566361E2,1.5533398E1,7.6177106E0,1.2373979E0,1.1315588E0,1.3897543E1,2.1256065E0],"tree_param":{"num_deleted":"0","num_feature":"20","num_nodes":"57","size_leaf_vector":"1"}},{"base_weights":[-2.3047582E-4,7.564901E-2,-2.2077404E-1,-8.506169E-2,1.8536294E-1,-9.653504E-1,-1.3956304E-1,8.452918E-2,-5.570187E-1,7.1514875E-1,1.07572556E-1,8.242722E-2,-1.1887088E0,1.4350381E-1,-3.9791557E-1,2.4319045E-1,-3.9012915E-1,2.609891E-1,-7.487964E-1,3.6686307E-1,1.2303863E0,2.5072885E-1,-1.3493007E-1,6.223438E-2,-7.865837E-2,-1.2355322E0,-2.628295E-2,3.2392976E-1,-4.4200915E-1,-8.6498266E-1,-8.5630514E-2,3.0011863E-2,-7.5514816E-2,-8.479534E-2,1.04443375E-2,-4.018798E-2,6.7958914E-2,-9.427362E-2,1.0724321E-3,-9.803482E-2,6.1700013E-2,1.408336E-1,2.811254E-2,7.114675E-2,-2.7798202E-3,-9.907567E-2,-2.7223655E-3,-2.7534992E-2,-1.2873475E-1,1.566881E-2,1.4278989E-1,-6.451591E-2,1.15195334E-1,-1.1821381E-1,-1.8578583E-2,5.683424E-2,-3.5651635E-2],"categories":[],"categories_nodes":[],"categories_segments":[],"categories_sizes":[],"default_left":[0,0,0,0,0,0,0,0,0,0,0,0,0,0,0,0,0,0,0,0,0,0,0,0,0,0,0,0,0,0,0,0,0,0,0,0,0,0,0,0,0,0,0,0,0,0,0,0,0,0,0,0,0,0,0,0,0],"id":11,"left_children":[1,3,5,7,9,11,13,15,17,19,21,23,25,27,29,31,33,35,37,39,41,43,45,-1,-1,47,-1,49,51,53,55,-1,-1,-1,-1,-1,-1,-1,-1,-1,-1,-1,-1,-1,-1,-1,-1,-1,-1,-1,-1,-1,-1,-1,-1,-1,-1],"loss_changes":[1.2832113E1,1.0075122E1,1.1734304E1,1.8628048E1,1.3908989E1,4.576048E0,1.3085567E1,1.3021676E1,9.8431225E0,7.313946E0,1.0347551E1,2.5058362E0,3.6185074E-1,9.201431E0,1.3550138E1,7.5730743E0,9.912298E0,3.719761E0,7.386606E0,9.785923E0,2.480545E0,2.4037743E1,1.01983185E1,0E0,0E0,3.820877E-1,0E0,1.1984686E1,7.420605E0,7.8191376E0,1.0316055E1,0E0,0E0,0E0,0E0,0E0,0E0,0E0,0E0,0E0,0E0,0E0,0E0,0E0,0E0,0E0,0E0,0E0,0E0,0E0,0E0,0E0,0E0,0E0,0E0,0E0,0E0],"parents":[2147483647,0,0,1,1,2,2,3,3,4,4,5,5,6,6,7,7,8,8,9,9,10,10,11,11,12,12,13,13,14,14,15,15,16,16,17,17,18,18,19,19,20,20,21,21,22,22,25,25,27,27,28,28,29,29,30,30],"right_children":[2,4,6,8,10,12,14,16,18,20,22,24,26,28,30,32,34,36,38,40,42,44,46,-1,-1,48,-1,50,52,54,56,-1,-1,-1,-1,-1,-1,-1,-1,-1,-1,-1,-1,-1,-1,-1,-1,-1,-1,-1,-1,-1,-1,-1,-1,-1,-1],"split_conditions":[1.9907546E-1,2.8797302E0,1.1651878E-2,2.6302896E0,1.9823134E7,1.3209767E7,2.3034166E7,3.5592146E-2,-3.311603E-2,8.960918E-2,1.8397211E1,3.3250973E-1,8.605669E-1,1.475987E-1,2.89527E7,2.3045983E0,2.826082E1,1.9265806E1,2.6960866E7,1.6460733E7,1.9261228E-1,1.99386E1,1.1216478E1,6.223438E-2,-7.865837E-2,-7.721926E-3,-2.628295E-2,1.1720092E-1,2.2353934E7,2.363685E-2,3.18322E7,3.0011863E-2,-7.5514816E-2,-8.479534E-2,1.04443375E-2,-4.018798E-2,6.7958914E-2,-9.427362E-2,1.0724321E-3,-9.803482E-2,6.1700013E-2,1.408336E-1,2.811254E-2,7.114675E-2,-2.7798202E-3,-9.907567E-2,-2.7223655E-3,-2.7534992E-2,-1.2873475E-1,1.566881E-2,1.4278989E-1,-6.451591E-2,1.15195334E-1,-1.1821381E-1,-1.8578583E-2,5.683424E-2,-3.5651635E-2],"split_indices":[10,17,7,17,14,14,14,9,1,10,16,10,6,18,14,15,8,8,14,14,9,8,8,0,0,19,0,11,14,7,14,0,0,0,0,0,0,0,0,0,0,0,0,0,0,0,0,0,0,0,0,0,0,0,0,0,0],"split_type":[0,0,0,0,0,0,0,0,0,0,0,0,0,0,0,0,0,0,0,0,0,0,0,0,0,0,0,0,0,0,0,0,0,0,0,0,0,0,0,0,0,0,0,0,0,0,0,0,0,0,0,0,0,0,0,0,0],"sum_hessian":[7.6479724E2,5.695104E2,1.9528687E2,2.3114711E2,3.3836328E2,1.8134575E1,1.771523E2,1.706481E2,6.049901E1,4.2272972E1,2.960903E2,3.2973983E0,1.4837176E1,8.474501E1,9.240728E1,1.2826227E2,4.2385834E1,1.1421386E1,4.9077625E1,2.6244486E1,1.6028484E1,1.8616049E2,1.09929825E2,2.2088733E0,1.088525E0,1.3804611E1,1.032565E0,6.512385E1,1.9621168E1,3.6318264E1,5.6089016E1,1.220046E2,6.2576766E0,2.1639603E1,2.074623E1,4.436292E0,6.985093E0,3.8902775E1,1.01748495E1,3.65262E0,2.2591866E1,1.3090844E1,2.937641E0,6.955252E1,1.1660796E2,1.1371792E1,9.855804E1,1.0300974E0,1.2774514E1,5.754779E1,7.576056E0,1.7931103E1,1.6900645E0,2.4252777E1,1.2065488E1,1.6106527E1,3.998249E1],"tree_param":{"num_deleted":"0","num_feature":"20","num_nodes":"57","size_leaf_vector":"1"}},{"base_weights":[-8.0956274E-4,-2.131019E-2,7.889995E-1,7.569677E-3,-5.0188947E-1,8.040268E-2,1.0763954E0,1.19070746E-1,-1.00989334E-1,-2.0113541E-1,-9.267628E-1,9.947542E-2,-9.5136836E-2,1.3446222E-1,3.295458E-1,9.77863E-1,8.4313706E-2,-1.7688388E-2,-5.9973246E-1,6.6381514E-1,-3.6919665E-1,-1.4786915E-1,-1.0500625E0,-1.20599106E-1,1.16952576E-1,-7.422121E-3,1.2541728E-1,-1.2784034E-2,2.1499828E-2,-6.4710113E-3,1.4585218E-1,-7.965402E-2,7.883956E-2,1.0122106E-1,-2.7016226E-2,-1.025827E-2,-9.975893E-2,3.891934E-2,-7.016773E-2,-1.15825735E-1,-2.5074152E-2],"categories":[],"categories_nodes":[],"categories_segments":[],"categories_sizes":[],"default_left":[0,0,0,0,0,0,0,0,0,0,0,0,0,0,0,0,0,0,0,0,0,0,0,0,0,0,0,0,0,0,0,0,0,0,0,0,0,0,0,0,0],"id":12,"left_children":[1,3,5,7,9,11,13,15,17,19,21,-1,-1,-1,23,25,27,29,31,33,35,37,39,-1,-1,-1,-1,-1,-1,-1,-1,-1,-1,-1,-1,-1,-1,-1,-1,-1,-1],"loss_changes":[1.2348855E1,1.032063E1,3.842925E0,8.511583E0,5.1999636E0,7.2185454E0,2.2907133E0,1.0270927E1,1.4793288E1,4.018549E0,1.4959955E0,0E0,0E0,0E0,7.770236E0,3.9877844E0,9.300473E0,2.1360102E1,1.4551739E1,1.7639661E0,3.6468394E0,1.3181807E0,9.791622E-1,0E0,0E0,0E0,0E0,0E0,0E0,0E0,0E0,0E0,0E0,0E0,0E0,0E0,0E0,0E0,0E0,0E0,0E0],"parents":[2147483647,0,0,1,1,2,2,3,3,4,4,5,5,6,6,7,7,8,8,9,9,10,10,14,14,15,15,16,16,17,17,18,18,19,19,20,20,21,21,22,22],"right_children":[2,4,6,8,10,12,14,16,18,20,22,-1,-1,-1,24,26,28,30,32,34,36,38,40,-1,-1,-1,-1,-1,-1,-1,-1,-1,-1,-1,-1,-1,-1,-1,-1,-1,-1],"split_conditions":[1.8039972E-1,7.0419075E1,2.4805E7,2.39529E7,2.0064136E-1,2.7533095E0,2.7405645E1,-8.020638E-2,2.2818924E1,-1.5604335E-3,1.707781E-2,9.947542E-2,-9.5136836E-2,1.3446222E-1,1.3406985E0,1.8142605E-2,2.8797302E0,2.1363867E1,1.9748845E0,5.612313E-2,-1.0666398E-2,2.4466912E-1,1.14573285E-1,-1.20599106E-1,1.16952576E-1,-7.422121E-3,1.2541728E-1,-1.2784034E-2,2.1499828E-2,-6.4710113E-3,1.4585218E-1,-7.965402E-2,7.883956E-2,1.0122106E-1,-2.7016226E-2,-1.025827E-2,-9.975893E-2,3.891934E-2,-7.016773E-2,-1.15825735E-1,-2.5074152E-2],"split_indices":[19,12,14,14,18,17,17,4,16,0,2,0,0,0,6,7,17,16,6,2,19,18,1,0,0,0,0,0,0,0,0,0,0,0,0,0,0,0,0,0,0],"split_type":[0,0,0,0,0,0,0,0,0,0,0,0,0,0,0,0,0,0,0,0,0,0,0,0,0,0,0,0,0,0,0,0,0,0,0,0,0,0,0,0,0],"sum_hessian":[7.6063293E2,7.423375E2,1.8295418E1,7.011849E2,4.115266E1,5.648462E0,1.26469555E1,3.4585748E2,3.553274E2,2.4958647E1,1.6194014E1,3.0136518E0,2.63481E0,8.716191E0,3.930764E0,1.239761E1,3.3345987E2,3.0536093E2,4.996645E1,3.5806248E0,2.1378023E1,2.513747E0,1.3680267E1,1.2358372E0,2.6949267E0,2.7308671E0,9.666742E0,1.2711784E2,2.0634203E2,2.9686118E2,8.499754E0,4.4135174E1,5.831276E0,2.546833E0,1.0337918E0,1.5826439E1,5.551584E0,1.4270694E0,1.0866776E0,1.1653778E1,2.026489E0],"tree_param":{"num_deleted":"0","num_feature":"20","num_nodes":"41","size_leaf_vector":"1"}},{"base_weights":[-6.126181E-4,2.73236E-1,-5.523969E-2,-7.035787E-2,3.9412093E-1,8.792551E-1,-6.992215E-2,-4.0328205E-1,6.4689535E-1,2.4435008E-1,9.4334394E-1,1.1854823E0,-2.9229382E-2,-8.4912665E-2,8.409427E-1,7.9428643E-1,-6.245169E-1,9.405873E-1,-5.048662E-2,-3.3306235E-3,5.9090215E-1,1.0960861E0,3.420448E-2,1.4246714E-1,4.0721702E-3,9.5542306E-1,-9.848923E-2,1.0775509E0,-6.6767894E-2,-1.4444597E-2,1.2128591E-1,9.9973604E-2,-8.652736E-2,1.3839464E-1,3.347691E-3,5.5172216E-2,-4.847173E-2,1.2862085E-1,2.2429643E-2,1.1906274E-1,-6.4074914E-3,-9.954016E-2,1.0596503E-1,-7.201002E-3,1.4521174E-1,-8.159457E-3,-9.2416264E-2,1.3913915E-1,-5.3012084E-2],"categories":[],"categories_nodes":[],"categories_segments":[],"categories_sizes":[],"default_left":[0,0,0,0,0,0,0,0,0,0,0,0,0,0,0,0,0,0,0,0,0,0,0,0,0,0,0,0,0,0,0,0,0,0,0,0,0,0,0,0,0,0,0,0,0,0,0,0,0],"id":13,"left_children":[1,3,5,7,9,11,13,15,17,19,21,23,-1,25,27,29,31,33,-1,35,37,39,41,-1,-1,43,45,47,-1,-1,-1,-1,-1,-1,-1,-1,-1,-1,-1,-1,-1,-1,-1,-1,-1,-1,-1,-1,-1],"loss_changes":[1.1373162E1,5.2792645E0,8.757878E0,8.321154E0,7.475462E0,3.8903184E0,8.60453E0,6.7671986E0,4.2244387E0,6.4359164E0,2.701334E0,2.1403866E0,0E0,8.790764E0,4.3639746E0,1.7983801E0,8.89671E0,3.64637E0,0E0,1.2213512E1,7.676875E0,1.9248734E0,5.1399007E0,0E0,0E0,4.2000427E0,8.415689E0,5.383745E0,0E0,0E0,0E0,0E0,0E0,0E0,0E0,0E0,0E0,0E0,0E0,0E0,0E0,0E0,0E0,0E0,0E0,0E0,0E0,0E0,0E0],"parents":[2147483647,0,0,1,1,2,2,3,3,4,4,5,5,6,6,7,7,8,8,9,9,10,10,11,11,13,13,14,14,15,15,16,16,17,17,19,19,20,20,21,21,22,22,25,25,26,26,27,27],"right_children":[2,4,6,8,10,12,14,16,18,20,22,24,-1,26,28,30,32,34,-1,36,38,40,42,-1,-1,44,46,48,-1,-1,-1,-1,-1,-1,-1,-1,-1,-1,-1,-1,-1,-1,-1,-1,-1,-1,-1,-1,-1],"split_conditions":[2.102769E-2,-1.7739293E-1,3.898078E-2,1.4095048E0,2.5159142E1,1.6146165E-1,4.5804152E-1,1.96393E7,-3.9092414E-2,1.2598255E1,3.42753E7,1.744367E-2,-2.9229382E-2,-1.0958115E-1,5.919908E1,7.5026564E-2,2.55268E1,2.6653434E7,-5.048662E-2,2.6139066E0,1.8246395E1,-1.2556359E-2,1.1468551E-1,1.4246714E-1,4.0721702E-3,2.7690566E7,5.7674957E1,4.3108967E-1,-6.6767894E-2,-1.4444597E-2,1.2128591E-1,9.9973604E-2,-8.652736E-2,1.3839464E-1,3.347691E-3,5.5172216E-2,-4.847173E-2,1.2862085E-1,2.2429643E-2,1.1906274E-1,-6.4074914E-3,-9.954016E-2,1.0596503E-1,-7.201002E-3,1.4521174E-1,-8.159457E-3,-9.2416264E-2,1.3913915E-1,-5.3012084E-2],"split_indices":[18,11,6,6,8,18,11,14,2,17,14,7,0,5,17,19,12,14,0,17,16,9,19,0,0,14,17,18,0,0,0,0,0,0,0,0,0,0,0,0,0,0,0,0,0,0,0,0,0],"split_type":[0,0,0,0,0,0,0,0,0,0,0,0,0,0,0,0,0,0,0,0,0,0,0,0,0,0,0,0,0,0,0,0,0,0,0,0,0,0,0,0,0,0,0,0,0,0,0,0,0],"sum_hessian":[7.5825214E2,1.2543542E2,6.328168E2,3.2754513E1,9.26809E1,8.877935E0,6.2393884E2,2.266974E1,1.008477E1,7.395781E1,1.872309E1,7.0288067E0,1.8491286E0,6.147287E2,9.2100935E0,3.1310084E0,1.9538733E1,8.181809E0,1.9029608E0,4.370923E1,3.0248585E1,1.5853888E1,2.869202E0,5.6117573E0,1.4170498E0,7.0253067E0,6.077034E2,8.208441E0,1.0016524E0,1.1675204E0,1.963488E0,2.1153252E0,1.7423409E1,5.142633E0,3.0391762E0,2.023341E1,2.3475819E1,9.576784E0,2.0671803E1,1.4635024E1,1.2188638E0,1.4463165E0,1.4228854E0,2.5681021E0,4.457205E0,5.965949E2,1.1108515E1,6.9803143E0,1.2281266E0],"tree_param":{"num_deleted":"0","num_feature":"20","num_nodes":"49","size_leaf_vector":"1"}},{"base_weights":[3.1473304E-4,6.824676E-2,-1.989619E-1,1.81527E-1,-5.910643E-2,-9.218271E-1,-1.2246109E-1,7.843032E-2,5.507836E-1,-9.3059677E-1,-2.5415959E-2,5.6373846E-2,-1.1401112E0,4.3177316E-1,-2.3120622E-1,-3.1602595E-2,5.946687E-1,1.052715E0,3.373194E-1,-3.8138458E-3,-1.1547445E0,7.045671E-2,-3.5150686E-1,5.6255E-2,-7.617918E-2,-1.187115E0,-2.4849897E-2,-6.4564407E-1,9.169999E-1,-2.8460464E-1,9.146729E-1,1.4838736E-2,-2.8378366E-2,-4.9981374E-2,8.354682E-2,1.3620274E-1,-4.4268698E-2,4.8825345E-3,9.438869E-2,-1.3134645E-1,-4.296271E-2,2.208727E-2,-3.2112E-2,-5.1909067E-2,9.979971E-2,-2.5394022E-2,-1.2394816E-1,7.961357E-2,-9.506468E-2,1.18718125E-1,-6.526487E-2,-5.50039E-2,-5.879509E-3,1.3784897E-1,-7.791514E-2],"categories":[],"categories_nodes":[],"categories_segments":[],"categories_sizes":[],"default_left":[0,0,0,0,0,0,0,0,0,0,0,0,0,0,0,0,0,0,0,0,0,0,0,0,0,0,0,0,0,0,0,0,0,0,0,0,0,0,0,0,0,0,0,0,0,0,0,0,0,0,0,0,0,0,0],"id":14,"left_children":[1,3,5,7,9,11,13,15,17,19,21,23,25,27,29,31,33,35,37,-1,39,41,43,-1,-1,45,-1,47,49,51,53,-1,-1,-1,-1,-1,-1,-1,-1,-1,-1,-1,-1,-1,-1,-1,-1,-1,-1,-1,-1,-1,-1,-1,-1],"loss_changes":[1.0260674E1,8.165507E0,1.0543088E1,1.1354874E1,7.8114643E0,3.969243E0,1.067164E1,1.3380161E1,6.6288433E0,1.9372149E0,8.089146E0,2.2049055E0,3.3358574E-1,1.5815651E1,9.272529E0,8.886099E0,1.1322747E1,9.381186E0,8.214282E0,0E0,3.4282684E-1,1.1861177E1,1.3810317E1,0E0,0E0,3.6855125E-1,0E0,4.9911675E0,9.464752E0,8.44833E0,6.412631E0,0E0,0E0,0E0,0E0,0E0,0E0,0E0,0E0,0E0,0E0,0E0,0E0,0E0,0E0,0E0,0E0,0E0,0E0,0E0,0E0,0E0,0E0,0E0,0E0],"parents":[2147483647,0,0,1,1,2,2,3,3,4,4,5,5,6,6,7,7,8,8,9,9,10,10,11,11,12,12,13,13,14,14,15,15,16,16,17,17,18,18,20,20,21,21,22,22,25,25,27,27,28,28,29,29,30,30],"right_children":[2,4,6,8,10,12,14,16,18,20,22,24,26,28,30,32,34,36,38,-1,40,42,44,-1,-1,46,-1,48,50,52,54,-1,-1,-1,-1,-1,-1,-1,-1,-1,-1,-1,-1,-1,-1,-1,-1,-1,-1,-1,-1,-1,-1,-1,-1],"split_conditions":[1.9907546E-1,1.0699994E-2,1.1651878E-2,2.6214148E1,3.5317394E-1,1.3209767E7,1.7337266E7,6.7220093E-3,2.7533095E0,1.335432E-2,2.6214148E1,3.3250973E-1,8.605669E-1,2.0910715E1,4.36699E7,1.9265806E1,-2.3258537E-1,7.474558E-2,1.0154624E1,-3.8138458E-3,2.8941732E1,1.9789354E1,3.0980606E-2,5.6255E-2,-7.617918E-2,-7.721926E-3,-2.4849897E-2,8.447316E-1,2.9378403E-2,3.9829105E-1,1.11873366E-1,1.4838736E-2,-2.8378366E-2,-4.9981374E-2,8.354682E-2,1.3620274E-1,-4.4268698E-2,4.8825345E-3,9.438869E-2,-1.3134645E-1,-4.296271E-2,2.208727E-2,-3.2112E-2,-5.1909067E-2,9.979971E-2,-2.5394022E-2,-1.2394816E-1,7.961357E-2,-9.506468E-2,1.18718125E-1,-6.526487E-2,-5.50039E-2,-5.879509E-3,1.3784897E-1,-7.791514E-2],"split_indices":[10,3,7,8,15,14,14,11,17,7,8,10,6,8,14,8,9,5,16,0,8,17,7,0,0,19,0,6,1,10,11,0,0,0,0,0,0,0,0,0,0,0,0,0,0,0,0,0,0,0,0,0,0,0,0],"split_type":[0,0,0,0,0,0,0,0,0,0,0,0,0,0,0,0,0,0,0,0,0,0,0,0,0,0,0,0,0,0,0,0,0,0,0,0,0,0,0,0,0,0,0,0,0,0,0,0,0,0,0,0,0,0,0],"sum_hessian":[7.5595465E2,5.642599E2,1.9169476E2,2.984046E2,2.658553E2,1.728805E1,1.7440672E2,2.3422205E2,6.418255E1,8.904169E0,2.5695114E2,3.289315E0,1.3998734E1,2.8119812E1,1.4628691E2,1.9384418E2,4.0377865E1,1.797806E1,4.620449E1,2.0223205E0,6.881849E0,1.991761E2,5.777503E1,2.2251203E0,1.0641946E0,1.2982881E1,1.0158538E0,8.629007E0,1.9490803E1,1.4049158E2,5.7953334E0,1.133524E2,8.0491776E1,7.0876083E0,3.3290257E1,1.4970679E1,3.0073802E0,3.2044205E1,1.4160286E1,4.980329E0,1.9015201E0,1.442149E2,5.4961193E1,5.194033E1,5.8346953E0,1.0006447E0,1.1982236E1,1.2255317E0,7.403476E0,1.6836437E1,2.6543674E0,6.3919586E1,7.657198E1,4.6956887E0,1.0996447E0],"tree_param":{"num_deleted":"0","num_feature":"20","num_nodes":"55","size_leaf_vector":"1"}},{"base_weights":[-2.5951175E-7,1.6275002E-1,-7.666698E-2,1.276433E-1,1.1695048E0,1.1262118E-1,-1.8075085E-1,2.0373742E-1,-5.0921947E-1,1.3180415E-1,1.6153356E-2,-2.5150135E-1,2.9925424E-1,7.064609E-2,-3.1381857E-1,1.6205285E-1,1.5446447E-1,-8.8328534E-1,6.425906E-1,-4.117243E-1,3.9782754E-1,-6.2849176E-1,3.6092395E-1,3.0038366E-1,-6.0293555E-1,-7.944712E-2,-6.159439E-1,2.0063676E-2,-9.657671E-2,1.3752553E-2,-1.2198364E-1,1.3745157E-1,-1.0204404E-1,7.3730655E-2,-5.433491E-2,1.05793975E-1,-3.715723E-2,8.33753E-2,-1.0191896E-1,4.9338464E-2,-8.774254E-3,-3.983521E-3,9.087393E-2,6.906947E-2,-8.386658E-2,-1.2855577E-2,1.4594108E-1,-8.124312E-2,-2.5485678E-2],"categories":[],"categories_nodes":[],"categories_segments":[],"categories_sizes":[],"default_left":[0,0,0,0,0,0,0,0,0,0,0,0,0,0,0,0,0,0,0,0,0,0,0,0,0,0,0,0,0,0,0,0,0,0,0,0,0,0,0,0,0,0,0,0,0,0,0,0,0],"id":15,"left_children":[1,3,5,7,9,11,13,15,17,-1,-1,19,21,23,25,27,-1,29,31,33,35,37,39,41,43,45,47,-1,-1,-1,-1,-1,-1,-1,-1,-1,-1,-1,-1,-1,-1,-1,-1,-1,-1,-1,-1,-1,-1],"loss_changes":[9.413861E0,8.389678E0,1.0124807E1,1.1471767E1,9.8760796E-1,1.2482491E1,1.1104904E1,1.1501973E1,1.1477814E1,0E0,0E0,6.6569424E0,7.15899E0,1.8051476E1,1.5303516E1,9.115969E0,0E0,6.8793707E0,9.66337E0,8.045973E0,6.9249887E0,5.3725595E0,6.8329754E0,1.799715E1,9.636937E0,9.50142E0,6.502453E0,0E0,0E0,0E0,0E0,0E0,0E0,0E0,0E0,0E0,0E0,0E0,0E0,0E0,0E0,0E0,0E0,0E0,0E0,0E0,0E0,0E0,0E0],"parents":[2147483647,0,0,1,1,2,2,3,3,4,4,5,5,6,6,7,7,8,8,11,11,12,12,13,13,14,14,15,15,17,17,18,18,19,19,20,20,21,21,22,22,23,23,24,24,25,25,26,26],"right_children":[2,4,6,8,10,12,14,16,18,-1,-1,20,22,24,26,28,-1,30,32,34,36,38,40,42,44,46,48,-1,-1,-1,-1,-1,-1,-1,-1,-1,-1,-1,-1,-1,-1,-1,-1,-1,-1,-1,-1,-1,-1],"split_conditions":[-5.1043495E-3,3.6846703E1,-4.344145E-3,4.5179176E1,3.3362955E-2,-7.590353E-3,1.745597E1,4.412049E1,1.9748845E0,1.3180415E-1,1.6153356E-2,6.5399295E-1,1.1941119E1,2.4969452E1,2.4020166E7,4.0733406E1,1.5446447E-1,2.1806885E-2,5.4229207E-2,-7.738828E-2,3.9113243E1,-1.6549423E-2,2.99999E7,6.0648937E-2,3.5995364E-2,4.7398983E1,3.336457E-1,2.0063676E-2,-9.657671E-2,1.3752553E-2,-1.2198364E-1,1.3745157E-1,-1.0204404E-1,7.3730655E-2,-5.433491E-2,1.05793975E-1,-3.715723E-2,8.33753E-2,-1.0191896E-1,4.9338464E-2,-8.774254E-3,-3.983521E-3,9.087393E-2,6.906947E-2,-8.386658E-2,-1.2855577E-2,1.4594108E-1,-8.124312E-2,-2.5485678E-2],"split_indices":[9,8,0,16,3,4,8,16,6,0,0,6,8,17,14,16,0,7,2,3,16,2,14,10,18,16,9,0,0,0,0,0,0,0,0,0,0,0,0,0,0,0,0,0,0,0,0,0,0],"split_type":[0,0,0,0,0,0,0,0,0,0,0,0,0,0,0,0,0,0,0,0,0,0,0,0,0,0,0,0,0,0,0,0,0,0,0,0,0,0,0,0,0,0,0,0,0,0,0,0,0],"sum_hessian":[7.524651E2,2.4059673E2,5.1186832E2,2.3357837E2,7.018363E0,1.8157387E2,3.3029446E2,2.0925598E2,2.4322388E1,5.848846E0,1.169517E0,6.1411663E1,1.201622E2,1.1448115E2,2.1581331E2,2.0403406E2,5.22192E0,1.8535776E1,5.7866116E0,4.955084E1,1.1860826E1,6.9167533E0,1.13245445E2,8.5778755E1,2.870239E1,1.2224536E2,9.3567955E1,1.9807965E2,5.954411E0,4.7424784E0,1.3793298E1,4.1386266E0,1.6479847E0,4.61985E0,4.493099E1,6.181954E0,5.678872E0,1.2193066E0,5.697447E0,8.7355606E1,2.5889841E1,5.5612408E1,3.0166351E1,4.126598E0,2.4575792E1,1.1935298E2,2.8923798E0,5.978545E1,3.37825E1],"tree_param":{"num_deleted":"0","num_feature":"20","num_nodes":"49","size_leaf_vector":"1"}},{"base_weights":[2.3945617E-4,2.3695031E-1,-4.6927817E-2,-5.24734E-2,3.537658E-1,-1.666093E-1,5.5743933E-2,8.309189E-1,-2.428976E-1,5.5593383E-1,-4.3555576E-2,-1.0723579E-1,-6.419753E-1,-9.378628E-2,1.9902861E-1,1.22309424E-1,-2.0694493E-3,-4.205896E-1,8.607334E-1,8.3201265E-1,2.1595034E-1,-1.5916358E-1,1.2197099E-1,-3.7619628E-2,-5.2673906E-1,1.4487483E-1,-8.0146533E-1,1.11266315E-1,-1.2590475E-1,3.189746E-1,-1.06600404E-1,9.36892E-2,-5.6988966E-2,1.1837838E-1,-8.657941E-3,1.4162993E-1,3.8290795E-2,-4.886261E-2,6.7275606E-2,2.3543557E-2,-7.2447576E-2,-2.1717088E-2,1.1479827E-2,6.936738E-3,-7.8475885E-2,-4.956433E-2,8.636942E-2,-5.8354348E-2,-1.264794E-1,-4.6333175E-2,-2.8910695E-3,4.59379E-2,-2.6882652E-2,-5.9479266E-2,2.395208E-2],"categories":[],"categories_nodes":[],"categories_segments":[],"categories_sizes":[],"default_left":[0,0,0,0,0,0,0,0,0,0,0,0,0,0,0,0,0,0,0,0,0,0,0,0,0,0,0,0,0,0,0,0,0,0,0,0,0,0,0,0,0,0,0,0,0,0,0,0,0,0,0,0,0,0,0],"id":16,"left_children":[1,3,5,7,9,11,13,15,17,19,21,23,25,27,29,-1,-1,31,33,35,37,39,-1,41,43,45,47,-1,49,51,53,-1,-1,-1,-1,-1,-1,-1,-1,-1,-1,-1,-1,-1,-1,-1,-1,-1,-1,-1,-1,-1,-1,-1,-1],"loss_changes":[8.3875265E0,4.238615E0,7.7066526E0,6.3861027E0,7.177742E0,8.1020355E0,7.258697E0,2.2782068E0,6.4447684E0,5.367241E0,4.715674E0,7.5311136E0,4.124836E0,6.5738373E0,6.3717246E0,0E0,0E0,6.0846877E0,1.519325E0,7.923609E0,9.287109E0,6.6951933E0,0E0,6.12316E0,5.7027426E0,3.2966814E0,1.9591236E0,0E0,5.3091545E0,1.0390825E1,8.502558E0,0E0,0E0,0E0,0E0,0E0,0E0,0E0,0E0,0E0,0E0,0E0,0E0,0E0,0E0,0E0,0E0,0E0,0E0,0E0,0E0,0E0,0E0,0E0,0E0],"parents":[2147483647,0,0,1,1,2,2,3,3,4,4,5,5,6,6,7,7,8,8,9,9,10,10,11,11,12,12,13,13,14,14,17,17,18,18,19,19,20,20,21,21,23,23,24,24,25,25,26,26,28,28,29,29,30,30],"right_children":[2,4,6,8,10,12,14,16,18,20,22,24,26,28,30,-1,-1,32,34,36,38,40,-1,42,44,46,48,-1,50,52,54,-1,-1,-1,-1,-1,-1,-1,-1,-1,-1,-1,-1,-1,-1,-1,-1,-1,-1,-1,-1,-1,-1,-1,-1],"split_conditions":[2.102769E-2,-1.6010611E-1,-4.4234212E-2,1.9783066E7,-2.2534652E-2,-8.688091E-2,6.0757734E-3,-6.0561482E-2,4.8163773E1,2.1735052E-2,9.379382E-3,9.959594E-2,-1.6682575E-2,-1.05465636E-1,2.4969452E1,1.22309424E-1,-2.0694493E-3,2.55268E1,-8.591566E-3,2.39529E7,2.183574E1,-2.6186746E-2,1.2197099E-1,1.9309621E-2,1.5779659E-1,-2.5039027E-2,9.764104E-1,1.11266315E-1,7.469527E-1,2.6214148E1,1.8386787E1,9.36892E-2,-5.6988966E-2,1.1837838E-1,-8.657941E-3,1.4162993E-1,3.8290795E-2,-4.886261E-2,6.7275606E-2,2.3543557E-2,-7.2447576E-2,-2.1717088E-2,1.1479827E-2,6.936738E-3,-7.8475885E-2,-4.956433E-2,8.636942E-2,-5.8354348E-2,-1.264794E-1,-4.6333175E-2,-2.8910695E-3,4.59379E-2,-2.6882652E-2,-5.9479266E-2,2.395208E-2],"split_indices":[18,11,13,14,9,13,11,4,16,7,1,5,4,5,17,0,0,12,18,14,8,2,0,7,18,5,15,0,15,8,8,0,0,0,0,0,0,0,0,0,0,0,0,0,0,0,0,0,0,0,0,0,0,0,0],"split_type":[0,0,0,0,0,0,0,0,0,0,0,0,0,0,0,0,0,0,0,0,0,0,0,0,0,0,0,0,0,0,0,0,0,0,0,0,0,0,0,0,0,0,0,0,0,0,0,0,0,0,0,0,0,0,0],"sum_hessian":[7.492376E2,1.23819725E2,6.2541785E2,3.5763176E1,8.805655E1,2.8849957E2,3.369183E2,5.745562E0,3.0017614E1,5.8096336E1,2.9960217E1,2.575562E2,3.0943344E1,1.6503508E2,1.7188321E2,3.635277E0,2.1102853E0,2.638789E1,3.6297238E0,3.1262691E1,2.6833643E1,2.8249008E1,1.7112077E0,2.2183293E2,3.572328E1,5.230435E0,2.571291E1,3.4072676E0,1.616278E2,1.2340751E2,4.8475704E1,2.0919566E0,2.4295933E1,2.520549E0,1.1091746E0,1.2650605E1,1.8612085E1,1.05270605E1,1.6306583E1,1.6980093E1,1.1268914E1,1.016557E2,1.2017723E2,1.1012383E1,2.47109E1,2.9300404E0,2.3003943E0,1.9024426E1,6.688483E0,3.524369E1,1.26384125E2,9.9789825E1,2.3617691E1,1.9812454E1,2.866325E1],"tree_param":{"num_deleted":"0","num_feature":"20","num_nodes":"55","size_leaf_vector":"1"}},{"base_weights":[5.9249956E-4,5.8460545E-2,-1.716098E-1,-8.719512E-2,1.5744513E-1,-8.4608555E-1,-1.04079336E-1,6.651135E-2,-5.224415E-1,1.3800359E0,1.2288761E-1,1.1843655E-1,-1.0769612E0,-9.63144E-3,-6.641376E-1,2.4830045E-1,-2.5058705E-1,-7.340668E-1,1.03709824E-1,1.7461356E0,-6.597941E-2,5.839483E-1,5.6488357E-2,7.6393954E-2,-4.0881354E-2,-3.2265328E-2,-1.1206502E0,-1.7650312E-1,4.8988846E-1,8.817402E-1,-9.358262E-1,6.2921666E-2,-1.1489209E-2,5.4012454E-4,-6.722481E-2,1.0397637E-1,-8.181404E-2,-7.6312E-2,7.524305E-2,1.8957737E-1,6.5733224E-2,2.103248E-2,1.114633E-1,-1.7318333E-2,2.0525945E-2,-4.1754015E-2,-1.1896874E-1,-3.204327E-2,6.175012E-2,-1.0213857E-1,7.704484E-2,1.5205759E-1,-1.36993425E-2,-1.09781146E-1,1.9547168E-2],"categories":[],"categories_nodes":[],"categories_segments":[],"categories_sizes":[],"default_left":[0,0,0,0,0,0,0,0,0,0,0,0,0,0,0,0,0,0,0,0,0,0,0,0,0,0,0,0,0,0,0,0,0,0,0,0,0,0,0,0,0,0,0,0,0,0,0,0,0,0,0,0,0,0,0],"id":17,"left_children":[1,3,5,7,9,11,13,15,17,19,21,23,25,27,29,31,33,35,37,39,-1,41,43,-1,-1,-1,45,47,49,51,53,-1,-1,-1,-1,-1,-1,-1,-1,-1,-1,-1,-1,-1,-1,-1,-1,-1,-1,-1,-1,-1,-1,-1,-1],"loss_changes":[7.4576488E0,8.089638E0,8.485683E0,1.5240049E1,1.3935751E1,3.9112492E0,9.104754E0,9.795782E0,7.9511585E0,7.932543E0,9.940378E0,1.7358103E0,9.348297E-2,1.2456828E1,1.1258308E1,1.4989776E1,6.698739E0,7.4932613E0,9.508735E0,5.273056E-2,0E0,7.875722E0,9.803424E0,0E0,0E0,0E0,1.1721802E-1,1.2994736E1,1.6656063E1,2.9599664E0,4.175234E0,0E0,0E0,0E0,0E0,0E0,0E0,0E0,0E0,0E0,0E0,0E0,0E0,0E0,0E0,0E0,0E0,0E0,0E0,0E0,0E0,0E0,0E0,0E0,0E0],"parents":[2147483647,0,0,1,1,2,2,3,3,4,4,5,5,6,6,7,7,8,8,9,9,10,10,11,11,12,12,13,13,14,14,15,15,16,16,17,17,18,18,19,19,21,21,22,22,26,26,27,27,28,28,29,29,30,30],"right_children":[2,4,6,8,10,12,14,16,18,20,22,24,26,28,30,32,34,36,38,40,-1,42,44,-1,-1,-1,46,48,50,52,54,-1,-1,-1,-1,-1,-1,-1,-1,-1,-1,-1,-1,-1,-1,-1,-1,-1,-1,-1,-1,-1,-1,-1,-1],"split_conditions":[1.9907546E-1,2.8797302E0,1.1651878E-2,2.6302896E0,3.4276955E0,1.3209767E7,1.9090858E-1,3.461454E-2,2.6062034E7,1.8352994E-1,1.9823134E7,-4.283813E-3,-6.7896284E-3,2.926561E1,-1.438956E-2,2.2788811E-2,1.5378694E-1,-5.363707E-2,7.698031E-1,8.584517E-2,-6.597941E-2,8.960918E-2,1.9309621E-2,7.6393954E-2,-4.0881354E-2,-3.2265328E-2,1.2596241E1,2.4675837E-2,3.5027242E-1,3.2542056E-1,4.36699E7,6.2921666E-2,-1.1489209E-2,5.4012454E-4,-6.722481E-2,1.0397637E-1,-8.181404E-2,-7.6312E-2,7.524305E-2,1.8957737E-1,6.5733224E-2,2.103248E-2,1.114633E-1,-1.7318333E-2,2.0525945E-2,-4.1754015E-2,-1.1896874E-1,-3.204327E-2,6.175012E-2,-1.0213857E-1,7.704484E-2,1.5205759E-1,-1.36993425E-2,-1.09781146E-1,1.9547168E-2],"split_indices":[10,17,7,17,17,14,18,4,14,18,14,2,19,8,2,7,18,18,15,9,0,10,7,0,0,0,8,7,9,6,14,0,0,0,0,0,0,0,0,0,0,0,0,0,0,0,0,0,0,0,0,0,0,0,0],"split_type":[0,0,0,0,0,0,0,0,0,0,0,0,0,0,0,0,0,0,0,0,0,0,0,0,0,0,0,0,0,0,0,0,0,0,0,0,0,0,0,0,0,0,0,0,0,0,0,0,0,0,0,0,0,0,0],"sum_hessian":[7.4637665E2,5.5913995E2,1.8723672E2,2.2628339E2,3.3285657E2,1.5991279E1,1.7124545E2,1.6785344E2,5.842995E1,8.07957E0,3.2477698E2,3.1825686E0,1.280871E1,1.4740445E2,2.3841E1,1.068274E2,6.1026035E1,4.354153E1,1.488842E1,6.9722085E0,1.1073611E0,3.9903316E1,2.848737E2,1.2290057E0,1.9535629E0,1.1603341E0,1.1648376E1,1.109775E2,3.642695E1,3.2280939E0,2.0612907E1,5.1783947E1,5.504345E1,3.8587154E1,2.2438879E1,1.4559454E0,4.2085587E1,6.2973995E0,8.591021E0,5.4781704E0,1.494038E0,2.4236303E1,1.5667012E1,1.1192327E2,1.729504E2,1.6716348E0,9.976742E0,9.4452484E1,1.6525015E1,5.2901745E0,3.1136774E1,1.681212E0,1.5468819E0,1.8057007E1,2.5558999E0],"tree_param":{"num_deleted":"0","num_feature":"20","num_nodes":"55","size_leaf_vector":"1"}},{"base_weights":[5.5755774E-4,2.2429472E-1,-4.3858167E-2,-6.625566E-2,3.2497856E-1,8.00148E-1,-5.6909412E-2,-5.282523E-1,3.7960133E-1,2.0458351E-1,7.7570957E-1,-2.9143546E-2,1.0646234E0,-9.652675E-1,-4.1442074E-2,3.4100696E-2,-1.3321964E-1,6.6032696E-1,-7.5103664E-1,-2.2368364E-2,5.187699E-1,9.435502E-1,5.280093E-2,1.2948832E-1,1.8144589E-2,5.9517313E-2,-1.3492742E-1,-7.2737E-1,-1.8364105E-2,-1.1400852E-1,6.630081E-2,9.389957E-2,-3.278504E-2,-7.908176E-3,-9.8991804E-2,4.4860784E-2,-4.3391537E-2,-2.0018706E-2,8.029854E-2,1.1384066E-1,1.914407E-2,-8.4418505E-2,1.0046623E-1,-1.03139356E-1,3.950685E-2,1.1519634E-2,-1.1251695E-2],"categories":[],"categories_nodes":[],"categories_segments":[],"categories_sizes":[],"default_left":[0,0,0,0,0,0,0,0,0,0,0,0,0,0,0,0,0,0,0,0,0,0,0,0,0,0,0,0,0,0,0,0,0,0,0,0,0,0,0,0,0,0,0,0,0,0,0],"id":18,"left_children":[1,3,5,7,9,11,13,15,17,19,21,-1,23,25,27,29,-1,31,33,35,37,39,41,-1,-1,-1,-1,43,45,-1,-1,-1,-1,-1,-1,-1,-1,-1,-1,-1,-1,-1,-1,-1,-1,-1,-1],"loss_changes":[7.396558E0,3.628055E0,6.88647E0,6.9069166E0,4.8189125E0,3.0596857E0,8.565746E0,7.4633126E0,5.939372E0,5.2702556E0,2.2528477E0,0E0,1.3677435E0,6.921253E0,9.536832E0,8.605252E0,0E0,4.2377305E0,5.443783E-1,8.679951E0,6.4893713E0,2.0305967E0,4.8057127E0,0E0,0E0,0E0,0E0,7.099846E0,7.365522E0,0E0,0E0,0E0,0E0,0E0,0E0,0E0,0E0,0E0,0E0,0E0,0E0,0E0,0E0,0E0,0E0,0E0,0E0],"parents":[2147483647,0,0,1,1,2,2,3,3,4,4,5,5,6,6,7,7,8,8,9,9,10,10,12,12,13,13,14,14,15,15,17,17,18,18,19,19,20,20,21,21,22,22,27,27,28,28],"right_children":[2,4,6,8,10,12,14,16,18,20,22,-1,24,26,28,30,-1,32,34,36,38,40,42,-1,-1,-1,-1,44,46,-1,-1,-1,-1,-1,-1,-1,-1,-1,-1,-1,-1,-1,-1,-1,-1,-1,-1],"split_conditions":[2.102769E-2,-1.7739293E-1,3.898078E-2,2.5938448E1,2.5159142E1,1.1743176E-2,4.358E6,2.2578285E1,-5.410022E-2,1.2598255E1,3.3140066E7,-2.9143546E-2,1.744367E-2,-7.065512E-4,1.0899388E1,5.081659E-1,-1.3321964E-1,-5.052811E-2,-4.0174976E-2,2.6139066E0,-5.410022E-2,3.1294418E1,1.18241E-1,1.2948832E-1,1.8144589E-2,5.9517313E-2,-1.3492742E-1,3.48133E-2,2.2638834E7,-1.1400852E-1,6.630081E-2,9.389957E-2,-3.278504E-2,-7.908176E-3,-9.8991804E-2,4.4860784E-2,-4.3391537E-2,-2.0018706E-2,8.029854E-2,1.1384066E-1,1.914407E-2,-8.4418505E-2,1.0046623E-1,-1.03139356E-1,3.950685E-2,1.1519634E-2,-1.1251695E-2],"split_indices":[18,11,6,16,8,7,14,16,5,17,14,0,7,10,8,6,0,3,5,17,5,8,19,0,0,0,0,5,14,0,0,0,0,0,0,0,0,0,0,0,0,0,0,0,0,0,0],"split_type":[0,0,0,0,0,0,0,0,0,0,0,0,0,0,0,0,0,0,0,0,0,0,0,0,0,0,0,0,0,0,0,0,0,0,0,0,0,0,0,0,0,0,0,0,0,0,0],"sum_hessian":[7.423217E2,1.2228426E2,6.200375E2,3.155776E1,9.07265E1,8.523541E0,6.115139E2,1.5407608E1,1.6150152E1,7.27485E1,1.7978004E1,1.6424853E0,6.881057E0,9.210282E0,6.0230365E2,9.6294565E0,5.7781515E0,1.3271057E1,2.8790958E0,4.277725E1,2.9971247E1,1.434277E1,3.6352339E0,5.088287E0,1.7927697E0,1.7103286E0,7.4999537E0,1.8611483E1,5.8369214E2,3.0751922E0,6.554264E0,1.0390638E1,2.8804183E0,1.1041781E0,1.7749178E0,1.9906319E1,2.2870932E1,8.575117E0,2.139613E1,1.0983539E1,3.359232E0,1.929805E0,1.7054287E0,1.4708622E1,3.9028616E0,2.4124739E2,3.4244476E2],"tree_param":{"num_deleted":"0","num_feature":"20","num_nodes":"47","size_leaf_vector":"1"}},{"base_weights":[3.7967323E-4,2.263477E-2,-4.0537593E-1,7.5421137E-1,1.2208747E-2,1.5259512E-1,-6.183509E-1,1.3367258E-1,-8.03908E-2,4.4953756E-2,-2.6898822E-1,-8.829098E-2,5.286832E-1,-2.2245082E-1,-9.2960197E-1,2.424009E-4,3.0275723E-1,-8.3507204E-1,-5.271396E-2,1.1765795E0,-1.8793231E-1,8.735487E-2,-4.059276E-1,-1.0832226E0,4.1408E-2,-3.651515E-2,3.8633074E-3,1.0938936E-1,9.413666E-3,-1.3661282E-1,-1.6535616E-2,3.2227345E-2,-4.2004734E-2,1.567535E-1,-7.574019E-4,-6.317307E-2,6.736844E-2,-9.438897E-2,1.6638895E-2,-9.732265E-3,-1.1822138E-1],"categories":[],"categories_nodes":[],"categories_segments":[],"categories_sizes":[],"default_left":[0,0,0,0,0,0,0,0,0,0,0,0,0,0,0,0,0,0,0,0,0,0,0,0,0,0,0,0,0,0,0,0,0,0,0,0,0,0,0,0,0],"id":19,"left_children":[1,3,5,7,9,11,13,-1,-1,15,17,-1,19,21,23,25,27,29,31,33,35,-1,37,39,-1,-1,-1,-1,-1,-1,-1,-1,-1,-1,-1,-1,-1,-1,-1,-1,-1],"loss_changes":[6.6991076E0,5.3549476E0,4.678295E0,1.0028658E1,6.4060407E0,4.929105E0,3.2577887E0,0E0,0E0,7.179177E0,8.840878E0,0E0,4.414118E0,3.1074834E0,3.6327858E0,7.4737782E0,1.5090193E1,6.885189E0,7.5154066E0,2.2713566E0,2.3949938E0,0E0,3.97772E0,1.2630005E0,0E0,0E0,0E0,0E0,0E0,0E0,0E0,0E0,0E0,0E0,0E0,0E0,0E0,0E0,0E0,0E0,0E0],"parents":[2147483647,0,0,1,1,2,2,3,3,4,4,5,5,6,6,9,9,10,10,12,12,13,13,14,14,15,15,16,16,17,17,18,18,19,19,20,20,22,22,23,23],"right_children":[2,4,6,8,10,12,14,-1,-1,16,18,-1,20,22,24,26,28,30,32,34,36,-1,38,40,-1,-1,-1,-1,-1,-1,-1,-1,-1,-1,-1,-1,-1,-1,-1,-1,-1],"split_conditions":[7.0419075E1,-1.2877276E0,1.3149062E-2,4.5179176E1,9.7772837E-1,1.1743176E-2,5.251907E0,1.3367258E-1,-8.03908E-2,2.7336422E-2,1.5943162E1,-8.829098E-2,3.918313E-2,2.1401241E-2,9.1382474E-1,-4.2047447E-1,1.6654713E1,1.5006429E0,8.1739396E-2,1.1174557E-2,3.881153E-1,8.735487E-2,2.051158E-2,1.373336E-1,4.1408E-2,-3.651515E-2,3.8633074E-3,1.0938936E-1,9.413666E-3,-1.3661282E-1,-1.6535616E-2,3.2227345E-2,-4.2004734E-2,1.567535E-1,-7.574019E-4,-6.317307E-2,6.736844E-2,-9.438897E-2,1.6638895E-2,-9.732265E-3,-1.1822138E-1],"split_indices":[12,10,7,16,6,7,16,0,0,7,8,0,2,3,6,13,8,6,18,0,6,0,11,18,0,0,0,0,0,0,0,0,0,0,0,0,0,0,0,0,0],"split_type":[0,0,0,0,0,0,0,0,0,0,0,0,0,0,0,0,0,0,0,0,0,0,0,0,0,0,0,0,0,0,0,0,0,0,0,0,0,0,0,0,0],"sum_hessian":[7.398456E2,7.0227124E2,3.757433E1,8.865348E0,6.934059E2,1.0458282E1,2.7116045E1,6.556313E0,2.3090353E0,6.218343E2,7.1571625E1,2.427338E0,8.030945E0,1.2689789E1,1.4426256E1,5.307809E2,9.1053406E1,1.8994247E1,5.2577374E1,3.8806078E0,4.1503367E0,1.280375E0,1.1409414E1,1.3120099E1,1.3061565E0,4.965587E1,4.81125E2,1.8114744E1,7.293866E1,1.001384E1,8.980409E0,2.6078327E1,2.6499046E1,2.6740081E0,1.2065998E0,2.91546E0,1.2348766E0,5.5465565E0,5.8628573E0,1.3780993E0,1.1742E1],"tree_param":{"num_deleted":"0","num_feature":"20","num_nodes":"41","size_leaf_vector":"1"}},{"base_weights":[1.7113125E-4,1.0335159E-2,-8.4130347E-1,-4.4799992E-4,8.0688745E-1,1.3572431E-2,-1.1232922E-1,4.4652876E-2,-2.0027258E-1,1.0323691E0,-4.4440273E-2,-4.5957375E-1,6.404351E-2,-1.0840093E-2,-3.8922468E-1,-2.5237624E-3,1.4143602E0,7.8045465E-2,-7.6695345E-2,-6.5914355E-2,8.4528355E-3,5.5137463E-2,-1.987992E-2,-7.603951E-2,1.6623503E-2,5.0861485E-2,-4.6457723E-2,1.6220514E-1,3.5529643E-2],"categories":[],"categories_nodes":[],"categories_segments":[],"categories_sizes":[],"default_left":[0,0,0,0,0,0,0,0,0,0,0,0,0,0,0,0,0,0,0,0,0,0,0,0,0,0,0,0,0],"id":20,"left_children":[1,3,5,7,9,-1,-1,11,13,15,-1,17,19,21,23,25,27,-1,-1,-1,-1,-1,-1,-1,-1,-1,-1,-1,-1],"loss_changes":[6.326892E0,6.278337E0,2.584844E0,6.5170536E0,3.2133021E0,0E0,0E0,5.797843E0,4.761991E0,3.3926945E0,0E0,8.972855E0,8.485257E0,7.2450056E0,1.3864524E1,1.0179129E0,8.014202E-1,0E0,0E0,0E0,0E0,0E0,0E0,0E0,0E0,0E0,0E0,0E0,0E0],"parents":[2147483647,0,0,1,1,2,2,3,3,4,4,7,7,8,8,9,9,11,11,12,12,13,13,14,14,15,15,16,16],"right_children":[2,4,6,8,10,-1,-1,12,14,16,-1,18,20,22,24,26,28,-1,-1,-1,-1,-1,-1,-1,-1,-1,-1,-1,-1],"split_conditions":[4.7082066E1,4.5804152E-1,1.9823134E7,3.164574E-2,4.3108967E-1,1.3572431E-2,-1.1232922E-1,1.0899388E1,2.237568E-2,-1.9631136E-2,-4.4440273E-2,2.5435581E0,1.1814063E0,7.0421495E-2,2.8220445E-2,-2.826593E-2,1.7755044E0,7.8045465E-2,-7.6695345E-2,-6.5914355E-2,8.4528355E-3,5.5137463E-2,-1.987992E-2,-7.603951E-2,1.6623503E-2,5.0861485E-2,-4.6457723E-2,1.6220514E-1,3.5529643E-2],"split_indices":[8,11,14,1,18,0,0,8,7,19,0,17,16,6,7,19,6,0,0,0,0,0,0,0,0,0,0,0,0],"split_type":[0,0,0,0,0,0,0,0,0,0,0,0,0,0,0,0,0,0,0,0,0,0,0,0,0,0,0,0,0],"sum_hessian":[7.377309E2,7.299022E2,7.828646E0,7.211394E2,8.762835E0,1.8695974E0,5.9590487E0,5.8898145E2,1.3215794E2,7.5731196E0,1.1897153E0,2.0970547E1,5.680109E2,6.6523094E1,6.563486E1,2.3095267E0,5.263593E0,3.8599029E0,1.7110645E1,1.4787378E1,5.532235E2,1.618319E1,5.0339905E1,3.9123035E1,2.651182E1,1.0486763E0,1.2608504E0,3.956166E0,1.307427E0],"tree_param":{"num_deleted":"0","num_feature":"20","num_nodes":"29","size_leaf_vector":"1"}},{"base_weights":[2.1321628E-5,5.124924E-2,-1.5402809E-1,-8.244216E-2,1.4165756E-1,-8.2175714E-1,-9.33161E-2,8.1343904E-2,-4.407351E-1,1.2637792E0,1.0992035E-1,-1.0488314E-2,-1.1524737E-1,3.92012E-1,-1.9066522E-1,1.16915174E-1,-1.0794077E-1,-1.1160008E0,-2.680826E-1,1.5740862E0,-6.093779E-2,5.2479464E-1,5.0314642E-2,-6.965479E-1,8.013581E-2,-5.6417775E-1,8.163338E-1,-3.0469123E-1,2.4285422E-1,1.6677411E-2,-6.9576256E-2,-1.294614E-1,-5.695745E-2,-4.5209393E-2,7.652937E-2,1.7093636E-1,6.0023874E-2,1.8518811E-2,1.0156391E-1,8.820012E-3,-6.60527E-2,-8.3131455E-2,-1.9409498E-2,7.96231E-2,-8.648282E-2,1.0269063E-1,-7.0502184E-2,-4.67384E-2,9.929195E-3,5.611819E-2,-1.16910554E-1],"categories":[],"categories_nodes":[],"categories_segments":[],"categories_sizes":[],"default_left":[0,0,0,0,0,0,0,0,0,0,0,0,0,0,0,0,0,0,0,0,0,0,0,0,0,0,0,0,0,0,0,0,0,0,0,0,0,0,0,0,0,0,0,0,0,0,0,0,0,0,0],"id":21,"left_children":[1,3,5,7,9,11,13,15,17,19,21,23,-1,25,27,29,-1,31,33,35,-1,37,39,41,-1,43,45,47,49,-1,-1,-1,-1,-1,-1,-1,-1,-1,-1,-1,-1,-1,-1,-1,-1,-1,-1,-1,-1,-1,-1],"loss_changes":[5.829478E0,6.7119684E0,7.3964624E0,1.3196878E1,1.165167E1,4.0757446E0,8.111702E0,6.516052E0,7.9218006E0,6.1969223E0,7.96261E0,3.5778313E0,0E0,1.2124339E1,7.111222E0,6.236808E0,0E0,6.33091E-1,1.1274502E1,2.9144287E-2,0E0,6.559407E0,7.695388E0,7.384193E-2,0E0,4.5444484E0,7.233676E0,7.483695E0,1.4231264E1,0E0,0E0,0E0,0E0,0E0,0E0,0E0,0E0,0E0,0E0,0E0,0E0,0E0,0E0,0E0,0E0,0E0,0E0,0E0,0E0,0E0,0E0],"parents":[2147483647,0,0,1,1,2,2,3,3,4,4,5,5,6,6,7,7,8,8,9,9,10,10,11,11,13,13,14,14,15,15,17,17,18,18,19,19,21,21,22,22,23,23,25,25,26,26,27,27,28,28],"right_children":[2,4,6,8,10,12,14,16,18,20,22,24,-1,26,28,30,-1,32,34,36,-1,38,40,42,-1,44,46,48,50,-1,-1,-1,-1,-1,-1,-1,-1,-1,-1,-1,-1,-1,-1,-1,-1,-1,-1,-1,-1,-1,-1],"split_conditions":[1.9907546E-1,2.8797302E0,1.14499135E-2,2.6065571E0,3.4276955E0,1.4557756E1,1.7337266E7,2.2543891E-1,1.2138177E-2,1.8352994E-1,1.9823134E7,1.057243E0,-1.1524737E-1,2.0910715E1,2.4675837E-2,2.3045983E0,-1.0794077E-1,6.967958E-2,5.407491E-2,8.584517E-2,-6.093779E-2,8.960918E-2,6.7329185E1,-2.5852532E-3,8.013581E-2,8.447316E-1,3.266508E-2,2.9822735E1,1.3078158E-1,1.6677411E-2,-6.9576256E-2,-1.294614E-1,-5.695745E-2,-4.5209393E-2,7.652937E-2,1.7093636E-1,6.0023874E-2,1.8518811E-2,1.0156391E-1,8.820012E-3,-6.60527E-2,-8.3131455E-2,-1.9409498E-2,7.96231E-2,-8.648282E-2,1.0269063E-1,-7.0502184E-2,-4.67384E-2,9.929195E-3,5.611819E-2,-1.16910554E-1],"split_indices":[10,17,7,17,17,8,14,18,19,18,14,15,0,8,7,15,0,6,10,9,0,10,12,1,0,6,1,8,11,0,0,0,0,0,0,0,0,0,0,0,0,0,0,0,0,0,0,0,0,0,0],"split_type":[0,0,0,0,0,0,0,0,0,0,0,0,0,0,0,0,0,0,0,0,0,0,0,0,0,0,0,0,0,0,0,0,0,0,0,0,0,0,0,0,0,0,0,0,0,0,0,0,0,0,0],"sum_hessian":[7.366909E2,5.5334705E2,1.8334389E2,2.2327179E2,3.3007526E2,1.4236053E1,1.6910783E2,1.5375768E2,6.9514114E1,8.011055E0,3.220642E2,4.4215126E0,9.814541E0,2.7747498E1,1.4136034E2,1.5005841E2,3.6992679E0,1.3041869E1,5.6472244E1,7.0095196E0,1.0015349E0,3.947833E1,2.8258588E2,2.473378E0,1.9481349E0,8.42732E0,1.9320179E1,1.1215741E2,2.9202923E1,1.4213312E2,7.9252853E0,8.797084E0,4.2447853E0,4.84138E1,8.058445E0,5.4914346E0,1.5180849E0,2.4148024E1,1.5330305E1,2.6911868E2,1.3467203E1,1.4341908E0,1.0391871E0,1.2269864E0,7.2003326E0,1.725667E1,2.0635087E0,7.9845116E1,3.2312294E1,2.4322046E1,4.880878E0],"tree_param":{"num_deleted":"0","num_feature":"20","num_nodes":"51","size_leaf_vector":"1"}},{"base_weights":[-5.879435E-4,1.9719422E-1,-3.988638E-2,-9.256648E-2,2.9723668E-1,8.0423516E-1,-5.2036583E-2,-5.127613E-1,3.112371E-1,7.525832E-1,1.8430927E-1,1.1504391E0,-8.183051E-2,-3.559069E-1,-6.015425E-3,3.7476139E-3,-1.2566508E-1,7.4635395E-3,1.3499846E-1,1.1018819E0,7.239743E-2,-4.8274243E-1,3.0729976E-1,1.3404548E0,1.0343187E-3,1.5869336E-1,-5.593489E-1,2.028722E-1,-9.750812E-2,-1.0811504E-1,5.9118636E-2,1.11166276E-1,-2.6637215E-2,1.2588958E-1,1.0572154E-2,-1.0653492E-1,4.8910916E-2,6.295059E-2,-6.681677E-2,6.234888E-2,-3.2900807E-3,1.5495607E-1,1.4938439E-2,-4.8037968E-3,1.047075E-1,-1.4470495E-2,-9.5364965E-2,-3.4209233E-2,2.9586866E-2,-1.7744971E-2,1.5064939E-2],"categories":[],"categories_nodes":[],"categories_segments":[],"categories_sizes":[],"default_left":[0,0,0,0,0,0,0,0,0,0,0,0,0,0,0,0,0,0,0,0,0,0,0,0,0,0,0,0,0,0,0,0,0,0,0,0,0,0,0,0,0,0,0,0,0,0,0,0,0,0,0],"id":22,"left_children":[1,3,5,7,9,11,13,15,17,19,21,23,-1,25,27,29,-1,31,-1,33,35,37,39,41,-1,43,45,47,49,-1,-1,-1,-1,-1,-1,-1,-1,-1,-1,-1,-1,-1,-1,-1,-1,-1,-1,-1,-1,-1,-1],"loss_changes":[5.710436E0,3.5578165E0,6.327898E0,5.5922933E0,4.5285425E0,5.8608174E0,8.460442E0,6.1785583E0,5.3383245E0,4.128516E0,6.223709E0,1.6397667E0,0E0,8.419783E0,1.0083326E1,7.3185415E0,0E0,4.565596E0,0E0,1.6863518E0,3.877835E0,2.8784037E0,6.8118577E0,1.396122E0,0E0,4.3341637E0,9.222313E0,8.2459955E0,7.3044214E0,0E0,0E0,0E0,0E0,0E0,0E0,0E0,0E0,0E0,0E0,0E0,0E0,0E0,0E0,0E0,0E0,0E0,0E0,0E0,0E0,0E0,0E0],"parents":[2147483647,0,0,1,1,2,2,3,3,4,4,5,5,6,6,7,7,8,8,9,9,10,10,11,11,13,13,14,14,15,15,17,17,19,19,20,20,21,21,22,22,23,23,25,25,26,26,27,27,28,28],"right_children":[2,4,6,8,10,12,14,16,18,20,22,24,-1,26,28,30,-1,32,-1,34,36,38,40,42,-1,44,46,48,50,-1,-1,-1,-1,-1,-1,-1,-1,-1,-1,-1,-1,-1,-1,-1,-1,-1,-1,-1,-1,-1,-1],"split_conditions":[2.102769E-2,-1.7739293E-1,-7.738828E-2,2.5938448E1,-8.3004475E-2,9.064908E-2,-2.455412E-2,2.2578285E1,1.638935E0,2.3890149E-2,-3.3249876E-1,2.2207869E-3,-8.183051E-2,-2.7923075E-2,-4.344145E-3,5.081659E-1,-1.2566508E-1,3.970786E1,1.3499846E-1,4.0489452E1,2.183574E1,5.5051517E-2,9.56371E-1,1.1728861E-1,1.0343187E-3,3.447372E1,1.918617E1,1.3833672E1,2.900783E-1,-1.0811504E-1,5.9118636E-2,1.11166276E-1,-2.6637215E-2,1.2588958E-1,1.0572154E-2,-1.0653492E-1,4.8910916E-2,6.295059E-2,-6.681677E-2,6.234888E-2,-3.2900807E-3,1.5495607E-1,1.4938439E-2,-4.8037968E-3,1.047075E-1,-1.4470495E-2,-9.5364965E-2,-3.4209233E-2,2.9586866E-2,-1.7744971E-2,1.5064939E-2],"split_indices":[18,11,3,16,4,18,4,16,15,7,13,2,0,10,0,6,0,16,0,12,8,19,15,10,0,8,8,8,13,0,0,0,0,0,0,0,0,0,0,0,0,0,0,0,0,0,0,0,0,0,0],"split_type":[0,0,0,0,0,0,0,0,0,0,0,0,0,0,0,0,0,0,0,0,0,0,0,0,0,0,0,0,0,0,0,0,0,0,0,0,0,0,0,0,0,0,0,0,0,0,0,0,0,0,0],"sum_hessian":[7.3268274E2,1.2078336E2,6.118994E2,3.101807E1,8.976529E1,7.757603E0,6.041418E2,1.5068294E1,1.5949777E1,1.6712551E1,7.305274E1,6.6332254E0,1.1243777E0,7.8576996E1,5.255648E2,9.480564E0,5.58773E0,1.3120093E1,2.8296833E0,1.0632451E1,6.0800996E0,1.091719E1,6.213555E1,5.5349903E0,1.0982351E0,2.2325438E1,5.6251556E1,1.5971072E2,3.6585406E2,3.034998E0,6.445566E0,1.9991673E0,1.1120926E1,8.95692E0,1.6755313E0,1.2126483E0,4.8674517E0,1.2177496E0,9.69944E0,3.1772688E1,3.0362864E1,4.4523487E0,1.0826416E0,1.8878283E1,3.4471545E0,2.8084784E1,2.816677E1,2.2890797E1,1.3681993E2,2.7692896E2,8.892511E1],"tree_param":{"num_deleted":"0","num_feature":"20","num_nodes":"51","size_leaf_vector":"1"}},{"base_weights":[-2.5631711E-4,9.236409E-3,-8.0696166E-1,-6.87897E-4,7.414464E-1,-1.1895603E-1,-3.284203E-2,1.1496878E-2,-6.142696E-1,9.5403934E-1,-4.2818137E-2,8.03851E-2,-8.555921E-2,7.5585437E-1,1.6045236E-3,-2.2366941E-1,-1.10268824E-1,9.740976E-3,1.2978386E0,-2.7451811E-2,1.01131834E-1,-5.0714564E-2,1.8391507E-3,2.7072698E-2,-1.02205746E-1,4.8126593E-2,-4.2707708E-2,1.4901605E-1,3.2222494E-2],"categories":[],"categories_nodes":[],"categories_segments":[],"categories_sizes":[],"default_left":[0,0,0,0,0,0,0,0,0,0,0,0,0,0,0,0,0,0,0,0,0,0,0,0,0,0,0,0,0],"id":23,"left_children":[1,3,5,7,9,-1,11,13,15,17,-1,-1,-1,19,21,23,-1,25,27,-1,-1,-1,-1,-1,-1,-1,-1,-1,-1],"loss_changes":[5.608343E0,5.260681E0,2.4836884E0,5.354111E0,2.8157449E0,0E0,3.335131E0,5.1697707E0,2.413639E0,2.7474737E0,0E0,0E0,0E0,2.7014422E0,5.9367104E0,3.8301942E0,0E0,8.8045067E-1,6.8785954E-1,0E0,0E0,0E0,0E0,0E0,0E0,0E0,0E0,0E0,0E0],"parents":[2147483647,0,0,1,1,2,2,3,3,4,4,6,6,7,7,8,8,9,9,13,13,14,14,15,15,17,17,18,18],"right_children":[2,4,6,8,10,-1,12,14,16,18,-1,-1,-1,20,22,24,-1,26,28,-1,-1,-1,-1,-1,-1,-1,-1,-1,-1],"split_conditions":[4.7082066E1,4.5804152E-1,1.6359596E-2,1.5947798E-1,4.3108967E-1,-1.1895603E-1,8.3115387E-1,3.898078E-2,2.3483275E-1,-1.9631136E-2,-4.2818137E-2,8.03851E-2,-8.555921E-2,1.1743176E-2,-5.7702637E-1,1.0879723E-1,-1.10268824E-1,-2.826593E-2,1.7755044E0,-2.7451811E-2,1.01131834E-1,-5.0714564E-2,1.8391507E-3,2.7072698E-2,-1.02205746E-1,4.8126593E-2,-4.2707708E-2,1.4901605E-1,3.2222494E-2],"split_indices":[8,11,19,5,18,0,15,6,18,19,0,0,0,7,13,11,0,19,6,0,0,0,0,0,0,0,0,0,0],"split_type":[0,0,0,0,0,0,0,0,0,0,0,0,0,0,0,0,0,0,0,0,0,0,0,0,0,0,0,0,0],"sum_hessian":[7.3039355E2,7.228758E2,7.51773E0,7.1419476E2,8.681069E0,4.671995E0,2.8457353E0,7.0125024E2,1.2944473E1,7.501847E0,1.1792228E0,1.4223013E0,1.423434E0,8.208227E0,6.9304205E2,8.00257E0,4.941903E0,2.2767446E0,5.225102E0,1.6159534E0,6.5922737E0,2.1204453E1,6.718376E2,5.350325E0,2.6522446E0,1.0459431E0,1.2308015E0,3.9241328E0,1.3009694E0],"tree_param":{"num_deleted":"0","num_feature":"20","num_nodes":"29","size_leaf_vector":"1"}},{"base_weights":[-4.69849E-4,8.273993E-3,-7.6980746E-1,-2.0923296E-1,3.883906E-2,-1.1439139E-1,-3.1840652E-2,-6.647094E-1,-7.06821E-2,2.8023565E-2,8.1753975E-1,7.672329E-2,-8.301614E-2,4.1066542E-1,-8.2284105E-1,2.3501694E-1,-2.687565E-1,4.131272E-2,-7.1820766E-1,1.0308689E-2,1.101958E0,7.287766E-2,-9.728038E-3,-1.0520952E-1,1.61204E-2,-3.0775499E-3,8.615788E-2,6.5070815E-2,-4.185254E-2,9.482196E-3,-1.2837946E-2,5.911213E-3,-9.659154E-2,4.5536723E-2,-4.0657286E-2,8.339967E-3,1.295179E-1],"categories":[],"categories_nodes":[],"categories_segments":[],"categories_sizes":[],"default_left":[0,0,0,0,0,0,0,0,0,0,0,0,0,0,0,0,0,0,0,0,0,0,0,0,0,0,0,0,0,0,0,0,0,0,0,0,0],"id":24,"left_children":[1,3,5,7,9,-1,11,13,15,17,19,-1,-1,21,23,25,27,29,31,33,35,-1,-1,-1,-1,-1,-1,-1,-1,-1,-1,-1,-1,-1,-1,-1,-1],"loss_changes":[4.9197774E0,4.8159504E0,2.2325802E0,5.5859585E0,5.3244524E0,0E0,3.056826E0,3.8579903E0,4.2751303E0,6.250103E0,1.9774237E0,0E0,0E0,6.074764E-1,4.3159246E0,4.670087E0,6.149283E0,5.6167154E0,2.1808019E0,7.911607E-1,1.1507511E0,0E0,0E0,0E0,0E0,0E0,0E0,0E0,0E0,0E0,0E0,0E0,0E0,0E0,0E0,0E0,0E0],"parents":[2147483647,0,0,1,1,2,2,3,3,4,4,6,6,7,7,8,8,9,9,10,10,13,13,14,14,15,15,16,16,17,17,18,18,19,19,20,20],"right_children":[2,4,6,8,10,-1,12,14,16,18,20,-1,-1,22,24,26,28,30,32,34,36,-1,-1,-1,-1,-1,-1,-1,-1,-1,-1,-1,-1,-1,-1,-1,-1],"split_conditions":[4.7082066E1,5.521873E-1,1.6359596E-2,7.839657E-3,4.5804152E-1,-1.1439139E-1,1.9927866E7,1.5644042E1,4.2861184E-1,1.379443E-1,-1.9631136E-2,7.672329E-2,-8.301614E-2,-3.5345522E-4,3.714024E-1,9.787665E-2,2.4666175E-2,2.5742077E1,1.93685E7,-2.826593E-2,-1.2382842E-2,7.287766E-2,-9.728038E-3,-1.0520952E-1,1.61204E-2,-3.0775499E-3,8.615788E-2,6.5070815E-2,-4.185254E-2,9.482196E-3,-1.2837946E-2,5.911213E-3,-9.659154E-2,4.5536723E-2,-4.0657286E-2,8.339967E-3,1.295179E-1],"split_indices":[8,15,19,19,11,0,14,8,15,4,19,0,0,19,10,18,18,17,14,19,0,0,0,0,0,0,0,0,0,0,0,0,0,0,0,0,0],"split_type":[0,0,0,0,0,0,0,0,0,0,0,0,0,0,0,0,0,0,0,0,0,0,0,0,0,0,0,0,0,0,0,0,0,0,0,0,0],"sum_hessian":[7.294047E2,7.2218604E2,7.218699E0,8.826064E1,6.3392535E2,4.42526E0,2.7934391E0,1.9700155E1,6.856049E1,6.262631E2,7.6622777E0,1.4155229E0,1.3779162E0,2.32077E0,1.7379385E1,2.6883385E1,4.1677105E1,6.1623364E2,1.0029474E1,2.2663126E0,5.395965E0,1.1597197E0,1.1610503E0,1.4039447E1,3.3399386E0,1.9543684E1,7.339701E0,5.369262E0,3.6307842E1,4.688362E2,1.4739743E2,2.6077096E0,7.4217644E0,1.0514631E0,1.2148495E0,1.0886751E0,4.30729E0],"tree_param":{"num_deleted":"0","num_feature":"20","num_nodes":"37","size_leaf_vector":"1"}},{"base_weights":[-5.060797E-4,-1.2618397E-2,5.171422E-1,7.424774E-2,-9.744908E-2,-1.2984116E-1,8.185306E-1,1.1020124E0,5.4814704E-2,-3.7350703E-2,-4.894262E-1,7.62986E-2,-9.7479634E-2,1.11069635E-1,6.422852E-2,1.3344063E-1,3.5246514E-2,5.289921E-1,2.1372052E-2,-7.441015E-2,1.0220945E0,-6.589715E-1,6.610923E-1,-1.1462337E-1,9.2050634E-2,7.783243E-2,-7.5809546E-3,-6.970734E-2,4.92666E-3,8.955312E-2,-1.0088993E-2,-3.1010479E-2,1.3592188E-1,5.9910566E-2,-7.983523E-2,1.291685E-1,-6.605273E-2],"categories":[],"categories_nodes":[],"categories_segments":[],"categories_sizes":[],"default_left":[0,0,0,0,0,0,0,0,0,0,0,0,0,0,0,0,0,0,0,0,0,0,0,0,0,0,0,0,0,0,0,0,0,0,0,0,0],"id":25,"left_children":[1,3,5,7,9,11,13,15,17,19,21,-1,-1,-1,23,-1,-1,25,27,29,31,33,35,-1,-1,-1,-1,-1,-1,-1,-1,-1,-1,-1,-1,-1,-1],"loss_changes":[4.5790577E0,5.2655654E0,3.3622613E0,6.9924965E0,8.49655E0,5.3981085E0,2.4692826E0,6.6203403E-1,5.501301E0,1.2423505E1,9.792635E0,0E0,0E0,0E0,5.4912896E0,0E0,0E0,3.5062275E0,6.562973E0,7.9184813E0,5.2255945E0,7.8971596E0,6.403784E0,0E0,0E0,0E0,0E0,0E0,0E0,0E0,0E0,0E0,0E0,0E0,0E0,0E0,0E0],"parents":[2147483647,0,0,1,1,2,2,3,3,4,4,5,5,6,6,7,7,8,8,9,9,10,10,14,14,17,17,18,18,19,19,20,20,21,21,22,22],"right_children":[2,4,6,8,10,12,14,16,18,20,22,-1,-1,-1,24,-1,-1,26,28,30,32,34,36,-1,-1,-1,-1,-1,-1,-1,-1,-1,-1,-1,-1,-1,-1],"split_conditions":[1.8039972E-1,2.39529E7,2.4805E7,-6.3860387E-1,2.2818924E1,2.7533095E0,2.7405645E1,2.1206105E-2,-4.1440293E-2,2.1363867E1,1.9748845E0,7.62986E-2,-9.7479634E-2,1.11069635E-1,1.3406985E0,1.3344063E-1,3.5246514E-2,4.6366897E-1,-1.6800089E-1,-1.0958115E-1,-2.4063832E-3,1.7222108E-2,5.4229207E-2,-1.1462337E-1,9.2050634E-2,7.783243E-2,-7.5809546E-3,-6.970734E-2,4.92666E-3,8.955312E-2,-1.0088993E-2,-3.1010479E-2,1.3592188E-1,5.9910566E-2,-7.983523E-2,1.291685E-1,-6.605273E-2],"split_indices":[19,14,14,10,16,17,17,7,1,16,6,0,0,0,6,0,0,13,10,5,19,7,2,0,0,0,0,0,0,0,0,0,0,0,0,0,0],"split_type":[0,0,0,0,0,0,0,0,0,0,0,0,0,0,0,0,0,0,0,0,0,0,0,0,0,0,0,0,0,0,0,0,0,0,0,0,0],"sum_hessian":[7.2828076E2,7.125828E2,1.5697919E1,3.5212924E2,3.604536E2,5.1696167E0,1.0528302E1,5.5007377E0,3.466285E2,3.1348502E2,4.696859E1,2.5607715E0,2.608845E0,7.248313E0,3.2799892E0,3.6032748E0,1.8974628E0,2.1860102E1,3.247684E2,3.0378824E2,9.696763E0,4.130844E1,5.660149E0,1.2186468E0,2.0613422E0,1.5275714E1,6.5843883E0,1.1241644E1,3.1352676E2,7.200967E0,2.9658728E2,1.9744732E0,7.7222896E0,3.7910821E0,3.7517357E1,3.8471732E0,1.8129758E0],"tree_param":{"num_deleted":"0","num_feature":"20","num_nodes":"37","size_leaf_vector":"1"}},{"base_weights":[1.5846486E-4,7.0412546E-1,-8.634384E-3,9.512926E-1,-2.1306835E-2,-5.522282E-1,5.356959E-3,1.18751995E-1,-1.84329E-3,1.2185197E-1,-8.208419E-1,-5.098578E-1,2.1381991E-2,3.8147205E-1,-1.1296953E0,9.295504E-2,-7.0320284E-1,6.623442E-2,-1.7311768E-1,1.11675344E-1,-6.1760396E-2,1.899987E-2,-1.2756272E-1,-9.040251E-2,9.493029E-2,1.80804E-2,-1.8589463E-3,-2.6921872E-2,2.1055464E-2],"categories":[],"categories_nodes":[],"categories_segments":[],"categories_sizes":[],"default_left":[0,0,0,0,0,0,0,0,0,0,0,0,0,0,0,0,0,0,0,0,0,0,0,0,0,0,0,0,0],"id":26,"left_children":[1,3,5,7,-1,9,11,-1,-1,-1,13,15,17,19,21,-1,23,25,27,-1,-1,-1,-1,-1,-1,-1,-1,-1,-1],"loss_changes":[4.506076E0,2.2385812E0,5.4714847E0,1.6843309E0,0E0,9.586406E0,5.806524E0,0E0,0E0,0E0,6.4731646E0,6.5578895E0,5.9588675E0,3.681843E0,2.7841682E0,0E0,7.253871E0,5.394222E0,4.7773085E0,0E0,0E0,0E0,0E0,0E0,0E0,0E0,0E0,0E0,0E0],"parents":[2147483647,0,0,1,1,2,2,3,3,5,5,6,6,10,10,11,11,12,12,13,13,14,14,16,16,17,17,18,18],"right_children":[2,4,6,8,-1,10,12,-1,-1,-1,14,16,18,20,22,-1,24,26,28,-1,-1,-1,-1,-1,-1,-1,-1,-1,-1],"split_conditions":[3.898078E-2,1.6146165E-1,1.1814063E0,1.744367E-2,-2.1306835E-2,-2.7464934E-2,1.0899388E1,1.18751995E-1,-1.84329E-3,1.2185197E-1,1.1383341E1,-3.8373955E-2,3.164574E-2,4.215339E-2,-6.054743E-2,9.295504E-2,3.1092334E7,3.0518768E-2,2.8482566E-2,1.11675344E-1,-6.1760396E-2,1.899987E-2,-1.2756272E-1,-9.040251E-2,9.493029E-2,1.80804E-2,-1.8589463E-3,-2.6921872E-2,2.1055464E-2],"split_indices":[6,18,16,7,0,9,8,0,0,0,8,4,1,6,2,0,14,10,7,0,0,0,0,0,0,0,0,0,0],"split_type":[0,0,0,0,0,0,0,0,0,0,0,0,0,0,0,0,0,0,0,0,0,0,0,0,0,0,0,0,0],"sum_hessian":[7.25993E2,7.9805474E0,7.180124E2,6.257175E0,1.7233722E0,1.7051603E1,7.009608E2,4.8508925E0,1.4062825E0,1.7801591E0,1.5271444E1,2.021514E1,6.8074567E2,3.0731328E0,1.2198311E1,1.9429104E0,1.827223E1,5.5371594E2,1.2702973E2,1.7024263E0,1.3707066E0,1.1845145E0,1.1013797E1,1.6696152E1,1.5760771E0,2.3507469E2,3.1864127E2,1.01823586E2,2.5206144E1],"tree_param":{"num_deleted":"0","num_feature":"20","num_nodes":"29","size_leaf_vector":"1"}},{"base_weights":[4.3509385E-4,8.405833E-3,-7.2918874E-1,-4.097877E-1,2.2154082E-2,-1.0999066E-1,-2.0598063E-2,3.5779393E-1,-5.6710917E-1,6.6770494E-1,1.3435786E-2,-8.2828276E-2,7.122702E-2,5.83034E-1,-1.6306385E-2,-9.924844E-3,-9.253747E-1,1.2132667E0,-7.324878E-2,-4.9110392E-1,3.164706E-2,-9.4173355E-3,9.466793E-2,-4.2469162E-2,1.046773E-1,-1.137857E-1,2.041584E-2,1.3219029E-1,4.331567E-2,7.8910075E-2,-8.968126E-2,-2.0851668E-3,2.2950133E-2],"categories":[],"categories_nodes":[],"categories_segments":[],"categories_sizes":[],"default_left":[0,0,0,0,0,0,0,0,0,0,0,0,0,0,0,0,0,0,0,0,0,0,0,0,0,0,0,0,0,0,0,0,0],"id":27,"left_children":[1,3,5,7,9,-1,11,13,15,17,19,-1,-1,21,-1,23,25,27,-1,29,31,-1,-1,-1,-1,-1,-1,-1,-1,-1,-1,-1,-1],"loss_changes":[4.2231264E0,4.138696E0,2.0387173E0,2.9698048E0,3.9101746E0,0E0,2.7886348E0,6.242383E-1,3.8639202E0,7.9612203E0,6.337966E0,0E0,0E0,9.184184E-1,0E0,4.21557E0,3.0639725E0,2.3953438E-2,0E0,1.31896305E1,6.9128523E0,0E0,0E0,0E0,0E0,0E0,0E0,0E0,0E0,0E0,0E0,0E0,0E0],"parents":[2147483647,0,0,1,1,2,2,3,3,4,4,6,6,7,7,8,8,9,9,10,10,13,13,15,15,16,16,17,17,19,19,20,20],"right_children":[2,4,6,8,10,-1,12,14,16,18,20,-1,-1,22,-1,24,26,28,-1,30,32,-1,-1,-1,-1,-1,-1,-1,-1,-1,-1,-1,-1],"split_conditions":[4.7082066E1,-5.7702637E-1,1.6359596E-2,2.1686494E-2,-1.2877276E0,-1.0999066E-1,-1.0343736E-2,-3.0551588E-2,1.942273E0,4.5179176E1,-5.4274076E-1,-8.2828276E-2,7.122702E-2,-8.2698576E-2,-1.6306385E-2,1.3209767E7,6.741914E1,2.2601586E-2,-7.324878E-2,2.1206105E-2,2.5056012E-2,-9.4173355E-3,9.466793E-2,-4.2469162E-2,1.046773E-1,-1.137857E-1,2.041584E-2,1.3219029E-1,4.331567E-2,7.8910075E-2,-8.968126E-2,-2.0851668E-3,2.2950133E-2],"split_indices":[8,13,19,18,10,0,3,9,16,16,10,0,0,11,0,14,12,0,0,7,7,0,0,0,0,0,0,0,0,0,0,0,0],"split_type":[0,0,0,0,0,0,0,0,0,0,0,0,0,0,0,0,0,0,0,0,0,0,0,0,0,0,0,0,0,0,0,0,0],"sum_hessian":[7.24113E2,7.1726575E2,6.847254E0,2.1912926E1,6.953528E2,4.132817E0,2.714437E0,3.5105298E0,1.8402395E1,8.258535E0,6.870943E2,1.2293704E0,1.4850665E0,2.367398E0,1.1431319E0,7.6040587E0,1.0798337E1,6.0390286E0,2.2195067E0,2.303194E1,6.640623E2,1.085999E0,1.281399E0,5.890185E0,1.7138739E0,9.082425E0,1.7159113E0,4.6912313E0,1.3477974E0,5.3151402E0,1.7716799E1,5.255163E2,1.3854607E2],"tree_param":{"num_deleted":"0","num_feature":"20","num_nodes":"33","size_leaf_vector":"1"}},{"base_weights":[3.8502994E-4,6.703943E-1,-7.7906284E-3,-2.4009893E-2,9.010343E-1,-7.629244E-1,7.6984E-4,1.0984876E-1,-2.5807542E-3,5.7317477E-2,-1.0804896E0,-3.7232777E-1,1.6999291E-2,-3.080521E-2,-1.1615187E-1,-5.627541E-1,7.624711E-1,9.125665E-2,-7.175655E-2,-1.034102E-1,-8.356969E-3,-7.88525E-2,1.535894E-1,2.9343775E-2,8.997428E-4,-8.7095805E-2,-4.7503808E-3],"categories":[],"categories_nodes":[],"categories_segments":[],"categories_sizes":[],"default_left":[0,0,0,0,0,0,0,0,0,0,0,0,0,0,0,0,0,0,0,0,0,0,0,0,0,0,0],"id":28,"left_children":[1,3,5,-1,7,9,11,-1,-1,-1,13,15,17,-1,-1,19,21,23,25,-1,-1,-1,-1,-1,-1,-1,-1],"loss_changes":[3.9709866E0,2.0515256E0,4.6305466E0,0E0,1.3429394E0,4.026214E0,4.300692E0,0E0,0E0,0E0,6.993961E-2,6.827144E0,4.4922185E0,0E0,0E0,5.7698545E0,6.82398E0,6.167653E0,5.978789E0,0E0,0E0,0E0,0E0,0E0,0E0,0E0,0E0],"parents":[2147483647,0,0,1,1,2,2,4,4,5,5,6,6,10,10,11,11,12,12,15,15,16,16,17,17,18,18],"right_children":[2,4,6,-1,8,10,12,-1,-1,-1,14,16,18,-1,-1,20,22,24,26,-1,-1,-1,-1,-1,-1,-1,-1],"split_conditions":[3.898078E-2,1.1743176E-2,4.1045668E6,-2.4009893E-2,9.09245E-2,5.5886116E-3,1.1216478E1,1.0984876E-1,-2.5807542E-3,5.7317477E-2,-3.2367047E-2,3.1092334E7,1.1302673E-2,-3.080521E-2,-1.1615187E-1,3.4416188E-2,-5.294629E-2,-8.843733E-3,3.6341676E-1,-1.034102E-1,-8.356969E-3,-7.88525E-2,1.535894E-1,2.9343775E-2,8.997428E-4,-8.7095805E-2,-4.7503808E-3],"split_indices":[6,7,14,0,5,9,8,0,0,0,1,14,2,0,0,19,10,10,15,0,0,0,0,0,0,0,0],"split_type":[0,0,0,0,0,0,0,0,0,0,0,0,0,0,0,0,0,0,0,0,0,0,0,0,0,0,0],"sum_hessian":[7.229746E2,7.7391496E0,7.152355E2,1.5559086E0,6.1832414E0,7.029497E0,7.0820593E2,4.944646E0,1.2385956E0,1.1953539E0,5.834143E0,2.8607555E1,6.795984E2,1.0097841E0,4.8243594E0,2.4928492E1,3.6790624E0,3.7000577E2,3.0959262E2,1.198321E1,1.2945282E1,1.2176673E0,2.4613953E0,1.0626205E2,2.6374374E2,8.090024E0,3.015026E2],"tree_param":{"num_deleted":"0","num_feature":"20","num_nodes":"27","size_leaf_vector":"1"}},{"base_weights":[1.3913307E-4,7.54714E-2,-7.172756E-2,-9.3686275E-2,1.8314895E-1,1.1420153E0,-8.69161E-2,3.648411E-2,-7.650687E-1,1.4001013E0,1.268274E-1,1.4538072E-1,3.7146525E-3,-2.3560047E-1,2.1116769E-2,3.1088027E-1,-3.5224986E-1,8.3191925E-1,-9.713315E-1,2.1351999E-2,1.5416709E-1,-1.7601542E-2,4.1140464E-1,-1.1377103E-1,-7.763198E-1,-5.0683644E-2,9.0340596E-1,1.0652053E-1,1.5721582E-3,9.9686E-3,-6.8901286E-2,1.5051323E-2,1.10508196E-1,3.1764783E-2,-1.14248835E-1,-2.867704E-2,2.484318E-2,6.0280364E-2,-4.306314E-2,-1.6419578E-2,1.4110717E-1,-1.2412949E-1,1.2392786E-3,1.4320991E-2,-3.531265E-2,1.0957587E-1,-7.731269E-2],"categories":[],"categories_nodes":[],"categories_segments":[],"categories_sizes":[],"default_left":[0,0,0,0,0,0,0,0,0,0,0,0,0,0,0,0,0,0,0,0,0,0,0,0,0,0,0,0,0,0,0,0,0,0,0,0,0,0,0,0,0,0,0,0,0,0,0],"id":29,"left_children":[1,3,5,7,9,11,13,15,17,19,21,-1,-1,23,25,27,29,31,33,-1,-1,35,37,39,41,43,45,-1,-1,-1,-1,-1,-1,-1,-1,-1,-1,-1,-1,-1,-1,-1,-1,-1,-1,-1,-1],"loss_changes":[3.9158936E0,6.449379E0,6.9233103E0,1.2089841E1,1.4635429E1,1.5463867E0,5.89236E0,1.2542454E1,8.206136E0,1.2599773E0,8.542308E0,0E0,0E0,1.0077857E1,1.3551669E1,1.5314397E1,7.480504E0,4.121089E-1,4.8528404E0,0E0,0E0,1.0003843E1,1.1533337E1,1.0005822E1,1.0359188E1,1.166758E1,6.038373E0,0E0,0E0,0E0,0E0,0E0,0E0,0E0,0E0,0E0,0E0,0E0,0E0,0E0,0E0,0E0,0E0,0E0,0E0,0E0,0E0],"parents":[2147483647,0,0,1,1,2,2,3,3,4,4,5,5,6,6,7,7,8,8,9,9,10,10,13,13,14,14,15,15,16,16,17,17,18,18,21,21,22,22,23,23,24,24,25,25,26,26],"right_children":[2,4,6,8,10,12,14,16,18,20,22,-1,-1,24,26,28,30,32,34,-1,-1,36,38,40,42,44,46,-1,-1,-1,-1,-1,-1,-1,-1,-1,-1,-1,-1,-1,-1,-1,-1,-1,-1,-1,-1],"split_conditions":[2.39529E7,2.8797302E0,2.3197365E0,2.7085507E0,9.7237654E-2,7.793881E-2,2.8549766E7,3.34171E-2,1.1754934E1,-1.08357705E-2,3.2812458E-2,1.4538072E-1,3.7146525E-3,1.7251264E-1,3.4026253E1,3.5057712E-2,5.2394043E-3,5.5427197E-2,-9.6728444E-2,2.1351999E-2,1.5416709E-1,4.764133E-2,4.5179176E1,5.0438248E1,8.186189E-1,2.2585278E1,6.8469626E-1,1.0652053E-1,1.5721582E-3,9.9686E-3,-6.8901286E-2,1.5051323E-2,1.10508196E-1,3.1764783E-2,-1.14248835E-1,-2.867704E-2,2.484318E-2,6.0280364E-2,-4.306314E-2,-1.6419578E-2,1.4110717E-1,-1.2412949E-1,1.2392786E-3,1.4320991E-2,-3.531265E-2,1.0957587E-1,-7.731269E-2],"split_indices":[14,17,17,17,6,6,14,5,8,4,19,0,0,10,8,19,11,6,4,0,0,5,16,16,6,8,10,0,0,0,0,0,0,0,0,0,0,0,0,0,0,0,0,0,0,0,0],"split_type":[0,0,0,0,0,0,0,0,0,0,0,0,0,0,0,0,0,0,0,0,0,0,0,0,0,0,0,0,0,0,0,0,0,0,0,0,0,0,0,0,0,0,0,0,0,0,0],"sum_hessian":[7.2130634E2,3.5213766E2,3.6916867E2,1.3701765E2,2.1512001E2,3.6456916E0,3.6552298E2,1.1555837E2,2.1459274E1,8.460168E0,2.0665984E2,2.5970035E0,1.0486882E0,1.5332405E2,2.1219893E2,6.7858955E1,4.7699417E1,2.107634E0,1.935164E1,1.1691376E0,7.29103E0,1.3770818E2,6.895166E1,1.2611867E2,2.7205383E1,1.9710144E2,1.5097497E1,1.8351036E1,4.950792E1,2.0667551E1,2.7031866E1,1.0469681E0,1.0606661E0,2.1680696E0,1.718357E1,6.841196E1,6.929623E1,5.6412846E1,1.2538813E1,1.2294533E2,3.173337E0,1.6754292E1,1.0451093E1,1.2042468E2,7.667675E1,1.3854366E1,1.2431315E0],"tree_param":{"num_deleted":"0","num_feature":"20","num_nodes":"47","size_leaf_vector":"1"}},{"base_weights":[5.3398556E-4,8.0275275E-3,-7.0318544E-1,-4.5328453E-4,6.5161806E-1,-1.0650005E-1,-2.7079938E-2,2.127167E-2,-2.810646E-1,8.391939E-1,-3.6635764E-2,7.029003E-2,-7.775455E-2,1.2391988E-2,9.313871E-1,3.3497475E-2,-6.6765237E-1,4.0285163E-2,1.1317997E0,4.9667424E-3,-3.6326125E-2,1.2971237E-1,-3.812319E-2,-2.6470834E-2,7.3961906E-2,1.0365575E-2,-1.13150574E-1,4.4262324E-2,-4.013087E-2,1.3030994E-1,2.4672773E-2],"categories":[],"categories_nodes":[],"categories_segments":[],"categories_sizes":[],"default_left":[0,0,0,0,0,0,0,0,0,0,0,0,0,0,0,0,0,0,0,0,0,0,0,0,0,0,0,0,0,0,0],"id":30,"left_children":[1,3,5,7,9,-1,11,13,15,17,-1,-1,-1,19,21,23,25,27,29,-1,-1,-1,-1,-1,-1,-1,-1,-1,-1,-1,-1],"loss_changes":[3.7963233E0,3.8878863E0,1.8266802E0,4.2976747E0,2.0764236E0,0E0,2.5571902E0,5.276455E0,6.18252E0,1.854135E0,0E0,0E0,0E0,9.106059E0,3.5232396E0,6.2775483E0,8.26533E0,7.4891675E-1,5.747013E-1,0E0,0E0,0E0,0E0,0E0,0E0,0E0,0E0,0E0,0E0,0E0,0E0],"parents":[2147483647,0,0,1,1,2,2,3,3,4,4,6,6,7,7,8,8,9,9,13,13,14,14,15,15,16,16,17,17,18,18],"right_children":[2,4,6,8,10,-1,12,14,16,18,-1,-1,-1,20,22,24,26,28,30,-1,-1,-1,-1,-1,-1,-1,-1,-1,-1,-1,-1],"split_conditions":[4.7082066E1,4.5804152E-1,1.6359596E-2,5.1709216E-2,4.3108967E-1,-1.0650005E-1,8.3115387E-1,1.9748845E0,2.772241E-2,-1.9631136E-2,-3.6635764E-2,7.029003E-2,-7.775455E-2,9.7772837E-1,1.9893494E-1,2.8482566E-2,2.1735052E-2,-1.4841148E-1,1.7755044E0,4.9667424E-3,-3.6326125E-2,1.2971237E-1,-3.812319E-2,-2.6470834E-2,7.3961906E-2,1.0365575E-2,-1.13150574E-1,4.4262324E-2,-4.013087E-2,1.3030994E-1,2.4672773E-2],"split_indices":[8,11,19,1,18,0,15,6,11,19,0,0,0,6,11,7,7,13,6,0,0,0,0,0,0,0,0,0,0,0,0],"split_type":[0,0,0,0,0,0,0,0,0,0,0,0,0,0,0,0,0,0,0,0,0,0,0,0,0,0,0,0,0,0,0],"sum_hessian":[7.178368E2,7.1125165E2,6.585156E0,7.029874E2,8.264209E0,3.914909E0,2.6702468E0,6.533307E2,4.965673E1,7.126652E0,1.1375575E0,1.3857269E0,1.2845199E0,6.480218E2,5.308909E0,2.788245E1,2.177428E1,2.2154455E0,4.9112062E0,5.903137E2,5.770805E1,4.1612577E0,1.147651E0,2.004308E1,7.839372E0,8.468747E0,1.3305533E1,1.1580291E0,1.0574164E0,3.7190926E0,1.1921136E0],"tree_param":{"num_deleted":"0","num_feature":"20","num_nodes":"31","size_leaf_vector":"1"}},{"base_weights":[4.4667913E-4,6.2173694E-1,-7.3028537E-3,1.1442327E0,-6.91626E-2,-4.6322206E-1,8.155484E-3,1.2522374E-1,3.8419437E-2,7.0445913E-1,-8.296805E-1,-2.8438218E-2,2.2644757E-1,-1.1747515E-2,9.7017206E-2,-1.428987E-1,-1.0959122E0,8.98301E-3,-2.978248E-1,5.86841E-1,-1.9639337E-1,-6.678898E-2,9.005593E-2,-1.331064E-1,2.3346273E-2,-7.294256E-4,6.0333848E-2,1.305163E-1,-4.9744405E-2,7.007523E-2,-4.4563793E-2,-8.026817E-2,